vectors
item1	13.05622013666023	90.79738637775309	85.58556522641572	16.71361233845356	80.04060899837677	87.48598365765143	44.23828174751087	69.0243685491143	89.22597891663459	92.77490714459138	38.94488485264291	6.861060619358373	66.75678007358005	31.60959281947119	35.09608482763045	23.18073559343546	85.39399552406917	49.30234137604392	17.698082184213	72.97987475127087	10.01163004930714	41.27884031946061	92.70026296435968	26.95327672381668	88.56387544188328	93.12402640209493	55.98638280821921	64.77125732300637	11.86391473798875	38.08999704702008	99.24888050569466	87.29732318708729	77.72751260240116	95.08942594295722	19.91639023928985	88.65678130552853	53.62312102989591	13.67819033845255	61.52331563411814	70.27744760616797	55.80697095577363	84.22208209221819	10.16738070724602	39.08573669449895	23.16390905477551	97.56940821583393	62.13705016486416	43.81653363368855	67.19903868306677	100.4587876047909	90.01939868806244	66.5952268188433	66.5465951288072	82.20944107630947	97.58435781121997	21.03048269800716	43.12400548428715	9.408895230803381	92.83993740903679	91.93890462830632	45.0400075644047	1.611313603575026	9.738559436612794	62.78902274869686	73.19402378232803	2.357120593288752	52.91466605447073	66.04538065093169	21.06543853654631	84.66363672313119	96.4294555942521	73.1539347380087	51.73712219406585	96.25388356891513	93.22081374791195	37.74051927310575	53.26823089923919	11.7107947821712	53.69095048436681	21.16194554972641	86.57190045446947	5.481706492504512	82.34284989478759	8.60060515621371	-4.455129207391739	93.38668648851402	76.80597760048543	0.1621495340352424	17.55496564631759	46.61726604812705	32.28360703962852	31.03645479523551	97.6925293006435	24.36134046279128	70.7084977302211	95.31205992405934	42.11666702562144	60.03340678907851	1.786289425465668	51.26726208918713
item2	12.59966386112935	93.71110031649485	75.62652196110095	19.32581855242772	80.55894855088998	86.05235475115444	44.13837206158033	68.12260493595345	87.97537899190895	87.05720770837715	39.32877578099357	15.58577831212047	62.58989601848437	39.05004813851527	34.78866755813596	22.89937095984357	85.37144190830624	47.99776377354968	14.80576862874608	73.60228374150104	9.355075662250488	43.28070042315938	93.02143414585615	27.37723921140178	83.22200779856919	94.65870285956427	53.829581714665	62.54111177411146	12.79605220982693	31.13386221319035	90.33689804698113	85.74600916966507	73.34680906860231	89.06392225527752	29.25069461053059	91.21619143363731	59.17882762389198	15.68003545218955	64.85333803069615	70.16493173589895	57.12139539498151	84.59062745145167	14.61161387893986	34.10141034614054	20.59562860938497	95.74207518151731	62.38410475350466	49.08333527702626	75.92070046667772	91.54729554305338	96.72250032878573	64.0885292361622	58.43288432245488	91.02572121218272	102.2615748646066	13.48401203160715	45.30922106394286	9.669513598001679	97.82298007137706	91.61754848513976	42.95648818093922	-0.9532454702620732	8.684882993521557	66.07629888058702	73.90358751304242	-1.279330251095698	53.38146638810075	69.97791231643023	16.77114652866761	89.23221644792375	88.69406476063072	72.55957951902359	48.69124165920496	95.73901404678506	87.40841817717951	29.27760193562034	49.96412632141712	11.34831441966067	52.70404519543575	19.56468953392744	90.04021328722226	5.351358217073529	78.83492564889598	10.35007488917114	-1.988474178065683	92.51357460859543	76.35436522844037	-3.058562237575686	17.65943962914237	49.51256716746433	31.84690216168792	30.25154842593498	97.82659504652453	24.49313226768846	69.38457290300636	97.91093596441158	36.92503077279913	60.62258357033391	2.540993672960221	52.49622188305459
item3	13.3312594554163	94.51112098064166	78.5205532528618	17.58558843066125	78.5687596584379	86.93263481519043	43.89162138409566	74.00026604531638	89.69568160262357	91.6698097099228	36.41940440549001	16.03450514511616	65.38549434032636	32.08321143583339	31.97191964297544	24.20459323121438	84.9710803419668	51.09806070557159	17.14263600159983	75.10419774098054	9.52148299380868	45.882335569774	91.3694675061265	27.46521768108554	81.16874396278837	90.97687011824576	50.82622569990163	63.09661862746844	15.69417070822817	39.01252942006383	89.54452230172022	81.506865010762	72.71248095333328	90.66047713815837	23.37432897545834	88.80897276497048	58.0406929290361	15.56546389787979	59.92565117690521	67.101071970455	56.16250115155312	84.53439035330751	12.47448739483263	40.11161060605466	20.36201735065085	102.338151951339	63.55601807742426	47.53081152044317	69.22064529166059	84.48989750120477	91.67683940538586	71.98637191926866	66.78044637771471	84.52711448216024	93.72935267262969	23.06977606023774	51.48778828914782	9.581016829805304	94.7681935068691	91.89551710626571	47.40161662460249	-0.7611453717338961	11.37859531924471	63.852666832346	70.29480465425738	-6.071401363793089	50.16023723276801	67.99954304961145	17.8914395028026	88.05499285653369	96.12555492030435	74.83456541135445	42.92993160372382	97.98366835712959	87.52768546839465	39.49079768385104	50.85662577560257	10.48194743925276	55.31231882591567	17.85262155986424	89.41393641601577	5.464089779969269	89.02710859566156	3.634078094470236	1.572103703634152	90.56705575454774	76.83484396173351	1.024875010658414	21.51729659929844	46.492063318402	33.19833989443622	35.45539017290726	98.44521025073907	21.84687898022587	67.07234578655262	101.4457855326012	38.76910276760544	58.23303816970804	-0.001068107664339735	52.73743865341506
item4	12.89687133640172	87.64270244036284	86.14499569071423	13.87259088433352	87.13240853210792	79.64934676234817	44.63471876809999	67.79699656588139	89.2939805505452	89.88276549886992	38.38676790480774	18.91649602855264	63.79038084632461	35.13907944395456	32.27605061637585	23.24917039889491	84.9597951446727	49.95887992221576	19.05130787530312	77.84656044035461	10.15140851756671	43.09337359305185	88.05992560327992	28.81376814480961	83.2512497834316	94.10499559078093	56.24299901457574	58.66800112142525	16.21322441894128	41.91647075274633	87.44844670060152	95.14152746868287	73.69619838627499	92.61744998251481	33.30251899304849	91.78522584457008	47.31496937986937	11.98097844730242	52.61249920322676	70.26501851456131	56.25085377848008	84.69161761600664	12.31160014154839	46.11713713632432	20.71430934636698	95.60872892777402	61.97718110487586	43.9660652078719	69.08722133880586	89.1712503504729	93.96668322156746	64.24370739341042	63.49863086659855	89.99382669232358	99.56625986859851	20.04453097575364	42.30269612186173	7.65701470432024	97.10711886432966	91.49897227175654	46.31880143734978	1.059194867970987	3.510937919210632	63.32981012706459	68.41360735146328	1.609210639935245	50.16467169723088	68.20578572550464	12.33928975909179	84.11090058799206	94.45536855618134	72.9442357375456	46.70561016001862	95.84571673197408	87.90895900182186	40.77950112353654	54.08298167127941	9.764458418463295	50.21926752588027	16.73889975601943	86.73507685250412	6.378110723581599	87.92295464271309	8.743761943336295	-1.68710603717732	90.32912025417322	78.3925794159084	-1.612910919626292	17.28038589203605	44.82292390132316	32.43538385319836	30.66403523006032	99.17038380696533	26.72530052415779	68.3541622344665	100.9619226177271	39.05726399239315	59.42474129641847	5.081817958106669	53.17471297899049
item5	13.40503418877436	86.77693465236044	86.13647234627568	17.77670198331875	76.69861627634552	83.66062553967586	43.94240723744249	70.54289294056768	88.86575913407293	89.0096789956955	37.74209505674607	13.39680487250515	65.33534796339237	33.68865419989958	35.40645812894429	19.21617628556055	84.37637722447957	50.29646563905888	18.82487831617024	77.7480069979616	9.352251885394125	53.78910043795786	89.92026626931845	32.298685791014	84.70493083064578	90.51824193845421	49.30017820345163	61.27648470631363	6.711953559377617	38.93959912167955	93.96118350015873	87.30696251672244	77.76244672643409	92.60153125423378	29.89418642795364	96.10636271032627	53.29987535446363	12.67157150896637	56.96474575324529	73.03071873602897	54.27894826738473	83.92952829249906	11.46440610519509	41.33045451243697	20.594406806446	91.44582683179041	62.68490763041547	43.99615087344595	68.52685532324665	96.17468079455732	92.60312698195736	65.90071396805652	62.42554762942677	88.03399860195081	98.04955120595257	20.24745746966117	42.81043210043839	9.18225453034076	96.10244220710166	92.40126627672282	51.93778675149691	1.277896799197079	11.10405725366505	64.69033763251396	72.3759451426267	1.790644131582239	47.89994883107569	66.10014317148011	23.37182258702547	77.49417608295278	94.21793206507144	75.22332714922763	44.26682849446572	98.59508989230058	91.21858795168662	37.41678634933187	52.56307261854995	10.16938638927379	53.49849716040391	21.68980320055741	87.56978248151286	5.407120792247647	85.93826446449089	9.362231122485571	2.892692387093069	93.42278302804674	76.62274067231441	-1.108636890743219	18.16671475611492	46.75521147397305	32.46496492901573	34.48004380027152	97.78029432114531	24.31145754252605	67.49597958661749	105.4199198168665	38.69979446329583	59.29139009753622	6.094559774538508	49.73517615206887
item6	14.41915268399694	88.26091645248212	84.16303983054765	16.25033434378021	73.86908935415327	89.85780905211529	43.71394919897668	67.51060398905962	90.79731917077925	92.55218187914423	40.65354222956258	12.28528176308605	63.59027477257264	33.79017278443627	34.08107418950059	22.03943120664888	84.0321276991818	49.25361207127955	15.90719688940566	77.64166107947281	9.378793851765971	45.68922281039662	88.61752416104028	32.11583524850631	86.89471365968861	93.61918463829608	56.91891241412772	67.40227600111328	9.794117242367534	37.55358190870124	98.16105543384711	91.82370919647907	73.88318503255641	93.36147215178077	26.53165905843192	90.61152303003375	52.50555493466599	13.31695422274898	64.1281268236511	72.02033085279351	54.56111781740562	84.71947636925367	12.34363186784522	36.84006499371466	26.23095775932537	97.76857112825802	62.1808474431572	48.75048509621289	65.6985252991059	96.81334377098494	94.82221752528226	68.44003828016685	64.33098827255446	90.95731051293848	102.1292727624426	14.46786459864359	43.17347545909237	8.544389014367681	91.82920571324136	91.81417846242574	38.34266850257338	2.296408938836165	10.08516144142447	61.05250145869895	78.89288666763854	1.166565318072312	52.28940122502307	69.32168980065784	13.76750912702597	83.16223398377603	94.13993490308056	71.86505982561589	48.28663315847681	93.55649141916828	92.0589710249206	34.49606994335666	52.7800057610741	10.54164591074423	55.63788479936046	13.90614467063959	87.02633968975778	4.786253235295431	81.71893852617085	7.680922344398105	3.368333324791247	90.69230392694965	77.29000358264499	-0.6089550267326747	17.37128111405953	48.19479869995344	32.49024867021174	28.32352692431596	98.14865111346803	25.2449637063278	64.51859446763891	88.75596077422468	37.94737658344025	59.72096491262117	7.108898123500801	50.4320140484697
item7	12.3276389880985	88.37250700511871	81.3552911733231	12.83025411372708	72.47697010089171	91.76845870660227	44.05413895464906	63.17797064757391	88.57430176040508	87.65049812468985	36.833901690712	11.96745650684089	61.76901890210568	36.43756023868469	32.42894219149994	22.6075462764199	85.24428060927102	52.08132835538165	17.59205624427656	73.98833756505726	11.14881382034564	50.45170373475497	90.27685039637737	23.22685467068551	96.2855713918611	92.9737637906191	47.4420103277245	61.34666406291191	18.84850196415139	38.87475569921166	86.51900464500956	94.47957509242241	73.93243284719611	90.73470686865623	21.78332765105038	88.20072998866927	51.57491590515323	13.27636775841527	66.20770618138573	72.95148978328777	55.40587174287889	85.92714200425316	15.24920572725532	43.65984559441767	24.9954926428744	99.15146877028991	63.39741238162084	46.74586222760382	70.94863923592149	95.49796624100574	94.3666133442392	65.16112103992391	70.30046910683355	91.20168335519131	103.2144144835833	17.52483224159998	43.62076449820121	7.12957858885536	90.72554893769109	91.51953183852893	51.60688821476665	-0.8280212224615477	9.283713716278887	58.81696002361838	73.83206686751474	-0.009671026197169558	50.41425345395283	70.51021117357909	17.2423149799395	80.05183189937669	95.50335698358734	73.20188367400429	46.78787735618081	96.0152299595494	84.30905676311423	41.22157717593964	51.29647936350536	9.805434118496082	55.1401698090645	22.8655838966061	87.61346250235182	2.835920081387009	83.17930168791904	3.742285782810496	2.021945677773092	92.98800207169208	75.92967428685301	0.2948578088208585	17.10831542911756	49.08059765909091	33.86472165912507	32.61694449787181	98.29391225264159	24.5874076844263	70.86983528748388	98.66004568298045	38.05850019923382	59.9277297435641	6.452278006555574	49.60113333528024
item8	13.65602945679424	86.17409609239293	88.39904906795935	19.19212063917419	78.33070451651881	85.28418387009333	44.40726046578444	67.14116312619774	88.46455435968694	92.15900375322516	42.44198924263355	7.472420888415512	62.50869917076064	32.81311221026481	35.21102442874107	21.26455962680356	84.70374936671098	50.66854361020096	18.46909817219484	73.57986060281226	10.06352928119944	47.9160787758075	90.04442448216099	29.22597223104148	83.09863738971612	97.33687200119824	48.09294845203348	65.9338021382009	5.149038837009699	39.72628311259667	94.76202074491984	91.25450939254186	74.10009932659723	92.42477564962462	24.54338249807691	88.71890020244219	51.14170987471817	15.73386631454548	59.3918983437134	70.00697741416391	52.96422270866132	84.30832018891498	13.05991776623565	42.73180776003558	20.65480016761419	95.8989996964319	61.68560026842629	48.14980833188447	65.75896540917803	92.75348589682099	96.87706800936792	74.11975880689981	65.87106942443239	92.50907061548439	95.98755079105392	17.59355546742762	46.96646895536965	8.135059527742213	95.35843537922487	91.68988579044023	41.61656469464359	0.1672715622149668	14.38399938077166	60.25911698204924	65.13915326616033	-4.416643047419468	48.48111822326423	69.55108203247968	18.28806193254388	84.03798372323905	95.68545366709476	73.20769207793568	45.57460969935536	93.36959768472666	87.48904274835593	33.62692218181206	53.03958033998939	10.06233313832356	53.87630992553594	19.9020572089394	87.17372619725313	4.768764814328877	79.07960373611165	6.1587657106253	2.235759844089017	93.47119730547958	76.97812819317738	0.4332933243367409	18.57866180665379	50.55474257567548	32.36326933915537	34.61780666715152	99.56348914690406	25.37002425137038	67.93730542105364	93.42282067692689	42.30360112723265	59.08853203780001	0.05194776580968874	52.42516549638005
item9	11.76170344435435	90.28820379904658	84.05936094279072	18.78599151220402	82.48077888055717	90.61263933147599	43.88447181042204	63.31668402272126	91.00034930818192	89.39128068077565	40.29761283514867	14.99992250509985	62.65902207947075	39.81539961560466	34.05528395785219	24.11795278194311	83.96317108487746	52.58907441637463	17.28933429778017	75.18693678417166	10.66632178633847	53.59562828027696	91.17340093559875	32.02260110780286	83.15513435438645	95.21117314782408	48.59469366100438	65.45838313874251	14.97475244844456	34.16384527484846	90.2409093924408	86.13690064336788	72.55091288086429	94.20808357053377	20.94867041150767	82.40502117112283	52.42429423607847	12.32549750403177	55.22254681021252	69.68528104448872	56.78966780491867	83.67763364742335	14.97211633155038	39.86187403190757	19.10762075147954	98.24999691751214	62.45509609062067	47.84212934133905	71.25642844472567	94.55592422988779	92.46545065527603	73.9665338797595	60.21522119288244	92.99694000834533	107.6620401189423	17.25664693605932	45.23711521929856	4.93885462355897	95.45992552480722	91.33988502875702	41.14394628723898	1.123367094204318	7.488343160004039	57.81020230299312	73.5703689623908	-3.139691377743428	50.65806495735426	70.47214028211788	16.07039769861335	85.58891190376667	94.55172338286614	73.16532037063844	46.12881938645521	97.65942656856664	86.63350926884281	35.51985854396712	51.16465683069437	11.70913174260292	54.28813456926071	15.63834423628447	89.66673257835541	5.858378663092478	85.52762453894215	0.7963977691986557	4.281538299653706	93.92101634777477	75.06340089339461	1.548677939894483	19.91504995919901	49.18284386301256	32.15902372867011	35.46097914946716	97.68298521147683	25.2556220501077	70.8420986815109	100.2591556820722	40.23721922542643	59.68353301191029	2.237284137746667	50.37588968047269
item10	14.31812000319507	81.72791802612285	80.1616593291261	13.42824645639294	74.05727269702571	88.62398625362913	44.06560912135359	68.4559353917208	90.30354800243701	87.9893152186861	33.72766619268882	16.67012502581338	61.247350051128	30.21281700154807	37.15314750865952	30.15772525188547	83.94108495226982	52.09862485377133	15.80438751349574	74.71639402367869	10.3636224640824	56.74927284750848	88.02304443754645	30.70047689438361	94.26957422505561	94.03877305406468	52.17337831033349	65.11511800870609	15.20868406301432	42.03193611494775	96.07274596552894	92.28221976538234	75.5084465725175	90.88715025979248	24.51980886957539	91.93879317399788	54.57103670925576	13.67565315899242	60.73517994478348	66.881757293535	53.0061125258579	85.33845930565228	10.8661637050924	44.68377151862155	24.11465839240994	96.62047196230778	63.68604251208088	46.6570763649713	65.34082029234003	92.79354039214537	91.36792768099451	68.02919186681466	56.32063719833697	93.71397199794673	104.2805164352867	24.49134385210728	48.22466188603359	7.732512582549919	96.20560658335503	91.76207610039197	43.65627382706553	1.092141362303157	11.93927368839185	64.16876198140787	68.53688491760516	5.243215352350155	53.89967282655835	66.06599962156309	20.36471585525641	84.36676151488905	94.55104705029706	74.45366438120682	41.18965121019822	93.30497912006915	88.58575714438872	38.08725789968712	51.40050236324561	10.38628737836497	50.64986904593162	18.75072987605757	85.29031560909556	6.7400280454097	85.47540740992108	1.950494910872239	-6.218866491608463	94.05050161089319	75.69305682120633	-1.686910232195806	19.69783929545124	46.36952888525227	33.29302391733809	27.83569629683982	95.76430871645657	23.75801012123886	75.65752600567819	95.03462257511374	39.16681080603102	60.26163302437575	2.129259305815145	52.17756998643051
item11	11.12848784083412	88.14960922193302	82.7882774449789	21.9092311987702	81.63855464429093	86.30280295165504	43.5573358829901	74.23550984463336	89.52605457248555	87.96938786746486	36.51770068117544	10.23530875120947	63.9743634820728	33.95136640465673	33.93152068548035	23.32307050191228	83.36779656497504	55.04195177651609	16.45266465861798	74.91865660968944	10.10115781789914	54.51151441542623	94.0679109109328	30.92984307141597	87.47453353919344	92.12725878656825	47.44467004826548	57.47059021821133	4.416455878293162	37.49502077140642	94.47880980630239	86.98587844384522	75.28579534144575	92.40449258531953	25.60550658989962	87.67857139459075	56.0685692488697	14.16924741551284	57.08756805024458	67.2771324324877	57.15998843446976	85.85203026137719	12.9221922172001	39.9108596594585	27.10912296455913	101.6631512026544	62.29792255641264	46.90847223671977	67.9113167946271	84.39836008174076	97.30862497530399	76.23901348766017	68.72233737024631	86.78227423138031	99.3519948400981	22.75451303649791	45.45747781865505	8.431660853443114	99.89012653711535	91.8343840126019	46.84064687097216	0.005906840638580713	13.08490121386241	58.49160086676546	77.26896681852931	-4.775821777319011	50.33301301358944	66.3427450343609	16.30231343981218	77.90455334563666	94.99626010692256	73.01856027397996	45.69508269801551	94.90925367853427	81.79273255891022	35.74019580646109	51.5597438185937	11.78048936946428	51.60757000983845	21.08108071870324	88.90160380950351	2.658678013553312	76.69239173345605	1.034365431043336	2.171452299061653	92.72074001176628	75.70603430248899	2.133361149548305	16.51096510474089	43.89850154175758	31.87056431819629	28.59966810797209	97.97008913496457	26.78938651088918	66.78604114650146	94.87864151224244	42.34650075660783	61.3094528609315	1.798645753142949	46.60599471090068
item12	12.83733411001215	89.11666361011027	86.10712101642318	19.25287650997464	82.58191482127108	79.61252021557974	43.83204827464044	66.15958896483481	89.58401351646295	85.96613360819671	33.65723331916696	10.12416600697319	62.41592694630634	32.56517234355115	36.96448507285131	20.11314158430852	85.52592265356677	48.36295187904341	16.31396178800991	75.16994684830827	9.948062735740027	50.67773432641466	93.19663167550945	26.5697850916212	92.9239190153322	94.50018157530384	53.51251297655872	63.26837792790814	10.70486579851771	36.38956099277869	90.2283477271388	87.96148953320574	72.30709976102891	91.32685494345976	33.78085660992799	91.3735690116672	51.45202171944844	14.64880924057714	61.17063138125025	70.21786422832957	57.5785872841663	86.59516405606074	9.545774531954244	45.2650025798927	21.07398254567098	100.7670027914828	63.30354055707063	47.12355603069928	76.90965954819637	91.66402981777235	97.57996648928929	63.56512077951204	65.31870911491899	84.05129880390001	99.81199242261539	9.551403918152305	45.60910901241587	6.051801557077199	100.9041768508774	91.37503162872949	44.34589246347728	1.787136946942762	3.967347988241213	66.03293538693308	69.82677222452357	1.236256668801003	52.76932787965943	67.85211731929249	18.64517072831507	81.7482702970274	89.39468320780611	73.50562819129658	50.53037617249876	97.59737194695516	90.2596493803909	34.12909579941513	53.30164406986703	10.17676081817458	56.48099356885116	15.95669401628427	89.15446090347488	6.409264063340223	82.59448849128394	7.57224625071189	-0.126872329727465	95.42279221757053	77.26198390773668	2.27377782152741	20.74110999062269	50.69432837788109	31.89014877452605	26.80032938147837	97.92648736602125	26.25629185797574	61.66692523293277	97.99346971768182	39.92986943669268	61.17540606093078	7.082434634455221	48.96447683699576
item13	13.13769778345089	87.46895322366368	78.92971751029658	17.87018857662355	81.70161664533821	90.21598336222787	44.32573531592777	68.97385692239179	90.24048800906149	88.98435222111831	37.04409993663077	6.045176275744362	64.90810001923136	35.68859577032301	37.86212817114884	24.27830911791648	84.76456113730036	51.39306627486119	16.83663509250768	75.63325849028412	10.60445433406464	53.34355310178339	87.35354578852031	31.18363857686075	88.76222203897498	90.91291772948249	48.58776225366275	62.51577470218622	8.083887451650854	34.77273486551183	90.85524838387551	83.52332439337077	74.80520408863856	93.62688176760588	30.3405822255907	92.82840529656828	63.70537608992252	12.97400580765078	62.49359701018702	70.08627697606076	53.53063170715746	83.02383536251548	13.33126341935193	39.03009500990155	23.12081733426704	96.37617235794191	63.93740704076941	49.03762079038468	68.51312218755741	91.29161221004227	92.55228232960096	68.84519000450868	57.67645437799257	97.84354684405446	98.85980392714661	11.82356443864694	44.67748618950097	6.575495108002881	90.59097194006496	91.74392580249074	45.56560742542828	1.003391154243843	9.061000783024532	62.81112187208325	70.60349125737356	1.474612815911633	52.70143575401035	69.66633897989155	17.70952040032819	86.31669554273859	98.11300924610846	73.48525587010575	44.13551098310693	95.22675994430863	88.27145195460305	36.07360130116258	50.75715873559903	10.81328910931531	52.46164568167173	16.29709937514961	89.0535644264706	6.39446378612517	83.96919416470755	5.088812324449324	3.334526411570351	95.1425165542565	77.42471774243911	1.382688604643276	16.53066788063865	48.67919347495762	32.08994453001269	31.08033547782107	101.0166124378446	24.78359020465228	68.21567356232443	92.51319786115702	40.43115734004878	60.35308963240796	2.106881144446743	45.72222252005696
item15	12.65679466231653	89.06503332636908	83.98476323356377	15.75367041386224	76.11491437966261	91.40016711266983	44.01849443166986	70.55183252802721	90.86469195106201	93.29497873685639	38.30247742324252	10.87310077828398	64.40530356163485	32.48464538731131	35.69359101619049	22.37011397066241	86.53480954357141	53.79495398675228	14.62435655227173	78.76336654128048	10.03459968217037	53.4146899750346	90.09463062581597	28.30518504888538	83.77045954096675	92.6204892571713	53.02748835047474	61.63849746445277	10.55793490428381	43.18473276467454	88.52684125095929	92.80204622289956	74.76970412371071	91.65783067115461	17.35546842511572	86.76326382255502	58.99824546904305	11.27424749131097	63.01225159668364	66.88215203551374	53.05325115852773	82.17982417274821	14.2112645434541	43.41961924067716	20.3618704841379	95.69821725979905	62.75269619248293	47.18969481311254	69.46673600714794	89.92453922466883	93.35738393453948	77.11351807726744	63.85275987349363	86.43263070643351	99.23422689197652	15.68140143209455	44.9103543023563	6.515951440886486	100.7181916468174	91.96149665369052	41.72469707702341	3.135039312737233	5.69806873815031	61.13181913735183	75.29162086900173	-1.582842006975237	50.72399818272747	69.8626365255183	19.36015919345921	86.54230998771887	99.96542089780215	71.84834069712223	45.52652992242287	98.94172148392765	90.79796851883133	34.0769362374201	50.41659825621622	12.41986455729755	54.30179109148153	12.56232488941711	86.77144226819864	6.130697259065442	80.1977290318391	5.597322008411572	-2.043386592325266	93.62865909622494	75.43293539201863	0.8419155756174964	18.07257257445387	46.98028713020253	32.118755415961	28.48802699424033	98.43470533591838	25.89602085884853	68.01515941870188	98.29568753054721	40.58671690333502	60.98620609350327	7.013781465460184	49.46050597340277
item16	13.77443538166691	90.06021047166814	79.68575938627379	16.80607834209028	80.60174748629741	81.03129708073419	44.27192691598	63.33986986859615	89.77141221851311	90.55330992394666	32.85750482787838	15.10114874467561	63.44438566017371	30.82443506200289	34.32667634372093	18.49541967712884	85.70911596647545	53.32076091268487	17.59579486334766	77.00224775098786	9.823674066092767	51.1513700696707	93.75813815315101	30.73665887577206	95.00546502533774	94.3231342820426	49.04058256747069	62.04758966543297	15.53235314632266	34.87421066213401	91.79078155768359	92.91820071890176	73.67985287686614	93.8932242019951	27.17927560499209	89.70353882969246	57.15889042046575	14.00431793572276	61.55240407039008	71.50945922714396	57.68633576593349	80.77411043770429	12.54986395298234	41.73908855390526	19.81012133516395	97.80483641370174	62.89419366234826	46.77212005423041	73.03879605297658	93.58830558020004	96.69159742070001	77.12017490905095	64.34347539174705	93.18268151179674	101.8687147880025	14.64617554643115	45.70946084739907	6.384582280564016	97.04247214284011	91.90857331849978	46.21992273614647	0.3631504624559649	12.06259844398512	64.80531148546353	69.93633567092685	3.150073130006048	51.30445080473092	66.53722591240017	15.16027539278355	88.4066568667256	91.34002418978581	73.40377169530679	48.60931249910874	95.08589563369358	92.95976976599782	32.52741855430078	51.83039219630613	10.59114865027528	53.66103388747487	19.8633179604847	88.09355040985103	6.11476033133902	75.05331030143283	4.400721916952621	-1.952179887717176	92.6801219556081	75.54342733001944	-0.2480838974364842	19.02212605344416	43.82234089420647	32.7546489773599	27.3873888634112	98.95730145847118	22.54182764560413	72.4760883171796	94.0724382974591	40.30858048225763	60.15356440838565	8.992601303517628	53.31695972544166
item17	14.07106690417273	94.50726825150593	78.78831835859029	16.92402967402153	83.48065748330512	87.17603142863226	44.01237594145818	69.07332075275754	88.31202459281252	87.09089077857421	41.01523250366313	14.17901515482302	63.39106921149052	32.64727003161028	34.71650937361945	27.32247618011997	87.0732260474488	52.17185416160572	16.87751612965824	76.76924415328853	9.78144183763207	55.27223219993142	88.83801902189579	27.65587834932489	91.87213642521382	97.19166182246369	43.16222124658573	64.94957305136271	11.85629577601118	40.74728660766546	87.04698576199634	88.20224850182564	72.90110250991229	92.23159717781844	24.60506366971765	88.00124089407558	63.83881034568374	13.09236383236411	62.84569705070626	66.21166746919393	53.11655000512314	83.83593110106781	13.52838977971103	36.85198718512888	22.27431829887936	98.04538752491675	62.48817752539231	50.05140595917633	64.08670324015381	87.01368568352709	92.52418651675178	72.95080454495263	57.38605336381489	87.31643189915357	98.4707157836565	13.34204111808666	49.16602929592809	6.746361352186555	96.57741996218981	91.59552438618138	52.74828870715261	0.5290465249323442	10.51108955455339	61.6188159299656	74.39427207734647	12.26968065462364	48.96599369865918	68.09515180915241	16.50405826526592	82.69122617398047	97.68899321379207	72.79630191740158	50.65628493813476	94.9863030495123	82.66265802811277	34.72879887281663	50.39984465916451	11.92732616399186	49.84349833865149	15.99380821125584	85.50543219642628	5.954609318839631	90.51108851246983	6.395849937880108	0.770163004386474	92.67701987245803	75.41423971874991	0.6654759921199943	21.40271230665057	51.13520413255814	32.56033293902942	32.13830196343778	97.74435277301356	25.53896184191086	67.49827705619329	96.73876562980966	37.4608840399961	57.99095960074163	3.438719699777819	50.44421864173302
item18	12.86611745213719	85.32111983551025	87.40408221804621	14.51885140386602	86.61248617758726	80.51963602056298	43.46079723872618	65.82414827142519	87.89775307710632	89.69901124601436	41.3139385472892	6.607738182806849	64.81096657629185	37.96009084423687	32.2963858550594	28.95240735954211	84.69564266763167	50.80904218044459	18.3661387965307	76.79652829016072	9.688086923817021	52.23410091895506	88.07163172138155	29.04016808517185	88.13897516480429	94.21881309394156	47.27723848985498	64.12799815000977	9.430472874881994	38.13426172892048	94.65448017064514	92.66374083003204	73.64719744737472	92.40843244414812	28.8574430736846	85.9989193790009	52.18130701713868	12.3419404717077	60.80192719360769	72.77089663345932	51.64150003960939	84.88832731567614	13.19031565724863	40.87676071578486	16.15929172112028	91.9548716102741	63.50850765635647	45.0962150684811	65.83191970237066	88.02193665875518	96.61842243432959	70.35628109361193	63.75139184737602	87.54954033011815	93.0715601135071	16.74397249761354	48.2842783740298	6.260939632121181	101.0235537009817	91.66254837496754	48.89102185053623	2.421678954148935	17.8173401499791	62.50122576892492	80.28997201821311	-2.052692410755787	49.75451348986345	67.60609178940743	14.93660591866991	85.58318040018622	93.528955166234	71.58482807838617	50.96822748488306	95.88775246824908	87.06355545023872	41.43439541386164	52.82157620348749	11.74046861000364	54.96315290251216	15.06509950873933	88.13971126932078	4.362099355363194	86.37507549640425	1.925674229651156	1.932695005851221	92.09145956629962	75.31958428336594	1.887439744333612	20.67756673730294	44.07862229662499	32.68057745342534	27.92996536533676	98.1130418316469	25.82946325429478	68.59336560522088	90.09487735968605	40.82243013112254	63.22315245050164	2.495200331239901	48.29767532439351
item19	14.61430813550337	90.50995394938106	83.2630405856176	20.5463142902941	83.29941215143445	80.74078340799488	43.53826620874766	66.07641600217835	90.03419568758352	88.93788051386112	38.5571980923562	10.58948100842242	60.07977547488436	32.33005067669794	33.50808449823927	25.10759599810453	84.53457630794628	49.98409249033546	17.11266131011874	76.20081454478562	10.06542809529657	54.74848747454145	87.1833715594129	26.31913043280587	87.555589707244	89.66352969453133	54.35683723610418	64.19384443669661	9.076850177417869	41.53517822274983	93.54288546815705	95.27558101350134	74.58790135687491	91.44792562350707	23.49587818534166	85.4398779216759	56.1721837317751	12.73960521923394	62.59747488208659	69.23214730440141	57.12366102488095	83.09856344078879	9.224743610620344	35.12134719620106	21.02103949891476	95.43482109878347	62.50228616021249	45.55755095854415	72.94033083455028	87.99800321326097	93.42942767651083	64.25812725788671	60.56708236021149	84.96473197664248	97.83481697848083	22.30923663808676	44.62178765113682	8.924610760623654	94.14495098198284	92.15629086973077	45.21174717406788	1.85020816828092	3.470618127815152	63.84108466350668	68.02307960690997	2.186625692390983	51.19223415360418	73.99311863465721	28.05665668913597	78.2625651916467	101.0279432554129	74.45776971682254	41.90757371723333	96.37209178331214	83.04217943232727	36.0153235407122	51.96685478364548	12.46083553794507	50.312099928946	16.89254558684449	89.76520029367107	6.92605385641343	86.47384462546199	6.562384275973001	-0.1073636320364637	94.81879183285862	78.67239754380078	1.056248804921564	21.12538838010743	44.85789903832467	32.30224574004721	32.77599611515039	98.19268215866533	23.24396092903921	71.52035331588925	101.2346416007133	35.35774551515782	58.47093221402738	1.313519533102425	52.08370080767642
item20	14.2722813104329	90.93398879533197	75.23464355689397	17.58222362664988	82.34431560106215	85.40253342594131	43.75618220396147	72.61541634159236	89.291470813101	90.25008801075799	40.36945573463158	13.0815296686836	61.88270980722598	40.17732188301715	36.58426614643972	24.5400228932106	84.97527348040801	50.11975302697417	17.21112996907056	73.56892120398314	11.34989575898657	43.93643464114476	88.06582453011949	37.64926568516846	87.87852561012849	91.69374984417685	45.16550209229607	62.70055114624424	6.969413418173056	40.32133889596286	99.65609163515414	95.81450147278953	74.55535328436314	96.26253670985967	28.1685055269138	92.84767978700189	51.95867493732408	13.65316261980689	60.72597233035421	71.19356355034753	51.99777319335998	81.61916975989139	11.01248182304403	37.33663679166356	22.51967290067869	95.21727171832499	62.37200585940805	48.50677796330334	63.13029948666857	88.18287538269715	92.69336959171343	75.35925358186444	62.61735508504986	92.03525304766629	98.26869027631464	13.55597754715	44.55889787013503	6.321743018469283	98.00155062763018	91.94378897498126	48.40511759913672	3.746943013246723	8.106354942684144	60.77105661773184	67.82090754196824	-0.3260058806618503	52.14071712426037	74.97108000128532	17.20065041097537	83.69292004441654	96.70780262979284	71.44654850436025	51.84408191817698	93.64011594158892	89.09483304910995	39.0330061423672	51.44497257583529	10.24234590454491	56.25356499451735	16.0295612215148	89.19688715908831	3.668938905496687	87.11860216936482	1.310417266751679	-1.372522445128906	92.4016421023103	78.23533652884866	-3.463576733139403	18.73027965228727	43.71447035223681	32.82879097975324	25.49387598552103	97.64250265863878	25.09215014432875	69.30557502719046	95.39959765791805	41.08098011422237	62.37191635844918	4.035492184263151	52.36135819440787
item21	13.28593041083856	91.58129865709878	86.7093434343473	18.08571664753755	80.44165243258971	83.82550002401936	43.6911835341784	66.0856611770989	88.34364335276166	90.23404100517958	39.05552785660048	12.896001897669	61.89999210274281	33.75670951854342	31.41418971561683	26.77900770385236	85.28074186951122	52.04905042686754	15.85943833503451	73.50489455668989	10.19945212965651	53.45784438282064	89.42038660387828	27.99733481134194	93.64074414204684	94.59385155994642	46.3357816886689	63.17860625364411	12.89158716377096	37.49408891121489	99.0391543886373	91.05040799643253	74.66333665134066	91.25233988101287	21.7189489627787	86.70248055156492	56.8162243996135	14.17232617919803	65.31467644290072	68.66198145979432	53.99804878228213	84.38575017118359	10.74014153335541	41.44745129288881	27.14828195530315	97.39681560559582	61.19323057204559	50.21430712395353	70.17441549734448	85.65588678508205	96.38056907691254	78.88522663049761	60.29619272680963	91.45239132139001	107.8478662972926	20.78639333869083	45.41951956735851	6.294777972872173	97.67529394437055	92.3830974528877	46.259215823768	1.693498296831606	6.750194836941741	60.97499701943322	83.27718954817261	-0.02439974032963507	53.69518627254077	71.11344398354612	14.78847728435982	82.4743658751001	92.66383833019772	72.28394031134117	45.45335017186679	95.20211165769869	90.56000087370522	38.12661670739569	49.80389682149	12.43285212733729	52.76488520507163	16.62505401118876	88.60046297336004	4.781912881185935	75.78956094148181	6.439404838161427	-2.035837333825412	95.3133716247202	77.46653671594335	0.3098894447376498	17.00681283983992	47.61008557579267	32.98728904093782	34.54319831531512	97.40509050052634	24.84805435369247	67.09528682302643	98.63288702680045	39.75242088655249	58.76379130401346	11.83911607922472	52.64140820867557
item23	13.22583699420922	85.88580079844974	79.47964403805469	15.94265168867808	83.35640204903693	81.26859945183237	44.47851993809019	67.39811288765827	89.5787064730761	91.26974414892014	35.11356030463647	13.05547492311905	59.47525727418551	34.94749645177455	35.58862164823942	21.31602339465338	85.04986404878643	51.72681326474154	14.92206815372435	79.53486513288111	10.99354262066127	54.31884886666916	88.72586907849018	30.9699749125879	79.00554312213066	92.56029870930628	48.81109742823029	61.03252926675384	12.83007299595503	36.29608460659697	87.50682646067054	93.14770753263656	71.71431365084543	90.72538743122816	25.5356531051059	86.59349538153936	58.60009020325251	13.47691376176417	64.48979831202941	69.94431456123576	53.82637065956936	82.10769521478194	11.94370945258745	37.39132257275764	25.25770878206857	100.2722846395389	61.81304898545214	44.50918996690215	65.46345697359352	87.19931711364995	92.07108119094045	73.32263292401419	57.35094826086959	90.81521690540541	102.6760829485698	7.186365133180137	45.13369247697922	9.196373225772058	93.94945267817191	91.87869936757556	41.95481591973888	-0.6690037840418011	2.500876816677291	65.23540164452925	68.44601525954592	-0.8941857834082187	54.05427811702004	74.02178022616258	17.12854879915663	87.82469429750287	93.56675038086142	73.44801180773032	46.88644291886251	96.60605597361737	91.29996877396064	27.95880934260666	52.95514011073406	10.91953446117874	54.09457791636985	17.68219269934052	86.55127291013315	5.796038145150266	85.85460917497754	4.250629366774725	1.526875483421649	95.86154242380762	77.39829859399828	-2.693238437381913	17.52057781207021	48.94699488647908	32.78110388570646	27.70069318114707	99.32676556915398	27.25675789188103	73.33369550154283	91.89290121768664	35.98374034012469	57.4773386183939	5.99580789070338	52.64602250121028
item24	11.17418792951673	85.37983858816571	81.13735463968501	16.37409981209004	80.51686680983327	84.47816053884603	44.34767760379913	64.28817718938393	88.91088629605923	93.66800374299216	40.71540444049555	15.89364699330403	64.67779001038471	35.17321851565318	37.27884975349365	24.72387175085264	83.74590741444239	51.24281065171983	17.0739034931064	77.37763817282395	10.24788443922593	59.41744711496989	91.29879769579868	31.67530379689878	90.68742708641518	91.75578176947178	44.78696657972799	58.8875922747822	15.75709574313108	38.30272953074875	87.29418775715791	91.88521013158405	75.78417830113996	95.4994096707714	25.63238399993027	85.97575219355693	55.22950101355448	12.10745757402496	56.76814175153313	70.02544472006548	56.01662726357986	82.79740767271132	10.12117509061758	38.2311850028768	16.56521306214392	95.31115719415197	62.65983987062794	46.23904381444513	72.48753840869657	85.46637891369268	94.12544142591661	60.91711990478048	59.95047820601707	90.12023146033502	101.4769393451408	8.985490979535841	44.68530763524657	8.249424607333193	94.580784618328	91.86022294548482	47.33138704708747	1.442870790460302	8.33872386742871	65.46911330647067	72.59479056242058	-0.4803873880747928	53.74812790508801	65.8561450395773	21.83911965502415	78.35603368931105	92.80155149991515	73.48350505027143	51.13959836545042	92.86434686418335	85.62266962192024	31.83280443798629	53.3704669257999	11.12916223507871	52.73424889801316	19.11776739542921	89.06261518018391	8.978246955484853	85.72858976950388	-1.732394084356988	3.4792528041635	92.19416136304143	77.38391161148543	-0.6982138450558674	20.52154544432399	50.43126149794135	32.78246143792795	30.73190293050629	98.58417634505361	25.37049797242412	67.28484128214032	96.3661867717307	38.66784636318102	59.7119862475197	4.520473659256639	52.05470711981501
item25	12.76076063925461	89.71159760629855	82.38679452378248	20.16239230566566	84.77314917792275	84.33601316002058	44.28998517906776	65.59902640833093	90.01662560123579	92.38822351067104	39.15349121988206	10.54879695493134	68.03965278150797	28.91525730578824	28.20638537197948	25.20600298977542	85.09606355611491	52.64195529697042	16.9139145891553	75.42447994145093	10.23747577957543	56.06366676085618	83.08288775392568	29.83257383919644	85.55932719723531	94.39267881976359	55.8684213652489	59.80050518290802	14.93536264515369	44.14784432251723	85.39807288419721	88.38650905946568	74.74590158791122	91.62091023263824	31.35151148385276	91.25894036442278	55.3488975752548	14.50008640923723	60.79867075056836	70.73692854792074	57.0105528554682	85.43143027873624	12.14402852862096	36.36961894524926	21.26986154865779	96.26363377437657	62.84758958037389	47.13231488787709	63.37007551615392	94.17679410662734	94.00730206362097	70.74460467086392	59.44156048010382	87.46178067248145	101.9025092084284	11.57743694453129	46.08016938895653	7.751993308049504	95.28743632346369	91.3651528256822	47.83102733256371	2.137698234450908	4.272036621147821	63.53716741030952	70.64724243332232	-1.632633045424875	47.44306430370346	72.34143444192148	25.57945280929381	80.76408513830734	94.25154818179091	74.02469678498113	51.30711366765627	95.91716204059804	88.88212321757929	32.26480851863283	52.37360211770941	9.000578592383148	56.00102643722947	18.4893869214234	87.49161004621403	3.230198444362319	85.73889854861383	3.90510122891718	4.24640620822943	94.40605716851927	75.10261376769037	1.401101488409717	20.19298676022672	45.21569460245852	33.047067941957	37.955130804891	98.2747807942194	25.42578291424325	68.17858252965091	97.14288661100903	38.96416707294346	60.57266018424812	8.618185101371179	50.55648028000128
item26	12.65094777552	87.18545602623915	82.51335101318817	17.07546634323641	76.17968916597216	85.94790147100443	43.58688483801313	66.91848857320015	88.08986109952561	90.95168332179277	41.16624985417066	13.46381891959728	61.03073625968717	38.9488339340252	37.22681450951668	19.73251877353631	83.39233323517843	49.01736339728006	16.25123565300736	76.66370481471789	10.50084488588684	46.95150514871063	89.41841011354317	28.69139453509284	92.01763377767412	91.83412949391256	47.12229078310755	62.49574221878373	15.23485602227532	41.42938271926246	89.82684417279926	91.65483863129576	76.02008680734593	94.64624588574048	17.09745765677584	87.91619097066967	43.23611364448401	13.93123618446127	57.99928484943899	69.57855823934038	52.39277001648897	86.67948089791783	14.35889587010375	42.84172923771699	18.23459966468625	95.91433048018935	63.30867357314222	46.9269012916829	70.43015135555531	87.7236116694832	92.07282550633785	67.32608320954908	61.11763413418258	93.43334475771097	97.75441056820588	25.97499386849939	45.99997094850624	6.600058489686	99.10829502118206	91.94106922518847	49.19509162236515	0.4592019470541804	9.153454760957878	61.14129136986872	74.73700471518342	2.857754643864187	53.23650324816978	62.79014246843458	27.45877370237124	77.38589031400218	96.64740275050274	75.21268129375187	47.1320204622184	96.20881152605362	87.74250202390259	37.31249155774088	53.65708922027343	13.19722374824038	53.71403713504782	22.31733855162875	85.61468790204812	7.255648593981951	80.69066392840982	1.083619738875988	-0.7800212970897795	94.31431700953803	78.17215127874816	0.7156186935416633	22.42200229155567	47.07932286516262	32.7247898895368	29.2414243897942	95.99198719921232	24.86544560004691	72.16645462211034	92.44126939157951	41.44579704956205	59.39246942407009	2.095920231037862	50.45746306615196
item27	12.0556788907925	93.04508521248474	85.02659388533691	17.46895034456742	78.82035389586991	86.47738404967599	44.4039979448469	70.50981693859474	89.30213633735823	89.60773653925463	38.78220345177492	11.98112471498067	65.12623958826165	28.80602445592831	31.74289330468908	24.40461538157593	85.0804230863486	51.33421040762278	15.88264810743626	73.91880175871182	10.06861171161177	49.88888693493999	91.11616613938799	29.91241704649701	81.85593786216029	95.08755333257217	55.7572919378754	64.02913533644239	12.57600401401688	41.5215938545079	96.36659194208383	94.75283911096585	74.79956132071153	91.71321917019512	25.41793620902224	89.3755707990336	53.25547988344591	13.74535512110081	66.4917978546106	67.27689431917454	50.12992234661584	81.51600881291901	10.84170382591187	42.85547636929417	11.13776652480148	95.68036140317531	60.87456144695324	50.28353865720099	66.49858589862332	90.16259101430221	93.38812313023935	70.89871775193163	60.29836844188477	88.05326414981101	99.39218768238194	10.36898016283817	42.65388013526707	6.203306432132396	97.87460875874262	92.0040166667448	42.76915534683581	1.165387577724219	17.52036869750958	63.84533160181061	71.91332670590467	-0.3936938951428822	50.44819038828664	71.81942483068772	17.38334899218831	89.42219179375988	96.78137723513215	73.47695880879223	45.42801583555396	98.98180455016349	85.06361693437734	37.89349091764983	52.83754566428943	10.77388694307284	52.83663824056519	18.67779138457279	88.42953819387162	8.193184953750277	81.75361483066469	1.772469207733928	0.9589810135273782	92.97539356709476	79.23918939123985	4.386750060355453	23.85868672477154	48.3754406284228	33.20580091192157	26.01811843932284	96.52303098209829	25.61986402912948	68.12186276628552	99.77924976269185	44.4425897805985	59.01214387177811	1.737754376671415	47.97322642783805
item28	12.38736072388241	90.63133015644709	83.62735938992289	16.77475745477324	76.65987031683322	83.70549411117793	44.55417477134709	62.17851174032005	89.29644288489597	90.15179449425537	37.22934662305877	8.261590160550618	63.53374447980075	36.93833645972595	36.38746667409676	23.40342823216163	84.33860743610165	51.10687897379383	18.03155306814885	75.04471935620944	10.87559998494574	49.55889013011195	90.91445802594646	28.34138573288104	88.49609308789641	96.16732176870714	49.83538220535957	58.00908956084218	19.59993046907084	38.55474800260234	93.05248641931645	90.0371725698614	74.34976653072914	90.97829055215975	25.52923849007202	85.81341602743026	58.99436838683084	13.07178499547185	60.35174427231429	64.86140638908824	53.67448718481852	86.1495149060954	13.29113709658346	39.89088340231498	22.91378365408716	107.4633495184307	62.96257237353835	48.07146070446198	67.63059401221193	92.88650674048007	93.68693725238217	68.20145281207158	57.83490260444085	95.32644384059158	105.1092905932943	12.50071198037323	42.43307368120477	9.718880245363763	104.5989776457492	91.9955811484745	46.75358512190535	0.799395034330577	10.78730979759977	62.61185277460893	75.02319754425021	-0.6542850033395552	49.86397579364873	71.54252941285084	22.22751225131267	84.79944581319926	96.25749760707518	73.23138057611555	46.30724956829839	92.5921253616424	85.06542347266587	33.13904298466331	53.13472013656084	11.58261081245699	51.37722567699823	15.62601608686892	89.62687517161723	5.755244322119641	77.96257503828676	3.476388349686912	-0.6232310502727767	94.82119887923837	76.96550519990846	0.2350569531482687	20.70982002517102	46.38094661455144	31.84597812686076	31.6535942882631	99.35688187768005	23.14445608078232	65.63950184414882	92.89926696142771	42.06169861155334	61.0177259033974	4.374578238849714	51.52569850916428
item29	11.16364486448796	87.77751667829567	86.24951447355771	19.13262268185213	75.32973338390309	78.82727250741651	44.16787093756513	69.71828065590636	88.1892037459192	90.64076069124151	36.01649616046167	12.85723126596303	67.11430499719269	34.02183230166212	32.29576934179923	23.69599402659388	84.77519271499713	49.30167872603797	19.06800842982749	70.39924250601041	10.48214395901667	44.14052202343073	92.45712960926329	31.49083306213386	90.68718349192746	92.9758400162808	52.99808124680931	64.00145730892049	10.07003273596038	42.15081412460449	93.46701637211829	90.39999331918293	74.67763748533561	90.33325160207275	26.53102731310411	86.297473146122	53.30744784755596	15.84164220081907	61.83359540532793	73.26702986025064	54.10887444796933	84.33975940884037	12.74808633012664	44.10716232644899	21.32230972367746	96.3019855146611	63.05586258524193	49.96535955051257	72.64828380856872	86.45363993769881	94.91292607734131	76.0297451274228	66.69761357532175	89.56990210083833	103.4055858418776	16.29817762116	47.67351813767996	6.343760622263453	89.24223003211684	91.54429267112044	44.08832328824785	3.965114538035306	10.02023214153736	63.19934368577826	74.42102763325002	-0.03338790214331508	49.88239886156904	68.99989038035714	22.00396318207924	85.08088436303514	92.22035813209791	72.70954126211196	46.87684102612248	98.06565836653189	88.95437801914099	38.97848430145666	49.70214987626763	11.35121234512574	54.71864670925149	16.92861597133638	90.56733630592653	5.47211491477255	79.94359259575251	6.586844563299247	3.532903830410484	91.90913693955605	75.97799148114908	-0.5529838940727069	15.88355961325431	48.75193827916323	32.8874684887482	31.53323256637064	99.03034793709057	25.03369284255993	69.11122682736448	95.00984329270247	38.07978875253399	56.00989609177113	3.981533868465301	50.74624104102067
item31	12.39693047722655	89.24765908792784	81.27284443346807	18.72694012454107	80.05437787689743	83.08998554635465	44.1379409213913	61.62897065217059	90.06100098703294	87.74038155848366	32.97630197795012	8.611216643428293	64.30367855947821	30.18342344114118	31.84155741766685	24.69786683166441	85.03667159342139	51.34383529591683	16.06814410522063	77.94119034042258	10.756111721804	47.99227635627447	87.30155573895911	27.48731916976391	77.90393335590736	93.82436849749703	54.72955982180307	59.68010326017854	7.653725204320354	37.53431668058954	95.98110199287366	90.20003086949065	74.28510562976972	94.03086170842171	23.60039748402287	90.98270952122458	55.22688151279284	15.32899482406297	56.17104615395341	70.79760912520345	61.22381816189808	83.4662726404277	12.36580546712393	43.26843329718295	18.24293035836419	92.40305188791868	62.75287371673638	46.40915796675555	68.97364739175229	94.75589427158482	90.42635434578854	67.40004493498525	66.30122508386933	90.76433747317523	96.88482147188989	14.53322759510666	43.03393638945331	8.493489693681243	96.27742323937665	91.45325584494256	41.58949591111396	1.322365920561546	8.465863476079074	63.36603229462153	72.91246860803102	-1.146702456921102	52.61479323688805	68.03212256450773	20.04349851281258	79.96155623799916	94.67925465085513	73.47135376338358	46.55319844567142	94.6234547166906	84.42722662757491	36.61446967984484	49.94195808498304	9.966451723635924	50.4684892890383	20.75768636401381	89.26478394841121	5.102179482100588	85.09571323025371	2.727828231173645	-0.9915489120901428	92.53468424774034	74.50377481261457	1.096332105004571	20.88872634515286	47.95170175135514	32.37689891911572	33.90438020435393	98.95233382957443	25.30993401092103	69.90774695263229	100.785805921636	38.36178156471867	58.06466419211556	6.605904021514572	53.43754556217472
item32	16.70515503821424	87.0870231500746	80.60818679607789	8.646570710335588	80.79784910257777	82.56805605009093	44.08375805595126	69.15915141477916	88.43755329187103	93.67976571590714	37.36579300222661	12.78225534691309	61.72959465865197	35.64174470400087	36.88491954121667	29.62471427549045	84.65974731303285	50.76352385681857	14.78808487354126	80.24375298652693	9.434926956237524	49.63654517756564	91.27739990957163	29.39020587661497	88.93847608103206	93.06747814120992	52.21052938708269	61.54078644661139	8.137599545712614	30.24325797291311	96.515383493117	91.75740655466849	76.44273476923925	93.45163718849932	31.34102978442555	89.6087741377882	50.3587669942353	13.16025736981048	64.26841028477484	64.71782890924909	55.86230860827159	85.27736241270993	14.75025754880533	38.53127064527388	23.72152448105458	97.09840885615796	61.65486068632216	44.99605597843333	69.90827694925026	87.94669659680733	90.53959031070731	72.25321051754551	62.22806444094635	92.07041080227266	98.89623896555041	20.5729581973672	47.56918703341783	7.015994962131941	89.24566654397994	91.85741332047967	45.92848847186651	2.037938116047303	12.60263087143235	61.5617126625724	73.80092711149244	-1.826051226497412	50.37538613877287	68.2854908178854	15.84464785743247	86.82648023199542	99.51388631367054	72.45262162651677	48.59329863617406	95.44842583220263	87.52655297658853	35.05759120982014	51.16604230348714	10.20933090871705	53.00200260538112	18.76205808258285	88.64158775523696	6.833068240406162	78.30639733950389	5.665541628480339	6.193874910738485	94.86484814980975	77.5598352695495	0.4744234244969201	20.9662236002725	48.55329226855205	33.11762484527886	23.40571666850121	98.45453298544005	23.27888798801103	66.98402674216617	104.5388457822873	42.47588959156848	59.09724399787947	2.325763149601825	47.99455867007556
item33	12.26717235596909	93.16906978157662	83.32282489334627	18.40909942996493	78.75647870357854	93.41974555025681	44.40971662251781	65.23764371698925	89.90411883980164	91.33786260866914	35.7040704468121	12.68166050230444	64.58214670497533	32.3094824776593	35.48246938007892	26.83120431205834	83.05827014862793	50.72565076146181	14.61968380541768	74.8453708647427	10.021918778962	50.00455878185442	92.1932050282943	28.97884529565622	85.3702004250011	91.01310361398181	46.90763746385698	63.91683471207067	11.14668256302006	40.65209691284534	96.75549590021507	88.34392753099334	76.49569408290061	88.70299219962178	27.38548927959483	88.53945273432321	57.51777699864802	13.97966256176034	60.69931108250636	72.53604665870979	53.28390604271734	85.94484542391989	14.2593730533422	39.33816565957741	22.14326790419889	97.35213030072981	62.93162196601541	46.82352653657826	67.9325418100688	93.45519509460996	93.89784068716295	69.5131492650747	63.02837003174706	91.93660500639417	98.08825467672297	21.65893231765231	47.30012203641673	9.594789397777749	91.05838985443866	92.19531205638611	42.28445861251443	1.427016347861007	7.777136955328515	64.78521352064915	71.54121679983898	4.611727771344461	53.50437747267874	66.30869281817881	20.47811666144088	81.24665063816963	93.83301376221156	72.36584978271969	46.7841319842922	95.97765696113075	88.63482682290392	37.36092013018856	54.9088814239553	11.04936123443657	50.90533923643365	15.31703456963378	86.47476705597836	5.523262319252871	87.5256676037648	3.237112679631914	-1.29378133583875	90.44422069693353	76.63870227645221	1.819054251927232	17.31661803957133	46.96750329753179	32.4413712103211	29.87179463752468	97.70719264850698	25.08809469743637	68.63340484004408	98.12231905912567	39.07903354804455	60.82521251837799	-4.381315365719948	51.8569819001438
item35	13.88299404349035	89.14696132512557	74.58936152841791	18.47870906537725	77.21511167781854	76.98805502339084	43.64718956096223	65.0918621597324	89.24876325907374	84.18127511045327	32.80292922094933	9.023882267251299	60.54197304894159	32.6719540148715	29.71045273071313	25.8228224976897	83.27602036228511	51.24889813347787	18.1555296702477	76.32276667682875	9.859192193188822	46.53728689546492	91.82798500422481	32.08776739097235	86.69461331891904	94.51582223908642	60.13939977709923	62.32645955567465	9.437100997988857	38.91837048112966	91.40757817825515	85.89646738748921	73.55579758531556	94.45176890089515	24.25312536342901	85.38868799812491	53.82157111599201	15.2715238369607	64.15539322941648	68.02012187323324	52.03864951639455	85.71788384209925	10.2015681913359	42.33166665429763	23.3725708185536	104.4193733943916	62.05040383750018	48.38224344381948	69.64390268999298	98.15835716039093	95.16015511447358	71.56228121129608	69.0505575736514	84.82822338425024	102.4713873619181	17.76550991954859	44.01156318338251	8.210448951275524	94.13981569350923	92.23087396640256	48.96390424786275	3.332652364148065	8.566212405537598	64.15202099478275	76.71794358395441	3.563228866157564	45.83063543740103	63.6536996279211	17.64536060537017	90.97310121534004	94.98566119558633	73.83888709936654	43.97101088542136	96.89839976274057	84.73837405693955	32.39970322252049	52.45929125916064	11.73992180572724	54.87658547621253	17.2697953513543	90.22979826482502	6.02544884107914	81.51829302851871	5.928944458101562	2.79980515102663	93.23935495924069	76.92780560366542	3.293002781044956	17.79630828132964	49.5125836199332	33.55096702675751	28.50964642198696	99.10235297411093	23.27742756265991	65.3340352386612	101.3026183265341	41.36027824688796	60.71068719786502	5.507780040835479	48.99407622804146
item36	12.86682019765321	90.73208008252381	82.53810302039615	9.586317958540313	75.17579548677324	81.98217566964618	44.41215393741986	69.0946365580138	90.08661021532177	88.03128910768038	37.84375643404177	7.560913777533073	63.04052296847593	29.37019597790335	32.37045147281184	32.92193580289609	85.03721986087226	50.57048130172183	15.70862930076444	75.25859440082506	9.220890198920628	46.24732883180702	91.15601363695976	33.24348427293649	83.53383104413521	97.13204293149333	55.16064535387937	68.86794298233404	10.0706614930328	38.43178909573501	87.57133310900139	93.61823255661588	72.01153756526516	90.20906504021049	19.25696241444218	89.03176476074366	62.13336166075348	12.44718016091086	57.86680199693843	68.51351842532674	56.36259191596117	85.26009142759399	12.67303032993473	41.75034220252903	21.98889866514495	92.95387037684912	62.58773846185867	48.33251426062748	74.23951608167714	88.37455287600504	89.1472058988832	67.52273016001578	64.20721631740923	93.40345968932819	96.85590511961777	19.32302406732478	38.51462111677721	9.631230604544037	91.58111240046512	90.97663604785036	43.60857137550879	0.3345607225440296	9.154103242309141	66.95409177077254	79.34334486888582	-2.149144462396416	52.91673297230555	62.69234164994373	20.90619883579982	78.60019626897666	96.26948380596211	74.24523457906731	48.99520088923646	96.2508824451947	87.51685145398231	37.15411666664329	51.65059452311228	10.9147625060327	53.33536857196417	17.04406583405168	91.2519094459099	6.406174486104998	85.08218617574497	6.569385705439455	5.56282909992683	94.22023285963586	77.1512046430331	0.2889803159220737	17.35023497524403	45.45130262727175	33.33810076431057	31.84425872398963	97.80130751278203	23.32915521700129	68.57308120713031	101.7562771578613	38.23604955108055	61.00027432729965	4.478438009379858	49.0285936651468
item37	12.02804978308206	87.03878327815121	84.79564851361327	14.98059932464858	80.58087683146317	92.06100095336697	44.68310192284556	65.51423819514487	90.08694562116166	94.89622812696292	32.85669105123374	10.99563593181445	66.97293904539455	34.85516088484133	33.96046882855778	26.39146062933489	84.73501389595799	50.43977685877539	20.04590839190713	74.16306967111362	10.70377481339431	45.15429403120804	91.08419646753468	27.87341109803841	89.09832522486334	93.69685202702654	54.13695051956308	58.53643054216948	5.05542934813516	36.78460848478657	93.54625818741521	87.02724453552042	73.16515668575649	92.27866769026362	27.77201659336557	90.5886222837058	53.71980483529081	13.3803847449152	71.61727843026244	71.71013986300504	55.32245521198599	85.89574243993351	13.70529187280786	40.73678490767715	19.40430334866469	102.4880613577424	61.91183505775742	50.90744380055433	75.75703403348678	91.02543175040107	89.87785886857088	78.93876733984423	59.6838273415945	96.08484896111574	97.28006678715889	14.80466713575638	45.0793355659596	9.895781402627122	93.73787258422439	91.90902888103237	52.10251493746152	3.208520661281642	6.456235196748835	64.65640853546907	70.62235575762402	0.3482771251342482	49.80662947527379	70.19532195720686	26.01391551641682	80.65757862364896	93.95635469226772	75.49576903475813	47.22541107068446	98.10863921958207	86.17238676155048	34.88323485660414	50.76123206804824	9.782083467764172	47.02544389466799	16.58210460868581	86.28600350516837	0.07282534542936681	77.93907279095076	5.208807202149372	1.221364264710339	93.29659873127322	76.95335646193597	3.208403683111309	20.8270144198325	48.06810017896643	32.72906969339103	32.00075904106066	98.98904028767303	24.53334727500756	64.38927076906415	90.18199191621861	43.71997544895067	59.61441027060854	4.292886068973877	51.59001824349897
item38	13.06358407605784	92.02670331470253	89.03596890048681	19.29598477682559	76.71354388135177	82.34077672647382	44.21901190403178	67.17681194089911	88.75165937443897	87.77602531235934	36.95212136745928	12.99774153552659	60.12684656647162	33.86063084573712	36.23350902652959	27.24836277141829	85.65314667956332	52.19011183156325	18.7633089726955	75.17293548412637	10.98391899594932	48.13804018583457	92.72101035258547	27.16055920519636	86.64178794892422	90.48976671827839	56.08073060222625	60.43800598921966	10.39914175787152	39.68380360768045	93.00495767732131	95.67599214624558	74.7753150939936	93.53621000996675	21.10883044836365	91.82570198040733	56.67441589744229	12.58383662325237	63.56120636450123	70.48228573899387	54.79481296780217	81.84674889157034	12.38194609410638	45.07543399648497	23.5382383781165	92.99046780569758	62.25614876313008	47.01864626758152	61.03705927943949	85.75294918849613	91.626925316033	63.33762059732758	59.50525698726326	86.41671022316396	102.4935149514672	21.9255509447392	40.12175199095691	9.080577819016009	98.0809809296848	92.00771600929536	41.9792647220033	0.899423637736307	13.57686861729609	59.71316221935908	70.95553401971499	3.106361745122034	48.11196551580186	67.71497318974876	22.59494549201467	85.04985901843322	91.58741090040381	74.25681881493587	52.10268565301219	95.88250230577967	86.3991974366516	39.6212655104576	50.42645120057559	11.09899209293043	54.21149485150712	18.75983465705299	85.99297641511752	7.223138465219064	81.66130860057309	7.345605136745112	1.221912957091335	91.62891922222204	76.71411400476715	2.215042183439778	16.49248779906557	50.78162468112748	32.38545550897022	33.50219766392757	98.85169801744883	25.74936549289755	70.77073601964659	96.43400857291795	40.46808001516171	60.40307146494406	4.115091815979571	48.1647689938081
item39	11.75973253106458	89.13599263477877	86.36294602242191	13.85525566344873	84.19860418858697	87.46658674538237	44.26581487310523	60.49605949575385	88.73978323173638	88.53172960769571	40.20827435839397	11.99762416471755	65.80897377899215	37.9904590099522	34.77199799471225	24.96507225160619	85.16931542746291	50.28867537033549	14.50443142987156	76.71531105059442	9.90366039851058	63.4964413315485	96.355843077035	28.83080335751815	82.15748232104005	90.71190455490442	50.05951666920562	62.5536275686495	8.154786981471755	35.44328322735302	83.89647134703817	87.01137765146666	74.053994566783	91.1469008080021	26.63901334349814	87.51555086466945	52.75780138524537	11.53216966397645	62.29488313233445	71.00876693701737	57.20824091169682	85.09290630053339	9.30763762230637	40.20146078590668	16.52140992983239	99.8383313816163	62.3829491165083	50.66915545353503	62.98867921744186	82.85500287600586	92.18101533233943	66.3369571042717	65.82813063638174	94.1049945059353	101.301677584177	21.99558579836874	49.40469776209958	7.242696725575792	97.44603374386048	91.70557991362107	42.46657171788032	2.129403525212382	8.457878161042556	63.98788482966821	77.53030805261855	-3.289067722327368	50.37273409154912	70.30755484740449	14.08196243060922	82.20050878659887	94.70738680031683	75.02087376315774	42.83109350915219	96.90211746673383	83.93494716623724	30.9243114132458	52.54750056375715	12.81994880758616	53.84058930085287	16.62575904970141	86.53212326559652	5.749202315727039	80.93550548413538	0.1595762980818387	2.679411970545489	95.11529505676444	76.32626096403737	0.3061215944241248	17.72472262572095	48.30747231838507	32.89207289395698	29.93676463707046	99.80669112189521	21.60877738157475	67.17269359222904	97.22553449218135	38.73480936998975	60.02608121963623	1.999734679069884	53.46605119490633
item40	13.26748602547747	89.49882929880606	78.98314094660572	18.14019664307814	81.92356262564516	86.92656722019738	44.42109648189079	67.33948449414876	91.06898823378134	87.59111431621797	40.89012393250132	11.60702495739294	63.35448649010123	35.07941658398364	35.77364142140904	21.34777883871877	85.51795955652575	52.23571794193355	17.22785175174477	74.84639215763522	9.164203633547483	53.63365279623859	87.39712439093353	30.07271318185846	90.48036367088405	91.67760691164361	48.13309865973563	59.91566723984493	10.53442260804817	32.26995724495941	94.05723064669191	88.35866155986201	76.263378694439	92.97166930921242	23.49431637813054	84.27572463440757	58.46360504895727	12.9696013094412	60.92560572469102	69.45311735078634	55.47536184621903	83.48560517878975	15.88513482471161	37.93314423984848	26.8736018631499	98.36472756424817	63.471473634882	48.76079605412468	67.82085572883989	88.61060456204153	96.27214239106364	66.00813859951444	59.83540599425604	93.56111449319569	106.0005777673619	16.68710214985075	42.09041243971339	7.956194194651216	89.84033155977328	92.0100139311083	48.23765460211201	1.109216391806287	9.524483215463883	64.58450643249647	72.48323146316365	-1.280147360331467	53.17710799464349	63.11069793725665	24.35475129680825	82.77953054106004	95.35120074100027	75.6780837839602	48.15610607710425	96.45388299349263	86.68663085127088	29.71466638152014	48.04343690165751	10.96883629430772	52.75556934281049	14.06915617257749	90.24918988604568	4.073463016979428	81.14522313554738	-1.441701991795772	-0.121192005033713	93.14044365825708	76.7699419373084	-3.135844997468825	15.61714990222656	51.71335315364234	32.0677068011324	35.25056541934713	97.72771936828674	23.44971110528203	72.5590759253045	100.2107381691845	36.35374523176176	61.43116645574327	7.224798167132906	54.64533567417114
item41	12.52938664642971	90.87364124980165	78.84953098650799	19.00226306731422	80.27770336232658	81.83148647552153	44.18074623827787	66.38504936948085	90.20474309368474	92.4190994253448	40.17160688934516	7.773408989540819	65.72443646081013	35.66780637486256	31.66287641878971	26.87987504235229	85.58989022046858	48.94899778854673	14.14831907218317	75.33995421357133	10.37474517543211	41.22995029993655	94.08813947825992	27.6182209075955	92.35515155400594	93.16636304330186	48.48446692343111	64.10632883744206	14.13984822588917	40.60149776965814	104.0133973728491	82.90443611152537	75.2318932966938	92.69020503769354	26.99780823518992	85.13614888902758	47.16080230570316	13.29915534758181	68.78656941044028	70.76032166872585	57.91946373649532	82.85379060542655	11.46424173643276	45.26404638854792	16.14207766184904	97.28600011652256	62.45096510465929	48.10969519530466	65.78779839279298	90.45758492478673	88.19105170981213	66.05568846149905	62.91638886472177	88.79906808145158	95.21233368131264	17.29029209969121	46.26796198748714	7.55175462436827	93.9329709995081	91.2198735452716	51.20728983668435	-1.967037672194944	8.759296382849874	65.54800932897611	67.89112942280138	1.717324533432414	51.54715226641761	72.43607055810003	19.40140755978694	81.68059436638248	96.06906197320104	75.60733643891037	47.35745541560558	94.68673615250682	85.45152762541113	39.63454047236156	51.79715340734559	9.993626113339195	51.40514231611235	17.31188475058103	86.17075737025766	7.468106636306184	83.50831579315506	6.060225941218765	5.750027336301768	94.62307285371936	75.35019092446846	0.8412808365576934	18.67999272267546	52.55807727357886	32.0340386649474	35.7168793670654	97.92193035149475	25.83069817495884	69.85947803325938	99.19494911131756	41.06996311534854	60.22185134267498	3.981133372528715	51.32735811308487
item42	13.63609114020417	93.32204440200303	86.48536504951781	14.50244624427068	88.99442449869666	78.91767851862966	44.12116706994647	69.53480195098616	90.04239290769698	92.46616904036026	37.61991027993867	10.36421644737373	63.60525087411618	35.49684075332998	34.06692085886208	21.18085059199182	83.0506022481036	52.47382435940353	18.80489997735582	73.62267735029936	11.16422787660622	48.39460757792077	93.42101417875575	31.71060640042556	85.66258525514097	89.36666864253831	56.14950707828824	69.5011769799144	7.85414994918237	40.60598420021864	91.19401534961345	87.49372693577004	76.02226791815932	93.77124692546967	29.78706250098132	93.86295022453521	62.39342749625249	13.40092161688522	61.69800047707243	67.84061748512279	58.3428091307495	85.07262436890294	14.89545545019895	44.1900746676675	26.58633498086425	94.80023446072452	63.7969503988389	46.63344529656552	63.55182654598264	92.88657733155826	93.88052153572701	69.1985298539194	66.63645371331478	89.85509076405656	99.3413614178085	17.12413361320706	45.61826761578722	8.30368545050211	91.9296193756855	91.75184525926278	47.04651636628756	1.413908642943628	11.40520430959401	63.9941623246628	69.62134379895824	3.382208888447547	51.73082812192711	68.64546420359123	18.51012671271107	80.90109236608053	92.14226480197505	76.14836156780876	47.53582751262856	94.5006190185988	86.37168097450802	40.08865917561834	49.47916818938744	11.28415565312989	52.65647895780573	20.75751338449103	89.18958688466442	6.517827420626556	81.62621945753578	3.848296894533513	4.650186912244985	94.516899678052	77.41838510339835	-1.403993508052986	16.53619983304394	46.16810512394715	32.19687271428516	27.599797689212	98.70390018621556	24.23530362849971	66.90026932517144	97.22510580332475	38.0384924655921	62.96529537221836	5.990488077320027	53.24727855806318
item43	14.82745458230978	89.47179911553516	77.01724568203159	19.36582614354385	76.80292996559798	89.15357097831271	44.52857529755243	63.845242071572	89.65810034730494	87.61965117185989	38.82936462711906	16.11208307959021	67.42280318052927	31.91879656589798	34.85983327460504	26.4797067890477	85.0178388197676	53.1367792575041	17.88072551533799	75.25902191802366	9.148109980644449	53.49083514222092	91.52103905207721	31.86566226020147	85.61338948594673	94.06049353064171	51.82520289389323	66.44464409775041	9.533536229961282	40.73262621091574	95.73253015330168	94.03177561586715	74.06132473922784	95.08346846303536	20.60368142016517	89.85632381480991	52.40295991959521	13.48246603973789	58.6932413351235	69.01252023078483	56.14336486060346	85.90708073980942	14.13270205337221	38.14659023903851	25.49467689403373	91.31329636350908	61.3500160100428	45.00603549954183	72.22793974186899	89.339747186005	95.9700515670617	68.97740944548755	65.67538163652151	94.30736399086008	99.82830802182703	13.07889313769865	41.17492915325978	5.546190166837508	89.62376457511255	91.64556629747027	39.73730260388431	2.011394166422263	7.888775169030101	65.98157948600971	74.03228787169638	-4.729109368559078	50.12163785396835	65.63887346611186	15.52962313476747	81.40788721481917	95.40261646440861	74.26310902396895	45.94479539161884	96.36729091518522	86.29259760990814	39.68420816404115	52.05770016443525	9.232097166819615	53.26420198932449	22.33707832115613	88.27573533939076	6.565859901106765	76.95956145399546	9.255062077248603	0.07277054682527417	91.36902468167388	75.06378830916073	1.163496440509266	23.47449605241348	50.02982003332587	32.83920375108416	29.04576451063636	98.04832088145152	24.30598756599387	69.25350623173553	96.8613049053867	38.25513694610225	61.85300764877795	6.973769312888884	53.79650668376691
item45	11.43271834721564	84.02389808525659	81.18671788051573	15.01321977161365	76.96124966217911	87.3025775573124	44.39236391097271	57.47564689926836	88.9021191235686	89.52241624342925	36.26792003732471	11.09027787145559	63.67982805686125	38.50604573603227	35.84279597906183	23.33262052477056	83.89867230414058	50.79345959206684	14.52467615351107	71.36853623021345	9.583575654561599	49.93035824203278	94.42693037916504	27.47781995839721	91.15628839841017	91.77942539477517	49.95399095167721	63.47414440082326	5.516014763926774	43.4155169470851	93.03307677919958	93.84524216942543	72.79933814807792	92.31665336284975	25.11263881386214	91.3546590873696	59.3435795209783	12.80234084760938	59.312303371959	65.43929614024148	56.44689976751167	82.70460875518977	8.880847784202846	37.8025601070997	17.6461684758284	92.48025224920542	63.87768794683608	46.23091721437212	69.03214089873178	90.68473180250081	94.42159052049827	73.70620623687911	60.87067070934284	93.81875726645214	100.2511234816133	12.65213930526376	43.63643188215782	6.61743248596444	99.70128050333874	91.81632351437662	43.57147969768832	-1.075211392636521	10.22543766780949	68.25979126613313	72.09460576091435	6.722232955354316	49.615927627544	70.83656646713662	18.92776197777579	83.03680261384181	93.42220270283909	71.82646962472158	47.19561520846242	98.22782860900516	85.75786207981044	38.52790238073302	53.36392009120556	10.60765040642586	50.32006424425222	19.14778089350185	90.3089235584515	2.475501657651634	78.83378778802408	1.113069615688715	-3.254595699333749	92.37553177632648	77.4703961564728	-0.07873279216382623	19.3075392066682	46.88476325867144	32.89070155330398	28.67140869490848	98.47388507979801	23.41753418575163	63.85419384521575	96.80058053403367	40.44966874488258	60.11366792867452	6.300546548306885	49.78652556468712
item46	13.14175167794802	89.22243405047688	79.84425110878306	17.94852517086466	79.7251964113424	82.10417794543174	44.30246671225531	67.02593321893804	89.69387412329593	89.82289839274603	38.74512912841753	14.49303002667958	56.66577071519976	28.36650093623217	35.16230276072532	22.10884996695768	86.91351246501833	54.10742873628682	15.05578707708677	76.84972336479028	10.15104752181487	48.87718266355502	94.20802158521757	26.86342394085401	82.64267978433443	94.11991812935592	46.14951200544963	58.67269850388238	8.398150628950669	32.61359044848677	91.0340375707143	85.43926170041664	76.79317612892564	90.13607879116029	21.28230461151944	88.43861794884532	53.17032300976459	14.78581333304863	55.09055798072637	69.84378763071277	52.3679590875019	86.04775944172924	11.79725202279549	37.44019573562891	21.06724143925596	92.56029066297317	62.26179036975148	46.27848538326068	64.26002471279818	87.51172722147628	91.28282591684182	74.66708406731972	61.54827753988191	90.22593438102308	106.7647537100202	20.30575976736518	45.45794159645065	9.522325860304807	95.6212719482667	91.53775285410789	49.05332694342364	1.838566238205005	9.715395722390012	65.07730165834134	75.51885539197333	-0.5013674507453599	49.19807456755962	70.24815945636692	20.65012977696012	86.68751955943731	90.68486550514804	71.72245560579059	48.61386641821	96.54691240659595	88.2938420337177	31.98785191458204	53.2938201227059	8.996637068632282	47.88275539755826	11.16974593622285	87.02238781809996	5.848231389779944	76.83436645368307	-0.2686134322907208	-0.5012430087893756	93.12174736196297	75.8681956509498	-1.53623694365581	19.1610426701049	50.66791933239761	32.99873381728592	34.18186675283554	100.585332753305	24.2817583436158	67.0043689725259	88.961696880796	39.45207643917514	58.51533577486327	8.135928183003918	47.01668331993459
item47	13.85903973670734	92.36107876271305	83.44462979262384	14.78210190815354	83.94470076734974	90.16065782226043	43.72657049915215	64.10727999318553	88.86796724601015	92.047144171621	38.69385134715746	9.626357932522765	61.65406286464538	36.17034593330204	35.90523302845196	23.11367809522113	83.37726695139384	52.67943601841945	14.12875170139336	73.63426035754836	11.726713224926	49.16340423153596	88.99869420121408	31.15370414917387	91.81909562340215	93.82310950500683	49.85190719231406	63.66820735037751	2.517704603931071	37.2634155767862	91.14875950628564	87.66305332424194	74.84779010510564	95.42408397281241	26.14815638699883	89.47429003337305	56.49400074867651	13.00550289357416	61.98034781721526	68.93737659164429	52.29177874996069	87.24593708391498	12.69363359618174	45.1837608542375	27.485657002121	98.03221579817608	63.37772573117905	46.70079164919891	68.42935706841845	81.06473807376764	88.72813646513308	70.8924172932079	62.25113287370441	90.843912506862	92.10712149750705	18.03317107541617	44.56360754070703	7.053238249812376	94.68222320706919	91.1191920796487	48.34682279778965	0.1728492534375211	11.17442175751572	67.61093639819315	73.34721249810626	-0.481193143039122	53.76984123253025	68.77530847421664	20.67873464105451	79.79008895485198	90.79861901166021	75.05838785815494	43.77788344619709	96.42736444248555	87.12960266402213	44.49747296681224	51.40573738299815	9.603471886122474	51.88272485623514	14.66672174542731	87.8001865714745	4.101462476309424	84.48713689466717	0.5906119447909051	-0.3444930397801187	93.96367737924068	76.9111692536756	0.2720775048338821	16.0829112024257	44.0021322704531	32.59800311376064	28.76841670261648	98.78042205011722	24.65946885147142	69.6982351368414	95.79367330601082	38.56831907950359	58.19035186095716	0.2529747153606996	51.11966418369237
item48	13.94714975930135	86.73279760243588	83.69317856132744	15.70414307466375	86.24360009826165	80.3377432549398	43.7180473200422	64.31369686264648	88.98709993782489	87.52530368225791	42.1075564222838	9.963096994524292	66.34998265247029	32.8922743667524	33.68183787075294	23.46628826260667	85.16474662775741	54.12958785800856	18.37927529994035	72.45783991157867	10.94802747533493	54.40908076542619	90.6205976129588	25.68491820061206	87.02319879355764	94.1919993014519	57.09950606501975	64.93640824865695	7.379626331773908	39.03855463817891	95.73674667543062	93.99068304954029	75.07487726015609	92.83685127487843	27.06016738383494	90.89982134123032	53.03550120137096	17.24954789021922	54.36429511815831	70.18346266959414	60.53961517539611	84.93692404231808	14.85045998169716	45.39687035039471	14.88354611630444	106.1498946233362	62.71141122561944	44.91346147003653	69.86934204086103	95.47553801095621	91.57084742684016	68.42012129970625	60.23793920518728	95.31441439003216	102.4328479071587	19.34984872306163	49.69265604096214	8.747766113407438	95.49713627422645	91.93406667763239	39.22324456335586	0.1321061851954848	14.6690898881745	63.29849505508744	72.85782667728843	-2.723376172958026	51.22646801299896	66.68958210121924	17.27444885346057	81.36641775141553	96.47744813269586	72.91179491447129	48.42305520135365	97.27592416747366	86.75443134270549	38.60707882667875	51.49922466307005	11.05102387905841	53.14239580574723	19.85414941966931	89.93517217511517	5.796509885803599	83.82046534864286	7.352273644027639	-0.7263227378056776	92.04327762027874	75.94559063210762	3.574039706796468	21.40767955491336	49.03428730799381	32.71661529654938	33.76246633901483	99.19452908589234	25.07964617487088	72.84896938979108	89.90594308336127	37.69504132547621	57.76157062618596	4.984655641181172	51.2435168173464
item49	14.48909755797368	91.1796973409453	79.72549048062893	16.08819766840095	75.25899099230239	84.11362577869406	43.80776440855272	68.30022804769114	89.02184542198655	87.91874294062525	43.97510154572196	13.63692252903694	62.9188688879588	32.46551748932495	31.12405436721089	22.73191657637189	87.41689545804817	50.40491644185097	15.81307378679093	76.59386550508272	9.856716890285908	54.4838395306742	85.59130238947033	31.16227137061929	89.86871896175379	94.81573747692163	46.9857368348207	66.19714391418968	7.21940368744287	38.81710152345537	89.72499703439424	87.68485365767516	74.17102326726332	93.76845672483053	24.9482084596123	89.4410622225231	49.90728992919608	13.60944580054844	62.91760696286585	69.31699158720828	56.93766817009433	84.01235253896496	12.74791800632253	42.43084786338132	29.21032801803053	96.01655743319246	62.92543031593762	42.85551657958129	74.78716173417857	95.94916804624708	92.8480419931328	68.72404575670323	63.10099726157675	93.43034862816829	100.4063849653948	22.79957375952011	46.56563629366485	8.229999837040241	94.46116742878509	92.69915225621565	49.51912779096006	2.523484265549586	10.83865360617481	64.79825653266143	70.31618608436189	-0.7611170823512481	49.13989206070309	71.21759414764747	20.33870426072015	81.48372215897986	96.35252379928232	70.92039796827456	45.87511826853168	92.77674958671055	82.1881545130218	29.39982098506778	51.33694929575857	9.758895566997493	52.80102532251471	16.72598349733591	87.14508263901047	3.351506216005747	82.15413542409399	5.396619581085917	1.267558739292717	92.87294139506807	75.7921861605588	-2.912973901535667	17.43324259666166	48.41762506353203	32.52340881563585	32.40709279542472	97.35719421364699	25.90263864771513	68.75734691778864	98.54772275890238	39.7025957216735	60.06320591681666	2.439283693020919	49.67855048799528
item50	12.27082960831891	85.75032242619596	72.7219057700984	16.2792983189061	79.06026427354379	85.96763516782204	43.59196731261556	70.36489930699223	89.00990600810495	87.40526459863105	39.72273448155318	13.82915599345122	65.53126782976278	34.59220942317673	31.0192906682303	31.98423780782014	84.13453311872719	53.82395156463431	18.28407874780338	77.79180147229663	10.9290499634986	52.87144203779352	93.95313604716853	27.47536948768542	91.71258126315162	93.69181196976069	53.75269111379745	63.24913394067718	9.334340777386011	35.45856800687086	98.00225861661606	93.82642649408996	73.97542599316402	93.23444500997552	31.61422916062295	88.16631361869115	59.46313417151595	12.21652524170653	59.19438828295733	68.22661888044115	53.71186386730226	83.60172864015037	13.09303861791986	37.39393935025628	16.58242350105457	94.17152226313623	63.12131423592017	46.11232300474673	63.58959779654579	91.50298201324621	91.46367956107392	70.4630849298286	62.63134811781775	92.4504135290976	96.26610699388407	18.44548943252603	46.65643950817677	8.758930352770749	91.73610378734469	91.74044605432296	44.69928109095899	0.8027015692301562	7.852900788738131	65.1893327691063	73.14188379964595	-0.6353009607713881	47.81081307197739	67.23950404077766	26.95772979542803	89.70409417072075	93.43922735566517	73.59341966881549	47.03926130365947	94.99200209145599	88.94959767181456	41.00778608635255	53.84727376556616	11.82340422260871	52.17648957169343	19.13001701379286	87.03752694141134	7.110973447615637	87.9569403405726	5.933505381308972	3.266325051203378	93.9612996040682	78.04222195543909	-1.198650440291836	20.17303410198722	49.57244152221811	32.47051555710436	33.3100342903729	100.0476634228573	23.64239321284995	63.91078699117391	93.18479885028553	39.4937037853194	60.19583951272377	6.405638337222416	51.24022890345383
item51	12.03119858792674	88.84825432050332	80.20577842067416	16.83702435023921	80.73421881115731	85.08575843298992	44.58681768045574	73.79915139779798	90.288835808062	86.80461321018846	37.75046189325239	13.07300348294109	66.90884557266121	32.40961055762759	35.66689385765592	25.25905445527136	84.80281680731022	50.68761097673117	15.53971544728938	75.54488571342991	9.872839055612481	45.37865888510057	90.98320496084955	27.74879229441166	90.66519667307838	94.2999190203647	50.82374562703787	60.68921877195461	9.550367702461781	46.74950325740931	91.05545422990545	90.8726032803802	73.85841909935733	91.45452630465248	25.72733301327617	92.51489771575486	58.20323176022475	16.37784885214217	63.65208605924256	68.55376359720857	56.76622114267413	81.94820427219905	10.98946635332466	38.4396510309349	21.92664208755189	97.42655813927578	62.71240805254386	43.8540395761198	69.14314391206094	88.19595466057955	89.81128342384385	70.1793845563587	62.84862613273159	92.13466086601703	101.4895470866524	19.23317230209302	40.14058232423742	5.714199459446531	91.32146677691125	91.89412704038845	46.67779499303879	2.76470536196813	14.43735139399348	63.67356792409913	71.17283603459346	-2.043135200181685	50.73922399635515	72.54612749385072	19.52607460476651	84.32408031305697	95.75827688532411	74.85716193740178	49.01480184420782	95.17758635659995	86.66542126954818	31.45510265538955	52.14135637595027	9.030438531020016	54.25769613637707	14.04612780557627	88.8978259049113	3.175203173451892	86.44588570446831	-1.568102761728885	4.95912810861287	95.2040668213145	76.26207854669207	1.338904201275439	18.78044858538443	46.5932949592071	31.97609388989015	26.29465543545381	99.55885208496989	24.82009709801162	67.52431818135057	98.88948223338267	40.32054557900904	60.7532072898187	6.820772158802184	49.73816165159246
item52	14.13332790344929	83.50737770180868	85.63149086735525	18.59470005676598	80.14082548372672	94.98926008115248	43.80253829253747	66.78276545410895	89.24185662882375	89.21233114394323	37.77197757009655	14.41735087831834	68.86152732138605	41.122475856009	33.81119440498399	23.83789818624066	86.11432958544714	50.36003316293059	18.58362727645724	74.92635681353242	9.272800718303589	53.30597180312905	90.67734685048646	28.7246275432382	84.88575869560374	93.50485882224477	46.92699264067008	62.84325724945391	7.30826852390225	38.35928739208126	94.23650400894581	87.09917021693892	75.00853944736173	92.6805125175152	23.44139523043473	91.63767110231127	58.65013028317295	15.10121350347925	59.10111532645092	66.83341333816716	53.31822649884955	86.27073799549464	11.70881149721951	46.1035658626389	27.04046913345606	100.3301148120035	63.2621313812323	47.54323360895259	65.14078305805597	84.79504134828458	92.48121853713886	64.50824172745062	65.8930413192176	91.07251838684135	95.57355625764646	10.49314950336291	45.40112099515321	6.454960968906843	95.82213895291456	92.53324581071435	48.30046783820199	3.226580646222025	6.46556053280896	60.90470964168203	77.31650320223308	0.4608521798563552	52.41000721843636	64.83468083373008	18.1905088670248	77.96843857831476	97.37163165302529	72.89303416800135	47.61135075999852	96.78733676957927	88.07937262977592	36.0783773766718	49.85777899777479	12.06612504621282	54.36544121689598	15.03481563792309	89.39032294299516	5.618673614668699	79.16099028620968	0.8515397454671478	3.061697092654848	94.6114022731967	76.57095242031272	-0.3512101181634939	20.10263828035103	46.06169363292825	32.52282502177532	32.89917273585887	98.78755670361143	25.54798101600815	74.98738053906121	98.39566495797378	41.97151087810185	60.81510152349259	-0.3648495955598232	49.25373373599692
item53	13.8867484171763	88.02499755131247	79.25932820516256	20.03833514211017	77.13521821030524	81.86139555229384	43.69034744238715	66.71036565067955	88.89673349625247	84.22794352392394	38.87396274827603	10.77815847053948	63.70423982287952	34.73084290421462	36.84678639992618	27.8727738813697	85.31163508795601	53.18512604956064	16.72331560197835	76.21057074528794	10.35240954836262	39.56227563825037	95.39172528346651	27.89599685508343	96.00119398260735	94.00091172014137	56.10384959887642	61.23187711673928	10.29253632710658	36.4252669693418	95.19065267079432	93.38390741753624	74.68755958933052	92.25358100972953	27.06649096021932	86.7551180300421	56.0615580872463	12.05948183153104	62.62661446291217	70.19134401858314	56.78654155866622	84.59472302776106	13.63645326398888	36.84853918528783	24.07849738154777	91.60184125070313	62.81636327028856	47.6910604804994	71.37489567958846	92.15138405773799	95.41828170518139	66.85787056771609	58.83453841159277	96.42457909457283	97.48033895331606	21.96479356149675	45.49748919496601	8.827312669523936	100.0899888120427	91.96459152806813	42.20093557853458	0.01284650663183662	10.01692200098926	69.51130366572222	74.44186337730298	-2.257401717028018	51.65740241172447	64.09615373266899	19.89394934229678	82.50052203812947	92.85981246445317	75.75919360010965	55.6552814045999	92.40202309476541	83.88768660331748	37.552243819355	51.99690506556544	11.36102073931737	52.44287203238169	18.7045416965176	85.30115944307906	3.025202830314921	80.47589555653784	4.119903585157281	3.340556214178855	93.78734162157272	76.27399441372606	-1.084030528190263	21.88791309517728	50.15689699316819	32.53844859901611	29.50921487112429	98.49790329611366	23.52215998647577	67.73006927744089	99.62585080082424	39.16443052010455	57.98540615578309	3.915165405638823	51.05177129618015
item54	12.04689006003085	90.06723094454159	82.54742411675684	15.71471465457981	81.50316649171938	90.92233394113028	44.17296025113829	62.41932515650796	88.77677938100604	91.32630091965989	35.81679912593794	11.09251047124717	64.14079479112576	29.56811641881581	37.3809642704982	31.75638338079101	86.23293208690156	51.10714097301393	16.12338391410047	76.29033836245549	10.58538749173892	48.99637498330329	88.31944425996571	26.59039311935335	89.52183320892115	88.81866916382251	47.81369421693304	57.71257441444361	12.56848644234877	36.60256361863303	96.29382036626883	93.04832167915663	73.61459926756011	95.12752121103539	24.08670872693304	88.81244188602003	57.68666450702244	16.76228643850278	66.56493075450756	67.9542339160315	55.89544589041535	82.418275688189	10.54966320979989	38.72208940151412	23.20228610719439	95.46538820587152	61.4585885087082	48.62715427848848	69.98752960459316	93.16146971668793	94.99750564741858	71.79884152334211	65.35066263245849	88.9446292252187	104.0527804355672	19.4762509720281	38.90834050710311	4.709571876225672	97.43898402593875	92.15762623746505	46.77248060175424	2.353158389706858	13.11446077728051	62.04505779767307	71.56362564744384	1.584966740850464	50.14710503488346	70.83927486506633	26.00975436392379	79.61041045791262	94.05320086052944	74.91435641725695	47.70392364273013	95.62142661532008	87.34323363361912	34.05420609561347	52.94238096298606	11.72986575896748	49.15191803483967	18.943827353781	88.57447844050013	6.885455642494369	86.06373138707774	0.3128523638204772	2.641692165789205	91.92059240147898	77.16945174607358	2.263211707244603	22.18277943941146	46.69260213056332	33.3864056406406	25.97590755587162	98.72747483867295	23.74006284487188	59.84495787885428	89.52148233300257	39.60911982554263	61.47008798286704	5.574404389055649	49.9725084923168
item55	12.79424888264418	88.76707235854167	84.19234163216402	18.20439684767529	82.68718165403101	86.14242879223561	43.72361746325684	68.46929105001999	89.87260958417835	88.37539820147015	35.98146408679992	14.85947925420962	64.11160982292336	36.20454573271137	31.42972125168507	22.13116249427453	83.58574365815399	50.59570454301779	20.21268093436266	71.40499033601769	9.128835145941885	49.81484912700417	90.53131345758689	31.93474288391859	88.92646208356521	95.73566662295698	53.75612514606051	60.02772281451572	11.42751724135023	34.69050832397479	99.00783738101114	96.6656425062705	74.90571775838175	90.19358281127954	29.0299756601998	88.06202568706536	53.27581637779097	16.19033587045812	59.61633241292093	67.96024801067996	55.32725341521527	86.01331010437683	13.22158643585025	40.59562184313746	19.6501947514128	96.95695143703078	62.49747075466949	47.47621285672535	76.12228959097433	87.22666715442379	93.83570032465055	71.37682712061388	63.50603014549157	89.26015053538612	98.70647234213415	14.56561051549735	42.93003745090927	4.935277982342145	88.15551680737951	91.77137453893927	45.79871374335205	1.174990507067252	10.71248753102405	68.58167202776383	78.71823063244911	-1.958667091073545	52.80899760647948	71.37074817609563	14.39024630699091	82.30773040577631	93.4575867930679	74.5006696880308	43.03642049346261	93.0556285951332	86.35523839841491	36.57243429697207	53.38176746289352	10.1835358754873	55.81094362918851	17.30356595509965	87.83173274339927	5.356322619775068	80.13139099745952	3.92806839897029	5.216819802783037	93.03096676349477	78.28804481092828	-0.03879460772826798	19.78961727463402	47.34092201096349	32.05939514328247	31.87536180732169	97.30180487290066	25.62179248017463	74.3508070021295	98.85782215085248	39.45098398274359	59.66759711406849	1.414533043864709	48.3674099765827
item56	12.3532045066508	90.1058177059911	89.21871943646823	18.0682803930825	78.69132204124244	90.03900095477898	43.81537064247624	61.90952679209054	88.98019775972583	89.77724839622591	38.0860963161501	4.018077662488291	56.81509516968681	35.83387968480604	32.32318974271922	24.46289917101037	86.28907984671154	51.29145021669599	16.32292424926025	74.10794656138734	9.914544338211087	55.62726313052422	92.41590459747808	31.19828798409732	95.03123389358994	92.95326549936819	51.37649735205565	66.57620851174097	12.52187527679081	34.32179744537339	93.54353467386518	79.47534259497206	76.50300539736615	94.98846044713443	22.27790672453386	90.53929163791419	61.78363134485636	14.70974137562949	69.2050765244383	70.58795933772122	53.33486040926336	85.2881845539471	11.68396700252178	40.27916046931414	19.44699954000877	92.51075545752312	63.08838438229551	49.38283487777753	69.80819863194064	89.52527731736579	91.44131182836689	64.22251698270229	62.576105283305	86.95155048613759	99.6650967019944	15.55444126493804	44.63861246643083	7.369437879410104	88.25737485119389	91.85575330344069	47.0327374200081	0.2455468456782224	8.815084796239457	63.01610343892398	76.64270579594269	-2.523576701405851	52.19608933886197	69.95516818878538	24.75166713449051	86.17251399600359	93.41547039621759	72.73013416784927	47.45005089093645	96.7250611671891	86.00882186532341	34.9216053721301	50.78935943525497	9.351038367856457	57.05577528218166	21.52658099273926	90.77381433316076	2.466433528079988	79.55547788417088	7.302507004086436	6.28832660417879	93.02310823294596	76.72468857466727	2.218027785715855	21.21324950098145	42.54105522227782	33.21279168849361	27.04522519318569	98.22286112757428	23.01462212646126	67.68544124031885	94.6109494704573	39.31148582107958	59.01893578498786	5.030894740698963	49.720904165034
item57	14.02633543725482	100.6178180259673	84.96237157141337	11.0722125247428	81.8572646504947	90.46120118981332	44.57420453233624	68.91180201308786	89.81794257551597	89.36281503058868	38.70426208451221	9.353239724667562	66.41945069074845	30.52456753548037	36.07900209932608	23.21339343392503	82.42365727513283	51.21556833416964	16.58480580289432	79.86364518314807	9.594146004033069	47.63885765398283	91.63994234509705	30.59943769963714	80.00715026363869	93.94995874896513	46.34432410781571	61.81478492485062	12.60727155180587	38.67196500218317	88.45062857171513	84.02356506805197	72.38717442672429	93.01440321790892	29.72827821909271	86.98129436861929	55.86588275880004	13.62090959952292	58.6179018196932	66.36029362414524	56.08818677547232	81.42974656457696	12.81905786552606	47.83325059060824	21.88215397722974	93.36247933869952	62.65206138469129	50.82976762566204	72.38966420201623	92.04237934863521	92.20914845070971	64.11442904182225	67.23183395579662	90.27130855045115	103.2354586473814	8.434169422762078	43.05882546073439	4.805970459614626	98.09537663708431	93.00723810180919	44.80005980666413	1.469807148895077	6.614923150471495	66.34410520821798	70.94063665135791	4.446800576465585	47.92621225325266	68.38427504499666	21.21120339194576	84.89651150214787	97.0889471629355	74.96827537093115	45.71369469032899	96.4009845546063	89.61047519818986	32.92604986963178	54.18925132041136	10.92922054644188	53.02492233034218	16.88253331403054	86.63582984311093	7.068033984332066	81.94303564362104	1.956075519624143	2.492952088749735	90.69063833322024	77.0934124821348	1.084474546291736	19.92867785784347	48.95779496404776	32.42819800762562	28.75077792769942	99.9862319708531	28.2168046234396	68.85346856367553	96.90018711970019	38.92648795411446	58.60861295973144	0.9400852741273296	50.00231780336344
item58	13.3724252687801	83.92119800394497	77.05737964029403	13.77932756980088	75.22965076439689	82.08706997185647	43.9633129946007	62.71181225109081	87.34719680112397	94.20273602637376	39.88045922417318	13.01110463625644	66.2522086041553	27.85294292876186	36.69542907154096	23.33960917717004	85.49982295036914	52.09049173706623	16.07925991513334	79.17115677074314	10.37751720547304	47.59218605224903	95.54881093910571	30.00735735968783	86.09519899120001	93.41340315304116	56.22508233353796	59.0576797737626	10.27072139241136	38.3072478272533	96.89154236536694	97.15899861103865	76.8147695422649	90.39620955055926	19.14913008151662	89.36306577917952	52.98157816659307	14.41960877165606	58.30678878400028	68.44765238160957	57.79712916757518	83.21929322646612	15.15530396726067	45.64166543798588	20.35172133275614	91.51683261068801	61.76610142613577	45.86485315765688	67.72743905937202	93.77135764525224	91.01446995774387	70.31647776264712	61.34774274249016	89.17788834445965	97.47744126362831	17.77827001663897	41.28971993474458	4.615076383196758	98.77713488105218	91.2185151515591	44.63115580996713	3.161755997455238	6.365035694965398	64.42836948307912	81.17168459454879	-0.3220025036050151	46.89040896290577	65.74023447639846	22.38984829368286	91.10125439109778	97.19753897124312	75.2022880349864	49.8474566093379	95.71214973637582	91.98913466451609	30.85358606586893	52.24196074650008	10.65328375868429	55.77483830633842	19.01647987013159	88.59975052541751	9.519661383044529	80.87998077762254	0.3707807986255487	8.490422830883643	92.96610690270994	77.47067195772696	-1.26071622040951	17.90473381238083	51.24154222107939	32.8074479368585	30.59898367220515	95.84386764799049	24.44617378022835	68.98015870507737	90.68651838152759	39.14317211642771	59.08046348383796	2.434632066112612	51.56629316327174
item59	13.19633821420027	87.69267886540507	77.25507296572022	13.0159283689556	79.49335540806757	86.98547748435358	44.79304969144543	64.25284468705526	90.21901878952477	85.51658643446834	42.43954627188106	8.728143793205605	56.04911912479124	35.79966785592664	31.80896869606289	23.95234796722529	86.61108270156952	52.19904406207101	15.68916425119268	73.83076127864557	10.4742977309783	50.88256772885948	94.54082188067169	27.40853075378183	82.77392619745311	92.33800433624199	56.56198322040568	63.86316727274134	7.886512042328135	34.60838379225424	93.60235117007019	85.39586522962199	73.46048474439289	92.72575483875434	28.13542910418315	89.56852537795366	54.0575052426036	15.50023874019413	52.87786890840811	70.25416461404785	56.55741136923987	85.03830174037877	12.82952522142377	41.92602318688387	21.82134915755076	91.79795607399055	63.74123037471219	46.15899771092529	62.87555592018604	92.98642773383573	92.50635221175038	67.48925925594934	60.04614224427876	98.05981748718833	102.9666345688945	17.47764807404485	43.80569229740813	8.404645156301033	97.89757659688625	92.08724503285131	40.7018465570963	-0.8814828155325005	11.40866982238282	66.79835777606806	73.74636288988293	-6.165678633335653	49.16675526720321	65.8021132105696	14.32099392189114	81.17673249354775	94.16703703202067	74.01048299950642	48.47805556866832	94.07466033638394	87.60595465916671	36.51520278430541	50.03835229541951	11.30310868788385	48.06123176139446	13.10225041907508	88.77323251796827	1.452364859801963	81.49143110180984	4.413485727618213	4.169060300736191	91.12367379622293	74.92871197684609	1.140109840576953	19.18868298183753	48.53016927551015	32.95733962990529	30.59743284775293	97.39666505068435	25.38698342065111	71.76937613939536	103.5903982580893	40.39473030919491	62.01566279282902	3.161174086883472	50.82938884258672
item60	11.48056303976326	92.54910721120856	84.22396784524497	14.8137240981134	77.39218117198152	85.96071393296826	43.74452439486975	64.38536560874334	89.69287057485043	84.14837982381187	40.56215389785456	15.07237932401326	64.43478852295655	38.62563942196022	36.6696218277368	19.77233765289494	84.63324153832386	50.89388086435881	16.02527070298446	73.1966648728657	11.09562015915772	50.30423734405136	89.21265067112795	30.94489823766207	87.73832949197495	90.93199528707024	48.78880922174906	65.55259229909466	8.068126848006759	37.1880095291272	94.60610424783448	89.09088093630011	71.33444298011189	89.23208316387804	24.41037910563984	87.54259434526698	53.45280375698601	11.87628458314082	59.76243643337098	70.68675622757368	56.80044068407513	84.86533807891365	10.87965074525801	38.09695751679987	17.89812732640281	96.03764253557556	61.3526945290912	48.00656564395641	64.02988510586553	89.60131257353146	92.26012353665053	68.7535474456018	59.18698208688176	86.52965832976528	103.2520031826264	16.90284391926527	47.26628055027106	7.064793751783285	96.71416485435817	91.47066797274685	45.08198825631079	2.338042118810738	11.08583858869528	62.25163228076881	70.14418895370244	-0.8740601066862477	49.20467243280886	76.56078943708721	24.70448401123674	89.2072936912364	93.36244254892124	73.76903288001503	43.93626347397531	96.07920000983559	85.28180895953899	34.40107159707934	53.36517223461801	10.40652759056196	52.12246946307258	21.54501934473777	86.69387198526547	5.488877666410971	85.75700462885978	4.035217762655218	9.01115016110726	96.5253397283082	76.43488304635672	4.65181995044674	19.5424613167597	51.0521908736269	32.11564678375898	30.31897230346009	97.36064510677755	23.1127771207373	70.06087887485198	98.6868822283603	39.07802242117949	63.79193956022274	2.707098394505429	50.46677601445479
