vectors
item1	292.2605443965042	353.6280560599452	234.770906148115	22.02095208534891	342.0370546028782	221.6937195542814	334.2818679727649	338.8861567329598	16.14356724248399	82.62739351509188	391.4454890152434	358.639332000534	93.96093566141766	77.36274581534036	362.1612220372444	334.5508759568565	122.9717348273901	153.824904550748	76.56766754965552	61.61774161796863	363.465821138319	203.6617907827868	164.5715863656063	18.04703232330005	286.1520911025745	305.9021153052915	197.6746371069989	246.2802572539881	193.9277439506915	342.2415735343862	304.7452038520784	96.33823580899164	241.6569162400303	406.8814869892842	472.1445307540785	405.2034592171542	374.0812038378714	272.9085611853338	145.6539247555932	18.25014537673207	10.8093958447661	476.1205517174466	30.75996418278099	43.19966223302815	334.733200667842	310.4514030308222	373.8292437639769	12.63252778214255	267.7364404351749	318.0911543707126	356.5569652242006	416.1934374693461	201.2800510827425	155.0757532206171	369.6207938185258	295.1018847680149	379.033012647622	490.0058208577351	51.05167716665378	426.92280403966	434.1990429632982	173.9723600546587	131.484501774284	39.834312130225	495.4216043208938	443.6806122500026	366.9523834113968	318.1917769901757	201.6060345517079	24.06061035566335	61.3118532932853	171.6549449531465	258.0223759353473	171.97927917489	261.2500389513492	59.76451476086487	441.4785438075221	463.9184550295722	306.1628892064408	282.7705551672597	360.227147144096	84.72968476035749	149.410989076614	21.10340135883441	425.6632843615275	444.538777168645	283.1382077959568	249.6110563164334	246.4771475272766	65.77243381184338	482.5753544938745	299.8034551399144	269.8262603468756	365.7811452385846	174.3728061563596	78.09598330890088	320.6695246550335	350.9285681988716	286.3404839069481	167.7273818471699	271.4013020325796	483.8485761314228	249.4585917652129	15.72992415156563	342.7921785678183	313.9289176842969	50.59416900521431	209.6506170247376	131.9321824619541	20.69288285371954	54.24838820043388	289.8541640547544	430.2017892531812	141.308889601993	79.30882314740239	442.8252333944708	281.0791138932303	439.4434674360347	500.4700981243384	47.33331488314769	189.8309329131413	293.5648156467818	71.56313321665952	424.7592784760228	494.5171947183602	458.9004757366824	381.4329079027694	459.0114922440644	48.05913410932839	34.89630670484594	116.1283365016458	35.25777793875849	265.5181508549718	39.05488965652337	206.0902768959016	199.6775540157245	198.0331926670897	329.6898617757737	62.35466414011405	263.8853075152283	476.0723864591573	407.3985614905915	469.0173392353332	171.3062269270553	136.5216424256388	379.2014490347961	154.4591009765944	79.59579577328719	203.6717195876224	171.8422849576565	407.2822924533928	329.5939283978225	263.1635085397628	75.59860357495532	473.0908410989707	240.0695801143757	395.4025508193953	450.0318725724844	356.5443530783685	146.4510771763138	392.4719613715203	411.4394973658164	241.2493469165368	378.5894079219959	163.8419544697264	13.15956853259549	421.7562574104469	292.6536909162149	94.82984057293956	114.2177644563913	418.1365206815485	147.9978820484368	235.5185722191267	385.5428457288014	192.0791997889288	262.001593696088	352.2574359749663	232.9213014918098	312.3529906981094	123.560555583103	453.8297497713419	81.37237798639903	391.497239495201	31.00955368678795	268.6214062140252	154.2628161593165	243.7021796678745	387.2741016019378	382.1517754397848	231.7964597514141	399.3124118494119	225.4010358798655	266.3939277095025	147.953815680176	459.3099542045101	377.6858082222503	64.01682189469831	295.3879661844947	168.7660113097003	495.2879352306218	246.3544744811269	149.8692280898808	134.7639708323481	201.4163237354081	21.1753902703462	370.6624113313839	495.1979377226129	397.4460567498253	92.84479966428775	10.59329515687462	382.311386927317	502.4939487183006	249.1944417935465	26.88465637667864	385.3972716907485	215.6336043453369	344.0261062297918	212.1899609760989	416.0347258396849	447.2507809488415	41.76894463790839	429.8136289360454	457.3936532428327	444.7087363938639	-0.5629658840677214	430.932209297967	118.9807832479681	220.0297593508689	23.49953436723096	113.917085014152	31.22451596208499	26.7971745283823	34.82018084337051	308.3714007979148	253.7376867041013	49.20274354605683	107.4639199677814	437.6962823883552	403.6854600780442	468.9066275874525	280.6891090961689	446.0259979854781	442.8991600277108	310.2184825580584	406.5894175941912	449.5549586163082	241.4390005550454	473.3651872939164	290.4822526008961	356.7235041336033	122.8936721658155	216.7212840410373	82.49253064137963	301.2242487095032	222.3416428572379	315.5259897297533	339.3730526763619	191.744320399356	253.8530584465754	120.826685556178	282.1279552847932	215.885786102929	201.9587433329045	258.3477055534272	362.6745913024615	471.2832752041271	471.1672331256686	368.409248931778	214.5349215161331	111.8677566192329	499.5161352208626	388.2746432884561	170.3284050062542	437.5088840726853	385.2215079356968	163.4116310885282	371.1593212357248	372.5162487246744	440.8408284468677	394.7197946927824	316.3835994911013	135.4659810737756	412.4264294793119	222.9278886411852	287.801093730966	61.31616635166862	221.5536570505102	172.5545059254923	434.5540290874381	142.6295268716108	204.2494891282935	393.1626166601507	275.9445547351083	260.362045077842	335.2153369178159	131.7139408199726	297.1639649429354	124.2424531730836	133.8914573992621	289.9298067440979	450.2569077158486	88.56431563554506	172.0707099339805	166.1919278700294	26.21909951685534	11.5783391110599	29.22485416320135	57.91242276181999	143.8197449284039	1.97183142335034	151.8447028074217	4.633192221343476	68.24425423501839	461.277255610236	221.3504945877247	113.6563006173623	451.5315862803082	56.70438635334926	243.879611133132	82.68765750808835	304.3603854346404	111.3466665499523	355.5770306248187	247.0595769221054	265.0656702664522	173.2177499884925	192.6160024326394	356.2353525200782	352.5920250220437	231.8216865658033	86.46816635693537	436.8220064993977	31.71346401331732	15.94952372899556	30.13147844381952	255.3784782075216	-3.651226123243765	156.5036037775746	108.896992074928	329.6332840726341	10.44801170587754	124.3497082741903	275.8371729185163	162.2273406647043	369.2842418493624	338.0851894698858	102.0475440709265	39.04279971831843	493.3230812865709	430.9487462926974	414.3241332957833	60.4668378731557	86.83032723518576	488.0688476621254	61.00877566636508	320.9072980268992	379.1560106438117	347.0266733505199	99.19607990355311	188.3217013799664	392.7583985361061	214.476224474729	369.5072608373528	196.8674261030467	179.1077463836387	95.24772249635595	414.4761456727739	289.9395670984845	298.3356229590748	287.054975900508	158.5474684496021	487.9498451290258	361.4006908617336	376.0668389588292	341.9446439560437	277.5194300466378	183.3248534727693	435.3838875674531	185.4806987737032	71.97484706297199	183.6402980559022	433.1707482124905	118.4747486817108	395.0604521379549	233.068322464568	374.1234105248343	484.1024201459863	15.55835273881172	348.4525986791656	230.397343922591	412.9961664908893	170.92649279242	9.208128356869898	441.2984289543211	401.9279859010744	394.1800481796013	204.9000639519619	253.2335923737539	219.7975430183831	323.2911220018909	24.5848038194884	165.1548797539284	133.1056690523513	311.7551550414412	262.8634461422104	51.83753550094038	118.6434110680829	353.5953637331824	441.3396883695258	448.9483958125838	477.3097793413558	104.3702816240869	58.64865823534409	466.402415128939	373.321994437112	413.674792050158	114.1456059422085	391.0444559984426	95.0397538655122	116.6743385618054	97.01701543145951	462.8895933592654	185.7762317784536	204.9878484327414	87.18717096111186	114.2963644795868	153.0692328384548	52.41286305188937	7.531726234113834	286.1893121885143	466.3893730144968	143.785891884007	381.9159849888499	445.7673763526953	411.6752604530949	446.7972172739216	380.2383123826772	245.2604847403484	496.7587568944281	491.1829400882504	290.9521265519301	401.5118147285594	482.0515758451646	343.0029190241153	30.35366887952422	125.3792929136501	280.0978695840004	433.6920760905151	375.445951999447	137.8174969564547	150.051706888392	59.0673411946204	311.7036764699978	226.8591623849777	209.9887166908589	339.6872607065204	64.50846115017453	425.0179712723482	337.2189742700067	372.7089733800219	385.1599871093615	262.4062422428292	255.5463899423004	326.9892745732949	187.2905215305277	125.3991696865105	397.9966113289348	353.2874879243104	328.3960128911189	363.417654032338	83.42619401230708	182.8953906417031	250.3425014363572	205.2482973464502	161.923621056539	428.7554394386005	27.07448949793973	145.2293054325218	50.10135378341475	493.5542163597805	265.634071737786	46.29210768857036	272.7347962717558	369.5198147175294	379.4243574153597	286.0400434824501	163.9787617511197	79.85454663739495	283.4792803904058	199.3025067280148	457.0419709621686	348.3697485462412	62.14344774975476	272.977740010896	411.1673579945778	44.78598603277138	353.7930288778843	325.9138138273154	124.5672295046658	136.1294301663286
item2	291.8099623308922	358.2490332339389	232.579481522761	20.95105469760487	337.6860406797981	229.6910597038512	327.5928400107112	337.0634446260108	13.15716843923181	86.028423394572	393.4203977095068	357.6716495137851	94.93257273411932	72.29649133648869	363.5445539660982	340.3658861097107	114.7813335240109	158.7214685145295	76.87916755814926	57.88685186258637	357.3779611338978	195.1819487059844	168.7632495721177	17.508115753544	288.3002118785539	304.171417432737	200.339011292976	242.3691773515123	186.329598725312	342.9032181952424	303.948645319863	98.25941149368113	243.2077505345795	406.0739946728386	470.7180820548992	414.438169824403	376.2327905362063	272.0038411496429	147.061338313603	18.89356247663419	13.03153178304361	476.5118206721871	30.80278432318142	44.34923057481375	335.3585405275962	306.6019703277348	377.4315679347933	13.24795865673548	277.3470670412569	311.9692008756919	360.3681081900529	421.5800480261186	205.2947520712364	150.2181275370607	362.7093189759806	301.3202801597418	376.2718689500093	491.557670286003	47.43354027308462	427.8704353372012	426.0328709993574	177.0348883916578	128.4036524053097	44.37136018175296	501.8413519564293	443.0713763235257	367.6820655697872	321.084427867347	200.7400956693801	24.25478688918859	59.48938011691801	170.8808936952105	253.2635836766969	168.9698617695657	260.7785186870863	60.984080849772	442.4084426497236	462.9832717555201	302.9022485944583	282.9600554227845	361.0498782311136	79.97329445906475	152.2560785386426	19.31901845704716	429.3552410929727	439.6770092311891	287.4523797695783	247.3536240039269	246.7593818997145	66.17432798645406	477.5100638942933	290.8770898282897	265.1704359554003	366.2840814611339	171.962161399793	81.36760134718332	320.6637114356208	351.8402308308875	284.7172915851708	161.7469372336556	274.0686491772584	487.9327984367761	248.3371550416643	16.03031508456209	338.9340862966384	311.8619526882213	52.0559634508066	213.0956493864624	131.8982026184218	23.7093236374887	55.53426952681976	291.1981185103242	425.3617874753864	147.7714328269873	78.8005695379135	437.5345758275537	280.4287657426667	433.5243082824053	493.5853201524477	40.88305605165534	189.8843789787012	295.1318269925785	73.05006561835101	422.7983813236901	496.7209962265432	457.4206782857667	385.790914190018	460.2966655606712	44.62458363269924	39.88274431655338	108.5538792506631	39.27017059171303	275.0975959621807	39.76691529519263	207.337624370013	203.2221537381464	196.4637644755435	330.9829693466432	59.14907733187582	269.0654605829254	477.1591236388775	408.5037515085156	457.5359472254895	174.344312263321	127.7049401277107	378.8282037855108	154.9326407564355	70.55287610511718	202.7178044256325	168.7325267355176	400.4577090338886	332.9764307369052	263.1258702119854	81.35920039629885	476.1861104315955	244.1463784048196	395.6955519764804	453.8927902161803	359.8548958223753	145.1118683226378	396.6799707673322	413.2381396711855	239.4473807945007	376.6112152969908	161.373593013412	15.87209528136524	423.4709908172502	293.1158826546566	92.61382931025868	113.810279717088	417.3559206319207	145.6096865673346	237.9777927855082	387.514919766477	189.7011625027613	264.3355948777148	348.6627628519321	236.8258090915378	315.4775721141897	123.7479391598401	452.9721030966516	72.49635783346648	390.6585574496579	40.39085858354017	264.1152059453599	153.2871588589938	242.0908557192281	389.4116473650936	384.7887624169812	236.6255835853198	394.9984672314325	221.3514551549463	266.4931635248199	136.5050950459401	459.431796639353	385.7174039764122	62.40862072143289	294.8603871060287	169.5435255664907	495.1149077425168	248.9305845511437	155.3341135267589	146.2794656082219	201.9236318562584	24.05850539923487	369.1067659194155	495.0663321773995	394.5609527219967	88.9335896588405	10.51238772898845	385.0223273745254	498.2272682365917	251.9261511424207	26.05149163808758	385.6533874643854	212.5056538962645	341.6217164309701	210.2019826677484	416.7566996044211	449.2020000918235	43.00212872678848	429.3980026251198	460.76652649227	446.1948380276893	-6.079674449476753	428.865064116658	121.0128352092964	219.7630772062764	28.33147122734973	113.1969910881954	33.02741100596775	26.8068118155174	34.5283337942021	304.6007595126362	257.3591929316272	48.48997481430304	104.9433090329109	437.1968231318533	410.1316336847984	469.8979261685027	276.0139938215011	446.1843209919031	441.0377191746838	311.7725036318546	415.1251754475271	453.8917120084976	246.2241267753579	470.9591963087298	289.4147905033889	351.252438716476	127.7225753606349	216.7684754001102	86.87776243598174	310.1555712658255	228.3904087524541	320.6955654819488	335.5751719813066	193.4771110635383	251.0280211294182	116.6526372058281	278.5867613798622	219.4220439896295	205.340202162959	258.5461264962818	359.4066678491894	475.7117601469186	473.229005620798	363.0626980051065	218.5275428982185	112.9352259830589	497.8666973221804	385.2223548854196	173.0347559923908	433.5694042927115	388.5228858690508	161.2663081257558	373.1768286183402	371.7913964762224	434.0477685949321	393.7089319329431	316.148462294427	140.0472143418059	411.3829161685948	219.2806528152583	290.1484265158013	64.24388212272754	226.7742024124189	168.4852600304808	441.369591531841	136.1366829282508	203.9808113904902	388.4556022471182	280.5067665944612	260.6340231218273	336.0943144472662	133.2682838715066	303.6277221385625	129.3221000936744	136.1753018915373	295.7431652317219	450.2582268048334	88.5344157581407	176.7827960087328	163.5288450552531	24.46448996852346	11.59405615754835	32.88833993131584	51.32734915336573	145.2919651448389	6.605511844271709	153.8926614404137	2.805957137537242	68.31792629685029	458.8534721669976	223.0510249550006	114.111181438294	449.5111574882138	56.53194302729557	247.4714361859778	76.79266730382602	293.7502800065653	118.2253375497342	356.4208943870286	251.4616116879052	263.5328074566506	179.9135612053434	192.7560250026066	357.4860844888108	354.3443461631747	230.6593323145455	85.30091155598149	433.2328498834625	26.61288979159532	13.91605625718999	30.29242977541718	256.7258294047012	-1.084199231481271	155.6826480282159	106.5385835726252	332.5385639013534	14.16701230111004	125.6479136169457	278.0554515890454	170.5661410697892	364.3423617641573	336.8809570834446	101.4257170197619	34.83063962903081	491.9665843381422	432.3127267861565	410.1614740354703	54.91736897766386	82.35834422230637	486.0466588243146	55.17808373380139	324.7840202310869	377.5131239982866	345.8550867285896	97.67232287159943	187.8246321552221	395.9095609308475	208.9252671981192	368.9917001973683	196.8207132857198	180.5271906584803	94.40627730595577	414.8422157716432	289.7303260615504	295.3985005101667	287.4145085453119	153.765650240581	483.6310344424793	360.8251120033765	376.2219421995531	340.8289753652781	279.0991562461296	195.0158814022149	438.4275551360661	185.7347128688173	74.92533775767536	175.4661336800461	433.5721736429189	116.7069412588899	397.0238906899087	233.9463637323119	370.7181878986879	484.1771574537069	16.42454502795012	349.6728948017521	221.6913904248711	415.4910074298264	174.2014903907116	10.86280481992395	436.5672036387066	409.8372407423376	391.8582776697371	202.3422803572054	256.2746140078279	218.657619180624	324.8928400189371	26.81739170740331	171.8229364029145	133.3307347531113	309.256811633203	260.7710232002555	57.74118755730169	118.7487474591888	361.303963762439	437.4063522625943	450.0448949401892	475.0711334766409	107.3929796931032	61.24272629040427	472.1131498181866	377.6726434971376	417.523050643625	116.4597998336909	390.2273814161613	98.16431543346364	113.7472085745464	98.33628623694742	458.9701897223023	181.5041924448117	207.7549359330615	86.53374040890154	113.5322903714756	153.8278474511334	47.52328762226691	8.494641705615125	283.7497680738178	467.0314779580774	143.4974169807268	383.7149528277135	454.1556067129856	410.6044299210836	445.9131806703484	375.889091755389	244.2663981925122	493.7276742055186	497.8841671829736	285.9078755805942	398.1558019332405	481.5158745849394	344.9335276493108	34.17219754535276	129.3370446262076	281.6063215209433	435.0051645300871	376.0216295949616	136.950516172701	150.7909462582624	63.82339869421774	311.1465418816035	230.0323174786531	205.4692963011947	341.7139537205138	60.19764074451671	423.8074848797259	338.0657243119401	376.417862310044	381.0308608407115	260.9544894318997	247.5618562356039	331.3526893013427	186.8379826044327	125.1584633365788	397.4610110949105	352.1378314854346	329.2079528710288	361.5902730957566	84.22490009677671	188.736640840079	248.4184320790618	201.7606899797997	161.8136029341877	426.300468626433	28.91052960633753	149.3257905582617	47.74411262564048	493.0018944280452	267.626651168729	44.68488730560653	272.5571681018926	367.0649138571903	380.9321927032216	286.7585465558772	164.7987176555161	84.96560626214168	283.3770196352255	194.78435443748	456.6267575607496	348.8096592418414	62.76330916795344	273.949445009879	410.8144421186635	45.4840077550032	356.375911627012	323.5231697040668	126.2938019185589	133.1205371443132
item3	291.9262783990574	351.8246360657581	235.1755402664053	24.53382021774278	336.8740691252661	224.2983571885403	336.2694030853008	340.4431340486105	17.42574210509821	84.50326018623998	389.6999132064899	357.8019949052439	83.48244143848339	72.53140865870975	360.7886582956281	332.2134441455305	119.9828225710559	154.4806626425954	75.39393903434251	65.48018082952647	358.6139244235108	196.2050776218783	163.1683765044089	19.73969964789308	294.552646880656	305.2404582221866	199.3785558481303	243.5107997698248	188.2585189707518	344.8466213655641	303.5624575439626	97.12860807282948	242.786310544088	407.0150785547864	470.9043194859972	410.9577800986713	373.6747119757404	278.0413249092499	153.0683860019781	18.89031558317701	12.31221881439362	475.6351289715585	30.66086878260333	38.53654937177881	339.1903829298562	314.9604848540786	371.9933930011626	14.87150918786829	272.488815669718	312.262604072663	359.3178877979966	420.6769949272392	206.9262346503211	152.3044326814858	365.1195179820774	301.3797688425414	376.3713834562657	489.7468382066418	47.58831722377774	428.1818279489223	427.2320397846348	176.8588796472871	132.0398294117765	39.58727953257648	499.2192928155699	441.1016968850566	367.6347362413629	321.7537132791317	201.8512935864537	27.53881573675486	47.65827903655067	169.9454970208235	249.8200013712264	168.8975299117648	259.6733646624176	59.16990458951876	452.216495034348	462.9270507234901	303.3311880899211	283.1219625458992	362.6641015229583	84.90123027060247	147.5325567510227	25.96345068057105	429.1175222353682	448.0207791744966	274.8537176391118	245.1292578794936	243.7051799719167	66.01397000610054	483.477732486239	302.1735788476727	269.901898647155	365.5156248227341	172.3613184401615	80.09972829037028	320.6695121580271	349.2320432649806	286.443414303768	164.4173830437953	273.6704626082127	487.470906836574	246.0461836845643	13.00851401704783	340.0371905596065	314.3478808104265	51.4404196237723	209.2424379522117	132.1390990057569	26.55062292057253	56.44938622534129	294.0483570484208	422.3994316648802	142.1010498777524	83.95973887334536	447.7396220526188	281.1177792491831	435.0789742724684	497.8877242266428	51.63714529610189	192.428528101829	296.7087685473008	71.85581827445561	423.6108391234147	496.5748412574713	456.1690670236158	383.2252131595609	459.6137907105073	46.57977871300877	37.36927827968928	116.4463023767715	30.6768817960522	272.8844548826272	39.31481106960064	203.9617224107325	207.4072616466683	197.4383865208598	332.9812578060137	69.48094132353262	267.93827054555	480.0836860058091	409.0224577207517	465.294929511368	175.2532183192023	133.7870807868629	375.7675796361429	155.4770236226602	72.4980208789891	198.5086142029894	172.6493612555461	413.0771616780716	327.9328397588563	261.8299928951152	78.53937186864323	477.5603519736612	245.9415621307024	394.4881288515618	461.0459271977813	359.5517160436082	143.4352300311216	392.2396066281507	411.4238817363195	240.376774478203	379.1835639927963	154.131113924768	10.3737338654736	420.4590370122575	281.9731735145313	90.94900828687203	113.8974476313774	418.759990719441	146.5055202007938	235.8921835356203	382.5152529756476	194.4333883662393	271.1375746980184	351.8833227183202	236.06952199677	312.9229012290126	116.4211096774622	452.7777902628512	76.84357941199983	389.7230134730556	37.41608296658476	260.2333487730827	149.1890683608127	241.7617310313308	389.4738870981233	381.9709111396683	236.8572730467176	396.7899137746305	223.6363159882554	268.5945537838194	145.257201405374	460.7562073792589	382.3568890797293	71.31421720433761	296.1700078521752	168.0673091366407	488.3711671897735	248.007014529927	154.3965466541973	140.2193211486806	201.1487366163629	23.26215752771819	370.8854943904452	493.9401751725418	400.297332353573	95.07807197179301	7.726311805675523	381.9849598716901	499.248004578846	254.7162727554457	18.47856635468098	385.2740680596215	210.4894027179734	346.8538683766291	207.707441814376	414.1749364373254	442.5311370387734	43.29091880787558	429.9451512917059	463.214021049424	444.7173370575759	3.863794568118919	428.478481359485	117.7754976862865	216.2467748966195	27.990546548948	112.1961277332095	29.86512684688086	28.01273939742732	33.33963910467848	305.5676139898145	254.072740330673	46.51472118271525	109.7170089387634	437.8848154588619	406.4863813270484	465.8251968725754	278.770907984881	446.7876070999929	448.0767460533796	310.8768267837921	411.4272778990795	445.2260860330101	244.2084651268384	473.6792413989421	295.0614862289835	356.4617879194739	121.0994025132063	217.7259386998384	84.91144742483358	305.7558737932229	225.2578808050923	315.4273161951016	338.8167050926272	191.3602005817389	252.2965644529472	122.3309043376847	270.3684948260735	201.4933371373648	199.5277258803604	255.0213975640312	367.1050948134905	469.9177879422203	472.1996221224022	363.6748118947764	211.7814014429566	109.5999587800095	495.4286403161143	382.2330670223778	171.1084761409812	428.8895708303675	379.4948979798258	166.052080999873	373.600694849481	371.4891307964939	431.7413517567417	391.567651829404	319.7418452789847	135.7162363804925	410.7114403851327	219.014181284255	290.1144988810963	60.65817954624767	223.1244849058546	173.6564791698758	440.3172897785429	140.5463585202445	208.932614992377	386.6133699269419	280.6949882121585	259.7476202392539	337.253508180065	128.2673277163162	298.5107997471004	125.1423512364619	133.6934004144335	300.6328615076804	453.5531220915755	88.61161349427978	173.7885773152626	159.7649356013073	24.6124635295282	11.53673083941569	32.20827787049094	57.01677887972573	140.767468655546	3.443389757013248	151.8362208525403	5.836623677482485	69.5210651657076	461.4400921208519	223.8045130000703	112.8025228364194	444.7517322135243	56.59024696270317	251.2328882990516	77.45593734351043	300.2345928293546	109.6672618943889	356.7025611996493	248.1674433434041	265.0683645169358	182.7179158633565	193.206720230501	355.2019480970312	353.4706498163692	231.8807282570322	90.62870482865219	434.6162972929284	26.21572844085303	15.19388675495995	31.93508221110699	257.2680208099718	-1.727683314597085	158.779227879573	114.6816498716945	336.7755678969403	19.29713900312579	126.4053517339282	276.7508026679503	172.0893536322226	365.6051957496886	335.6817843396421	105.7995384223357	41.79255908016992	500.436345454194	429.1692729629705	406.9107042489899	53.76509623878012	85.24624730485345	492.4374367927299	54.1582762909072	320.3738903466482	369.2764602793956	347.9540275091824	96.4528725750941	190.5232811576794	396.5796387951776	215.3920554902049	374.1272307643116	197.0766445851379	175.9723953548908	92.41240880968621	416.0439625906567	286.8673169816287	299.7029507758239	286.3436994267362	165.6682991422075	486.258107540409	360.8658503108787	377.5660395894789	348.6445939257712	278.9978018197436	187.3591165286149	435.0902741400751	188.5191044838666	70.57537974185412	184.2647397380239	429.5218507417533	117.0397465498912	397.7843786953385	232.3878798543607	371.2629240852909	483.5003970126853	10.23926173250382	348.8584441260587	230.1216325821538	428.7416353102573	173.1254933763046	8.005447750122128	441.0506705679892	401.933792382198	393.7855548032817	204.2456309158426	255.6158933231841	218.8603289361652	330.4754686807204	25.87185780193182	170.4907591448399	133.7208958541864	310.596761476902	262.1383110858093	58.39723891496677	118.4521055287328	359.2849384578075	442.7877910317002	452.6945658959773	473.5779103201692	105.2536281988173	61.8675133876803	467.717786486614	373.687681865558	414.3534220955644	114.7912729256808	388.3101252795629	96.77161356005236	111.764861441228	96.85631751287293	459.6772957171716	183.1114949151727	208.6041176995301	87.17865014855762	110.6207380663553	154.9527633081413	52.22874396639591	4.158302616189657	286.5005126000661	463.7329782328511	143.4789714177676	380.9311205656447	444.8546891772295	413.7959703906454	442.4088574939238	372.3136478541173	241.0014384176753	493.4946508619021	495.3539704064881	291.0359245336632	397.2058276100293	482.2458710361124	348.9274090549754	34.08107029171431	127.22943620289	282.6904182656194	436.4207808373196	378.0339927693596	136.7216795094874	148.7463428960272	56.65202362310898	311.7647002225842	228.4675142842817	208.9795289427445	335.9897074212883	62.9568393271509	430.9952298523398	336.8557732752284	377.5592563028291	386.049961089699	266.6206149006763	259.632038091332	332.1502105760072	187.0330312433089	129.9437551515095	402.2135724970061	341.4782851986531	328.2623647402079	366.1539614363216	81.96001590786715	185.6914236273233	249.4813466188374	204.8411309626184	159.6633354266513	429.4733472816089	24.66049778132871	146.7088806152668	47.07741675819243	491.0837656948233	264.9214194130961	44.96361819240949	270.5977975558972	367.0664983429208	379.6590496060877	287.2612478766	164.0056372375093	81.63768915269185	281.6470942409962	204.3361324430711	456.4280091232815	347.3996803995467	56.6366831688678	278.374060659023	411.2956625293037	48.41042323867936	355.0666691911929	328.1194632027854	124.4059516921421	134.6451191720969
item5	288.8361853549054	356.1045652489924	234.313267387079	23.35031137752912	335.4228644763384	227.0721870944374	335.5979990588946	338.1880382822607	16.07320916675672	82.90806442965931	392.2153486161759	357.8220156905336	91.79367268430551	78.64036300089978	360.3428032644278	335.7575882617902	116.8538515036555	150.9931855072975	77.05715975919207	62.27853719330628	358.4130827121962	190.5311757478088	165.3761266500882	19.54012861043672	291.1046285538632	303.6988386659205	199.3610654132235	244.269529124619	188.8341320310994	342.323290836589	304.6389245826936	97.92632079254065	243.563753946973	410.6833757406559	473.0472060348956	413.8053179939332	375.0878773283043	271.8256985099052	149.1244235070618	15.96789416869293	17.32390303942342	476.6265691269486	31.56423975609944	43.55979249590873	330.5552578721804	313.6503190798651	372.5243816222401	13.033073980218	275.0820704732087	315.3731764490575	352.2670121183523	412.8324972561005	203.8691068266888	146.426090357885	360.2062647166445	298.3103893348836	382.6137586224036	484.6624554187137	45.29711821305757	424.8845824888517	426.8250833148948	175.4453831254055	134.7595008305043	45.01041943311999	495.0532054793278	443.7815144866288	367.896393680296	323.0154451676882	201.5224327787166	24.62813960294038	59.44744067332776	171.1535712495769	254.6168432845727	174.6191677368843	263.5814107039735	60.57792241671235	442.7016575496468	461.9237506722542	307.6079267958777	283.5536236851385	361.8454768143828	83.72126570032883	151.3412347453226	18.16073293183276	427.9061253014922	445.2810895635458	282.8143338977255	248.5028718143366	247.5385575607796	66.96896152860893	475.6226338906902	301.1673069188933	271.1665359339525	366.4862958434474	173.3854326139407	86.16485921984153	320.662704799234	352.2165528084371	285.9256024552951	163.975997730753	270.5868745171737	488.3849508871295	248.6667522815081	15.27506081122616	340.8477956230025	313.7070484636516	52.20928076083074	206.8615920174562	134.7259387157718	27.14138499172983	56.40448600940458	291.3018756420737	423.4530616490449	146.2098754717982	76.90185986057531	442.9746916645278	282.9211815745853	435.1975114386324	492.9525509954963	45.87737420293259	187.271278016169	288.923805682076	76.53960069764216	421.4192949826759	497.5944472462199	457.8945469821609	381.5976307817379	459.4947582201908	45.166410999444	34.26871509909816	109.5848937295072	32.11814689490271	266.280728277757	37.83358301917854	204.2680310766912	201.2302625826028	197.8728137598125	327.6993421494807	61.28018097501447	267.7798265636188	477.7433268542911	409.2027696449599	466.2919478009705	178.1556724108042	139.6196435677385	381.9668356233113	155.8524957594604	71.21263243392434	199.7449599751855	172.9495909088868	407.9423552827397	334.0364427601914	262.2480566009673	80.08973071271406	476.4125846868141	251.8442204144138	396.9010466466315	454.7060983487871	359.004351465959	141.3448048572342	394.9961317274816	411.1821613543243	239.7774566006907	375.6816523245594	159.5311846855347	13.9328257716823	417.93887546783	296.7554718104847	95.87091275288677	114.4707663976491	413.2568391872015	145.6372700898727	236.1902490238728	379.9791827223149	193.4454095179745	268.6248452218506	350.8438273146254	233.0583922811123	312.2810326863393	122.3154384805788	452.2931187633749	77.674982452099	389.9007136299551	30.3250457863332	261.5847794979148	146.0067422008847	242.2061201930707	391.5164326424606	385.7067350196112	233.4667014045651	395.2494037541783	228.6578468699411	269.3181158792405	145.2429583930878	456.9430674735753	383.7821035638248	69.20571926259311	298.6623060943645	169.1193036128416	488.5246511455373	253.4166283411201	162.8420072742904	138.8663847415803	203.1199349245679	22.04681423163554	369.2549182678251	493.9925150350776	394.0332997969012	97.96491061121014	11.65129917625987	383.5516069112027	496.3591220155537	252.917365273743	21.35434930764816	385.687053914527	218.6471856482247	343.4813730618714	206.3904723053655	418.6014967279815	443.6446190501304	38.46315417919523	430.9924925650377	455.4829066172589	445.1374426397916	5.497371072260684	432.3861829078887	118.6355230005145	223.5643898008289	26.81505259176916	110.3928877709457	32.90137052027747	27.83504783423664	36.23889918946382	303.5217051514656	254.5807560772626	48.12376656549912	107.2105434285244	437.7390351982052	406.5370356516019	473.4862742821993	280.4781527483415	446.5459411181634	444.3685885635095	312.8138912200199	415.5984197337363	449.5186693858271	244.4025123832368	478.4638271170789	288.6115339964791	355.1569216176602	121.5616858688948	217.9025612346627	84.21868363812941	304.0584774878316	223.1337116336723	315.5016172643232	337.6148447710704	190.8496415078539	253.7266963875974	120.6055363852118	273.9310432476406	212.6331548104733	205.7204684470881	259.6017074277616	363.5247208805914	471.4028339737833	474.8979325104511	373.1122205476091	210.8924882331803	111.2992115663174	496.6752782877186	380.710814085345	176.596383265098	429.8764814119367	378.3029794971554	163.7833915282045	370.0934871911997	369.6645466724211	437.5623568003007	393.0359948572423	315.5114922651635	143.1197933922548	412.2169593903554	219.3215359465558	288.2075474843819	62.24256996906177	225.1482251205659	167.889484175173	441.8607646232584	137.660162788425	203.2138688713733	389.5764408456059	282.5857372495031	260.121225702392	331.8557357183709	136.6749868342225	302.964379802619	122.9751652230503	134.4564003237388	296.3670540949216	455.30351516606	88.77766741466462	166.1321701207091	157.8345130945393	27.41867310571033	11.51220087046974	32.9297203815812	53.07496450382943	144.9764139503988	3.902644059489547	149.804695727028	12.31626052805943	70.63275239581552	459.892429405205	221.1802037543017	114.8461005230667	449.7249092598711	56.90682776078014	247.6188993246537	77.68113233488231	293.8693607782682	111.7566233585283	355.922348321292	248.4167187506248	263.7960927953436	180.9500265781533	193.2854589016169	358.8727394313195	355.9634454246454	238.2078331450901	86.65802538830496	437.0985729141563	37.17926470481825	18.17862247494888	33.38953739728345	253.9460402859357	0.2526893786721826	153.7025803508891	109.0989915377782	333.8357428751983	13.0974918441944	124.3399737712033	277.3779072565542	170.3589138707268	369.4397985355578	334.0907030016727	105.8462835886514	37.32294846505596	493.4243316410947	425.9420519120713	411.6449753120227	51.35368291610372	87.33994588850078	489.3993161000072	51.39688461292544	319.6714651832389	375.4724423344813	351.0617352705875	92.35497936991989	188.0594366425778	393.3400020044122	214.1178692559839	365.5523819224985	196.6827096533576	179.0292350803499	91.73354162895275	413.1631477722256	289.2310457838872	295.1984953025811	286.7885881017177	156.258571528995	487.9356936058386	359.6171525146227	372.800915432733	343.565784589564	277.8088805571974	191.9896520733119	438.4347129066438	185.8477211952695	72.08491251312593	178.9207365507196	426.1760538339292	119.4350462198967	396.2512507898264	233.5092331928155	372.9611478053165	483.7012473563322	11.34998359107766	349.8281282281571	224.2268259926544	423.1995157899318	173.7339051710621	7.09480954267335	442.0958707271639	400.0075950144238	389.3547986056238	202.0973826588918	255.7877577396902	219.7045926191983	321.8382989800451	29.03340113689978	166.2584321430358	133.9382480461397	310.404486910757	258.6387366525202	51.78730359527793	118.9462295734225	355.8315746350974	438.4144443247692	452.7765197657065	474.7095814396708	109.3313360279996	56.31658599575977	464.1277613556106	369.8520728448415	418.5446729783754	109.7863314924497	394.655285418367	103.9686986836824	116.9958565245878	90.62131394654337	454.301772653136	187.6046327288389	198.9796990960598	86.83157480963672	116.8372833336782	153.7696137627399	49.31796445920256	-0.5033503451076484	287.9037164898787	465.9946694104779	143.832364650793	385.3103542404193	441.3895962969159	411.2599320075598	442.3640851214568	374.4008510216731	243.3034816169081	487.5778306677531	499.9289579780227	285.4571722325659	397.7071848213088	483.4278459806582	349.2320296335361	28.73891170085951	127.1346632635396	279.6298671153734	435.6603205650577	375.9315404850015	138.3870326263151	150.2536079845998	60.64428981097623	312.7577638619596	240.1943409635321	205.543851918071	335.4316725852795	67.43692711846563	424.2170833736944	337.3810324573084	379.2073472526614	378.3643773026039	269.2284403420418	244.1408037824083	333.8228966670241	186.613616809088	122.2630748052514	399.3000672879875	346.7323455869958	327.6026095278793	365.2840028167858	81.68394487988841	185.8254013540934	244.5998961038618	208.471088169874	155.8945038923434	428.3062822826654	28.92738244265495	148.7562429466873	44.60100400570754	496.9412238971433	265.8898699882355	41.21060661525119	270.8072942979562	367.2260194686609	379.0035430179214	286.9428725199268	159.0472554793525	83.57530847233205	286.9654330984682	200.8848505568988	460.383007029202	350.7249106893692	59.99408622117407	276.4897378489363	414.9427392670253	50.07919635503455	355.6078264017686	322.7162472457365	123.715291882409	133.6768813314743
item6	293.6299594896744	354.2862673532741	232.1622081776321	25.19300280880362	335.9794063592028	231.3931486460583	331.7342657089857	336.3868809563446	13.77900919645262	83.0987156159062	389.5018387512504	359.6208527586985	88.1206667474403	83.60401858835974	359.0603070089038	337.7504448356567	119.8607566797123	156.2811686495638	77.75578738633408	50.69213346959988	368.4106512774533	198.6039194848067	163.0005260136386	11.15435568419217	289.404751448733	305.6278480673843	199.0432275731647	248.3069939741051	188.0994053419018	344.8632932878293	304.794392406969	94.97919702667308	242.0416948427703	411.8764429055559	471.5672483310069	405.807444804665	375.7725542111584	275.1560998321447	149.0535523145218	15.84418374384602	12.36150501127733	476.0451739802673	28.46043669999478	41.23328980288306	338.6450014254631	309.85643773556	369.9432255159281	13.20800462720505	276.1960515352748	313.5925477891895	354.4818142307971	418.6094378597394	209.4070785660357	152.5674685255856	369.68460648719	303.3490155502527	383.9487613015791	489.1380064945066	52.68097195800621	425.6418630787791	424.7182458731718	177.9048446691624	131.1814724261852	42.44903913450344	494.1560925523538	444.5518476073067	367.3849175378518	317.334044075749	200.3460854563802	24.43503063068216	55.98734496966188	170.331701711948	254.6021810717019	171.7554121539804	262.801578068075	60.46887306684923	445.5619677341447	464.4989897738922	299.195850114198	289.3215359633472	361.0788809826336	81.92960848041125	152.2407862136323	17.31232660532273	428.3866654172026	440.7631720425909	279.5154152947966	246.485380547803	246.9746847734725	66.8985415594838	489.8790663265696	301.9967211641642	270.6827026742481	365.0545822604685	169.0888803579265	83.59874501593713	320.6640229597151	344.4947488898476	287.7534958830677	162.7767729541113	272.1629979560983	479.5295126411069	251.3267125791445	14.11914531876376	337.9744225868101	314.7304676131557	48.34241105496763	207.0295192773547	130.8173737901431	20.23215482675764	57.14000710367415	285.3233307921107	425.9988991338907	143.4994902953871	76.25565567503386	443.1457556433846	282.2656242531065	435.8727185118	501.497996149552	46.33243032935897	186.5539141284866	286.6913616739909	72.99775587121495	428.333983694915	496.4056383198217	457.0947059199829	385.9589506646487	458.4524605676363	48.25948262134546	38.18835079139536	119.5596957850723	37.05524166730278	269.1777693906521	38.41933800850591	204.8966824231168	198.7704788680005	194.9838044945548	331.3479401915906	64.20379687069146	265.0953994725982	475.3916484195767	405.508662669019	466.1817417980343	173.219936676457	131.0067646559164	379.1639238147032	153.8387895571365	75.64629371493	200.4885254462331	169.3318436424725	412.9166717477209	331.895844634839	261.5121148846796	78.71933062523871	477.0160251701592	247.1354066700297	395.3856272291978	456.4584623558686	360.2777044812184	147.052900897092	394.4795360121341	413.0172950854878	237.0005421347095	377.2528830054542	158.9251264295412	13.79412704044236	423.4198623955807	293.1489137049911	88.18466279750535	114.0200281138329	422.7591062943386	150.0404946473316	236.8909665902684	383.6920925525582	197.3010346654097	261.9060172979812	351.0792381337592	234.1304840385709	311.8764333475014	122.2638406962258	452.6754205087238	80.95917821096542	388.5208601397128	35.01986468889427	265.6069379606055	151.9810374372786	244.2861530684204	385.2782472315857	386.7132388420068	238.8741841213898	393.3980816730007	223.0068039585986	265.3977661702016	146.7890405384296	463.3755818893391	379.1676837465167	67.14360960496329	298.2915985738773	168.63592394976	487.874543566394	245.3360159862181	154.1033087408489	139.5373990732801	200.7784122665844	21.3692665178854	369.7479905567545	496.2914812017551	396.5739424774317	95.77778725809611	10.49781414286344	385.9173972957454	497.9320935850182	247.7981038590277	26.1271396104439	385.4057804490382	211.9314963226302	343.6085643267542	206.0787375746811	413.9142062290564	446.7575380639356	42.99489233052329	430.4484907993051	466.286359787656	446.3226555241669	3.240955843079964	428.8248827910191	121.3355238835702	226.1487463236933	26.98958611155307	112.4121770833193	33.8351884048158	26.28791259845659	35.78042699393296	309.0342291645249	255.7865639711482	47.80705636665035	109.6078235781283	437.7242002894627	403.7321641630932	468.7657677437546	281.1899040393305	445.5498776431024	444.4729151928289	310.4368512802806	405.3925835761518	442.1578268838515	242.5686686304932	475.5016846799268	289.8382875419426	360.9105314549374	121.6290495331019	216.8648245335831	86.30107465312392	312.8980727434053	228.9923314021913	316.2001743749036	332.2421853916597	195.6411184359054	251.2561599130506	116.6423469826137	283.3953306262461	207.593908689272	198.2681358840335	256.6765637246098	364.2339902696716	471.8445485205691	471.6961010131915	368.9519283056691	209.7017081178156	119.1015193109124	496.050086626538	382.0380282577827	174.7088610114748	429.3369878964389	377.4662356164509	167.2080188123773	371.3361912565333	371.2617229109314	435.103133215417	396.4868887761576	316.3469654839252	132.6737257881089	412.8267151289119	220.1575433188312	282.756747444372	62.89119727199099	224.1003866617474	169.6788032828257	439.3670319418678	139.6539709197533	198.0251585694545	392.6587018632677	273.73364867317	260.3926921902551	337.606634215003	135.8420513773078	301.2271386332736	122.2209093254216	128.9462830202746	290.1753511600235	448.2350642234147	87.88858108632213	171.3257068251632	161.9250612301466	29.88879205113824	11.47018051184832	32.78693039060265	54.00537316750233	146.2878259074689	-0.4868543734639754	152.6581474517111	7.579736141594906	68.87312228478119	461.2260964221903	220.462569400692	112.841446830053	451.9613462537825	56.33118630488752	246.8738502901098	82.41487995979632	296.7232788953617	104.4720898935606	356.6118869947757	247.6620346194656	262.4911147374015	172.6632155681541	196.7087269535162	361.3176916410399	354.7810569934919	232.2530430230971	93.49850318045226	434.3990499672766	28.82757213824743	15.07059704417328	30.11244198879992	253.1808678186605	0.7770533704997518	157.4633835874164	108.1599367070828	335.6490123184271	11.61919650738066	126.6359256860851	278.1924873966634	168.8632895420547	370.283790447735	333.1949910385536	103.7765123660982	36.64844196593728	495.8756076251948	431.6730752959554	411.4201169800483	59.44541338187251	88.53973867577531	493.6024425273679	53.63485799576153	318.7209679217589	381.4405129961615	348.9964158105536	96.23995429313445	185.7557515894063	388.5453264811306	210.8377162178231	367.7813755128786	196.8299357484481	174.4550066827649	93.79547871391091	413.2699162115635	283.7276624148247	297.946965953938	289.123964557018	158.1721603998325	484.5893584267159	360.8277318436108	375.1619821599329	341.8043364062394	278.162075133579	189.6240841031837	436.5281649711122	186.5270838719318	70.24636130188055	185.8683753036946	429.6457849893823	119.426833384055	397.8926945807692	233.2120279566903	374.7513802902266	484.5092895312748	16.445392142347	347.9171772055602	234.2528522553683	419.059804450924	169.6259511960769	8.946368120252096	441.0584709588246	404.3727178087859	392.0683928861754	202.8335505126255	254.0245455836204	219.0626149949402	322.9899861689457	31.87832418240308	163.5357179996708	133.5455102172776	309.0802986194228	261.9214184817671	62.32602811513037	118.8192240038729	361.2673016493493	438.9300813368382	451.6992388171235	476.962301443049	108.9772089661014	58.39090249025175	468.9028068801838	378.3546055530608	415.2071666223509	118.3705077933129	393.8343672356111	97.37272838063831	118.3142599331793	97.52496248654053	451.9627990162671	182.7065218560759	201.7531128682975	88.50136151750638	112.4163446481954	152.8877131232007	49.85052807740323	-1.630181583961737	282.9054357826778	465.8601440875154	144.1030895938204	381.3162622213997	453.7744884339633	414.0162706899183	445.5479898028288	376.8056434071981	244.1201899833304	493.4953381372563	491.6922015877937	282.9851323756707	396.63458512368	488.14424429076	348.5911780103289	32.82250581363432	130.7103175792717	286.9780193973504	432.5534758610587	375.7849866940358	137.6261714574427	148.403642395826	62.81298792563828	311.0188994958897	238.6616710817687	204.5545970634539	334.6486939911301	57.9319105401395	427.5796730823376	336.2621058929201	377.5799383881194	382.355600531641	259.7084847591815	259.7913978121801	335.5329260040699	186.9606919377313	125.0561817498613	394.9958584689917	345.7485933527217	327.1322997262512	360.7892176071439	81.44776196665083	186.083471519946	247.7073162978843	201.824918651319	160.5390301328705	429.3296008652616	22.57357923776275	148.2807121790102	48.689199958656	491.82718581426	266.8054131169624	45.22376267079326	272.3440352682684	368.0324393012384	381.0263623047421	289.1938032550928	165.2762093558109	84.74594749932794	281.5688901803712	199.671377635763	458.7449625646893	342.4781962446701	59.50041396464639	275.0966355716624	412.9854719617615	49.92956216945446	355.0422618993271	322.7758369401238	124.8587785419777	127.693371362304
item7	288.0101724562036	355.0535669707729	240.9170720450466	22.38901798982599	336.7167469166985	233.2593964659095	332.9042421493962	338.0575902856012	20.31918733950285	84.64461406824391	392.9100182683445	358.7979809788968	92.76403335635158	71.85111658445206	357.7381913631853	337.1160272869762	121.3648088260903	153.4671859793553	75.79759580706725	71.5096134257585	356.8578660071634	197.9096669826198	166.2987487998704	16.04570524940049	290.3920318812884	309.4406587388701	197.332936959562	241.6871778734841	181.4685857229474	345.2226137075006	304.3718080758062	100.1570128609016	242.5972926830189	404.7205674378816	470.6058676297677	411.5554915684581	375.5344554232455	270.4697251331756	146.047289724608	17.21518235188658	17.64474280909471	476.0098471361116	30.32573018133452	39.70966801518357	333.0122474651482	310.0898821597956	370.9439486785479	15.11519626507167	277.4693392231372	314.7164451624434	356.6245246491675	417.5554277316568	203.6937398729849	148.2250000399668	363.1495818793819	295.3764966898579	383.9888588339219	489.1395264986572	53.47304805212939	424.0581989093906	429.0846944732514	175.6144688115789	134.2331458721239	36.96670789834989	489.4352009961217	443.6293361762662	367.4403824124145	316.2093071467282	200.0927280613173	27.89977968756009	57.72019795253939	170.4478594838153	252.4835287908963	169.2690616615189	263.9347761182893	58.4504127334616	443.2160920040204	466.21545706747	302.6818323182882	273.7733361392684	361.4877427661535	85.39008785561192	152.6784458496454	24.81852470328379	423.6084051912716	440.6426844805309	279.4378881268611	245.0665858808365	247.2832099528596	68.23793078015689	478.0830038952401	302.2490349095791	273.3255807988455	364.7710862545304	165.7315070799099	80.60800434927766	320.6646059307178	348.195520544734	289.5305237195846	162.595541271477	265.4769479324008	485.4989311134096	243.620549594098	12.82539533571492	339.3206794718238	315.7129863423759	56.21697899881498	208.359376727766	126.1622887311028	20.81851388647922	55.87467962239857	289.4407507812052	422.5730554042905	140.1525325472938	81.62343170031799	446.2364088641197	281.3813248640481	431.7137863019622	501.3437822051366	41.61091213053946	187.3273115392817	294.427273527988	71.68441704217805	428.38680500526	494.3498269520464	454.3820428072892	383.6999749551337	458.1489511922645	43.66155960808394	40.72711611373885	112.2690488321964	33.2879977872019	276.6169816449913	39.71856506194673	205.7484015209981	197.8074658692179	197.2031982579009	335.0018573790898	62.70139536512239	269.1282136228517	478.8537089151437	410.261390019309	468.4802152225492	174.9837109404494	129.8716486726929	378.7755662212361	155.0577143472357	71.23367390001557	199.3661784360473	171.0404611520073	408.3714646024365	331.1267308197232	261.8872122332503	80.2417532312123	478.5124913602186	249.0030249488352	397.7802300817488	458.5178976028326	359.5159486390989	147.3444323296385	391.4804479338345	412.5945301444928	240.6086326323705	376.4768054334168	161.8149789403158	9.439309944084069	417.1634958843075	291.052533776022	93.06003703100318	114.2792416371376	415.2069658381038	145.8636279687576	240.3422650486377	388.2501192559868	187.8310943036086	262.657145643354	350.2567316989814	234.7076657687388	312.4922618710963	124.0694941390127	453.3833239982967	75.92939873327408	393.4739463376678	37.58044241991338	260.4135516651863	149.8237880609032	239.6592726954907	388.1606084639267	379.7743111607407	234.7363484330773	392.7995364094353	225.8726841110633	262.7235517421196	142.3779524197333	461.072674362369	383.3958995916213	69.01878988015955	295.7255817571352	168.3598260779562	491.2057413242456	249.1372100644003	158.5565727852061	139.3490334611966	202.1117025347412	21.1512637297328	368.9597716364954	498.9180507560409	392.1037372580432	102.4359254458248	11.46252965135724	383.1639350778919	499.7980722621746	255.9820447148625	27.61108745430374	385.2813031154894	211.9958901758739	349.4052105316916	213.6492647431541	416.1259207212419	450.3524768691393	38.73398229078447	430.9848178488905	456.7441488699479	445.8496531580003	3.30815857426193	428.1868049157492	121.7175811837395	215.5368931182824	28.58382357423564	115.5443800877864	32.51066505313786	25.98781598827112	39.70020637709529	304.872404138862	259.7839170858869	48.22454755635857	103.1479435197956	436.8857246979272	404.9468072144954	470.1611742497872	275.3844939053484	446.2645866843595	444.724642921643	310.2096915277289	411.4392319337331	442.7220763756256	239.8118472465509	471.391037974015	290.4661327776724	357.3096759821555	123.3220512129719	217.0782843769128	84.71158270753845	309.377327907516	225.0697709429907	309.9916224266604	333.4871171475508	190.8298682776276	255.5914220595308	117.4259100702289	274.2499598466113	209.211369553179	206.9021534711442	255.7546978397917	362.6299946070547	472.2609199229332	471.1805022400002	374.124922624634	210.8153534355605	115.6334111861135	497.2207766866987	383.3931152784335	171.4849459491752	433.608706651044	381.1956732154372	164.8612188221792	370.6371756114816	372.3832837432937	431.9641524401108	393.1647247799092	318.1756079577646	139.494718421055	411.9067819257978	221.2222545629676	291.8903288662029	68.49916780593293	224.8586703605813	169.1127233445893	438.7942896216973	145.1504829877028	199.8523619277129	391.8696027433326	282.7341710349639	261.337245423078	339.0826382373342	136.1521726097174	299.0478669934795	121.5996776664913	132.3639615978632	284.4035259619377	448.8044903132919	88.48624063830135	177.572400173201	159.8376902742523	27.22989640721633	11.461906475756	30.39584087563568	50.31073423437225	144.3005010829868	5.817593955457061	158.0297353204065	11.82928477781334	69.39222522020718	459.9137888792741	221.4929531239285	113.2891363728242	447.2255589005252	57.22734106236384	248.027889633507	80.82853061907983	289.9095230246113	110.4559245786747	356.6549874151328	248.5250480571113	262.9598589285252	176.9375975809478	192.0800247692241	356.1973307263313	360.2833562823566	232.5068473503016	94.46046219925603	434.8976067200247	31.41496025999928	14.78926066334682	31.12754682956792	256.8571942210062	2.650090423068996	156.9505672946858	111.8898344018831	331.2807133156385	13.02621575923563	126.9876556312393	275.5958155555513	170.2039755607283	368.142310259079	337.3762072534999	99.34159991853309	34.57489176770424	498.2595767908014	426.8117944085499	410.1836139310599	50.8405742507303	85.3224841127024	493.6050573218964	53.71783354412689	316.961267188023	375.9433614611697	346.7972336213715	99.30053304215342	188.5534592380575	392.1444266671458	211.718563825362	367.0815245099041	196.7261989210435	177.1087026241231	94.59827786234429	417.0913326029232	291.6678600442117	289.1208831454019	286.8063282383766	159.2849630029102	485.8199854452551	360.6758830154808	373.835471812222	346.8947821947218	279.4129685458483	187.8757527562053	436.5161591859046	186.509135556577	73.45130487605098	173.1424296127987	424.8962178230909	114.0384401916492	400.2775937709503	234.340462000405	368.7655813310068	483.8632346518944	11.81316477268318	350.2243354360643	226.4606892458666	425.9142784775901	171.1006541336481	8.758194507163205	440.8502622425884	398.7292004355114	395.7577444190173	204.8190979656255	258.0941686025352	225.9915069005179	320.9040734635024	27.35206575275962	167.3254029288864	132.2234752092808	311.0403814084333	260.4560882367423	56.61450735811567	118.9033384202484	351.27644481127	443.6504161259276	447.8356218746874	477.1157859015478	104.3517113506216	60.28965857500565	464.0475084910467	383.2794071162869	414.5592751356161	106.3562532158294	393.0464693964691	91.37293240278596	115.1506759072784	98.82818614915764	455.2729137007947	183.6205298707275	203.0326831718506	86.91842512294396	115.4614378776202	156.0227000265327	55.04577431796483	3.980444142910547	290.0408176024371	467.0095129215626	144.2619001057643	382.0433891183508	451.2213927467711	410.5840549462892	447.3501051884283	369.8916715276205	239.7276676944329	485.2906033724066	491.6242511205755	283.8207639734857	398.4036177268811	482.4431521262551	351.1700026598034	31.83703013978634	129.6616659322154	284.7730825662039	436.5434901929401	375.8386650369241	137.4404172764443	148.9512678139467	61.736465241651	311.3065140500764	232.2666405110538	204.37471154205	336.9163359212012	64.42831052138581	430.9366411079528	339.4145243578038	374.4925993151115	379.6727816767846	262.7543437750879	257.3164947607156	331.7223030325284	185.0196147944474	126.8873817482561	399.4834445424644	341.287438626012	328.83097902895	365.771172962037	81.07722214463497	188.0932850258061	245.4835856870835	212.3752827730385	161.6583336020035	431.3097965603898	20.31223732928758	142.9198921686043	47.03947343419368	496.6757550407346	267.3652874800194	42.18692152420301	270.0574994339492	366.9065361290245	379.9609231647769	286.0671815426979	160.2533344875323	82.72330858039396	282.5122657745309	194.2347046402635	460.4417158042631	351.085798318167	58.58442018654686	275.8757687124263	411.7230368785808	49.27125679296357	353.6869422521518	333.4535017696022	131.4260015024934	134.3390253014529
item8	294.5107952498574	353.7941877609367	238.3009532106063	25.93122608083688	332.5737621629423	224.2236889974596	335.6340582013947	338.4634513035475	19.52497181131984	81.57446916350996	388.7420795053045	358.1750904050413	94.72419247261257	78.41865957946492	361.4490558884788	333.684596768381	113.9597361917076	154.904174616437	76.78156390575397	62.55125302342903	357.3709941034934	196.9140526877365	165.2345575152953	18.32050428429694	288.2890632377336	304.9746904365983	201.6895481982786	243.6038657363609	186.477600572264	344.4224468097921	304.9693358784358	98.11758483613147	244.8061549549497	408.8223857850809	471.5851772303731	403.2905287492261	376.4996505302149	272.5303315284339	140.2483106940667	16.12108751385222	13.17028246607768	475.5484638558112	30.02284459345728	43.73121431918364	334.5705328574443	308.0424199577596	375.362394185666	14.67097064795395	263.5351783722311	317.0615653398552	355.6067699927304	420.5027792477491	210.5725692738833	147.0001626220868	362.7422655271787	297.9445523169071	377.7673936769856	483.7393097650331	46.42672345720463	424.7503724187301	421.2027017280403	176.0065829038631	130.2611521457453	45.71443735394678	500.6390819782893	441.4364248963322	368.0337158814275	321.6608875302585	200.9100390989403	27.79744578676546	59.83029023357882	173.1106413576467	255.8813185161514	171.1181174844725	262.0438151524348	60.94566674948509	442.1428004334157	463.2683663529488	306.9374940633649	281.9661386180181	362.9828312887018	85.95134292896979	148.8484299311651	21.05794782325622	418.4049970596869	445.8038517047282	274.712412851189	248.7319687704021	245.9479648274166	64.66910905369581	477.9474227925313	299.3047340104699	271.9264617707424	365.6225940523332	170.5745383595273	78.83112840361079	320.6817374581643	348.5083792450193	289.6005539431944	163.5586987719201	264.4947734971739	490.5224948363565	249.1023154470645	15.11172474891862	340.0835706566312	315.8219425475628	44.34055320864493	212.4781192588356	129.5775220252951	23.3858415346271	53.79062669807147	295.1614965472161	424.6116308464178	145.464078116181	84.34354873252022	443.6175080291292	279.3537289064553	436.3931660072611	496.6053436615323	48.59810239832532	185.573916336797	294.5935994425849	73.01963714609332	420.967510838553	502.7057719010151	458.0026608969784	385.9589528217821	459.2333788562282	46.41539289225307	36.97149468458784	109.2044264557716	33.37625976084345	271.2858654036947	39.71720646678511	203.8363073602036	198.1628903642387	197.2972912636043	331.7682454544723	62.7983347078236	268.4870356543507	477.0010634301365	409.147317309387	466.4189044881407	174.8321843481513	141.699584042434	381.9095249320551	155.977222688747	77.1622701983104	200.540843017043	170.3547427221395	405.216703694144	329.8412582691315	263.3018976880156	77.33031946930925	476.9229584822501	247.3768098219073	396.002224445114	453.3560591794588	365.144297183494	143.186672089401	395.4442787569998	411.3001483971162	239.4614785774714	376.172067565389	160.4429188447193	16.35786610634032	424.2664229048366	293.4379445229521	90.27720667747973	114.2246199761455	417.1331443447783	145.3177696749203	236.697956390493	382.5430275055678	187.9531279926874	267.1815339123161	351.5300089297363	233.1797313495119	314.1239482505459	125.0964366094796	451.4466513925905	73.30621627139587	387.8843636207853	43.81509158227141	263.981980046313	150.3429810004139	240.4765765413221	384.1492420707423	378.4606594373971	232.9517716773183	399.5355829389239	228.6437271352342	267.3878827055009	144.8862087718045	459.5838143832851	378.6483697129585	70.01643151633786	294.444329971566	169.9279461836223	493.7205044905559	248.1793528701882	155.395261135765	141.7250695148756	203.7496575675584	21.90040957448518	372.1776318450584	496.4687226642362	393.0484996174945	103.5999033230489	11.11775184298822	382.775520950544	499.8542344439228	257.7371371821271	21.60498280912483	385.6410641761433	218.6701998356459	344.6827069759183	204.8514057106604	418.2543352486842	449.4225917773933	42.09748896223611	431.7453541411421	453.345477483413	445.4212664370846	0.9502455905061886	433.639828302686	119.7737245335762	220.2667019130425	30.28170383611416	114.6689389879332	33.08691678764274	25.76726196052498	35.06349810359747	305.2287284057425	256.0392125392117	47.96768467880185	104.352484473295	437.1639845564584	408.6402988481705	477.0896677931049	276.3853527627235	447.3391491244884	447.6430305536965	312.8477647472508	415.4050151424056	446.1941435270681	236.4689789054062	470.039225158925	289.2400328026866	357.3302733191367	118.3929638997984	216.2142379855538	84.3485153878993	304.5310460597804	234.4081194380225	315.0466047039658	338.3039126657063	190.6627098745329	251.3766311489224	120.0825857063444	273.8630914179791	211.7050580176371	202.0596764776813	258.130289273772	365.0165190601791	470.2593739472998	473.656691664277	371.5294465028508	211.2580274318863	109.6805768078944	494.5586649401742	386.8499640881537	175.0504590496714	435.1388803115582	391.4987207257194	161.5657870115477	372.8103456311702	371.5961843956349	433.967794519553	396.4853282747807	316.6439930001359	136.9933014644601	413.5737478534242	220.5176135738366	286.8905792790164	68.95374433758526	224.7353039705857	172.6238086451655	434.9565172828035	147.0390653105991	200.2981299011089	391.273182979615	284.9428921209633	260.3202570019566	336.4355381660369	132.8136737682768	300.9869740197158	124.5874368068261	137.0740804573273	293.9994652187906	457.4145982648833	88.44381710062711	180.4230166949129	162.0187725491693	26.41823806758764	11.4895126719363	34.24917313184049	56.06199813740615	143.2306892713481	3.650395992438436	151.5113164816365	8.655862160661119	75.57322831845713	460.9554092566117	219.6381408548972	113.0916801686812	455.8002297744731	56.58528704536194	240.6317757013579	80.81722710336092	294.0827399550417	111.3131448661155	355.2458529641369	246.7068247679773	263.8205880089916	174.1786350716868	191.7706425471791	362.8088271967808	358.740013372423	230.5276284202054	91.44819923071478	434.558197536319	33.80840856015868	20.73819788008483	32.93849647232845	257.8768820801168	1.082021666537503	156.3086395668585	109.5643804174585	331.9749358646183	13.2433126041309	124.5739654601472	276.9416977814139	164.6636815237826	369.0838212513767	333.1526157719938	104.8812219807405	37.94315118304458	501.4793302123926	426.6637151952131	413.5578390377272	55.93739677421278	83.45805694175696	491.3048029999555	56.13802476198321	316.9169378313717	371.1722299212679	345.4744202526148	102.1580706621135	191.6044814593946	389.4909789281545	213.1953106094545	369.5592078954169	196.6197016984196	175.8107321329441	91.99394477519355	414.2977324811357	289.1015581904857	300.9901359877475	287.9567688268203	155.0645050087263	485.5981783474269	360.8072320839801	376.9242167057579	343.2943796732997	280.4735160844658	195.3846479102051	436.2251758246839	189.4047208969282	74.22484962402217	184.5249354112068	435.757726742138	119.5985506533456	394.5889746879764	231.588467768016	373.4399982776838	484.1271565881995	14.57227433058811	349.466751218494	232.725161012979	423.1600089644799	172.1597249711414	11.90450504725435	444.9348710713668	398.0786376057811	391.1533376309714	200.8365600904318	259.1162582877944	223.9366324875919	320.8417208580476	30.33395375971586	169.4745595240393	133.0447254872431	309.7220198258868	263.1350702524721	56.10472704408087	118.9972356964229	352.3242665516627	441.2240927556752	450.4932626314404	480.6804280236543	109.9780089148936	53.10483592122795	472.9137051548894	370.3875610283197	421.015805453468	116.1800677302377	390.1884659940873	101.7955983505772	117.9307346450445	92.68379895549597	451.1325570169506	189.3947823214431	191.3585418098283	93.0531383277106	112.4348382736551	150.9626156383115	52.00441366108508	6.550379506091986	280.9096033732316	467.286765063103	144.1873405818626	377.0228293696233	449.620142622166	409.1289480773095	442.6530939880594	376.7461614806393	246.124182487123	484.5455407423086	495.0569690022891	289.6157395836594	392.5447207878119	480.9914286822461	339.1520854816752	29.17897154391583	129.2253251587471	283.3902162232318	435.5199673513037	376.2691960244482	136.9041513889321	148.3104500266194	64.51803874022781	310.4633600308425	235.851937086271	202.2382887621125	344.93458951829	61.27865082029049	429.0388637055063	338.0361359163393	378.5383473801905	377.8506350635927	261.7719959436132	254.5881913265673	327.6918277746881	186.5759561129588	128.8081593490711	397.6459395849758	344.2647577242704	328.7520770430377	363.7835435699241	84.71183386770639	185.966345057107	250.6110567957438	207.3701668460269	159.294985644688	427.5287053611916	22.30859255579374	145.5999521391606	43.55589159827522	494.5391743875832	266.1110900394986	42.09396636180465	268.9481420608168	366.5761569903187	379.3339743850876	288.4134250220059	159.7121020942961	82.80691850428251	285.3626601240352	201.2814427098718	457.8778512999681	343.394027734076	58.9169142594387	276.0670605312312	410.3190290749889	55.84089130963194	357.4623409161628	330.7259998495957	123.0453661970577	132.8011723688701
item9	294.9754411061655	358.2757626511722	235.8404302584574	21.79380376829424	339.0805829089695	229.435132623243	331.2207106044012	339.2323979711152	20.72624010295651	82.64936107517885	393.8280423764094	357.3588117667079	93.82962056823341	71.31171546966037	357.5138891397638	338.0212502986683	118.8135900588932	151.8155145375354	74.0898425223361	63.88529516322748	358.3341034172914	198.1122392388751	164.9635562209583	18.42973796524697	288.9487980243572	307.2039685229004	201.9531802450458	245.0755223308617	184.2869165380983	344.3197186121872	303.794793451647	102.3514583596467	246.0397069168588	409.4852499344364	471.6739831405779	410.1111849652817	374.1611192442953	272.8450849821227	143.0890806053932	15.65318749876563	16.8207715001617	475.9562975731923	30.06642992431287	42.99466296538159	334.5106139648672	307.941727652965	381.9581712993469	13.92156732002229	273.0168812074118	313.1712911567867	348.299203252049	415.4714668491175	202.1863072069625	148.3229127493748	370.2789946304987	297.2475065455951	382.3362414791573	487.6041107846645	47.78652922934689	423.2557229188902	435.602467713139	176.1418142369577	133.9755140025883	42.38171886017854	494.9193261211021	442.8534792276401	367.0932684471207	321.3881927168614	198.331973858561	23.65300649208691	59.82184569528708	171.9443469934138	251.6627149137716	173.0524464784427	261.1874394989802	61.23800992989191	444.8815524988564	460.8289281558791	305.9966490121226	275.5765395420041	363.8885039164542	82.87011602747464	148.858966658346	14.73438491084546	423.01913313693	442.1673973110547	280.838287719405	242.2239793273416	245.8196388207045	67.08414487425519	479.5325281464994	296.5444085115343	271.3270065247269	365.8966546062692	169.4804497425577	84.54713641469596	320.6675653770919	350.106816996066	285.0736448698254	160.7809958503527	267.7796929657368	488.6471404930487	246.3503094173087	15.4107713189614	343.5432375443424	314.8595337702653	54.52679693712193	208.937198178631	132.6106785216866	24.11532081510042	58.13017196988408	294.0178552320205	428.3787990291939	146.3396012562413	75.84031093514899	446.3770777084842	280.5587387288057	435.8894210598237	495.3827269957389	42.43427382251601	186.7635244111555	300.8919985963491	73.49597430947546	427.0140138843672	499.4990480513458	456.2267511509302	386.6853253838166	457.888492571563	48.01232055806778	34.93501861593319	108.1302449358575	34.84064071102496	274.4632282465324	38.4801335177299	202.3963247780444	195.7839520263336	194.623172640198	325.0206650080415	60.72867268910692	269.8923040339099	476.98366379798	408.9453543779395	467.2527262589342	180.4843954931221	128.4132562902442	377.4933501847137	154.9639232081749	74.19057558167246	200.2038262505147	172.4974268166918	412.1582848555677	333.4759061707861	262.2399272360717	77.63497732613172	479.8860626347865	251.1217253113942	396.701796053702	451.1400399510044	360.5222889505648	147.9889231843735	392.2709439753511	411.9428260080124	236.7811846130864	378.0924104102431	154.8793832114742	15.02085556420123	422.971519233144	292.4726096632262	96.44868220212416	114.0079848530305	420.4491832615573	142.6672468868542	233.3892633895166	384.8015944393661	188.3936139466669	268.1637306738264	350.5427951176767	233.8725782970109	314.3881298182893	119.9486799889668	451.3932570696713	75.33620388348027	389.8460521042863	33.87942554698258	255.222581331556	158.6688166846365	241.9895754162989	389.1353900362809	388.6957941603078	234.5862617326083	398.8124262215952	221.7068251053558	261.5929090389423	144.8250151390064	455.2839293767447	383.4116825617382	73.24439479179182	296.8630749247762	168.5854562179595	490.0625544445148	248.8857715624867	155.5837318152494	141.3815574142847	198.8073721989535	19.02086853966482	366.8250869880395	495.276887841843	389.9321146139101	96.51296958446243	13.14732588199026	379.3999518130387	505.1305114401293	256.9078757935637	33.21277167900904	385.4935342952257	213.8856620366681	342.1636914517571	209.490247021959	418.3681463073279	448.7464234693123	43.65029458141871	431.4630613235516	461.7348692072375	445.5224480650417	5.776250576925996	431.3001615077917	122.5503195306159	225.0150500955368	31.74134700928951	112.2515220260416	30.78476510932159	26.08975014663662	35.23241592961506	305.6077117980001	253.721431414262	48.10985916810078	105.7309847379279	437.4724660951167	403.2269384551661	477.7870105055063	282.7516074517554	446.7479089138666	439.6639582926605	309.9117082862525	408.0706048391979	442.0243256153743	233.9496249336709	473.3895001266907	293.7152064101501	359.8232838935327	115.0669660887599	215.6035311132273	84.00454989193348	314.3243927197649	225.286103243697	308.9004180575612	330.165070648286	194.2529759001301	255.5539132693495	120.1042521436517	271.3852704818797	213.5184086462985	207.3659596237777	257.5727916184538	368.9903159041674	472.841709208987	473.7997612265945	367.3257649644507	212.1477054682613	115.6903969639046	501.6344731697458	383.8453833471446	173.1609979749619	426.8333728826341	386.7388101563854	160.8811488472403	370.5699642168455	376.2119919837256	424.7230769518941	394.5418302413194	314.0063305113247	139.7124758346112	412.3094850141018	221.8498787876557	293.1475538729076	61.1574200667627	226.5423347664216	171.1315133258931	440.5164299140333	137.7383405790102	199.10795613635	390.6580273489506	283.7892793670787	259.7698216595219	336.5583306211734	131.7699252328619	299.8566666835613	128.0257385713955	134.6202398489055	289.529545414649	445.6880835901837	88.59397664401693	173.1739897942082	161.6780930457012	25.23514341488758	11.48381280616918	33.12287277907225	54.65872583534581	140.6190250916745	0.1771439709640359	154.2380143702029	5.304355244827905	71.02711736151574	459.3451802694264	222.6959506960812	113.6197654762413	445.8580392113698	56.3965029185498	246.1118092269864	80.06286602411663	301.0975877356016	105.1095817514749	356.439655090971	248.372604067514	263.0710947707635	178.4367637137738	189.9631994063562	357.3074241383418	357.4583210228591	234.9074988251023	98.42809057548926	436.6603008252224	26.28153151779808	17.59094278197201	33.69702513215091	261.9328550804553	3.730802896012775	154.7776121962542	109.0164969848016	336.6753746249223	7.935586883914412	126.0721627954791	277.1937112683149	170.5949776209353	367.0987831330487	336.482276112811	102.60883093177	36.28903017443244	493.1319319602665	429.8212923066874	413.2464166873487	53.20401200332408	85.73430163197632	491.5624507016664	51.88777865341438	323.2523452633862	376.636975414847	358.7934702888027	97.68424160755251	192.1885995681687	393.0858874358717	210.2130233799758	371.7816152308887	196.7645150647604	176.2667672502306	92.20284403697818	412.5349877371006	291.724259910588	299.771667531907	287.5592353242253	158.2508437292062	484.7708249130141	360.3218665752948	374.2978170927249	337.9117849800015	280.1905406531495	196.6197716149779	436.4556091096907	183.8858740598574	67.42729535597418	181.8010342501347	432.6094522678834	118.9107432627456	395.8753274249883	231.916754037498	373.5705519694662	483.6113279188828	14.78325899488154	351.8487267828922	230.6307710476838	413.8459739371684	170.7870901808615	7.234055466593735	442.6799012880402	399.118773038549	394.647948485618	202.3223336864259	255.0831778711374	220.8990269832247	321.7676951027396	33.20892579342937	168.2262867172161	132.289267941638	310.7735802626534	259.673164281051	52.69155701617262	118.5312866493385	355.772545065061	437.3567444295038	451.1455797259941	473.3899945238119	107.212119160521	60.84841987676074	468.9596181635278	376.4648264936937	420.9972315075158	109.5920871357787	394.9166318052823	98.68114193504046	116.3645661025433	88.09949354943372	459.0285594691965	189.7133617308534	204.0043435434884	85.88281059879887	112.331706563983	156.3349153756369	50.38088163100117	1.928584800338492	282.7424210937201	466.3250787340054	143.3093111166797	380.0003960083372	445.3712339129077	409.0056405627334	446.9064431804002	374.3653332433835	248.2965521377133	495.234965162242	491.6056303424018	288.1225227736707	396.5633701399085	482.7756200205426	343.306641980645	31.90352333409081	129.0009380214586	284.3669186345464	435.8085649548966	375.5688414784448	137.5228008570372	150.3957262476402	60.32430152156642	310.0018917169687	230.61667388909	208.447576986624	331.4547583124621	63.79429601201597	426.3046738540516	337.6038375500098	376.3472016108423	380.0359729859013	260.8081945866019	252.4257512318639	332.4308541554756	186.4458153974828	124.5616379726475	397.6303391859826	350.4869982335672	327.3287749240326	365.7388594834004	84.02177627210041	184.4138241537444	244.6555023824489	202.6794661866467	159.9957455154141	430.4571244146848	23.12178746465039	145.9297789365079	48.63742278575441	495.9735599505391	266.5918837697716	48.7279385491503	270.7955089442007	367.4896141824833	380.0266762562292	285.2752046386664	164.2876313316721	81.64396630554806	286.2517730647434	197.2153359647849	458.1982245853659	345.556984351899	54.72974356878652	274.7255470727985	410.2940162160131	48.79011681802361	352.8978677206364	330.7727445103941	127.0320280702335	129.2344701454666
item10	299.4009862851967	350.187559723367	235.6974552467816	25.2992553004737	335.1830522457686	227.4176463911127	333.4317539708136	339.2552355068377	16.09431795511052	82.56777217436448	386.5782498275503	357.8646404979587	95.20342955526674	79.54907663318605	361.1738970582473	336.0500031350128	119.9942426128219	152.9897114541146	77.77514534496402	66.52614538984463	358.7022310431488	198.4107253313999	166.6979223633558	19.06661781931043	290.4962804122192	307.0283270060627	199.0133852501324	240.367302716958	194.895371665286	343.5824259536713	301.9482402459214	99.69477480786935	239.6796352637059	409.504909762511	470.1018810693297	406.3156476669798	373.1515338938093	278.1124071581975	150.4044998602887	14.66127259309716	17.96187094391698	475.5429871009544	31.13279253391109	42.96863536862645	335.8734345469285	307.0812184940924	369.4566355008809	13.83917248921866	275.8785505432206	317.8497621492546	355.4525907744825	419.4031959216899	209.4569668008606	146.9820815030404	359.4432388375994	295.3977530014286	378.9909334294317	486.6024292680514	46.31146252140874	424.3256022793946	424.4525613162966	175.4897904960366	126.679867813421	43.53963178555902	490.4209445974185	441.5307334508894	367.1599012650879	325.3118902801766	202.0226895148628	26.42836880957811	56.9364578046384	170.4275163723599	252.6876102763671	172.8991461408684	258.6080228294977	61.72918963680054	446.0937437090893	464.261164229051	302.5033799167214	287.7430375039572	362.2420711984841	79.42864236345295	149.7718303961286	21.3558155361707	429.1067862783678	441.7957442530482	284.5231819831686	246.7503144208215	247.6083516965409	66.21491935048333	482.6406030767585	296.2892814526247	270.0524474190191	365.6177138379443	169.3058795108042	87.23553150290871	320.6691965797735	347.9210148643137	283.1069435131776	160.6176203568344	262.5194258897869	483.0317395458379	241.2836333196867	17.9126482763044	344.2285060877722	313.8455187949382	52.29329902135781	212.355266903968	129.5209876764078	29.69691519680775	59.80180199878446	293.2449501856573	428.3110279883009	152.7591823778054	76.25228890791927	445.9110638962451	279.0184054284293	435.964649708056	495.0842738041709	39.89832690888619	185.1072855631758	291.5724249972145	70.70836150570217	427.1942561301586	495.3967214699551	453.9571488421339	383.1648498876567	459.8778710947994	49.14809758922085	39.95749348367661	110.4752367361009	38.65599109816926	274.3286253663119	38.38679563556634	205.4890310637906	196.0897516949616	199.0362017030733	329.3974581910656	61.274824457627	268.9439844238745	475.5522264527672	409.1499236257166	464.0993182912972	177.7946571238477	135.768267397102	380.3369283708565	155.4197895651417	69.60568729883229	201.0343983497702	169.2694613595143	414.0748718344764	328.6526368691906	262.5577333518669	78.21890010151935	474.9566011415165	244.8379181747861	397.3674656380235	452.6625390576007	355.8948532713212	144.8451222087521	395.6004064387259	412.7294981735922	236.8068827105746	377.1276753176541	155.6472048401526	7.022905807445616	422.5361626898799	285.7210098843047	91.05986604354416	114.1843209825687	418.0109132694661	148.2814384186194	234.2273193417091	382.3888390292831	191.2451872193022	267.2900582773977	352.6863526250466	230.8321896534577	313.3055116621455	119.3935793660343	452.8136663593709	69.92189618761604	390.2614465064583	31.03320323501184	260.4373282961443	159.144617611645	240.3546073679775	384.686043351397	379.9390800500281	233.8382119451495	398.5475961195765	226.4105996368841	268.4332511013844	146.810458209681	451.4220433625972	378.472466686206	70.10351524554275	297.1312511544344	168.495791068866	491.593682440683	251.9606100620911	158.0157641960996	138.9611553645339	203.3178777837192	21.0908440994776	371.688260594207	495.5363268637057	394.1978445743698	99.72863029865293	12.40615749107703	384.6683853595865	494.4898948624599	244.2663457407069	22.10135257874235	385.1896543066716	214.9922681253966	345.3473547133415	208.1861403577209	418.2696360557002	450.6316098146909	37.51308760311488	428.7130781437927	455.4536272028077	443.9893044709341	5.770382278682185	431.2476547561287	118.7664373092373	218.6630572386913	18.89524196005803	115.7277116581695	31.04242641196099	27.72314691806635	33.59744266299536	307.3674264079237	260.5885487313217	47.90627014281279	107.5568476555688	437.6260204988587	407.0992068900497	476.2214323885954	279.7576745687827	444.5036469849803	439.8208462567083	312.0368702063228	411.8282870126189	442.9803870363143	242.4409947980526	465.463182572913	289.4915286412567	359.3192043372147	120.1068282946162	218.6270165327848	88.73529092909774	308.8156558649094	227.7819239795381	323.4645366456114	338.5624593963729	187.5456724675553	252.0059622348733	116.2213662212412	271.8319363702137	208.9629403188447	200.0430975398269	255.5779221102586	366.0879439827174	470.027127910442	467.879353929257	368.7457935975972	211.3485977710618	108.9026336514368	497.1334015506887	383.6069917135796	173.0618518717242	432.0601546834139	388.4107400033765	166.3970978680439	373.1765929352504	372.1359962902466	431.6708848879052	396.9216383932778	319.4276651137318	131.003922572614	412.29315605085	219.319083204807	291.9509364237555	63.3328084381455	226.4778580859123	171.1330788350497	444.6644404162832	142.4500357472593	198.5356399517932	391.9675028765728	276.5950282509824	260.613646539594	336.0597524726651	125.5701767978529	305.45837476865	125.4885298241953	134.0626558758637	298.2496692032504	448.6688205122177	88.48166339074284	176.2410827409072	164.6793352347887	27.95187856839225	11.50284702230794	32.61738882735636	54.61636213532837	143.4664624760131	4.223451455448613	155.5474628891841	6.18193390181231	68.77618874107121	460.3676319418607	223.1527914850613	111.8205375095321	445.502242718489	56.95477439472561	241.3803025271421	80.13213023472544	293.518641476506	118.0595285644837	356.4023331764436	252.4843840090574	265.3408420789584	176.6956819935363	191.2639431626647	365.0009869141971	353.5768083008595	241.6083631643937	89.2413907323858	436.0917281528207	31.96081654539642	23.11977197327683	34.11465489275756	256.590639319029	-2.350918453048796	153.1870802235598	108.0271046764065	334.4989021322928	12.66850090079324	125.2610465370264	277.3978279773972	166.2379249135005	364.6642769701263	336.3915421789968	97.85769503903035	34.70892262657921	497.7638236882057	432.1335218085784	407.2243357132965	52.98414509541147	80.18895765610853	483.8388729885234	54.20947082552184	317.6413347375234	370.3732538205844	352.1636781987186	98.45861971393936	188.0490922743321	392.2461587465569	213.3968172090161	363.79074721794	196.5048226754297	178.5799300559904	91.44383974176438	417.3777398720248	289.5084915387824	296.282046870055	285.5166908678166	165.4108706110117	483.4777777161003	360.9217635596964	374.1952462354687	347.3104289564362	279.1062588286269	195.6268298463924	437.7049055459126	187.683015125884	68.7856606479176	179.0035027486502	429.0932760237001	115.0244593718449	397.3699956066923	234.0157269903508	376.4884766647727	483.6963013852918	8.338412488392617	351.043092549259	228.2130154016876	418.0841334392093	174.1569287016155	7.075102554159502	440.5245281148426	402.1971512404594	395.217816159685	200.181611935762	254.8403802077102	217.5680466379474	321.5804944518047	30.30632521575241	169.8879355700192	133.8796906026511	310.3125939563367	263.1391371623011	49.12802686720107	118.5890747575193	354.6258043432057	442.3551114187077	453.1477570040414	475.6422454591622	103.7015437118974	58.56793692833605	468.1694243363658	379.3399698040976	415.6343985210203	112.3326294300982	391.1519735644285	97.84224216298674	121.7562126162736	98.88441686560229	454.3038555677673	183.7839486108595	202.858896780769	90.951442134595	113.6434202273134	155.4554124048294	53.84988273019491	8.114115987434928	280.9272493664083	468.1197271538431	142.7240033249336	380.8407805058229	445.7679533820282	404.763355280732	446.7050275419566	374.6203956817574	246.6147332689649	491.3072814393507	499.7302430707042	276.7431556146593	401.7880020060545	489.9373066824047	340.8154884518953	32.63558648372901	126.1479922243309	285.1582639892998	435.6255113889341	376.2098204667246	138.0464078501047	149.4836957825729	61.08565379625375	311.1087550764969	234.4549279223794	201.8278479006124	342.0592568622864	58.58848751498715	426.2137498749738	336.6222188057066	376.5095814668048	381.0390780954143	268.2285879870444	257.6172517927895	326.711272592215	185.670143710327	123.0320302443156	399.5778512334077	353.9467027963994	326.8605329693046	362.4814573927209	85.35867523827335	187.553991746717	245.9990713297894	205.8631163214702	157.2751026312724	424.1645615657436	25.63487949109942	143.2641542045433	50.55813395203876	490.9125189496603	266.7908052030326	47.43361121736977	272.1023616621238	368.7323322145303	378.1058203224003	288.2517411080445	157.6123934101313	83.5369174897488	282.8574977662726	198.7122973804687	459.6563910603086	346.220742631056	57.94092206731955	277.4130037583083	410.3050547739566	50.68029285953001	350.5529442769325	327.5650087522747	125.8069961922632	134.4883712861222
item11	292.1635418383921	351.5279016139235	232.7559068083353	26.08822523277412	336.435267239449	230.8182409011344	342.3250246932013	339.1412145878838	19.24130882390571	85.291481312286	388.4561229839504	357.9571747503231	89.20869006932625	79.44586863319316	363.2884864671431	334.1781119793092	115.7183924879261	154.1773082648306	80.02045341846535	61.41408658038992	364.2545187775128	202.3525505684705	166.7357353645234	17.41115701477647	289.8896079778685	304.2701039965652	200.1938906416422	244.939882713585	191.0651067381523	344.4073727351918	302.8029600571722	99.38025903072896	247.3829073389042	408.9350430685855	470.3577691260726	410.7017266815245	374.7301604546554	272.8628144045816	147.3280452745822	16.0725471739172	21.26968646392985	476.1375918711353	32.04471601020662	43.44261316991902	335.8025652983087	313.1890106438412	373.926802035411	13.94987358816564	274.648653360438	314.4373953633107	357.6420139986105	422.4429629615355	202.1144119343931	150.2592956918364	358.3664386764026	298.049936260315	382.417278409287	489.0073462876185	44.55527566602304	425.407364542097	420.9823413743066	176.9957030659046	127.6104081590388	44.38431862004506	495.9297577977111	442.3174118710619	367.0082361771928	319.8005527835623	199.1247260385294	19.33303464854593	61.1940882806486	171.6831444585267	252.970831493404	169.5995040353094	260.2423964333304	59.43160468039522	448.5221448424744	464.5479446052096	306.1612913929327	285.345771032954	362.5807287526608	85.29674578841578	149.3038600781349	19.40779753698741	429.4608019985606	445.2855902266662	280.7625225135276	245.9499892037786	245.4232611240195	65.26056159979986	482.9960322606092	298.9058043018648	271.7715924531436	364.822586944718	170.3914505813035	80.85739684535048	320.6681566863146	356.3989308133653	286.9134622549851	163.6297605542949	270.8545271745663	484.2427057508991	246.0152610037696	14.26323842240662	340.880500869042	314.6365853234201	46.80377590530536	205.7342625168116	130.6518977225187	25.50649685654658	51.74500203273981	288.4779970335467	427.7239260249168	149.4350473960748	80.34430684370037	440.7799688859399	281.5795062200886	435.0316216081488	493.1163384036367	45.01729579519414	185.7120635854667	286.1846938826921	72.19479645548383	424.0566158040273	496.246003535019	454.6394006685861	381.4603971954731	459.6528408000221	42.41887526033766	34.88185947735462	109.5756537185628	32.41009906091666	271.8450507848492	36.63187473830288	203.9234634293182	202.1656755912513	193.345805002477	333.7378123605081	61.58470174834368	265.6865752769673	477.1848645876838	409.4182063303301	461.3948245066447	174.6623624513966	136.0102118473702	379.400319230843	156.1376147643444	71.15319460259244	202.5783337913317	172.7600941026497	412.5125168464616	330.8354600759493	262.9979423027597	77.4530771187616	477.0854904503929	242.6894084214868	398.2824584578267	449.9751412609534	359.5038911355618	143.4545652219145	394.2333894704323	413.0514778623203	239.9887760725306	377.0632831496998	159.7055635263063	16.48801369762607	420.0304065675676	288.2321673388374	87.38716550289317	113.9435479629684	414.3931023172006	148.9055080029509	230.6503863646677	385.6946546149651	192.0515417715846	264.7468322619043	354.143202036144	230.2680382364011	311.5490877879777	124.8656941040561	451.8751014279124	76.30972059859755	390.2589638160492	36.00814311307986	264.1999852101798	152.4883541856246	242.6251346852102	386.7744285667651	380.679463931761	239.0895632803877	400.8243107484147	227.4688998347529	271.8849017771549	139.1618951445894	458.6022261098959	380.8626005646112	61.56635293158894	294.3017035839886	168.6973606763775	491.1655885322302	250.9801050814874	155.253842583436	140.8112999782117	206.0270496909966	21.79234455643261	370.06001007587	496.5817352168439	401.7687357300879	90.76134691319939	10.89548322519503	384.3133288397438	499.254177982077	258.8560956440722	23.05440671377396	385.4695856102977	218.8920176543774	344.8686928754619	212.5250810452856	416.9226067503398	448.9986785016123	45.92451611555833	429.964288022402	448.6536411835478	444.0364175783787	4.19852870389203	428.7606506988107	119.4693643366893	223.3475752542415	33.06039458806345	111.3049779238611	32.17743532100951	27.84508143721246	36.4804642742329	305.9979815537448	259.2428504869972	48.21740512138594	108.2200702653249	438.0526148394346	408.1261208050254	471.2031166980947	278.5101446842325	446.9764403688537	444.9855590507306	309.9612892546799	409.1731675439008	443.5462041459866	245.0415363764678	472.0676657454806	288.8880960465023	352.9554491796418	122.6101167917551	218.3902862924854	78.39884941817273	312.499639699273	229.9014617250106	322.0506125133991	329.7482193418501	188.6815776333831	254.8400767107604	118.4998959613465	279.6529526082753	208.5821436252112	204.595211241611	260.8492271550711	364.5390557451531	469.8574969312523	470.3406129457781	369.0647167491543	211.9305438287335	111.7203780762141	495.8667793724384	382.4844327139486	177.583817387554	430.3064014509608	382.0981983686441	168.6526336776642	374.7013408097083	375.3824085304412	435.9024060074173	393.5048359493391	317.6458872826233	137.1669939797617	411.1751577338315	220.840927456694	300.3027522875271	60.25017751148688	220.7677364317433	171.1714453248262	437.7847944369966	137.7913964873159	203.4018261779215	390.7295871760768	278.1156207423221	260.0802328533952	337.3992762780249	137.951110563034	294.918483611453	116.3609229370485	132.5528536103542	295.7808186651922	450.178078688733	88.81817653475403	170.3445644446321	161.9908523167046	31.15308135770726	11.49477660631184	28.08119543293705	52.63222331618759	138.3608485508416	1.723725111116419	152.5375860620521	9.163590465046337	69.43631768974754	461.7315202732337	221.6456737570271	112.0544224473087	450.7563307414838	56.11178471340763	249.0800774280798	85.73409175562772	294.9911673124414	115.7941511754525	356.4012371426147	246.7339137870748	265.5009214076213	182.3672139133317	193.0116871094941	362.0335062912712	361.1105242872087	232.4221773336399	84.88377741478143	436.1741206303288	25.13689041566563	16.80027111505182	30.97622557591879	256.1410369216443	3.790041028893407	157.9712202826314	110.3466526457651	341.2372677124766	13.00733579448615	127.6370045711497	274.6758422900494	166.2846865026594	365.3696763865989	340.8995252983956	97.7476028998954	36.20481098965919	493.3031300615239	431.081378771793	413.5477108753241	50.69971446698153	80.20848674733463	485.283445674869	58.38373950246664	320.6132377232178	375.4278897362208	346.4583123692842	100.2625628083622	186.7177747530877	390.4095494522475	211.4764694178567	368.5155995735756	196.3866630442853	176.1529702021783	95.22801523189125	419.0667098792111	287.3930634976525	291.1688269155184	286.0912634810392	159.9729427688826	480.4932910714967	360.1219731838084	376.282864795018	342.8738901611654	278.131972517689	187.882907812946	437.0882764543924	182.3411764602832	71.85808167066065	175.7056184923576	427.2072592491846	116.5794244769586	393.6381488157232	233.5678553349682	377.1683490088683	483.0557813648785	13.84566938901159	349.5990026812705	225.8835911940874	414.5358361032186	172.5986542420833	7.753015646271707	439.7993490098843	400.1934269660005	392.1586167667851	206.4388186293669	252.2922359495336	218.09748291676	321.9456147074295	27.69573299042604	167.2279653022054	134.3869716653727	308.8838104825027	261.1013436037483	57.38897390626106	119.3633478922591	353.2124801911127	440.6237169404963	448.9637649787929	475.5241223272349	107.7616459264738	62.16470562217761	470.8374980935636	380.501065363601	424.7661911599442	111.537715839719	385.6846516698359	99.42192504069145	115.2612875528588	94.02023291270618	452.5526262168697	187.827786639074	198.7075388490287	82.55391289782736	109.786112952602	154.1260119958278	52.15498893030145	4.329435618312534	283.9722250843956	464.0829591765682	143.6504261205426	380.0530353742035	455.3372058051299	407.3437894183145	442.3681167877988	375.7816785280299	242.4336891208652	497.3880425925438	492.1733398151735	289.7548471215135	398.0750132573974	484.0094673590439	341.1385305588822	36.51530360032276	127.7492927138808	281.8824652936757	433.4948211206614	375.0574180421509	137.6629077235698	147.4548164365511	60.45702161222032	311.7716741707816	237.5020941982348	207.8411362533249	335.3858784048184	56.98841121800627	430.6135102008939	337.4090717505025	376.1464186721222	376.558889462529	268.6209345019745	260.2593575227764	329.6033184187302	185.0521552647742	124.8893255832185	393.1096048688677	342.4942066104853	329.3817269985886	361.1127638594808	79.40344121838324	186.3188733803061	246.5017252650026	206.2122175544156	161.0759329334934	429.831429967695	20.64843557591869	147.696075940764	49.05850260873689	491.2912413598039	267.6000390657315	44.81633421866664	271.2163120837279	367.2276059667331	379.0232361865975	287.3901040390805	158.102317189539	81.83917071203479	286.5134826088217	197.2417949903013	463.1751541972293	345.162763845727	56.15081475341697	275.0952785664414	410.6724920168037	50.34575853870608	353.0649436826164	326.5427536152826	125.4650789192382	132.4639728909615
item12	290.7298502520847	352.7529944845042	236.105020340819	24.57260538161645	337.9956142646678	227.2977361406274	337.1798594087643	336.3383305534051	15.77625112795214	82.15854390893263	391.0381119347723	356.7249563099232	95.0692478694215	75.71185279674589	356.2887229673019	335.6402957724048	120.0389820516065	152.9970966672473	76.46396484552344	59.2614968172661	362.0672654196047	202.0723441748199	164.415212669994	18.59980787625253	291.916053823289	307.7957652017133	198.4176061914659	238.8745763774976	191.4386789594871	342.980664671254	304.3455443073771	98.01504185395153	244.8966132666294	403.884955520572	471.7659326552695	406.2201997732932	374.7729398915541	274.8617360879578	147.6726516138285	12.88321991125233	17.52274842733076	475.7623901256939	29.78899527165259	47.02705010816982	333.5561787310809	308.0492079991363	370.7861238179033	16.20826107135521	270.2473988719192	315.4246757254184	355.0816083285591	414.0625651436184	209.9078346713647	148.0771806418739	365.0807081016896	298.9288818432434	377.5180862488619	484.4799747656309	43.87720857216876	425.087460327777	422.748647986248	176.700999540775	133.3584042169374	43.61108813745552	496.7638447558732	445.3928050320523	366.5895978120186	316.2768737638477	200.8877844776251	25.26611047305834	58.24826567404776	170.1231880074219	250.6148882385287	169.3325962693294	259.0836063669008	60.72741996581848	451.1044558453245	458.720269833086	308.6328672814747	282.8385315399901	361.503999508386	79.44494213087786	149.132579905524	18.01533481073724	425.2540722626654	444.9456925832051	277.6013131004276	249.1166700675419	246.5332093395492	65.71186660497342	480.7902121735105	296.9487262998896	266.1925133112578	366.549828007714	178.7942475621037	80.84560111671878	320.6663843357456	350.0579290223696	288.7339627919586	162.4590994930147	273.9509877339681	483.7149672748461	246.49037446035	12.30952531713934	341.5483918983567	316.6566807996756	44.72560086370939	209.2971535022965	131.4004539467946	23.17061913032605	57.21565689487435	291.3834793380381	425.878576221595	144.6943195151252	83.44913149035953	450.7074428726738	285.2878114520384	430.9412928460681	496.1230869246862	43.20053375878299	185.5769625708797	289.9613377736317	73.648531737742	418.3422753597476	500.0193305518329	453.1816171019785	384.1177185425148	459.1404718025468	43.79895003345278	39.24937753093044	119.1523710836267	36.8746101715604	276.2433064333085	39.91254062829555	202.1122003967879	202.2704596574496	195.6284880750304	332.2763375107483	63.56512221344163	268.172562853277	479.1414690177574	409.8169457744274	460.8008193625333	178.9421809698983	131.1080056740066	378.8240852907679	156.1803544481524	76.44146102779587	200.6455826089551	169.9811155764303	409.5791346330373	332.1587882491564	261.7294174058474	77.80294990391725	479.7769686244931	244.1182883018964	399.0245942734591	457.9624077945783	352.7865451604763	148.8771389971515	393.6822324188117	410.9892912029776	241.5511651463725	377.1658161714926	157.4727162512368	13.29911130155616	424.5398184495086	290.80239082276	92.56017580604458	114.0757484814634	415.5471169326905	149.3056696465065	234.2825468822356	384.384481420771	192.4497052389099	266.8224347785267	353.9549296583286	232.5861542103847	312.219454739438	120.7847932584414	455.3925292385769	73.35285038793764	391.4602492707494	37.22898344609771	263.1069970534156	151.7724067225478	244.1983229576032	386.3063714722983	379.9972603761544	235.7874444452538	396.4881940483107	228.6259854295097	270.3919113808075	142.0681397183902	461.9724524610976	381.7217897541549	64.63865557516971	298.2012982642154	169.0761664107891	491.501994037017	247.4253442744566	150.5429784677854	138.7159884054801	202.397388128332	21.00168273755159	370.5704740768873	496.3559288431645	395.1792254853071	101.2080129260669	12.90490383179156	385.5107186255918	496.2641160825269	249.7383871375493	28.27156608691294	385.7665024835039	217.3004368031217	347.6752717377666	208.2828507775555	415.4322963336473	444.439188653124	46.69426032636353	432.5072397638863	463.2211425678586	443.9531477424666	1.054442986496502	431.1328547197226	119.5570903840177	221.4816439058141	30.55016473238405	114.1256912019718	34.20481030620248	28.33965761992607	35.72843209685679	300.3746956573041	257.0968471999074	45.54285829822636	105.4252772361657	439.1549116749973	405.5209562531614	476.423054881982	276.6807810191116	445.487448508411	441.777447900285	310.7595621874152	407.7365627411995	445.9910726686182	243.9390160852125	472.3359341451763	291.1700830173741	361.2589095769073	120.6738603301578	217.7995754830796	86.8686383529659	302.9204204735847	225.6058298605178	324.3537771718596	329.9196748193104	189.13849853118	253.4136775186813	116.7106095085233	270.4897121933691	212.3080128783268	202.5300749261663	255.1927158121732	367.292988555032	472.5626127065813	471.5193604774543	372.6960909682113	209.6977135252181	112.9157104264978	501.1433879214458	382.6950438207804	174.6447069340724	431.2863803304022	384.655898004926	166.6633873907156	370.2896734126656	370.1023817435706	431.7670375321445	396.8889036854913	314.0393779139708	142.8484180667021	412.3546662206409	222.5096525259355	287.2055630108156	69.23538089983181	228.8038488961357	170.582292441459	435.8558757374498	137.44860384828	204.4760847243368	386.9593836398496	280.6203646873419	259.8883956874071	335.3267612953939	131.3097559722041	295.2602402005728	131.2887273902826	135.8688337409736	290.8584479189823	451.4135932790915	88.38241209103825	178.4971096018113	160.7518838668296	27.13208210575614	11.4143302029561	33.62274968090205	53.32083583902313	138.710976860946	-0.6754996899861565	156.2190278860612	3.22350855555869	69.5289412594784	457.6430070991262	221.3395331190513	114.6766794117233	450.2499267801936	57.1700331386107	252.4562528597567	79.15016057747161	299.0673273596414	115.9083995710103	356.7745785544577	247.8080022249785	262.4372338076359	180.8416706348971	191.154445165545	352.5147924847416	351.7859162655985	238.9247468635587	92.79147613086064	438.0836375630103	31.27759881927012	10.02404007357149	27.69763447857197	255.3054626228762	2.114490650235394	156.453473373674	109.8279999760477	334.3812517305805	11.86642737733602	127.5077007099079	276.3580766619142	166.9962749830283	367.582710593288	333.585723586742	106.7014599378935	39.74752294325431	495.7994839128867	431.2343417959185	411.4501019415067	51.35546277798745	89.69532031500138	489.4031150997492	53.91082397323233	316.5801775213478	371.2431097291889	352.2705372518742	101.9696592377919	190.4746655155954	389.443583150598	214.2540326241632	371.2504657872996	196.6108871847993	176.0949838816395	93.78546327334462	411.3491867377923	289.7877615907524	303.3011477102592	286.0422514535074	159.2857664237036	484.6490589881931	360.8728421737841	376.068788627631	342.0462410862236	278.8280626487697	194.9833675533557	436.8694350728402	188.4616224094171	73.02860933294673	186.6096514380597	427.8939201984647	114.8037333589902	396.0602006169501	233.817538957395	375.2673442127729	484.0949918733647	18.04882587903671	348.9621052034798	232.6005566046747	422.4473137667903	172.2817102074378	6.739595645061544	439.0201476913307	396.3716282589695	395.3479539087512	199.9044616669895	255.9132262357761	216.784518062791	323.9087486357707	30.11120918269555	168.5822879524748	133.092651695809	310.0157551907805	264.6387187203778	58.2822888153086	119.0115669602978	347.7568303316969	440.290967609484	449.3476818071077	471.3309996849631	103.1936877642417	60.08863013361999	466.8697893653998	373.278533830959	417.5814915281468	112.9578694994148	390.035019561039	98.28424941577099	107.8700067977836	93.21371377218574	456.5793936212967	184.401316574561	206.22877080702	92.53232468146743	113.724257131436	155.2832344548017	51.84534633633893	4.715781349951008	288.050872692554	463.0837419465405	143.2335308252033	382.2693139934669	449.9973575914984	408.9867325310994	446.628456265999	375.7428018856772	245.6448160116672	496.4771969387115	492.6585195140202	285.1338462608206	402.9821983671708	484.4781938557287	340.7200866012095	34.75316314768036	128.6950378398439	280.906165852067	437.8733306426199	376.0741463505988	138.0878787492496	150.0566631534499	55.86683544843506	310.6616838604517	228.5968543428572	213.9265887421544	338.3537450181604	67.51358481156223	431.6726713006726	337.8381931219739	376.3333804778739	382.8448011916201	261.4289865465772	252.8435329724232	326.9431030277747	185.3507855193967	125.0512207963007	391.0644624651415	339.2430445847908	330.4903629267825	366.1536721420539	81.43911614312019	185.3461313670791	243.7303957389199	206.7754451826416	158.3049904083279	431.2251168483178	19.98578857562557	146.2285874958213	44.13540822636736	499.3102865252158	266.8944020987602	42.99230672392877	268.712045075718	368.5897033463526	380.8804853218842	288.251862222495	158.7499759571585	81.22199942906821	284.3722829093855	199.7124515525182	455.2976958343267	349.8640627815962	52.87848407995722	274.5333014814368	411.6747353976658	50.37194369526564	356.4299064927174	329.0236145537772	127.2953878899347	130.2620243647964
