vectors
item1	8.58735999976888	40.2388260313836	30.16982164757419	15.79816440744611	77.3299659297921	78.30568466187262	50.01224603757431	88.18380150907292	95.44799073839089	86.37144161939045	78.64362413464562	85.37457035972619	48.24067933629288	72.40725773943605	75.70720439837847	94.82422952275616	71.24792434310982	3.781737980355699	54.32132745073796	88.37482589129705	72.50116112932179	29.63723203256102	52.34562014632588	71.2984874995972	0.5303031310889708	16.29666156615686	94.01931333179344	81.49411409351566	45.86105771954072	77.00837497464215	47.14315754442899	17.80825626550421	52.7692649592105	80.44245867534666	22.37386886009262	99.84365614906923	74.13339542276636	41.686040797468	20.18437423565001	33.49705526608447	55.59688580577406	58.54916338127401	86.01761934990178	11.00850236927906	-0.9830403751345349	1.802537934781266	22.21418446135946	11.8486518879999	3.311903742495404	97.66198500090537	3.544621497644384	69.97876535367054	68.48069876916186	63.28795188883981	81.63063285925712	40.98352982489485	82.93871951014171	93.36207647816349	13.39906039521541	47.40423932279844	37.96518419775595	75.98558441483375	12.92873647172456	2.169638345408988	67.00164149262683	27.78337739819091	92.62193745776811	57.97549459948505	50.44011462015405	95.02424034456484	2.307659726329831	79.64629680555144	66.71085843321026	31.16330557120351	15.88451353272689	55.91763734333627	103.2170781603487	85.2768354664066	30.64072072868292	88.57122673851661	71.84046659965239	68.65915701454209	49.1440315110988	54.96082904876356	18.51408228221269	89.22110147101127	43.40258327377251	90.29499659364996	84.72469087365309	30.19629864642254	8.512480363142481	96.23288919563052	71.7680394957126	3.912885065395814	68.33359838708287	1.442154387289029	60.23230861335571	39.81455793632236	93.5768449559535	99.79367276877375
item2	9.861976623251483	48.43526856574032	28.1338537256171	14.51779928404811	77.12590609298455	78.20168310652961	49.78020699274315	84.10250866604314	100.6503287615503	88.59094023075659	79.20965672879981	83.73194647424786	52.68357967363843	75.41072776887222	75.08342105518474	93.01770864361112	63.97074459174746	1.845828893152432	62.32525781026053	90.66461376342249	63.13622064427584	34.73382400199272	51.74614717617955	70.61677523713395	3.394763404236624	13.2354844193881	87.29296977052738	74.53672384331317	46.24803210407956	79.41949539857492	49.36696427505368	22.10032541025744	49.19050271896873	78.90642695212357	23.32193230482899	97.49353740528129	75.85013678765846	38.26521512356391	17.06271600239892	34.15606560153057	55.63367478848156	54.47397879434594	92.91159638169721	10.29523143190419	5.630711730012059	9.053021754390134	14.61665835590487	8.158618392137049	7.819353314245662	95.52877776843431	3.980939524344357	63.05344033727769	69.69161518298819	62.47537681691253	85.04139008855073	40.34419018856355	85.22104583093092	94.26727441829215	11.12010715104075	46.23001876736729	33.52578530333758	66.19048134213745	8.999518518402311	2.113444885763046	64.9486163270431	29.0191661842745	89.58086664509285	60.03121700566471	55.3790104922305	90.80692341218915	5.701671303230642	79.23923035351937	63.75155039622567	28.0839001128022	19.18375449451437	56.48537388442566	99.54608283006117	88.60502399962186	25.15043066461873	87.04816696884797	73.22277218238325	71.53331642491716	49.13405942752046	56.27980518157128	16.67404041790011	93.59350501672189	45.1450016806087	93.1608830611231	90.75133747659669	29.21912835714105	9.263828832309262	98.24468363066211	73.36928570568926	3.736538150892896	62.53806865944731	3.166213462984436	57.78375819584409	43.90223883424444	98.88490553891492	99.55386099008122
item3	10.54752057668877	47.0524427073258	29.40850990858132	17.78783161096523	77.50086675533286	79.34118346547477	49.3374380750585	84.58756839771675	97.91289911570726	78.31376508173034	77.11551763578872	80.55162055428784	47.62237307785774	77.97991481760063	79.04107069785297	93.8103564651289	68.93513743334739	3.950640188985811	60.63868596448263	93.24757640313713	79.85058342838315	31.94539487248722	53.01859557890461	67.92321478935639	3.273918419006591	21.81616716981221	97.31200138855321	76.76073880872261	45.26437198625309	81.08693767714334	44.38173322808498	15.58320159217642	47.72750714299544	81.97856908619866	24.35010920486734	100.0155502239512	73.45458570098974	41.31965683381894	17.18504870720934	34.50587790665747	55.81814236008113	58.55114346052963	91.76240226545033	13.91490481481888	1.446696649659962	8.138216594349354	9.145425188084522	10.37303597763535	11.79235745723591	95.77833649272685	4.811629563215063	66.04550609439079	71.59769573922428	61.62051058734164	82.34408757480946	37.60560610267783	83.94734897868466	87.25222296389015	19.81950681754925	45.00139342041401	33.90329004721858	78.30801869630037	12.34168703468585	2.125699565269558	65.88886113457178	28.74858693700699	80.81264232961294	58.43909056096965	50.73664850622703	93.15105578084629	3.868318059643859	75.31069023659916	62.280854582396	30.13432175681407	16.74896026407458	53.65834814757007	96.62941605651899	83.15050661014068	31.01671917666278	90.87682569063826	72.11914731678556	73.62402096520685	48.79518378545207	56.39779345788856	16.21411849244346	88.73039333978882	46.07429281310031	83.62913364147867	87.83344934299981	23.60548109214647	12.77612867730129	97.97810867570389	69.42858250197855	1.430799156791866	64.327475103059	-1.048450015831157	62.00996620191653	42.64835357908847	90.35715562386738	97.80606661541792
item4	9.149617824737321	46.9432003897531	28.568247422783	19.49235092335755	77.32626942793615	79.6107052712297	50.31159281770874	83.40629052798398	96.14971917592209	84.42504189974434	80.10169110463544	87.67424162855619	48.50936250201742	71.47486063819066	78.17996092976112	88.65917455293399	68.53878147871993	2.985165733552099	59.13927307408328	95.66673178065909	76.23592779182376	31.98949068212311	52.14232219133476	67.58973918940849	8.411081610277439	16.21574987425189	92.32040353514186	75.12284432562461	45.60783149817745	77.52686783165375	52.79865993912448	15.71203721299513	55.21235225727557	87.29516721910521	23.99361504890019	98.3452398571454	77.88891859259543	39.23296009210339	18.04301197337082	35.01775201358914	59.02160568151678	55.07919943835781	86.06994998136334	8.423439685042844	-1.098797293887903	5.372587004075507	18.13476347420678	7.200348629546357	10.38555904228763	96.12108050080163	2.221584770272712	58.42461847567142	72.33089585766905	62.48329844889699	78.10280843456302	40.60310775109097	85.66348572278292	96.51947334878457	12.10399326946455	45.65369846673027	35.61825625642987	65.98779218436275	10.74296458678073	2.20629513183083	62.02866154015747	29.57066744512265	89.54607412457447	58.25824705252798	57.84948163061198	96.70204823775761	8.455981954414472	78.89385869974041	58.66144168809291	30.25129614402019	15.10017723332274	52.77159899321429	96.92109414453182	81.14192490843023	30.91290934576725	90.32827790262881	74.76455840929921	72.61084652721762	53.77548481342935	62.21891051186634	17.44243977605323	92.00205617805089	46.05021515958296	87.6690649848905	84.19501742514595	30.48866872771054	9.357617932341807	97.31551738405855	74.38744906904384	4.094844178345379	59.13786808426654	-0.967496545545	60.97369080242818	38.86918489998661	95.22798471830217	102.4365363132259
item5	9.311601427933009	48.72160521650214	29.15141823211394	13.92020572675586	77.5457955042702	77.85159894123517	49.87239781304668	88.98697567059227	98.16104433072913	82.01007058791362	79.74312841628701	81.49168062742899	48.42407890101368	77.62694651821506	76.78814050979125	89.79146497855602	68.69878700833104	2.141214637573472	58.39696704281665	91.45501274207707	81.52964757255162	33.29618623893617	50.73143060767053	72.20150447842376	5.298725554546654	20.29567885176487	96.98859704317192	74.68801858653599	45.24315448636652	78.26435236818112	38.64906525387441	20.71567882552435	43.31499738080574	78.64098422685753	25.25794673920715	98.78065306243938	75.66288811143477	40.12651853056411	20.78153952709217	33.37758787420766	62.41803795627612	64.47520784113634	91.89358081111128	7.965180498983487	1.635063288316437	1.541439423524797	21.08028334756314	10.48860080919481	8.67579541267323	95.88871674128917	3.739601499503147	63.92393699818253	71.20318765506384	63.32414480812005	83.24534824506121	37.97635336667938	84.26855651821556	88.63877829685914	14.67385361634757	48.200182197712	40.43904881738795	70.36432694074348	7.881690618065392	2.101232525327974	66.95006772763202	28.87629318414782	87.80053215551234	58.52587757212545	53.30867901300938	92.02021042863007	12.06262878337558	77.90337131465152	64.15257943887231	29.86409110304057	21.83952168964282	54.91486496294662	91.6800196472141	82.44742882639963	31.63032611645031	90.47427053087021	75.04752917375053	68.50898910515353	48.93959733584637	58.4463286564475	17.60431728020483	91.13907020492188	46.15204821761672	88.68759595112924	87.93179161188066	33.87635854092714	10.20591546297606	96.72975513895763	71.94537950357658	-2.09605682959376	63.67936197743894	0.1818945049652323	62.7894172765935	38.77990718906565	95.60205629145545	97.98152666664272
item6	7.658503644602242	44.33253663562603	30.11608648052909	13.51294804548428	77.48834864889781	78.55273442944183	49.32252551376877	79.46212470823473	95.21558343348258	81.5378754055366	83.73338272601558	84.45113549653875	47.50214179146553	73.85958409805903	76.71175727883782	87.39598498551474	74.25085455310895	1.798357213682395	57.94142459119062	90.12805066771664	80.49638720498386	28.90448700815464	51.27297102732818	72.95497279633358	3.995907709041834	17.62814893474169	94.95188212274927	74.44092068237704	45.45691006889089	77.77874239178371	46.39739613226431	20.36560300691207	41.54989351012309	80.87984958881651	21.69762431216689	98.45990751966211	70.03224263582167	41.11286882637741	24.79705523526653	33.35000899678988	56.55112799176061	56.89501282723007	83.12164920472095	2.484562519638721	-4.45891129118017	6.627534381496645	7.597834521307108	9.972103782309764	2.633569660608264	92.23261778187893	2.183353697304416	67.02416987088868	73.03905477077301	63.00668814604001	81.11061267380151	40.91460171513386	83.83538575314688	92.83657269954062	10.69090333163519	52.65399276243436	34.24189311962513	72.37441668084072	16.58162124349951	2.159865490997772	64.25262282633349	28.25468286201547	86.91346172651632	58.50037859197003	61.79349913154799	90.61494666025467	2.737483586788994	82.64258107371856	65.42865026862276	32.58992813419098	18.17941851123846	50.46841616171317	100.5232777030353	82.65738360509746	30.73535802878065	90.62013167979364	72.27354902551019	70.1488587014246	49.59554897418769	59.18364970620251	16.07204667182081	89.37892548233684	47.56868154175064	90.04300900180623	85.02978478197385	30.8943635417855	5.304334805611952	98.319066896724	73.49452029578465	2.182693662371901	61.7367690830638	-1.621609245823501	62.72277268404096	41.24462180318081	94.13137772003481	95.55659783831295
item7	10.24075805145647	48.66966967082333	27.33361866025595	16.8805475639576	77.16538558014877	77.79024494806752	50.383915755163	85.74656904189165	99.81937291085599	84.42105648130507	76.75490518230779	85.93850724597951	48.33222582335033	74.71839525159898	76.05364586102998	92.76266619563309	66.19261303601886	2.500284126023649	60.51795419835153	94.2164882492887	76.06320016751641	34.41059212099702	52.98883445119146	71.55692146514414	7.257740069608415	16.71348191520228	96.97427064304165	77.67339183473615	45.08632695532142	79.93260881120028	49.25236876535797	14.05405323505611	45.49375698153488	78.22452177129225	22.7433127278825	101.1114034543274	72.47067029305644	39.91724806670729	27.89801675004889	36.65329508515735	54.99774714864539	60.64571638438262	85.04481277564636	4.940477206155648	-2.481858924825985	5.154753389276819	18.50385369886624	8.306868702832848	6.683376226530187	94.9743027806461	2.202221874009065	59.37668755579648	75.53597830691297	63.06348395899803	83.41891146489563	38.9448429443279	83.01309717481494	93.61687106996078	15.50086599551329	48.80092524029392	31.29795326615705	68.84346614465771	13.54149841254836	2.107149764382585	64.30991930576023	28.8945712888329	81.06434043347963	59.61614854173272	46.10571649787095	92.65805695525582	7.462330103075325	82.75178334864643	66.04740416363249	29.20657369796287	18.94781719633009	52.25474381661203	94.92534908165557	78.73846321419441	30.13135489389932	87.85330814403015	71.26911591759929	77.52771760140277	56.16973483624296	60.13246941416679	16.80307265730861	91.74635931545822	46.43303283018025	87.45734450188499	83.56905847443728	30.55011608917798	8.840652947968247	100.8666201660556	70.99357162160791	1.809960799697241	66.75184393734263	6.013298554739147	56.65140673357231	42.66147005495966	97.30578343974705	94.28781654144508
item8	7.436283820107493	53.31663148292039	29.77424013445447	15.70243784117024	77.27975838881542	78.49975186883886	49.9541714297441	79.69337199586344	99.13575144143549	79.70906266677189	83.74155302036181	88.11904769995914	46.64979517185736	72.32061194513678	77.17694650575865	90.35976081547071	72.33227815608603	0.2464666724975131	56.37989927065875	90.02969387767499	79.54771780642564	31.67927218683358	50.57740813642205	69.23047838128545	2.169830306542436	20.44079200285396	88.03209314971127	78.90307571493858	45.85097709387536	79.07884426371193	56.9307017432163	19.2106158407898	47.76587200829364	83.24183246119075	25.84523438165019	99.01156009348476	69.33344867395918	45.40377935733225	15.46395425335317	32.18916115320888	55.89944954934244	56.82348476576882	98.84853475904755	11.29344988775922	3.32044876217777	5.406685128919056	13.28082426817532	8.487483737173042	8.792014514704094	94.04619139739249	3.616047317967215	65.14616857966143	73.41214946732747	62.68430554344177	84.59048488776862	39.37876005900684	86.72658429284732	90.23862318796354	16.24469875386889	45.03169688134482	36.89880629823348	66.98956825471502	13.49629991735435	2.32285524553561	68.3874948943003	28.74843148128072	86.22354130088746	59.14763219870069	51.40727728977541	95.27458879669926	9.816389696274879	80.63718481986314	64.62526043607403	26.34339069838837	18.67192241483586	52.2620023651708	91.74003464664048	84.30650342301213	25.30946151987085	90.3532109167905	72.78006101938873	69.46766351082522	48.59569798350337	59.96721303601007	17.06161637601853	96.2843373586193	45.58613125385679	84.58437411629485	86.51981244610616	31.37816409388999	8.406079833078872	99.72422260926348	70.49983439340987	1.460521251780829	65.31315898214358	-0.6945543009527174	59.74448989679192	44.99695421853691	93.30221691734309	99.81222742595199
item9	10.28055341123385	49.83507469604836	27.78010359386114	14.6441103609726	77.39629268937027	77.51338538955747	49.99843733477058	88.82512402410619	98.43689058848497	85.62180122418418	81.71611579878906	86.96278140944239	44.82431490002885	75.35046263961598	80.12733286760108	92.12725917136557	72.34277380911638	1.368276559646001	62.02207688792954	88.09534294796147	79.37729494890647	32.67159950058736	52.19154431469179	69.98378680902093	4.984755193223692	10.47809711981346	88.35185115704793	80.40094876783243	44.93137744364325	79.38085619494134	49.90651117158982	7.205923562754682	44.41667293654313	81.68982007853494	23.86799239278135	98.21454207309046	69.03909221232415	39.10855247205846	24.98369653099798	30.84063335981713	57.84013213283433	61.19236445710177	84.33235547730365	10.17219281489691	-1.111862593274122	3.827348425831511	17.54903017202527	9.737743718660209	11.18105653830254	98.31093248899121	2.074387204192314	64.2927838814781	70.43860141921884	61.85830782885521	82.61820188746395	39.05116561017382	84.0653729799498	93.55428830387591	14.19015344718298	48.83264201443486	31.87917134451931	72.33896566944897	17.34392432969781	2.273378958025636	67.36793585964743	30.16301282109789	87.56717226227721	60.88351633821294	53.43935309916142	94.95402905596104	8.733019255496689	81.4674333104374	63.35310285392973	23.71290483332782	23.31306900775279	54.10451448716486	94.36643087114118	84.72420774144042	27.06648496709639	89.42958760018765	70.9958858101318	71.19165601695632	47.28117479926945	55.3484488752248	16.78073182841512	92.81806078748548	47.00298060617535	89.91538068123864	89.95131484172119	29.18976959073938	10.51311119807658	103.5065109289717	68.82039516781899	0.9901967700032461	55.42669929146182	-1.930679950809906	58.07252887402927	46.19316405685889	89.67116327225125	94.01057886261685
item10	13.24629659265752	42.47092820933602	27.23319617906047	17.77058772685731	77.43833237939334	78.06965164976251	49.55081905951247	83.36077021510023	98.73347580335594	84.19965577981844	82.91888911728942	85.06801346223496	46.84053920249671	72.60953319055292	73.88881974188318	94.8782339704908	69.28929424975263	1.72965962729592	60.53153893562004	84.49434196713362	70.87686780461046	28.7196008742961	51.46661176068316	69.10355359501303	7.4691077720883	19.96306175977031	88.38114440823868	79.61676434681465	44.52236307554406	77.64215232916678	46.26430288011539	18.25037674244582	49.9025331025346	81.20233889522663	21.97358916342524	98.43817934531546	75.42563758380274	45.79017650821591	25.12840418619993	31.6567780226162	51.72804406582626	58.0560770687046	87.37784608566015	9.818564181760253	-0.500141648540394	6.927543223900521	22.29446863513772	10.1475101574113	1.163289166120042	94.9808642930559	3.654575199091433	61.99516681509458	72.35534299662434	62.64987006885222	81.49906751669084	38.34708373875819	84.11026503915699	96.12512638308583	12.54413206498267	49.67627889867857	36.53418568330759	74.99073647893569	15.31567526755753	2.176456593538761	68.10842633950598	30.97170296051945	88.23899633969404	60.678947184511	57.08111475975838	91.60004854860307	2.996969911633788	82.8829223450382	67.16593538443989	26.31883321554537	17.81291288051751	59.83519565773388	89.19778200347712	86.89827109656242	29.84000667261336	90.40856409008629	69.51973477528453	69.81297428915819	49.63165458122622	57.26037404813557	16.7779524117724	91.38819632784751	48.46767781533185	81.47318052945386	86.41998534697203	40.18828072927394	11.30712989869016	97.207281729889	72.80851287836148	8.059376589684264	62.05551940711738	0.6774406449570108	66.62318778712941	40.13180163743263	94.57251714807536	96.80336343300878
item11	8.410473686355177	46.2680655322743	28.16084537604925	15.716940062575	77.72471203819217	77.56526765085157	50.04781355110256	77.97937812411919	98.61206087765098	86.0412080936775	75.8239839533108	83.11043876876754	48.7659131009358	74.39272215773592	76.74920185195009	94.13767057395239	73.04810646120531	1.775715754175613	59.2522817578458	87.58124882280373	78.86897745392983	28.79281572498888	50.16380710924756	68.59982446565327	5.793707357241761	14.67161029168238	93.778878149067	77.77726959429175	44.74070918560758	78.63017270118175	51.82513702402019	16.41416723089749	51.70088613884005	80.6279954116802	24.34275225746776	100.2775446457894	70.30194200671433	45.52935489256662	21.99840298221733	34.36892113988041	51.53262789441874	57.58313181524536	86.37180762246015	15.54427732857091	-1.95420081248181	4.88362884806515	16.55589518712457	6.100290368688045	5.163285455510809	96.67999737125203	2.445284559322439	64.45211138302398	77.9879706483449	62.11126890205138	87.39419399379403	37.77861298927156	85.40137136610565	98.92457725733426	16.02110339569009	46.37056482677927	39.87136177767427	68.32422158130646	10.73643584769981	2.18136406158058	64.38407282549315	28.84898803252822	87.1670835635764	58.33129132035941	58.0339571294959	93.68987884867363	8.324564188860691	78.655095278331	63.3743824750216	28.61419636444719	10.08699331869004	51.96783369636245	99.5261731731016	86.9013505045945	28.28807725853945	90.10263597045805	69.50423306753866	70.97164753667504	51.48479456467734	58.17224545971256	16.35860673212935	88.83588795285021	46.05823545885196	87.33730937768709	91.82546357831338	34.66150034420659	8.537750978558067	100.7542125908118	74.57826189468631	5.925952357513991	66.27175233645497	0.4483398875270833	60.49004122611657	38.98479151622728	96.43141585158926	99.17148864448886
item12	8.442776966795746	44.08918162471697	29.85176861006907	16.33685973264661	77.54669584909671	78.2404757895908	50.60254306082079	85.91502242389137	96.51543492061175	84.02470042776558	77.68887456333454	79.69233829606688	46.73736703220808	73.97812651994624	74.75918281982953	94.00835859329356	68.76451090145017	1.973789119015147	59.8914796394732	87.13950645462441	79.02296103623227	33.7123576797707	53.72012821483809	70.31754880289461	5.282819344571905	16.64752605094074	96.07802183473268	82.51303423078281	44.47690729085442	81.51039975828036	47.23979714935385	18.46451273113068	49.75338400611764	84.46891825587545	24.80226675297116	98.73910693807227	79.80106801207174	41.30843285823649	20.92531175509344	32.48660665414521	59.22892358382223	57.08278973582821	89.91845780060319	4.941134891794994	5.295475196098215	6.186441059615736	20.28326307113362	6.332886039346858	6.933419730033867	94.41066583151586	3.724089062520344	67.95719350449302	76.12249506891635	62.3440316992679	86.57636486301277	37.58924338375717	83.67530641116834	90.77651829624658	17.24540938150021	50.49062867480577	36.33932895525082	72.5431383316329	10.43399114580849	2.23685303534878	67.90379528378548	27.78647618475989	82.29331982942013	62.78809613445872	60.74632431785933	97.96873032601643	4.882302851588307	81.5555842413177	62.26982165839952	28.24516261491117	19.58051113778158	54.68034761511788	93.09990303956947	84.72514376787272	31.349469915169	87.44631776046772	74.99553077306581	69.80819879200983	48.35349011549047	57.26935197154138	16.45133713072451	92.73582416256868	47.48608217162747	91.44750006443259	87.67560322472592	32.76509821569072	6.770909117186241	98.15173942015026	72.1098507480544	4.545954686301986	59.30881669772157	-2.271118512743782	58.27189294364969	40.27543937535863	95.6659146879599	96.45982833774038
item13	15.98132407404546	46.04199716825065	30.0853402991284	17.8246865109357	77.73779298288201	79.39235818027571	48.93820527065686	78.54738286916967	98.34617628933415	80.08926939946579	79.53978141193875	88.93880015553647	50.98794738386741	76.19302437161632	76.44343843183718	94.45931496579111	73.21296869926483	0.4297597907072264	65.3329193595348	85.83473284991426	80.485164839538	32.10533788975887	51.73824212271828	72.017928582512	6.302057992576997	18.54055334109942	93.56449326188361	76.6688763139296	44.72936302443377	80.83182878355538	44.14963622354065	13.94985493915647	50.73157282687609	82.89075704680717	24.64669075040565	96.75637996824877	69.84631860094926	39.3177439560214	15.89820982559709	32.95301200738358	60.65205392371523	60.07756933781403	89.31862335737583	10.40956130911492	0.856547940544844	2.654879392380425	14.1971960268752	9.674046133273283	7.017926381243084	97.15347967832061	3.104541397003916	69.13177536224252	78.07562357430075	63.46411592790491	85.14574706109335	42.30752369553782	85.47941015189227	97.12925598172133	15.89824043740959	43.58402298913528	30.97487198928747	73.91540528948482	10.63086700466675	2.163576519373198	66.97720187934964	28.27654121948963	87.64616888429568	54.52599820294884	55.54205964584096	93.0167336360487	7.251148548345948	79.53330750563393	62.17491931886877	31.58865792588466	20.96282576956367	54.04393051676637	95.82319291853688	86.20433192033542	33.1700778929016	90.4743117019934	77.22811108892918	68.95183377392523	46.77751842919569	57.92791829068987	16.35219055575407	90.00356238715338	47.08936114630396	83.85634516632301	88.15976210169259	35.1236258589372	14.47403040714346	100.5936225834738	70.64853596433898	5.734150213889837	62.50362708182193	-2.006979776318363	57.44641955792881	43.30659631746064	91.69832822285186	98.78784757161723
item14	9.508218762281819	50.39567115462233	28.34404424063201	16.04928967818914	77.91876772620294	78.67101377572172	49.76607120455994	90.3483733690216	96.70069396805658	82.42896661368798	78.88067622329068	83.09003329424499	52.99680698010802	73.57274981951475	72.15609069391083	94.07913516835913	68.19623005588097	2.716529107829881	56.00824385987496	88.80422110898698	75.92858728983805	31.29710038674461	50.93795772499149	69.43472077665334	4.713731603151735	16.18050738743447	92.2730668691305	77.25259839549263	44.50888910055352	80.01643504496289	44.93694308119839	24.40091319666214	52.29282590837943	79.4726146512844	25.38450352714406	99.78686778569771	72.29901458877933	44.61461365072563	18.88840354652202	26.79158684073228	53.13787560964878	55.16480998573909	89.45874169546055	3.961869200053894	4.268776061533792	6.801978930520657	16.58812672620511	8.958840008876354	3.92730141778878	99.12383606645319	2.037369182927682	61.0838707926722	72.44884682599101	62.6652277391258	81.82053061879195	38.05312160015177	84.1198061364984	94.38648917563098	12.62178670251991	47.3151983416186	32.2396015856874	77.10916227345604	12.01276627524498	2.337900553189958	67.93996445901558	28.94507592015373	90.60369638790078	60.66908590439696	50.47747862710759	90.8154621355158	4.299695623944471	80.98531239058524	63.50718872502878	22.34490735060826	20.11386980853252	53.64799748091925	95.52957021625625	81.53806547229722	33.80297063905919	90.28145845845251	71.2095042902111	74.42216650950149	50.18583711961438	53.54418301800662	17.11330133421536	92.54289484819982	45.63676588657802	82.96591142623268	86.94059902577273	37.22762676927006	6.761003730292959	95.33491564100916	76.68615351673438	2.773437891887708	64.35034405572235	8.065544212766769	62.24230672502794	36.89916806915308	90.27150489592856	97.94712724889843
item15	8.248135019463867	45.63953633511637	25.97849871189252	17.10997512135142	77.89639381146524	78.80201744703986	50.28420372615123	82.00006279643692	97.25102371086531	85.26582224539537	79.55226995801615	86.78955229904311	51.51019875287732	72.36632528857636	73.27437352978517	93.37039318592564	73.49824087356271	3.209653655363216	58.26551011594785	84.53374706078651	80.93116329467952	33.3925483345053	51.89374923735772	72.32157966359389	3.455394017294844	15.51107762245278	93.54876744989426	81.20474131948043	45.21223346329484	81.7847946435645	55.97903627238776	19.37745952903823	51.39773417361218	84.37296665076262	23.3234182192035	98.26355423957182	65.51396318354789	42.90044170090508	20.81178727554276	28.95515887139197	51.67016072958583	54.32680058374935	91.57348519582133	3.344274863420846	-2.880709680999771	5.81005429643968	16.18315901501735	8.257292745879159	9.152735603227859	98.69450324991402	1.975931371506378	58.48605440267783	74.94480363979119	62.10376047682852	81.01011001136733	38.44252978700686	82.81524136788578	93.95537073019345	13.87706741368713	48.82234135785296	30.17770276442638	71.89682066950233	9.82961797138972	2.459026721263784	64.09717075627252	29.21656247405629	82.19155980049499	59.71128086241547	59.05281517791131	94.22873620366887	7.533509933448083	81.00355187971027	61.60716930400453	30.06220125597298	25.28055293207424	55.75382393512555	93.69678436655508	83.66735133791619	25.80630871555508	87.63613441250965	69.33883934190411	73.74203627068778	50.09894108277718	58.48507527057963	18.5057084637315	91.47033988750962	45.97999565467811	86.80909678722351	87.83583674627089	30.40574218271279	14.47531103976519	94.62049599860848	72.98570477293448	2.84257665432861	68.70995140725242	-1.593741076058388	61.06040719011146	41.15183464855637	99.14945339841125	97.42732759881638
item16	6.834028617425429	49.81717676545261	29.00210001382936	13.29047091481322	77.67222522420873	78.36451525102142	49.2831080646022	86.35101680760137	98.17192314397312	85.73713892559746	79.86277294503979	87.64117020908191	44.97563499366395	76.15337013769691	78.9160214917739	95.66683202471393	67.952534106119	2.409771771456301	53.38008388574271	85.01740108712811	76.50950312376582	31.28455121786324	52.55929429631932	72.00476424420376	1.840163079356024	20.63015402734873	95.57323644550632	78.88704780498162	46.41435085406563	79.68326574975345	49.50653605574978	16.960177630793	47.33019374554724	82.38186544000328	23.17356630733543	100.3332360547319	69.12707411372398	43.12202151316734	19.29213145118153	30.54411083883603	56.26789148297324	60.79943256314507	82.77517188438836	9.958864972694153	5.085137848662754	8.424207218383462	23.93268374958788	7.459403955432673	3.739064961052115	94.50814763656638	1.721622328926584	56.94882226295312	72.37100782448501	62.76997330482407	86.30793398989658	38.36006953145775	84.48333705211317	95.09359180975503	12.92433192618935	48.243125175066	29.94849737986253	72.34993854194931	9.577769173500679	2.155614888280107	63.85883858035307	29.07749786950429	83.86195669164876	57.67536935247675	54.45801959504299	91.58443770910165	7.619367975086545	76.6415586612417	61.79287856468042	26.03385281614539	22.23568441825664	53.98676784317451	91.70824486385436	85.62302617307697	29.61599763808664	92.10017367096866	76.03790214007361	73.53418072321811	51.4529818081737	57.3852405339441	17.67466397745286	88.63216855751716	45.97520906969282	92.96294776491632	86.14233757465578	23.85589101614812	6.100483076024652	95.16714026833034	72.53320103927169	3.916982629931974	57.85113308333786	-1.03026609490105	52.7273866378895	43.11847824459741	96.46967229132133	99.18640907110891
item17	7.741989180438713	48.72733716869109	29.37345399482645	13.41718585400786	77.35148719617867	77.4635961880373	48.6716633430442	82.10848862498806	95.47748602204463	82.492645848143	83.01207395135337	78.39738659563001	47.81062479128452	72.93268454675663	77.40914542284109	93.54790114549101	74.79684649827797	2.721651627135333	58.29276948588448	88.4454506518062	78.83940748029237	28.41278266859563	51.53633971618298	70.7733536599394	10.67003230738619	12.62068390835703	92.69838524825359	80.21240915476004	45.75044900649545	79.68939198116242	41.37546621063627	14.12632881867501	52.22123359637771	80.79921694225374	23.73947642690069	99.64604269632898	70.47605100767922	43.20706174444202	25.33275623599251	31.09762092708911	57.13302276600898	57.79750429387434	86.32523270011674	14.00905195081468	5.396812890015961	2.597387280788849	19.12614535680794	9.664859645301508	5.358887495918848	97.08948894951432	3.87092831902603	61.41930535591172	71.9563457477654	63.75203273213894	78.04593603576916	40.32546052380607	85.74005273656709	89.58273282398137	10.5960558988633	50.45033407561072	30.35243048759678	76.72500466742541	6.180185697455625	2.196559385552797	67.06632468322928	27.40443045932572	82.79909466457535	61.89634074401293	48.86276634508264	91.7786824783914	4.985941303481557	78.44694476405665	66.1033813550892	23.70703562880028	17.80768091054351	56.93818318920871	91.49862558833686	89.62773567690718	29.30033817610727	90.04089968774106	73.69889953485369	72.28264863509406	47.57462631594365	61.7861326580713	18.05395007734926	90.53712924081726	47.12477185989349	86.68693359826474	84.3031396535591	26.42719195874295	6.662605593905106	96.84673991229553	73.77402784995364	-0.3465779400914752	62.50981768569886	3.931690735822576	59.99552115762769	44.98882836285522	94.34526573549753	100.2721752742896
item18	7.108686943530477	49.86920410062105	29.41215289368715	16.51824235302175	77.31980425312496	78.72640397525275	50.4218084109847	80.834143079893	96.82116667539684	85.61117247727883	77.12650381451155	82.87554791176957	48.76822986061455	77.50800668370981	73.19037674001257	91.28536885162049	74.17626146794613	1.262507032241831	66.00599061004291	85.91229814401181	75.97632864763324	32.82810926678603	51.3603640736779	71.29583787344822	6.524530074595367	12.96360081459332	96.42482591767859	75.71338742259351	45.41300469653547	79.4833698713333	50.85637083452443	15.88332360148866	51.51272379330769	78.66232238152071	24.42773184360214	96.49270756026502	75.26005607727269	42.03545636325394	18.26491026347793	35.89101637934353	54.03190792185207	56.45382885257371	87.57744089670562	13.50378310925267	0.7261830721138244	4.505414659781362	16.0364310751551	6.813347040285898	0.7978176541159998	92.84358610691574	3.180730368663303	63.18362748774832	75.1598118302951	62.20658036312106	84.26557681440624	40.17676999768388	85.20220952085323	89.22025906347133	17.78579936357129	48.88784843113822	37.2163885101058	76.1777685850913	9.330180886608169	2.272526631778802	65.61921240965617	27.13122087327988	97.27922522874469	59.51389292327492	56.67854850340847	90.45480227988091	5.218861780600076	81.54632931202447	62.40375293232196	30.52531126672416	18.38149233321122	52.44181664250639	94.65394914517819	79.18215488695863	30.93848983292322	90.31953662231278	72.06403167967918	73.07323912495423	53.45144710036442	62.90887971359074	16.50178489136628	89.78773187437754	45.37504729523076	85.85258388384335	89.82841725961637	25.59966297656395	12.31495213319691	100.4852909099477	72.55652587163583	4.634881726911854	62.75838725737962	2.418467916554795	63.59248208152825	41.86259486680122	98.84766183385999	97.71179356273771
item19	6.359174138493374	51.80063583380096	28.43492606722059	18.0839662815111	77.67206535290235	78.16703763644207	49.5740105596462	88.78698483315543	99.61558292074379	87.68691207666973	80.71862990412917	94.9426997732717	50.29992215233351	73.5579626642449	75.50082466033885	95.53944659356561	67.87269706527209	0.7607917719400734	58.21427343532815	90.01204060324366	75.79784978581068	29.5548561300577	51.55739843550127	68.18214972325819	4.725133589288677	19.91635163621109	91.87739038404055	77.80735320094973	46.1394951437461	77.39750650307228	47.0387663001878	9.630098413368259	47.45815637265041	81.85479188795934	24.53158755673316	97.4840260904095	74.86162995326325	39.62057977459431	22.30941404919193	32.11407241147682	57.56072446087654	59.8564961429204	83.77361037192269	10.42021841735717	2.890750924536527	6.34273826551083	25.77067263286578	6.992264653191724	4.969478783575461	94.07997922944688	2.730086055739121	62.21911502097912	75.98979781703025	62.08476257816839	84.92239561708649	39.02891666239076	84.0218813050016	92.31125819525455	14.33375648449373	52.20522557001629	39.71037200467293	80.49150820994508	12.05592531127621	2.287246881374305	66.14599552009338	28.6960907369405	81.272893112853	57.38477487807726	48.40801346679979	99.08425452128618	8.650237929485415	74.6428943897464	62.92739428087536	30.52028363419024	19.59152932489147	54.50313540848546	97.60160581730047	81.7731535486293	32.38800607111131	89.19768183873521	74.2875447430803	67.15969130108974	48.05722021588008	55.77122819700817	15.9949183763298	92.00483090103785	44.24489209983176	90.44786985284071	86.32257865689445	30.55230801495422	8.755965037117194	98.01527881174098	70.98141188488923	-0.7157407812264132	66.11044565653569	-5.334881613836499	57.24666378590059	40.54658570391899	93.23528402619799	96.88294642851693
item20	8.93555743569612	45.33456100448108	28.54297200958059	14.89205946629955	77.28883308972631	78.28387492598465	50.5721676142306	84.1387271731252	96.87242912332572	78.79082786640809	79.65489967787323	85.9316389855825	47.37563707559036	75.44021588659662	75.09805343493746	97.15526331222347	72.76227595437574	1.504352659461105	59.29498587145554	90.97439034203971	74.82457970010242	29.88959353015356	51.14719607610245	71.96003869771583	6.790932487473874	19.65601580501298	98.63552835151123	78.69927058234683	46.04934413892047	78.34264685039457	54.10426083030491	15.08149292868125	48.41270597413494	83.88239852654401	25.5206594414478	95.84802401395274	71.32594000051924	39.84222541571331	22.67106869772998	29.39014741265082	58.21545328146147	55.95931338019368	92.74358981659799	7.689775657813194	-7.808870961449777	4.156296571064774	26.17881640504454	8.651007127118236	1.270564636883122	95.2972292360117	4.941702788325888	64.62756574089333	74.77234336363341	62.14120224567247	79.0975058350302	40.8990127050647	85.18833510460315	94.30192815632627	12.53204982382015	45.97812645960683	34.65077565691224	73.5154142700644	10.36679960595347	2.003112225185633	64.59262376905018	27.7621616278983	84.42861289198339	61.0166763295389	53.60766690850728	94.39472417798751	5.339431521829799	78.64146189727677	66.80546044352882	21.8694912134029	18.2345811163027	59.27002663692463	94.66781920868128	86.52796985163125	25.24805487833578	92.5374632181551	68.74516353652535	69.82753753403387	50.00270447121795	57.55338163180772	16.76741537615064	87.70180587529367	48.28688009099825	80.49551220088939	90.27274307682131	35.08510954533334	12.50214366098099	95.17404307841241	76.40392572614677	-1.020057726917643	63.35282861909604	-1.066433532727658	59.35564409070654	44.91593988181116	95.19893650023781	98.07509884353246
item22	11.60442618493608	43.09065343452519	27.0928373100935	14.94350054325225	77.20098905401231	78.22005209311902	50.02180726112552	84.56696581088381	96.89822705535872	78.20067949659899	84.05703963539565	90.85613099033817	47.53507655600833	75.44245820260447	77.22614051986179	90.92238887561216	76.65176894806918	1.433522179168645	63.711014689722	84.31510686076898	78.64231073163727	33.41460445676901	53.39010990532845	65.46584905479473	8.3237588625533	15.20461146460309	92.98356644418681	78.44070120242793	45.51259104070812	80.36112367997616	43.17903296119364	8.441026542344572	48.85569400687282	81.88875497546935	24.27358283852229	97.54165361934528	73.26440819246172	40.23245199190805	25.2950013418656	35.82233469500841	61.40436939358015	53.53053275984535	83.02322096770497	10.47418926126197	4.804520311355624	7.838666080871363	12.72085692424121	6.883216080801169	3.346680078102004	91.26093566288456	2.951195946534201	61.84931734638208	73.96999161881031	62.47505389410772	87.33052943160712	39.56005784521253	85.2014646801326	99.99169454360131	13.46140318302862	49.5406519330986	37.55810770686309	76.40632301715159	18.71628414222837	2.229624498057066	67.53722510932805	29.61657859564921	90.59334370658641	61.62678049201545	49.17419169177364	92.83032799479687	0.503005129798221	81.80702013377179	66.97376426224386	31.89146002392014	19.05900382078246	55.20780544919224	97.64649512348537	81.54944987296214	30.64131506916353	89.15745450271417	73.71122652425811	75.10046910030263	49.43247629708841	50.59959284554914	17.01425038577161	88.9762039698907	45.90841013701103	84.72208936481826	89.79563733460792	39.88735798216695	9.132942674971686	102.2521434761715	73.51309993296746	-1.874757749879291	66.8748065318963	3.173320681436682	64.45757586917948	41.42971449706093	91.34034752736561	100.7062930607557
item23	10.50997351454656	40.80011745341618	28.17774959242418	17.20496631313597	77.34280477579486	79.43616436078618	49.83527370956181	86.0042833045262	96.86180210260747	85.22830235926659	77.92111702961738	80.86311762756115	48.22676699458827	78.87248755317147	76.63939523750003	94.68565331029238	64.22026519849339	3.197187490574544	64.14812502416613	91.46084349099385	78.49554422629558	27.9103104197232	49.26742839830798	69.94373044460362	2.949773040710723	13.14414552537149	93.89055417996077	77.68356362760755	45.91498297505816	79.3596633824191	44.01589807875087	13.02919478863157	45.15255958001961	83.57072377058212	24.61543481608885	99.73731421993168	70.70509373153286	38.69745862991765	23.48316889220707	30.23380089962762	56.89548107299407	58.70929715826258	84.90083567904944	11.16339109258978	0.1171776130516455	9.019769779594087	24.18648608236355	7.686804882025798	6.442536734337222	95.73813507179317	3.24737737612768	66.42840974481545	77.03695338181582	62.49228075201972	81.01647244175459	40.83024748317951	83.03508318369903	93.14546827811323	16.46256578285686	50.97578001728198	31.39542467539489	78.16609801882998	10.79003358266421	2.189436733414134	67.75052665433481	27.45137364976362	89.9548893383121	57.68274801673216	54.29422179415948	91.53678959886592	1.230744272014688	78.99415651323842	59.71792707372823	30.29466509868583	12.83526704330376	55.86087578371414	91.94552871727511	83.14989048754718	28.26871596528981	90.17229840359451	66.09154743506335	71.41040319593596	49.6442610284199	61.22591160738289	14.98003871249255	90.91618300430048	46.92513997755053	90.1944457943143	86.12487962969368	34.60648661835101	6.933744957095836	93.0957899941632	71.83519418969969	6.466912698400982	58.16075287493894	-3.379462430968879	60.29246350956972	42.95673438101012	96.29843114536637	97.39290563704813
item24	9.85055645746756	42.60873102895914	30.4255307686889	20.05941455823438	77.52838310179443	78.79463915879454	49.69436935804113	80.40635769473269	97.59658015381936	83.03456728748901	79.0924351727395	84.5123627625207	45.98433352166118	70.5438975574815	75.83879988890934	90.48419172206277	70.5013086817074	2.644477353016303	58.07394006157016	83.13477433805053	83.87488651837106	31.05600473989999	51.83881327455483	72.13477743287552	5.226723773053919	16.57085289835407	91.06399517320808	75.52713128113317	45.26219402967926	80.68352658073785	43.76236120205705	11.67411553231131	52.49042046545771	81.70286179102041	22.33178048477986	97.4931663574461	77.16245255423001	43.57695410352951	18.67298723114492	35.17905703965531	51.46017884688015	52.59591626262289	91.60736846495784	6.598899164848343	4.603239282835824	4.442938401270389	25.01368838099796	8.058378400618713	3.788283655163897	93.96956180203338	3.489580585074624	66.77208952522666	68.97594902726972	64.37124166513325	81.06067878848862	39.78823840434848	84.77561785205872	95.02260661108561	20.57148352173217	43.5845938062611	42.41083679474545	74.91860786750061	9.931760666645475	2.211416242883548	64.99665530359069	28.33413215894432	85.60375350379594	62.70112863269054	53.05321500385092	89.96110825909976	7.858442544573175	75.18808572909448	60.73629055357758	27.64432439511598	17.27195616941007	54.896714851569	95.72033877033844	89.99614868055498	29.45908376342561	90.40584418670261	71.32296266834437	70.49451867477912	54.94276614148504	55.16852869108354	17.71300361946235	90.26930301164968	47.53030345796471	89.31012676577068	84.60425704840824	33.08236872996293	8.64360706850243	95.94087496037315	73.58049107495577	0.1481024426516271	65.97408324216462	-2.685532360388252	64.81398930551175	40.96675876363166	97.59457753359816	99.04557754153625
item25	7.586871536483249	46.60127737954934	29.90198858268097	15.55169676396796	77.3390945283037	78.57123473601185	49.75188236156531	85.31524890207932	94.8772076237675	82.27304432275547	77.55362923258085	83.96391701726063	49.33148596390488	71.09463810146885	79.05056718882149	96.12999899321103	68.39257407303985	0.355955972530934	61.7106011227803	91.83406169737135	74.66054273828696	26.13848528956571	52.13769656256328	66.84620783283538	8.702361587434019	17.18816779957157	99.50029076597858	76.550186045198	46.11166526963776	78.69727644738161	48.98597503517589	10.58609154094725	50.80770194607903	81.80992388098029	25.36213031188398	98.49735646626954	73.25762936121453	42.31731685955377	21.27150895953344	31.50648773211149	53.60803217655172	55.95651417878599	84.5419440758628	8.885768321533892	-3.234071059138552	7.750806806780959	15.05030531241373	7.07495848520648	3.415369489575192	96.59949006912488	3.02615204354926	61.98754717622371	67.86555385449483	62.32551060362668	81.98680978412439	37.54325429437019	84.77539500976749	94.15726405819575	12.7788807636883	45.22947514547145	28.14882956473038	71.74691583965318	11.23310470070118	2.347978732893024	66.78642027795593	28.30526800079281	87.32545235839115	60.33284332224137	54.51729911875562	91.72992619427222	7.73178815546641	79.96816348815426	62.0070681533249	29.0934367211055	11.39222150438327	50.53426609207101	91.82886543459536	85.47979077355615	27.75671505941324	90.05303704598958	72.13807088021268	71.65424906966794	56.07809618165359	54.75901460992141	18.0141818127019	88.20419167307286	46.42950959194676	82.88973378820106	87.27952276389915	32.43679296557633	11.93347415110413	93.22055630809818	72.37476431639907	1.553462790314189	61.9680785818227	-3.65029748335642	62.34666949095715	42.26626234429808	97.67475636048012	100.4346822555644
item26	6.316867996746669	43.17582644492758	27.29848586684333	16.57884149441125	77.66933382964083	78.12550140799306	50.90051057857688	83.20914487222342	95.32190945354583	86.04351553910597	75.49124919507491	89.20140555841758	51.39923474995695	74.42462085909582	76.63200922471684	97.93172051152263	71.58688514615443	3.833040852264944	55.77886893928223	88.40788580540442	74.48217915948904	35.13212258873099	52.38642346959028	70.94565662280245	6.562899135634099	17.03436161196477	89.74758112191691	78.00606373621761	44.9972550805801	79.80957926034381	48.46461032052508	15.28931227386527	49.715143867363	83.04677512104345	26.96894111944991	98.37152085128326	74.73184258400657	41.41275060992515	20.621418252013	36.36358124676719	59.46474042508165	57.26162033355929	84.40004561278317	9.719057488886463	2.312677285956851	5.003700141545952	22.70964748305859	5.211806417836105	12.51141950348129	93.08435168717288	2.756859575525818	57.05254609688031	74.58852625232699	63.18136245023457	84.31119094867863	40.21935777549013	85.40354240322237	97.26669963551142	16.15717930741723	49.02771658537073	29.44001781969222	74.44752983483784	13.97019591502411	2.3066415410128	65.66039006942424	28.76467980674626	88.35201774927164	57.00342229218015	57.90280061318638	92.90939842372543	1.796321516478507	79.92675533036252	65.2722360983678	25.85383576331294	20.57298972796502	57.25647435941579	95.23521034709968	76.35315280486375	30.34043895935159	87.75573510998055	72.24089988102827	72.75667659813905	52.49355476066518	56.09395870515673	15.30459594230125	91.14340841283409	45.75719522748802	93.74876885938336	85.81328070262941	29.95846696093692	14.71190529214922	98.27457293352842	74.84657845071695	-0.09783665406334396	63.88696102648971	2.663548472650635	58.12021326233898	39.03354363267906	92.21960981620437	98.88684554739115
item27	10.67705651124977	46.1129508315817	30.61409019219743	16.54296657222446	77.43506659473987	77.96993176737001	49.55512462223031	82.16985891371073	99.35814577731566	80.25150386156172	76.92708205810271	86.60199266075441	48.5800080219027	77.49839997675343	75.75363944124535	91.95486028099926	75.929540461418	3.106983208583442	52.06105335410903	88.95165137806713	74.04230373057887	28.19833256568724	51.90393623407316	69.8311204669795	8.16006614873395	16.33290666818277	94.63866163032505	76.43375822122435	45.80231031266818	78.97259016972426	42.90200355719581	22.24559749803283	53.17802460765171	80.48133760805548	22.8997547189041	96.32515063441171	74.20114531716432	37.9782897661251	29.88792130205778	30.15456247964702	58.84527132168146	59.40824928428464	83.94171448697749	16.61147233950662	-0.4316392682267862	8.197011742639827	17.39053245482902	4.050694431603574	7.802201999621188	100.16728702096	2.806500823935205	58.96472035982931	75.33465352279977	63.6935086538584	80.87127126407067	39.30912146665703	84.77376366315237	92.21001272111324	15.52193555365722	52.60626327599786	33.90022629753275	79.19569208926147	13.81072383439544	2.258456056639441	65.4210761873624	28.39943441790755	85.00251320988083	59.7899515399832	51.67807300824848	90.11604105720001	3.692979308637127	77.40367056090217	63.04193042373994	24.39018133674452	11.14810285594373	55.91216205516942	97.13373468955074	83.86873992011884	27.5824367630907	89.54691451635451	73.84887902173088	75.46373663420999	47.55988950626531	58.67670206506176	17.97475547069632	92.02072349061565	45.59443257232736	87.02314103589664	84.40184797704731	31.27223299855224	7.640988103685006	95.40208570718305	72.25626601885811	2.88453027921262	64.32985232470098	3.361064524890193	53.46370681120013	43.21675375003286	96.04291841062654	96.94576454979337
item28	9.289294894245959	43.16555556911186	28.26891386361937	15.30639052256301	77.33184476618219	78.03510233357106	50.59054411776551	80.47772045881558	97.67697297902143	83.8195301866417	83.38566617932196	85.40273144096625	45.18794989765197	71.22898228944767	76.47125350450636	96.69775717074532	65.53020796972085	2.328914447312381	59.51913363475504	84.69040632950598	81.78341092698338	33.06442130250563	51.26962609297055	68.46991647076956	-0.4679946018421388	14.86455111206432	89.49724012592844	78.33662771476125	45.86357116821725	75.92095108000611	49.73339685017818	9.856119274941848	41.91917588740615	81.11849026371615	27.46898478324461	99.92250345860847	75.76954933082587	41.24160762635211	24.71348640171023	30.41000933349203	56.60836825129773	58.95699536959013	88.85409733178416	13.6503550223689	2.841630974342142	7.82493915535773	20.4583511345136	7.279294284965252	9.929880130667813	92.32037790828866	2.704756948289036	60.95459811124713	72.25656495927593	61.63825526375363	77.90909211807242	36.84662306656218	84.10633245704997	93.29780039188221	14.31040372923615	47.83702645496654	37.01794359813502	70.88966723340597	15.11972006779415	2.307982748412793	62.8872770031609	26.69040701703279	90.73908762253154	60.316080550224	50.88059528053066	92.25195904427349	7.231212355576151	74.46644070733876	62.94770431336591	34.51907695479827	17.09454557083792	54.6473561627194	90.57266921273799	77.28427771537044	30.4356124905942	89.26986432345966	72.94910082419176	71.24057370947307	47.49833219992267	59.74095267234745	16.51037063965304	92.43643650921319	44.9684467785863	90.07441084445733	87.15975050571332	35.16460568638969	18.45729965659005	97.49561957880886	77.06954424783984	6.743276329663982	63.17714085282173	-2.764458033978116	60.58816351028887	41.40685678954527	98.96426739699105	97.18523988450578
item29	7.688854126149886	42.23478856449115	30.00269191709	14.58843678151415	77.75887290920146	78.30619111025634	50.71168787737425	88.41854980331816	96.26264737810257	82.8010788404759	80.89103956978923	77.70225945596636	46.29988890071943	71.78149912027592	79.39474404839632	91.20324525015772	69.58123146505616	3.313222372166535	65.42041317393264	84.19416576267179	76.96836109345416	33.01146385686023	51.67962970026976	73.61057597114021	6.797113305802871	21.18457239232394	89.08601381565366	78.70473530473495	45.36593530529741	80.70566711972529	47.07123958979316	17.44709819026582	45.89165019887019	80.57528741433049	23.71468103337752	96.65275382298123	68.98311333494934	44.7120665627893	18.08650245509754	34.32027920026962	56.67654326304601	60.38305285630887	96.75880681039213	13.85141907166377	7.554228568953805	13.43038396078384	19.14755392792043	10.62243419723739	6.96553831649394	92.7407991668186	4.110528953198041	60.78841956156389	71.45466070843354	60.99106402979135	87.50407223543706	43.2955161304363	83.89731888420337	92.35680776790743	12.64045921985362	53.78483828078419	29.93857185726156	71.26162093378662	8.880211882504113	2.210368791518805	60.28010737185254	28.94289432033422	92.21261181184853	61.49861406547477	52.30350732003442	90.61766618477	4.472546774308692	79.37452463627083	60.73611215022498	23.9797199874164	16.40566661417869	55.84155461754033	95.79262278494551	83.01465505840986	31.05451096343783	91.26169988077507	72.77223399951889	73.17976656375218	47.46435082199186	53.72023472081887	15.58597837464821	92.35088267659452	46.87636597719533	86.35610234629314	90.38752633528802	28.95798325072188	8.719340599758466	97.7305074873571	70.77186257042246	4.099398030060484	66.03291807599064	2.247012659565682	61.94210469495797	44.3041018313096	95.31375835530906	96.9470718773955
item30	8.552622135228285	46.51299687321227	29.38125433335937	14.75307156002425	77.61192118983183	78.6256367591491	50.47469422624817	79.99295562595739	98.19951464557042	82.80857323478905	85.42505901220117	81.40550236029843	47.90211216830316	77.08042393732359	75.50919754638204	92.35826200067245	71.18108408738226	3.040795549930658	56.32536590543771	88.6091075304426	74.84969627137374	35.29332175308399	52.52162796115288	67.98087058317752	6.598691410745817	18.88974581232105	95.18118578268282	80.12412442286937	43.919331788035	83.0476750549328	55.05591886976742	12.87586782594386	46.98359873313051	78.11670301674656	23.77491713215756	96.62037295139869	67.60108063518538	41.73013032632103	26.4674200381171	35.51310156279543	51.92881880309982	54.90570950086654	83.81769010911904	13.42430541426226	-0.3127503257332702	2.686291446738257	13.52389409270145	9.685208352543183	7.063902256438425	94.25921518840921	3.371377614891998	69.23972159588104	73.77382364455144	63.28490431619185	83.67602504593506	39.72223960124374	84.31295051147495	87.4990696635824	14.67551143095378	46.47750005987144	35.66029647557767	68.70342562762613	11.49002218628199	2.065873467655348	66.07431703157825	29.3738555917347	87.80955358699231	60.28011752324851	55.78744169862424	89.10611978132506	5.428733836367778	75.06174293295396	62.88270272401733	24.54347790685519	20.01077208617448	54.30365311562657	96.41046070612077	89.55437899599178	27.26263993347834	91.18016982083101	74.61677833782261	73.50206953682913	50.28369499870857	52.15026704599987	15.69927915072659	86.8816948193798	47.97609082705196	82.95436674668662	87.90820885560279	41.90936380918247	5.069297616397613	97.80153698248429	78.61009057221598	6.234141884394991	63.08738453985053	0.120272633302025	55.34803151913924	43.01531834625968	92.36903681968614	103.8337870863872
item31	8.663474287720764	47.24852338249632	28.30035215369287	16.05792837733486	78.15916818818727	79.4528920646593	51.27929940526761	83.58735917741609	95.23312689911245	85.53471955951244	76.43698400692324	81.11519304092872	44.54629355400633	76.22270821445704	78.83404318527471	90.46055069556188	69.24079453297007	0.4557444920488667	58.77436137028621	91.1849286133278	77.88263316259858	31.72440903216571	51.35637526198488	69.08059789933927	4.170207507033908	16.49338955704472	91.38834097972769	78.90652653610255	46.272482149933	80.25616613646358	46.56432994700902	17.65838823667135	53.76638826312249	79.58528875652175	24.4236807263633	98.14048316580264	74.87518051922684	43.89684429491403	21.05503139733432	26.82603635904839	50.4814416512388	57.5264135007234	89.54142832256667	22.56663163196201	2.085272936548817	4.945298737719615	18.94898553914005	11.80428595385349	4.772814025958927	97.54977271233848	3.526578594745117	68.06687566035231	73.21158317485117	61.96315354243401	86.08454674132953	40.03883512250523	85.34556326537569	94.50897164616416	14.00989062717271	47.94620845722545	33.33905044061931	77.52438552658025	8.146469448038486	2.303030387317297	62.11823520976068	28.82032882922761	88.31564565529973	59.64861175296017	53.34231824862003	92.51648178739741	7.563149606211621	75.84522395983791	61.48894235162903	29.05356745509588	15.87799620669119	53.89269628000044	95.94885147334277	81.55799677707975	26.896718538958	89.6149167687514	71.166771225414	69.71401585358812	45.17152329135491	60.69952203646985	16.28733673006732	92.06136891749765	46.5515430458476	86.64060363063032	87.15933676182527	27.82527987307775	13.95415489102697	95.32380994425249	77.35094928930195	3.281155948275421	64.2781748193872	-1.883523538015228	61.51355502934688	41.5026221600817	98.18251264623103	99.00843072636361
item32	8.966652480281283	49.76216961190399	29.25435373329536	17.12236746610087	77.82957915216375	78.52013603376446	50.78429161972426	82.91436738520443	95.01532630729065	80.98025151961809	80.97517382116503	87.58430810236109	50.31726986974027	73.63848047355009	76.92626948117049	93.72303016729641	73.9021395815619	1.188034133287123	56.36438410600402	89.20707420712958	72.29123691413172	31.6673383758132	52.76504547510027	70.78946919140419	4.492582414987463	14.35911994893379	90.37054101395417	77.6974220274593	44.42886995651175	79.22809437197593	43.44954102901083	16.7295899031755	47.33839957237121	81.91377249243119	24.80307549880625	100.1813392748483	73.13680174467194	47.40836400675489	25.84733020481113	30.66257701721556	54.12429010738544	58.05865891878801	84.68034066511557	6.983466737593147	0.3826848732839976	5.059694864675384	19.53939494008761	9.131813507758087	-4.12681534735042	97.39907165964135	1.834126764192594	59.05432178095701	70.2257782817905	62.93102550054799	81.21146618653843	40.21586809267266	82.36927841226832	91.58440499153311	10.03617835103269	48.4513674288745	31.38631024784455	68.88737902735964	11.72769138225079	1.895614985850177	66.0579787742509	28.50278977094505	89.71254921426728	57.53894097313383	55.38948133841511	96.99155526043326	9.578858028365618	75.99464586594416	64.21615795157369	24.83649385648087	16.88166087297137	58.68872024389242	91.69702602367617	81.91818937847539	28.52529348811106	89.95428745486392	71.84136514915203	73.13622513379528	49.93154799993433	58.777750061357	16.28005136208423	87.96146960003524	47.73908524903206	90.39836774148803	91.62648925589993	32.37090936177247	11.5114598093207	101.671341028555	71.34588288185536	1.436414631712008	62.0533440193654	-0.4161140799431758	62.0852545070403	45.65095205099927	93.52452255578166	98.64251940699749
item33	7.377337733640412	37.73577244080663	30.00916455038568	15.29703333400048	77.31249618213315	79.33970225515576	49.4955811638423	86.73316401737401	95.80395872177881	81.72345627382931	79.49080775536717	84.08825260263353	50.72647123615927	74.59174624224237	75.61453606184422	92.32751402656551	70.43420371158905	2.495064880156135	60.53912214283746	85.13549668711646	71.59246266528071	32.82818056718757	51.88145597274006	69.23080999429925	10.01213773696802	13.3562374601599	94.89141879008768	79.08378583764528	45.47549996411773	80.63400396549793	49.7644970010256	21.30260564915974	50.99124555097363	81.43506073195185	25.29964565307116	95.84931133591662	63.44878448715784	42.44833648442773	16.45554760677964	32.08905089379773	55.04890608846181	59.60527007168562	89.9141219930417	7.178563091186154	3.618538842240658	3.107161265336125	14.84760483302343	7.221415119493783	0.06434917677872054	97.08109082643992	2.928988252088724	63.28770280816441	73.50982991153796	62.84674214741473	85.84482510120803	41.30082983561036	84.56763336722042	95.29902019974212	10.9598972936138	49.23535546152029	38.93228230672283	71.29665433041693	10.91040813032615	2.22973857615067	62.42185618630276	29.35959983012908	92.62661487052323	60.53269288572019	58.43848717508494	92.36196946122728	7.882803949610253	80.36893800469791	66.78524311258947	27.31748826282332	21.97986249591349	53.73841054020071	94.07711522109165	89.91998870131462	32.44878114258548	91.2715075491144	70.8232512400261	72.02442847287593	54.58546198641065	54.42847659184094	17.39498584441996	95.04514806463185	48.16710234834868	87.36347756419264	90.28790028620601	34.24105954364363	8.538847923844656	93.29124394840322	72.59096464812079	7.853657415494681	62.0467141295828	0.523379673503412	55.82712190236598	46.50590719536929	93.70606861937121	98.16705315058267
item34	12.62944344547827	49.50069596083747	26.79944367018537	15.32277925433181	77.66211146278152	77.61236573067589	49.33579489988396	80.58538899811727	94.7725356977586	80.2700249883852	81.35554138697292	86.53065743498837	46.12891434112523	78.65067110974105	74.97163112466097	93.25022297879903	77.06913286676922	1.734712455047639	58.47836855908183	89.21926485070479	84.50675700871733	30.16414951386459	49.77027872102784	68.84209806180107	3.222355376376608	21.51073456268422	93.86676038933254	80.15553446458304	45.4298865165284	78.61104806783484	48.50026471398827	19.02906179102451	48.25676277646517	80.22209611681679	26.10761311721326	98.43641280985801	75.82222481682219	40.00892280236599	28.69891062270813	34.65218677605858	57.70337797681761	56.6785924205994	90.26825351701198	9.553610624562481	-1.855497427206697	0.6248096924898103	18.12669413680766	6.221851306566364	9.483744047249004	98.02377654883051	2.651841955206013	57.09090441465219	72.02155541275798	61.61674952556731	85.78764239194386	39.51145785542833	84.73275392251024	96.94152576168477	11.71518031117846	42.24298840551555	33.06731618960575	64.96140531556078	11.90880396022436	2.025686151779987	65.69801887864064	30.14908389878034	88.74876495172784	56.67913394878008	54.53056319468305	95.20392680255905	8.8534747549011	78.48473325943395	63.518780150366	31.94920869799913	20.22822828573019	54.05056994396214	96.74738976123628	78.58533169597943	32.43558836507973	89.58235041891157	70.7220380512493	71.76563959278008	51.69988406017369	57.92460265226134	17.84487871343953	91.8049451883725	47.06275981640455	88.87359068242691	85.92242518004099	36.61231481786403	10.53444657092662	99.04721046039408	78.09659610796199	5.302377969330426	64.92981319807318	3.769125886123489	61.56699564371055	43.00465484696753	95.61893698844348	98.88780892198697
item35	9.006728502832475	43.38294800958054	27.61841501625687	15.96711712527031	77.43508235394681	78.53834956951171	51.71839471357463	82.34287162121289	94.54396607510361	81.6540982828631	76.12586111578226	88.46555214255157	48.30341035480152	72.89347773616869	75.07199828309403	93.36768871176203	68.68839194958386	3.552732191326854	58.86862736426697	89.72789235355168	74.28094473889794	35.16121247021616	51.43297676904057	70.89374593186939	2.944002853656585	23.23060248296514	94.69642097157271	75.2002575658608	45.11484364690943	77.96068258623809	43.47626355127655	14.3250124201678	52.92070724469198	76.28297510581496	25.48127462624689	98.77618974687746	71.9573591578712	41.46123497988783	21.03028628714905	32.42994672829107	51.63116462835325	57.29711560659415	92.78640415614508	8.010636383545677	2.332247905832814	4.840832022293259	21.29734140966088	11.0850502113348	5.49339667082244	94.03030837856889	3.466392034897412	64.76136115999142	73.01698638937791	61.8993385785166	85.01701086139046	40.26767967306848	84.34298800339178	88.57539699996458	13.53309167470077	48.13611902084043	29.86676577507788	72.95616768985055	14.19807475450891	2.346040414539601	63.59640244052549	28.79837595938388	84.52443275313301	60.95069651747497	45.79623914904757	89.53055430548113	1.153778709734698	79.60281183315003	60.69535475656679	29.38954796423352	20.01708819602197	54.17103780375604	92.87199010267459	81.46063079559868	28.87459563461015	89.73381521023383	73.81592593533929	71.29366277637699	49.15264136758545	59.80086910331389	17.24312075083754	89.28774984468008	47.35564231648183	90.7677244449043	94.63730735536981	30.31473303566657	15.27401137695531	94.35672290508364	73.98424412347454	4.344672702876732	65.46537286585377	4.576937619156795	64.65274347161908	44.31670840937861	94.38266866148919	96.26528768956889
item36	11.13904085972821	46.48875868176714	29.77152342905755	18.30217899271364	77.54517660279498	78.77907006891884	49.2324122358901	81.22986463066128	98.53889559577695	80.71492690287491	83.94560488171483	82.79164698967605	48.20807203141544	72.39385639194293	76.77906869586724	95.52532775101633	69.79259111470478	4.006147131918084	54.97089031899553	89.89251790307947	78.94453210909259	31.55242887897548	51.46939615357229	71.34656398579881	4.373858942225374	17.02484185100183	95.28460397533169	75.41537828436448	45.97725549039092	79.0995828785378	49.60980641355687	22.40817183569638	47.50183134856775	80.31703764924754	24.53271512218515	98.15535187638095	70.37701389682525	41.04370165366177	20.46420833739487	33.34750800801911	58.13848278671875	60.43936336820313	93.97825944251117	10.53690936432272	6.605443062360026	4.300814966715698	18.77705503923406	6.416301413665845	7.753691700934325	96.60651118112331	2.695472429491606	64.68200204243428	73.00371868090069	61.16121325161761	82.47477442806782	36.12944258496027	83.83571572844252	94.4881277607075	15.77764307662344	49.76575130251554	40.74856126713549	72.08696558260191	5.575424307360718	2.347101469480054	66.05870170363045	28.48757072703806	88.71018314155957	60.49007311145077	57.01598184427491	95.24359921261212	6.189772091057181	80.37123329560188	62.95303510796647	32.11723662224897	23.5315883648772	49.95111546471061	96.21682780707717	84.72602476698216	26.4707164863423	88.93329519526348	73.42630890645643	71.68781879345025	49.6048076168226	57.46626307247206	16.8311614736751	91.12977713196648	48.51510592819022	88.13860621247083	93.62386764968107	32.65756452391295	11.2424767701901	97.58336033362568	69.5664193031278	0.2356907144437108	57.19016960426902	-1.8062814735596	56.041503930112	40.16664003057932	98.37292712003172	100.2358666968779
item37	9.645839982813486	43.49150631631498	28.24582782719466	14.40556785673831	77.47632112839221	79.35555297431833	50.45430379682437	87.15274296137088	96.68672841153681	84.96053233923942	81.88103559876825	89.24728586308697	48.01340144680408	75.72070624288295	79.8879814623356	89.98255546204877	81.1000018140392	2.286105876796231	60.34637089173271	88.1516250447643	78.78751322313809	28.25573943070741	53.25704794628133	71.91800937294553	3.625431850100072	16.21775890787614	94.08889733909196	81.23037479363346	46.19731347238878	80.10051405438551	45.32983206357594	12.24753371311392	50.44099613113568	84.02796700786216	27.66685024490894	95.3180003733886	72.54917119851359	44.61022845309522	14.82413797757002	34.14182101015675	53.54177195816067	59.01118293929312	84.51262528024243	0.3447614818461915	0.6988432275680431	2.069880132465431	21.3836115340417	1.29062293297183	1.819600775140979	94.40646067898109	2.262291042164884	60.81633754725453	75.52069551351615	60.98371048072364	84.5776910418177	38.21035529926618	86.43510473513942	93.1598146656675	13.21011921745231	47.777885631364	32.2591184966638	70.70030582303531	13.08326082197691	2.199717167638179	66.39238164345348	28.34859763441928	93.63235010300077	59.37040647824929	55.1645391728325	95.67949902307851	6.270375726542391	86.91438710984359	67.97562741691212	25.60981840323392	16.3522242287167	56.45391682324787	93.00220291577781	91.25683213740618	28.55507551373369	91.4100235744155	74.47551010550795	75.28306637654458	52.25508491426288	59.77333165106437	16.82923232190456	90.61693027292729	46.46206406315138	88.81342566072409	85.6849037051572	28.7081673686851	3.698611577912541	98.08581351413633	73.40178295914578	3.710964544342087	66.20147123859186	-0.9207710211624626	59.00258275696111	41.98319919584945	96.6403317736242	100.1922829296508
item38	9.054831583970673	41.92678099820709	30.86164698415859	13.92354172214283	77.40254639860615	78.88543420003221	51.48384947063472	82.36423696910975	94.75008766156242	81.82494776587582	74.70805018955471	84.09865321802333	47.78784191126248	70.66046060994441	73.12449402734551	96.05105844317913	67.05722067482616	0.7916670248908584	56.79268702658364	84.68709518953446	76.97248730664052	31.53020913617945	54.20978356599835	69.93208851652864	3.72380652528674	8.664514551711605	93.40141502886927	80.58316563177497	45.33328524142679	80.55698572385629	55.6329284594099	18.8277047129662	47.45805612845938	85.13011468068068	22.15864004830388	96.91159125116904	74.41493725119047	43.71631314905495	20.31860327340836	32.0312379619068	58.48389539949648	60.69815664671781	91.10391313436374	7.541285841333792	1.943880110582879	4.439157520664246	15.75037585095857	11.92071174216955	0.6091488459504681	93.43515471020525	2.349417976639713	60.19468039666623	79.97378580790132	63.73457187284909	81.95759178858316	42.65241762849259	82.8787502802206	92.56502518231814	12.60700005974973	44.59405724979663	34.07588565752345	73.86273091945364	14.10018963804897	2.368505758748393	65.16215439178636	26.03857514380122	85.29364796542171	63.81927801423389	53.32512558866085	85.00789245501066	3.601203355432715	78.68367161926864	62.88987687118284	26.04666194484051	24.10860069527553	56.38025654524254	93.40496313053426	81.45094264108539	32.96649807632766	91.10908289759277	71.36202001616513	72.05795730828243	56.02176742180394	55.20737853605656	16.86401479354824	92.84814097461256	46.4276779041212	87.63947642433837	90.87856787811714	33.69839136713789	10.23405321720344	94.72192164373904	71.70889988603142	1.081906558422604	60.49076530962355	1.525138045776868	58.53933970289877	45.47665224431756	94.5822355665093	98.0747032910071
item39	6.602645492515973	47.46603775988569	28.23157155183774	16.28276335829487	77.29307856068357	79.03465964510228	50.81205899290115	87.06667925839743	97.56181577336787	87.62877420480908	75.55520525330489	85.35385194586979	48.98263767799582	78.89611582090414	74.43639811169398	92.56196267705774	69.61568876922961	1.917395642669144	60.79234586688311	92.93985865114105	75.52543804422997	29.74802156776409	51.70824369595843	70.89719143306741	2.926531539760673	20.6200996824525	91.91678812383837	79.31271725317005	47.07708883333972	81.2742357165701	45.6825636317449	10.68930162227053	49.92528948677046	86.2504933225341	23.92486293243953	99.82776045314641	65.60524877161687	38.49344697655851	23.90648574338283	33.22647584604501	54.08855512765055	57.76695008506289	89.58726660466506	10.87230181449725	-1.981508753722704	5.301961137069891	21.09299713451354	5.766815436577161	1.680032680595465	99.61798738468653	2.006236470041596	63.71319009844526	74.64377127879011	62.64406880642117	85.23027015667338	38.12616071502487	85.14013238604571	88.36377248061709	13.50865363662496	49.67862638961572	37.8196254234313	73.39724796000006	14.48050345943488	2.317966190272125	65.29926717633371	28.98105117831482	89.62963459572562	53.58220726266281	56.27347512310713	90.11006565923674	8.533486179467303	78.75220957103554	65.29591264101205	24.16734965995684	15.01349516908244	55.47249484641792	91.80953445501049	95.6079106020118	26.71480337386454	89.3930762719399	71.34198266755253	69.81270978016282	43.12191094071379	58.30262226256792	16.28413723444213	92.09830807821433	47.84400410378523	81.93535233504657	88.94879725322886	26.4656969832081	14.05177009136249	99.07481807099218	76.65046688968798	3.072334016691502	63.20908435801024	-2.993131345435525	57.58986286235001	46.14135086315177	94.57125188188644	98.55382166327321
item40	7.259579463823405	42.55145013975763	30.8206240125022	15.09827875976779	77.57779406627593	78.58616214184052	50.02133166367695	87.92881001818617	96.65591531041829	80.89549756220215	84.82209345280191	83.62748916003412	49.9205059810898	75.33763220777369	75.14213133703625	95.8340705260609	67.55964106394552	2.761585550069618	64.91044682270827	91.30497986433591	72.08642396969236	29.54861318874919	52.78632331908089	71.0231127668829	5.260798923226827	16.90539477601114	95.38932841574764	80.11879053546731	45.60895197067681	74.96401731312784	48.50562356788875	16.01769916717975	50.73160513531631	82.68268601383332	23.35809661934172	97.81724855392137	64.98922814186444	44.96654696687285	15.86992739956289	30.52873104829465	52.76582907842048	56.17415435202773	86.08478715706576	9.083905666367569	2.805900218934236	2.374021763992638	14.18042894651805	6.708896931825429	3.159984239094003	96.35839817815233	2.138723541995015	59.85351857909184	73.11252913363863	64.3235235464533	86.35386398681058	38.0614597960188	84.66979607755897	90.67326578620221	12.79122808692003	45.05738790293896	33.8713420707094	76.817496474439	13.11889732159536	2.236875938946861	66.64995199924404	26.09262509796372	86.02426036777	60.12307297790397	52.45393960789664	92.24063304735768	2.363414708260666	79.44748177792653	64.02150019653492	25.1182756561754	20.13976462752818	57.47103633413626	96.35986971503796	84.79214799415176	29.58028945244705	89.96351878501294	73.84484931154905	73.95595006549041	51.53487229386099	63.40987467812615	16.36894810166912	89.90224829330073	48.24235381297839	84.90541200147771	92.7605009210703	39.91104223602759	7.12239689036827	92.71535026997479	71.12658113997813	4.129509061747909	62.140911140578	1.014187224679095	51.32846150498035	41.95802135769116	98.18843284869568	97.4090496779846
item41	10.54451540341912	45.33467452415461	29.02721590004914	13.55167869214243	77.2254204331322	78.56915239566416	49.61713029597132	82.10734622089848	96.50656829785511	84.59489183618921	77.63688215715059	81.55228178647187	47.11196089196614	75.69028629984923	77.85972059574587	92.80665097707816	73.88121989006945	1.659400609527126	59.65800598171991	84.72508129970174	77.74686249197437	34.51152746046395	51.21427692562888	71.34907954578367	-0.3789929742028271	14.46123266502585	100.6204677754395	76.69976045199765	45.23810103556328	81.35715953792017	47.59413219380959	13.04757265510327	49.85163615190396	80.34832934873084	25.08333040601145	97.39120155525714	74.65692948347986	40.92107088943395	20.65755371223915	38.08911106703126	53.59495384128923	55.18389110067818	84.71513625543614	10.70815976969455	-5.461627900660543	2.400091772308931	25.48525232974111	7.707308767466708	0.7642853886522198	96.80139807055525	3.190095459924192	67.04985301915767	75.73819680504639	62.80517145378475	79.57949902922375	34.4409675339448	83.42542596382607	96.31031860697041	11.5431143299616	50.38233159436871	35.92912254017028	73.80418167496212	9.516501508761175	2.266290910150998	65.50471309710558	27.31375489757121	88.72428033952608	61.83844826431562	53.01827662928424	96.62346615647353	2.42320965379029	88.52327955946427	68.60750117349191	27.15561165748112	22.21079164727409	53.65376054219004	93.6983272803096	86.07488841840454	35.65538230840651	90.56645107549711	74.67435619600623	72.8668400929423	54.495334381441	58.84881851148889	17.37475257008853	90.03871489579417	48.62977010539789	86.02143087840344	90.20292916248866	36.73144155680755	9.99468441743481	96.48121643932586	79.52827776723159	4.52611568101608	64.21778810144311	2.779571005779279	60.51641375712892	42.9651534689992	91.45015804900348	96.46652257790802
item42	8.356863623497844	50.48244698621784	29.35379394288506	12.98057995815248	77.39799625040595	78.97977009789062	50.04379635190319	83.11304437657186	95.53756163672338	83.47388940486591	80.44727933293788	85.54536788104303	46.74195946583688	69.23327000282953	79.07084546702515	92.42706326635333	63.00202700604002	0.633460732964142	57.28429601875147	96.44946055280775	75.83630543254117	29.94341059229177	53.37435543225877	71.34439688186578	3.746253885479797	23.2071206494258	86.70179172494534	77.17279768276921	46.48292787882887	78.1328620014629	49.3623511726694	23.73375240389617	49.38992510712883	79.91998989478955	24.58247957109156	95.8033565029247	75.0416677970797	46.44846128695738	26.9788182160826	26.8934427327684	55.47989035397734	57.46836360688969	91.69024438216844	10.60694837816497	9.679024976293444	4.179016788464486	12.76752620711922	10.57822503541212	1.337531018807955	93.65346097286866	3.263505278288162	66.87974524189461	74.60383927543121	63.35383918783808	82.28269441379588	38.15995618884351	83.45121021964886	92.19872613687571	15.23309119079445	44.61798718511294	36.43062718348537	77.35511274293893	8.48993176202424	2.493465630010162	66.37557238453768	28.08014701931301	89.09978290433224	60.28765850056741	50.12278010975777	92.39484724879024	7.299196708102452	76.07355128467634	59.78224486651172	26.45835193631157	14.5158287409496	53.04650213860856	92.98149291433201	83.91374807680376	33.13736318235588	91.89628314415704	73.94695136895857	67.46556284076517	49.75615713287705	60.20775577191026	17.11725262845873	92.69738917551346	46.62999827671823	86.56304077582217	85.19001421562183	29.58339058545578	6.941437347315228	96.20646916113738	73.88289589758544	-5.916455246571836	64.80818123464852	1.321761942316263	56.50096125428652	41.36576040894651	93.54350331700611	99.13291916880124
item43	11.07396741094433	49.87585920825975	30.2544601522188	18.29764557682554	77.55433560506209	78.75624944337447	50.08304362888781	88.10095310475342	93.61208108774288	83.64377627961582	76.21911718244888	77.74576696110084	46.2424378744804	77.79747367074815	77.88039091386693	93.92990753635755	65.87118537982278	2.924017991993312	63.75108371684483	86.46231183798859	80.58533446046781	33.07251467532669	53.05139419650357	70.28091579988977	-0.2596463979516503	15.52774190842189	97.89105416074165	77.39340873989494	45.80381261295145	84.69537555694002	41.95567235336063	9.546986389702909	50.26185539088531	82.84232397769441	27.93078655361602	97.56269052827903	75.18625260380887	46.54433677938782	23.38057028072169	37.44033170782296	53.8754883215849	56.75469740001799	90.43194518555309	7.392754744005286	-0.5546687729118656	4.730547089756773	20.06010358285936	7.735523746571122	1.471638494627196	93.40744457669314	2.595485010887358	55.31982218602751	75.07264709849667	62.37333102988005	81.31641779152251	39.74600916948971	84.98970517567155	88.68953833008287	14.56457250096106	45.70100413041123	34.15696585534373	73.87519067315789	10.72175339788068	2.203142838856526	67.79811125279885	28.30130959390177	86.24703762149218	63.70434589993418	50.9797559452766	92.69906811156449	5.133286417653536	82.54014443457328	63.34287758743208	27.57705854653718	23.50355503190185	56.49455738813188	93.3202999459496	78.19050959573985	32.12754719996452	90.68737211007917	68.72059250310539	74.01322197363432	49.34511692991624	55.29271351893188	16.21133345740314	92.25115552765527	48.39396692030828	88.8185936716541	86.54684027124442	36.95453365971663	10.13817228862925	99.61434623362683	70.20518180392807	4.835947896143137	67.08104738807596	2.548276535352772	57.71379825783264	39.70441929453678	99.60575897811658	98.3060161311937
item44	8.88620745026736	43.17350053348141	28.97985998685914	14.58029845164133	77.60350034699748	79.14006647622996	50.05355597656339	79.33306226596991	96.76520413864847	80.91862109334294	80.71068241907824	84.9638790730298	49.68763405194149	74.04771797483528	74.1919815488928	90.75614490939623	67.48354148523308	3.040083445245514	57.79643623541	87.08199337330295	79.81244519765023	34.77097893249952	51.71244586477471	67.06555040439083	4.476631191171493	16.49260071167061	89.66773915289599	79.22251529672941	45.13283215103692	77.90987513017143	44.72862058748089	14.91801303950774	50.34113161417766	75.25307800423515	24.86959618807124	97.80329153942137	69.61157498489469	39.43016705439724	18.24606833642533	30.51500719378497	60.93899495424375	54.79705494910516	90.53657485854644	7.664257602156682	2.06672404404318	3.598434124055079	18.16479241426674	8.503633774042068	3.1518284323107	95.63395452756747	2.017193893505858	61.00491622058743	74.33714620690826	63.20556674901119	83.9087128996977	41.65675229905956	85.136176321362	90.54849031487949	15.90104922726947	49.27959215394655	34.96157067788057	71.50598180270364	11.63826950629098	2.185837498419178	68.65891527183882	27.15133909275872	85.85034620669708	59.5057544137692	51.81909939052838	92.24955157515529	-0.05355306234160118	77.33641582137889	64.98441233361501	30.48743061058709	19.54900190023532	52.89274839361256	91.8183291761524	87.10921811669149	32.11768358323982	92.6778557981058	67.91675197417274	67.02709507821015	50.5807171958903	59.11569987002371	17.79231220680145	92.91400017315227	47.94088862954666	88.54268324984446	87.49050328253779	35.04534767996457	11.15344302099258	92.88544011210716	74.09122539101612	1.24511464727217	64.02812882050615	3.689671545411953	56.45264968421196	41.47729567008142	94.25022074099611	98.96949094021556
item45	8.564266654291581	43.0993922003169	28.90642217748614	16.62358884637348	77.4749562548003	78.1024342291978	49.42972287549996	86.13380127156131	96.46849420134822	82.06259459730192	77.6830261803137	89.09289855499919	45.02903210113538	75.25409265316635	73.34361501572199	93.77430227227296	70.08658863598977	2.498577070585255	62.00659292612978	84.53276075640261	81.19762328390729	30.3246166270318	51.87768535859004	70.89448968676169	7.769100034828508	14.15348148405337	91.22841392871557	82.70884660788096	45.45483603128649	80.49517008291113	50.3006427823391	13.64087200492198	51.18288842008936	83.20389172770204	21.28152876677973	97.16251488553843	79.77634263444021	43.13801882743461	20.60217781980099	29.90215234486902	57.85934329492465	56.39949503999726	88.7348229754748	3.241088865662608	6.824862414785164	5.731278755786775	23.438752432705	8.094310332538189	5.311431641760358	95.59455497678402	3.214663747882593	63.4485209007811	78.3499134112662	63.84956974440652	82.30466920255749	37.0226570744323	86.88906404225162	93.97489870324816	13.63596865800457	48.6873154453331	41.03388252638535	68.2526844642737	7.225303797777038	2.561932589745597	68.59972432618582	27.38236988768038	87.13354038270246	60.29271383524927	53.20455395527739	97.26108823895393	6.135921422847227	81.93088643888835	61.76816441397872	29.16928200516002	15.07306648369423	56.08220512780164	89.76224302614736	83.2253515312555	33.7242834220919	89.72337856864245	70.01929436473334	71.38666019553391	45.56312199053818	58.9120284956888	17.41051189458113	92.14253468438396	46.71330072022545	85.27697142593186	89.92977523951055	32.0980331062265	9.615546773210969	95.65162346894857	73.0230845512237	8.983324397987252	63.98783830047628	-1.51550607327706	67.36684854497499	46.47651125951353	91.37986729641219	99.85022818555672
item46	8.804155401127762	53.49373928084317	27.31400535745123	20.49170395302615	77.43870448765105	77.98596318123056	50.15660573235195	84.48461046146789	97.0173540505927	88.35029287490686	83.07140845416838	86.36552394291704	48.03664356213005	74.71243995016654	77.75153040862875	88.07814743054522	65.85519395163023	3.585060640585317	56.95081878204368	92.00589234963296	74.66184611570262	29.27544810146785	49.39236956715234	68.98690699171425	4.296363768180609	15.04221492916629	91.77141178569417	78.64227966111554	44.4388479343174	81.44542202304596	48.69006663385371	16.23738563724388	51.19585200278441	78.41322432472991	26.03879314859008	97.17337087262896	81.51499552779717	41.41582316738741	20.81601925137609	33.94275653044892	57.98814112231166	58.95200645114085	90.93388229500768	5.68260951310369	1.726044973126138	3.623949167661488	24.27678169388177	11.69238845277577	9.730481106255709	98.18972282707188	2.95635425767164	64.34288972189842	79.3503031862694	62.52859022920242	82.88921209758422	39.50566741177957	82.88061013124816	94.57535774887336	15.02065599361303	48.21870780023396	38.40552692972029	78.9618777221762	13.50545528487569	2.27936276949732	64.11581083430544	28.45856774206606	89.13524226326639	60.37693605548159	49.13185481541932	94.75160438242764	4.951452489927384	76.84370377805865	67.0970803181704	29.98738913942849	15.00983811533509	54.95378251260504	92.82800607689046	91.22129265160054	22.94783684730425	89.82550024431816	72.85759448287888	75.47762926863196	53.69911964452913	54.14142893121827	16.12951006319722	88.98750039547025	49.15027750959054	87.58682916898832	87.75880963637051	30.80660104338167	9.189144385957981	98.17164981169338	72.5814685438811	2.932572633137048	62.78026114997233	4.050491015649144	59.1692049820338	42.9122479992114	94.70345210112133	99.47384439820556
item47	7.22823603085221	49.69695853033939	27.23737055984864	17.4153140833103	77.70147691278778	78.72345557594845	50.95401120522445	79.28973680834054	97.63653062033812	82.48568851271455	84.79629068583741	91.82078569380853	49.25915901982765	74.20873047358751	78.37226748987887	92.4226047856658	75.8045838960463	1.472588583609926	58.8408751511321	87.35469970514384	76.77251446470083	32.13507594453447	53.57250066271473	70.30214589843617	-2.68024495348219	19.3239086581424	94.3979484558392	78.5479509112304	45.57161705171387	80.3152346317129	44.97098103944399	13.14822014203955	53.35017441544499	82.43518661182217	27.21486975216116	95.3388261582961	69.79883636512847	42.76486374686635	23.54455934287241	31.37770251585495	55.66831158509422	59.40165630216981	87.40543896734265	10.78348617401925	1.202077568505342	3.600127987513885	17.46935245314982	8.617768320037198	1.990063390575393	96.44227582843094	1.79035016149905	59.78117634987535	72.94896465310676	62.08986540969303	76.55770239510396	39.44103204432964	84.97672555772378	94.64069779886759	8.862915877977002	47.05077378791413	37.98510451624043	72.35937719853298	17.25683206146685	2.398724252662712	65.25642297953702	28.87577668588514	91.81095598979378	60.34431369352555	54.50087532158538	98.71771528602721	8.879925291428641	80.64590092983573	65.6742316529896	28.70015081826871	21.04377669226997	55.11465952562894	94.84432846290068	84.46911429006882	34.82182956193535	89.00960180974131	70.84066808331416	69.27827624310062	50.36743825721701	56.13358679146594	15.88289346667282	89.28758368025019	47.68511194609354	82.9326290734305	87.01377624300632	35.01154412796311	8.630880487993076	94.57050124691096	75.53798421397489	5.905474952119782	64.48794174849456	-6.764267966809641	55.62660443649325	41.70939840803175	93.14355165609423	100.0489705688358
item48	6.888943263317388	45.73316688290266	28.76222845267327	20.47008034352726	77.63143542991233	78.17089647444523	49.95844000875283	85.09435981757952	94.81194243323596	85.60301420680904	79.97483924213059	87.50625482322044	45.85501212227705	79.25452383359641	74.36446475582335	90.13371850618589	63.21855853332899	1.744740141796148	54.07157772974222	84.98353358276452	85.07546898064705	35.43911565990491	52.1136828760171	70.91787462737463	5.391428084114852	14.56811837877102	93.89347694063073	79.24392905570681	45.84153764715139	78.94020583401387	44.66238960987369	20.10551464091053	41.71329669292773	82.95216504302955	25.5221545476324	99.27320452798489	69.62304122792308	42.45628862713393	28.21423668680402	39.62804641551879	59.05473616568581	53.2319594430436	85.84662094530188	15.15629734288379	3.710810346674061	0.0432321689929287	16.76093614217442	8.326771428476379	9.452214822802016	98.78891631390169	1.70793886079393	59.67659416489379	74.93579856193546	62.29484577530597	83.78958558721386	39.22213615359996	85.35137123379194	92.18210879469576	10.57723888217582	50.46028207311266	38.95332786335193	70.06202529022553	8.627356291593419	2.297967992293044	66.54165809716393	29.1896842055238	90.51232457636202	58.92723688049442	53.40559804440015	94.1966180010256	3.465752838352225	77.7971806004967	62.18027183124825	24.82781402858075	13.31535107035012	54.10748579356902	88.56149221097847	89.92405878354792	25.9691179970971	90.33191650823633	68.00993237711086	73.8019616577491	47.80899430384066	57.95436471636911	16.55010540483829	90.89621126358126	48.16860668697782	83.83323856320658	79.07403152634336	40.73009939906715	7.695824628544925	97.10533318579124	75.53901876909843	9.04188490237008	65.46005447398601	1.355757468150452	58.43235077828168	35.80094639855141	94.43984497088144	99.31286356796672
item50	9.413577625535105	51.90393719358575	28.94443554958689	14.76378122162149	77.12346664009094	78.13351577574672	50.96279080365597	82.45461504360172	97.01498296935455	86.55566117939071	79.58835710420463	78.70329254932854	48.15499062261628	79.03055105761543	77.50149496804681	90.5171607482069	67.16694654889761	1.558475975042829	54.49821513637343	88.0512434120582	77.47063435031296	35.87543110948479	50.62312036451169	70.96138598291863	2.114661297202223	9.145446004783189	90.05468782805903	75.89413271366226	44.69460437912605	74.70475769449192	46.5573856804623	9.113666784155711	48.23227142455899	83.63762866428984	24.96364151965274	97.841570009036	72.60473471482456	41.72814335509555	24.39032986902891	32.84347014367517	57.34818221749396	63.40649520302183	89.78498991921643	5.400215663622547	-3.17367950544569	5.02054974487028	21.93421560077413	10.48283075733089	8.536475596958237	97.87543478477399	1.956885517242858	63.11081560570963	77.36078291589644	62.01882708358156	86.51507188037262	39.36989140401305	83.75293773231695	87.14310933059316	12.70968038197794	48.61471578617253	33.05146511215079	67.9187436153982	8.145867073414568	2.168995037003062	65.82732025558028	28.42282864046782	85.31782899388323	57.91211326169095	57.27225292539636	87.82941779066367	8.299214926470041	78.77429526117123	67.25485463634163	26.82053151356031	25.24130015319566	55.17943800470599	92.25480337316871	85.9503761350862	23.27170778604234	90.84170392982821	74.80474606657764	70.66894441522426	50.87886198542345	56.40879445608145	17.07282133302567	92.87679546254672	45.63797458334117	88.50345140478811	83.04167769501677	34.94434452218373	9.583750605805239	97.37935624515536	79.49097860596191	4.001831275734429	65.35388362921557	0.08039782167477497	57.41402630308303	41.60863777050548	93.46258553845605	98.3660507808172
item51	12.40024549858974	49.9672362276924	29.06389315667005	16.58259449195434	77.44703325873179	79.04013429997853	49.65020233187441	86.88211479316493	95.58878714678939	80.32100524747173	79.82323805486259	87.16446734308199	49.34958083906666	69.91573433742153	77.96947184182034	93.04110928353128	75.07413433514388	2.471365779509576	60.22006582615501	90.16374568764644	78.86606206374655	30.58630294806539	49.83895094368316	73.47890597986304	5.228847713548475	23.14226310846374	92.74017349425455	72.40555636139773	45.09645816999688	79.44215012064141	46.44296014108561	18.6092312518726	52.88460868622062	83.2737788725622	23.94208723425918	98.21227945521692	70.81076089296975	43.2400507548566	25.18377926289273	32.19309453107618	57.93209391802204	54.34125579161293	90.48243629785495	15.83261455769296	-0.7756133117535882	3.711272805044018	12.92514975018072	5.23566196770383	2.042351825756382	96.91793794355149	1.814012976215902	60.67218999957564	72.25911657703369	62.31627810497701	81.18894141147098	40.95908340534612	82.85693248323786	95.69816037303316	17.34143343772561	49.37743596502968	32.48787237383747	79.36656094620841	13.11128636009482	2.265131742355648	68.61349072010134	27.71558740705398	85.63680619365242	57.87192218273831	54.37438270794712	93.87466448283757	5.887517098243059	78.34671390934754	60.96467601098982	29.36414323927496	14.71446817083439	59.16909343653789	95.13630953424304	84.16136240828378	25.44730969198541	90.24378907719732	70.05558656157588	73.99122514677856	47.48621790988861	57.57270839853402	15.74707297320114	91.72176947882738	47.20846513063772	87.63828800778548	85.92430003345216	34.67979679463986	15.95494580823317	91.91743166950707	80.29379033667709	5.160136353650294	68.0439615053689	-5.424341700393578	59.12790530003855	43.47654854995933	87.16830924509223	100.5655158640113
item52	11.63203959317946	46.49450911047528	29.69328573072799	18.94930365922577	77.49006606744075	78.40132978928051	48.77134384398461	77.95332373956228	95.55220472500255	79.00411022576276	78.10006311294389	82.73979026956023	46.12820992204114	76.4613263707169	71.95512402147315	97.11051670508101	68.93744303290953	1.564590065068096	59.79635199074604	84.05326579468479	75.65955717514976	34.15580057186244	53.36111625389361	70.69974350309084	4.224422230851163	20.91659438373922	94.76091802934339	80.20579367465999	45.52872021972158	81.50308412904275	44.33742347395507	17.97145989853943	49.92409238127812	83.7300353688719	20.77627533620607	95.61131408724832	71.57677267701224	39.36713120418919	25.7811753462959	29.75086742366775	55.0503593803857	58.08356632177092	95.78613563724389	8.921849905629946	-1.879850557444184	10.45623938372265	16.05674206850268	8.746661242749676	3.449097852892325	96.32381576414865	4.128044857217167	63.40560504451313	71.47865901263496	62.22018240448576	76.51327284223204	36.43311871592949	85.98780193268661	95.33624145957079	13.10330468934862	46.9235622385084	32.50457745494346	77.96983850855875	11.99570107320107	2.330905321911263	64.10036181126485	27.69853061403382	89.03073688526791	54.2486146966524	53.07871299678419	90.58462487051668	4.542826058270119	78.14704048463396	60.06772020205148	22.92947203871002	16.60704678759709	48.96278214717273	94.3660314318218	85.82658508221206	28.84825190759939	91.18075637899196	75.56215307886704	76.52475196035617	48.17742989019404	60.22929727529179	16.99348814724372	93.31946999395882	45.43718066587014	87.41990726136606	90.45205082447092	24.81680706338729	8.427199860551012	102.1894567560643	72.34194569787971	9.221344412101923	70.06219326869592	2.103246731544806	64.02125299283807	41.83485646466957	93.68558209876753	97.28348061535311
item53	6.663158310078078	49.17234182447945	27.37551951777221	15.9713555620552	77.89906794826834	80.20778898278661	49.47448688252847	83.56330651792358	95.55250926518193	87.78762547830168	77.67022034897683	91.91052813691661	47.44111232423398	76.009733144573	77.23242322340482	98.80852482806171	60.40500063778927	4.65634258819469	61.42502086298389	88.69205430464518	78.07930668232316	31.4386923237868	50.17318436020779	69.1498480766391	10.65767456327469	15.34857361461577	91.34221548224701	78.48456555535923	45.20139089300391	80.48116028425913	50.28529694356171	15.23495554025943	50.51330833550147	81.89162068588098	22.73625564771286	97.69101085262226	74.42881137991965	44.55341413954801	23.4064747263161	34.3247926013703	56.25461030338984	62.35256363724758	85.77599579053035	8.137760835414904	1.261300192739102	4.388573426203556	19.811394224643	9.378812405586778	8.728864880829953	97.04478962655584	2.415051294449969	59.77279900860289	74.76974992475425	62.3653029875323	80.90348913486118	38.37790510541379	84.00033216927578	95.10465949911058	11.87013215979985	47.232742846741	40.95645858870745	72.92689384508955	9.125822343271828	2.298214855443546	64.95888648802487	26.92206450028144	88.27930741227753	60.54064783087389	49.84467512630778	89.3450729081294	8.724161947080214	78.74668172091923	63.33525150948871	22.65999147883834	19.94003150836536	49.45355548584092	91.13063719974147	80.97685031815203	30.13405868267464	91.29057699284073	74.25958133739383	67.46649764095598	52.5653621974252	56.06786066433768	17.5440130301646	90.60783488611054	47.34224148301094	83.78067226962492	83.84388408353603	37.12322456871379	5.728414329693326	93.17407481879246	76.47434918208309	6.552404844032273	67.0176473212356	8.121820491380578	57.75962542495515	46.36337685126148	96.46343391029622	99.99495477774796
item54	9.002195227417209	50.17682037744193	28.22449304781369	15.40865814648	77.50545924604984	78.97557855301064	50.1612342016282	86.44940313104632	99.4229139067582	79.67746824479335	82.89191357110698	85.45463917478925	47.88693565864336	70.94889434055962	74.32000337848599	93.68202794606619	72.73749319981803	2.821442738080113	62.13576328464284	87.65577833860075	76.7512921971985	29.92902560901969	50.39042176613327	71.22995434370291	3.150419113246366	17.50468709894755	95.94830190322391	77.26572904743847	44.75752172002657	78.46870216796762	48.73230601111443	12.69832538862715	54.43942117964482	86.93295188342748	26.27340728149714	98.57261366270014	76.95705376603632	42.49086055560156	25.18007111680768	25.51097100150855	58.78163627063881	53.45837244170486	83.1333857087125	9.039314566532004	1.487884539357096	2.005893035435292	20.36540028206937	11.54190640677472	5.005296174066357	98.63366834849275	2.729476193976857	68.85314123303283	71.93351430867976	62.32084796506137	83.79558295877851	38.58181109658668	85.4653440256716	92.53036310469214	17.10176765887385	46.12241509844502	32.49696987971972	73.7154645805235	10.07762762156228	2.100479037299266	67.27508345904081	28.80288116556154	85.48765467476412	60.77749908123648	59.09995068221629	95.45975186061045	4.476505471365802	71.49273134212071	61.7742158354304	23.3319074171892	20.16504197931232	55.99372649732307	95.41864633729784	91.0815187331504	27.52682510423048	90.45214817253301	72.02079520220168	68.57280253118947	51.62048798964125	55.35445568522263	17.98236863369048	89.46071290856035	45.92446104511277	90.20870248577252	89.14917736389509	28.58365617696826	12.28807496470299	97.91833477832562	72.34383865573415	-0.1492302298240995	65.63346515298363	0.297461522656007	62.70766464963327	43.95275442620413	94.99847506423164	98.78824305465106
item55	9.876040641082547	49.40997712412933	30.08271769569707	17.51282251157039	77.32745940965806	79.21291371386803	49.99890943748558	78.10200169239242	97.56913920172038	81.16035602929573	80.08523934429833	86.61528414938968	49.71343805941537	76.12832263876439	76.70252514781694	95.22011532908971	62.56655837161568	2.247435164905082	56.60919703530187	91.2546388215825	85.59388814421285	32.18705164476764	52.56208344622999	72.07595827451608	2.32710349397803	15.53370470570185	94.29944211267494	78.41063742035736	46.90985703120005	77.74250052677425	57.91354664999825	20.10987675685278	46.71446701802438	82.02817220356914	24.29061096081675	97.92952969232996	76.09095641828833	39.00535707863633	14.49402144362345	34.30228927315646	61.01025708350446	58.59558709319077	80.58241115929346	9.446590939047525	3.597767795865506	-1.494762015036794	17.35718817527484	5.455719489662544	4.10635431884517	98.87612696914061	3.475870967903795	59.78359812676409	77.87072026815984	61.74066288528098	85.26271792207208	38.57746635984994	84.73257181227102	95.80702746338982	11.4585684655083	45.00621837431669	34.55714030993324	72.768986717142	15.34860878803389	2.212365517315756	59.64530229156492	28.31821251816391	93.82014502682642	58.86864942550275	49.8511039484041	94.98821074303535	4.456357982547654	80.93874091268533	66.48920159950913	28.03808034702915	21.16277677901279	55.91270214967572	93.08145431751747	86.58646850798111	30.21859004491843	90.02329556351098	75.58105400637749	76.11721314660988	51.98638109739016	62.39069154198807	16.02228963795879	92.84283735027053	48.62164127358557	84.9607321332103	86.95658646376269	36.59093861327261	14.38153699206956	99.05254317576673	76.91347894180232	3.173030937617284	63.36984611894169	-0.2828829574093562	61.48392612008345	43.84923438844599	95.0684833064268	100.3467920967307
item56	8.789256304423532	43.75754309132103	28.34366444384786	12.60646614014256	77.89836849107959	77.96584778587156	51.00258675568763	79.98303231648019	98.78355654912008	85.43895274707965	79.43518954577115	90.22890578726184	49.65225865247634	73.6285113597433	75.46929298010308	92.65253790898696	65.38131082388701	0.255378254607229	53.74378241979793	84.50294095867676	78.89518460616212	32.38112348470357	51.65397199896269	68.15431315242613	3.94281776831682	13.02510531151601	93.96265180513582	73.430033494081	46.67379233218864	78.35471611539258	41.73646039376784	8.367938636671962	48.26540141034272	81.33577228465114	24.79405030647137	99.24557309805927	68.46069454364638	44.71695574569313	19.08881597867908	29.56113808074877	51.26943874138615	62.628671403119	88.26028476868595	14.12851183873971	-0.34145784301552	2.419649468166796	20.74401489580998	7.935500279470957	5.53983850493456	99.14066535027443	2.053042033084926	59.73495371373414	73.03113282737183	61.65701916043759	82.9103811390451	40.20428094527414	85.7162725915924	90.33106263496248	15.93928510680419	49.47532094635708	36.10833805922297	64.31752938163183	15.4838974217093	2.421468274051667	62.76402563758973	28.22917201098279	85.39630027175754	57.95840805889993	47.75771574190678	92.13539985222626	11.33255023766331	80.66067428979919	65.39753969684229	23.6557156531598	17.93128403982985	52.2383847180157	94.89608222724517	78.79347453356195	30.17523002876609	90.28604919504107	70.28931366435884	68.36288577718058	47.96365967714355	58.20301672054557	16.51550628408415	93.08222085251461	45.85127877306476	88.47186312154776	96.04572661081009	30.82779132572935	9.613352898306486	95.51445535327329	73.23529798070059	7.191383333860049	67.58207118788086	2.59290756357102	62.32926156572049	37.95315843726567	94.11620085435176	98.73694186081421
item57	7.455340787959975	41.98051572120185	24.5799645677076	13.1317427262561	77.08431447252322	78.18056762570924	49.2013298700446	85.64838007085478	101.145925466964	84.06017813707716	81.92158374006152	74.42389262964298	48.61112697028364	71.62608532934303	77.66577191108895	91.77361451343415	68.22325205069509	0.4325284488579111	61.98127935041829	86.71478086537812	71.00956502295681	31.2469812749409	52.36042228856743	71.48900185805623	0.8021975301805342	18.92299433403043	90.74846534465065	76.98347276367898	45.1629544560619	79.64044312964373	47.51316537450659	15.34016428740861	49.517892117523	80.1077610287078	23.83562343464876	98.14091734450717	71.56806664263212	41.43321558206412	23.18280680034899	32.73429824723473	58.9513054274348	53.78108203128001	84.18717158401353	5.526891765126954	-5.934437023045575	4.433045066634749	20.45992998169583	9.36957391026486	2.936942907474257	96.90552895864695	1.537245351280796	63.76105637710732	71.35909973939889	63.09953442265657	83.48369104081635	39.29196066431633	83.81558723490312	95.87007290813818	13.47470966772391	42.03748561084713	34.40810253566886	74.51538921390578	11.0659031252822	2.384083383287974	63.13119754790264	28.21055340807462	81.70885642370774	60.20715067795114	57.02160039145573	92.52699439830769	6.911031524873488	77.80859672247811	62.61001720632422	28.93536998002438	25.285972502771	53.75582426536084	93.39463879682611	85.61957512303346	30.04935497235883	89.5959720230838	74.04032350642164	75.54517242928929	50.57773728374726	58.88994146506973	16.85753408415969	91.35870374269113	47.38185930317315	87.58119618550096	81.35297740548573	35.98591955945895	11.57186410133848	94.57453243615066	72.17797405761701	8.508362842192092	68.7106452022761	2.018225389167343	58.57654015000264	38.4116910070269	93.55432300311612	95.0996796828434
