vectors
item1	497.6214559324091	274.8236756393022	150.5826771988216	405.7609946531127	250.7482857391	287.5095115332988	96.33677484456135	275.3008073836866	350.1955939067087	448.4842671939376	19.86378410644937	61.51100290463616	493.8355147487531	39.39783219606841	465.6645774720511	380.0951505241678	42.85642218858045	272.1154152537218	381.0254306591956	12.40291581961618	186.3645020121621	92.66853130046995	501.8232513960334	491.8977751969904	355.0294381462072	495.9589581194317	266.5039215777643	146.3665974990473	205.1780501459376	7.088166479946326	347.2038342670022	243.264155922661	48.18627724817766	437.6944349135586	259.3013578766005	324.730363079238	67.32790958239379	72.20763983583487	184.0045507863216	307.7845790759319	2.74617785722904	491.6624723003558	364.1626619884162	30.08072536208125	279.2754060834338	271.3247599043841	408.6495174127888	421.454887440246	342.0537820710425	471.0413474513563	231.6266959006549	238.0433843576151	60.14094466479116	315.8764804221404	260.5329270005789	105.1551817517883	64.02108236540062	320.6507005483772	73.57129471775023	383.5516496103708	57.90522240950679	469.0649766417429	15.90335649002569	279.198844024313	123.1335170965795	241.070682116785	197.0320408647974	480.8486701469075	204.4864126758439	377.3891313634705	419.0923459958279	190.5421946899222	36.58240243421364	340.1110982085223	375.999528365002	265.3307778854798	369.961108336042	367.8221526319471	320.9919990055765	41.5665379277979	49.50050301932184	304.9732328311593	477.1979449152632	209.480000114676	469.7624104646428	221.5949690875556	464.5131978876315	391.9472709487264	358.0222597650235	259.5084157727665	59.70994768946002	405.9050260776211	101.812987445186	440.0185623062737	76.85101880021141	425.6543325726061	-3.899411041893025	155.326414053456	160.8847935052689	395.5098859639015	362.2202913817164	310.5955003526088	78.00579990023878	58.94357911870745	260.3745696476664	137.1552967097319	38.33718240936914	501.1244537502311	6.612732398872634	200.6336713889843	102.9835304877512	213.3166002947239	390.0068569934239	35.2505161659691	11.94774486956845	246.4253817228578	361.0155900864775	159.8363089302608	400.8294778426281	159.4047251457046	384.8407278622035	299.3206993435891	245.3339604437629	438.9854752858596	469.6203851562668	346.2712652344658	411.2083966878773	167.7720790219282	14.79984751864462	461.7281626964102	415.2068774202327	104.2734685568636	128.216055958386	39.15830443771784	351.280415211224	303.7780562487969	487.1880628566994	402.1846266339157	96.41623431604501	368.9875948049792	418.3483362973706	446.4407348938666	278.2731949385947	453.883938731146	22.24233435791016	322.1679795326979	202.5762008654107	309.627272332562	212.5385996957364	427.1221127150766	211.8539287789507	218.7772517702947	214.4812475584278	14.69001735309724	361.9041774152806	141.6149353427105	159.2985334859776	492.9961950327203	274.3304421326732	31.07178231152482	173.3663563353709	32.90204021740756	226.278711384644	74.96997712244296	69.30562827991072	172.9097071771932	175.0127120552072	356.7241063918311	103.8397657368141	161.9201128206496	45.31745879566482	92.94221969281941	448.5102967121099	55.26714084926964	444.193307277787	57.88056487424193	415.5756147647613	285.3922985136614	111.3812462071323	63.61730322885758	397.490803454421	60.25126738741258	38.96462100516331	36.69059801103805	308.0643787371494	319.6647346999583	176.0306614005074	430.0332965221824	355.1021931755066	176.801161213432	89.61556892562555	118.2713132155268	222.0532301570048	255.8178537341454	333.3360752478623	190.1865812221622	122.7272474758941	85.41487858169779	109.4033039211119	354.1804556543946	71.61735333632846	137.3078375601352	237.7741817129994	28.9902754744275	392.7890580862891	43.94274802562252	180.6473361420156	271.0135281066366	449.1401880472988	290.321099150714	328.5689894009283	189.1761819558243	189.1877449072522	99.77239270155852	445.8062324806743	368.1242770355378	401.3417760717576	222.1900232390334	0.8785850224507774	18.11199464847236	267.9913041599743	245.2083627492792	429.9170979311957	32.14693374458885	79.06190535534023	400.2700702325002	157.9393336913171	39.27474562160814	215.0333423767941	463.4262743232291	444.3272423314331	42.66832547289464	416.6597630995266	221.1176424571525	325.9253218696645	21.54295385867161	72.3870141250881	128.1886171493294	56.57730122043002	238.1301330187372	70.85107278502605	126.6205243561689	58.02605740428174	205.5222380620372	365.4202646275014	437.7206942530091	42.52860468120329	179.1815801231315	338.742586152534	316.8080589428748	364.1757397953361	253.8254338218621	143.9381102279973	23.39567472845999	83.9352805579411	337.9639892455533	158.2207958743134	432.8826547365441	239.9669590649831	123.4296218737456	78.4446581305815	332.3725045827493	88.43255018104529	36.21967317628442	125.6679011996437	117.2905250573738	290.2431688469486	417.1371942118934	210.9850345561352	353.8778722098739	330.9165882410271	23.85767123070685	143.8796201515261	7.801751719789866	492.1648381578521	429.8179890006529	476.1199416145576	447.4699903154125	170.1249292579545	481.391763784954	75.29224125114287	369.6475674585357	187.0273822500527	28.43951350547798	209.4885336093033	259.9133599455513	78.06590921594757	493.8738595590044	322.694882884766	326.3645834542178	327.2328572429085	323.3465565799564	369.904419743888	315.8047949778261	226.4021846380909	248.5896792208818	356.5884403066898	50.98556688513113	174.6430909499352	359.5857760256967	241.5870046804998	62.15647064910939	423.4531989667017	136.0811812235478	128.8743694393992	391.2490679410661	280.5766347739174	272.930069464539	433.1928715143499	10.9892009737164	266.6392026375949	70.84212301593256	7.270414491244485	95.30072665716838	433.6208144800458	101.1523024737153	396.8603245990553	42.81014783271709	-1.95166777146692	274.7999889084745	427.675406197474	41.59426596347547	128.8241711989522	201.8869311112207	296.6239512434507	215.4463870958876	427.9519705522864	104.8154591183743	349.7577842254897	196.1708327526458	313.4191316373388	297.3198904451427	276.4124586408194	410.0415771075544	406.1171149363482	382.0270302672936	144.5973554852133	270.9130235142401	239.0695399088922	278.3052488295286	116.3829168150489	179.9396334146871	68.27140128529153	157.7475123587751	131.4283887563239	150.1345271407224	371.8499056862216	152.8302709612189	176.7817701096583	152.7700330014885	428.8146576644988	391.6257046519009	472.3919940734048	268.6315214046694	449.539487334925	148.7255585351153	79.70462472260749	491.6386037353808	380.611420345576	422.0676017762261	11.21566264353245	32.80391928628647	293.0704662891438	429.412082980425	84.56001959591967	164.2799829055864	121.9366482682544	167.9168865353481	174.2251167663427	115.0247720127317	210.7359154936496	138.2579504135952	81.45558113500279	465.1963080537528	177.501621806696	168.8725088848354	393.0481853627841	10.92795332540666	265.8979186363709	183.4304267481463	313.2502959104719	483.4502253880441	106.9855844378031	68.55506781684534	429.0169497250246	432.6585640109353	318.5770144644497	315.7431086775217	195.239845483432	165.7828486122108	129.3878240097894	56.06175065571263	316.0321294129486	80.84988981898773	81.15469957416143	239.3917708863585	260.7805561921512	274.5376689028593	333.8223881449917	263.6506468467227	203.7937531026579	99.28128142950811	433.9617437045783	312.8638845232981	162.6856115986174	230.4287507911972	435.4551293422871	138.1932481706682	454.6722474459694	78.91205792622004	34.37567389269945	160.9042941398233	354.088955556808	185.2832080026099	107.3521722892912	197.8356229156505	400.4300736450803	52.32682359780468	269.7044352843201	480.5089256615366	255.2806529736674	174.0903111129959	486.5888629790372	400.3899738926886	104.1498844752095	186.2346072758608	20.67897508954941	352.5705742956408	407.0829621695167	414.2648166450658	146.6573832151002	453.3612095822137	207.128805441236	303.4952388720397	240.1313180995965	210.620824373958	309.8161628675676	210.784888600601	49.76231364297615	435.2905356067172	127.1668853509571	87.61211012419261	160.200056890041	131.6497794097441	141.7922872456778	376.0994487499692	230.6369538897789	269.8236793618097	425.0589168004552	217.9451521708875	220.2417557326667	147.3850339798085	485.1229304612285	-0.3615691105300209	483.150833099513	186.7580416021702	255.1544920218909	266.2445477805172	-0.4731479143248052	143.6453786951703	68.93163902215935	385.7589521787335	86.16849681721696	408.6426617130689	451.2082876757159	182.2551581681511	12.29545568167378	330.6814240236743	42.80961869272291	238.0119436526181	198.1956563558833	39.25261583415789	324.3162358819024	288.0360669028035	235.3509893911648	311.1794165231739	443.3179354127044	193.2724831223456	280.4753102427138	45.10210195348855	323.9930069571691	470.7253486180206	31.6331787466181	352.9329242388634	345.4048395931738	158.3409140359308	300.056289982455	30.80145937255372	484.9889431931736	272.7339417354643	141.5564037648382	351.2919212374087	11.003123710098	293.4949826196423	82.42194280436874	464.4851512467921	143.5505788999568	332.4574383769157	19.81169672437376	272.1182495075229
item2	496.3251576488571	273.9033719714851	155.304258653235	408.2258230390806	259.245422823178	287.6873210917405	96.22951651947395	275.3638030805713	344.2343139491109	452.5354617591565	14.28213142938067	70.12821865944787	493.322104647047	39.66064375019934	464.7236288834398	378.160882687601	40.820461552121	270.6830049200483	379.3947209931335	13.28712256778395	182.4922430422805	89.05612674058834	503.6814160758991	491.8555677648009	352.9521942817545	496.2199742829253	266.6623996924926	142.0678192997811	205.1190536076726	7.675971770392628	348.1091170388408	242.750197879937	47.57485975978571	437.593654053909	257.537914586514	323.7441306419076	66.21655433853485	69.21280465882788	182.8429661956545	303.4438412954653	-0.3423982507394809	490.8317337006091	366.2995847209526	28.42207538707508	279.4379679248827	272.3935130086429	410.7922759751443	420.9543995669217	337.8014199242357	472.4331318097043	226.3923965692889	234.5466911152343	58.09209141010493	317.8865207377924	261.4773201420876	108.5675872648187	63.71895244222744	321.5199707212748	74.74689150252318	378.8578729848244	61.8338795920865	464.9646505690501	13.71601756730509	278.4127778052812	123.0176181608418	237.7222623353555	196.437338239918	479.0639053900953	209.2947688600272	376.7549553170315	419.6944271304262	196.7987232778146	39.00550527517736	342.6482660985291	376.2557389762201	265.3253831637084	366.7981467190835	364.6405626735284	324.8879824426843	40.31323899133378	48.52653847918163	309.3143616136026	480.2967058379911	207.7203056134611	473.1491664606268	221.695756398381	465.0896957355444	386.9818540288989	357.3896082400983	261.0049633302876	59.99110520904264	404.3579894710339	93.79277565658271	438.5829408830581	83.66382820289874	423.8129989226762	7.424730347028028	161.765186988348	162.0596033247944	397.9128201597028	363.9326597520779	311.5973349241431	81.45146397991583	56.23944492701966	260.5349896472114	135.2713865449134	39.08415700775531	502.6548289852485	7.392403843221254	197.7366230551179	99.2266744271743	212.2832203185065	388.1096005578107	34.70679850820947	14.9476726115751	249.1390449255427	360.202711489463	161.0336971936725	404.3558746812791	158.8911634300533	386.1459807583777	301.9503210410978	244.7255253752223	440.2025176781605	466.1016254133795	348.0244504740272	411.9276869787291	175.6591191998215	20.52776364142404	462.2872473329832	412.3206729575479	94.83787134961054	130.5671904193562	40.24706397666243	353.323101451937	305.8739057378715	491.5012803492612	399.9428608122308	92.90088137474874	372.5276384600563	411.9688735034042	449.1215056864679	276.2144748761173	449.5005204011572	21.04295685490393	321.7249284441962	194.9763097116787	307.8823195532505	213.7414696681316	427.2498963195154	210.7609305157672	220.767990153453	211.7624419384115	16.22924038747665	359.892424653666	143.4592178639294	158.8647631378136	482.5789877577922	281.7119360494389	28.85355894701546	167.7355664502883	32.06179278730919	225.4795085465639	81.46908015346882	66.6880100775401	179.0795032370908	172.8233808208993	357.8042292172342	103.2839009068061	157.0813851118828	44.60246846063866	87.22060094230392	450.8698947984226	55.20159138196163	443.4180664012389	52.2919326570828	417.1765483860961	284.7207962960807	114.7578021467586	65.96675248672554	399.7398335035223	62.43323947451278	37.92875901810719	37.66432123162954	308.2119020982185	322.976526279508	176.7230736565378	428.4976240524454	356.4864284988155	179.1674914366793	90.06106326364532	129.2150075494905	216.8102823487488	252.9767687116581	334.1464050878001	190.6041274148758	118.7029564453588	82.702945604213	108.4434148201583	359.2701377722797	67.38637853402155	136.9570954929195	237.3787151676897	37.14142610090692	391.7715245130439	42.12770037795671	173.308342260063	270.1729734022235	445.7623008926292	293.5562758257077	326.9346514015784	191.860585300638	189.1100412711077	100.7325068066039	439.2154047845712	368.4721042006778	401.0096170426832	227.7494868380771	5.032996553717861	19.22760312127297	271.3443431817828	250.4762254863449	426.3459877617921	32.92982146841704	74.29256535577414	399.0192581407425	147.9160069670564	39.75920239921908	216.5397580051353	468.2065827884013	446.2831221008907	49.89711556937633	417.8661505252775	220.966562601803	325.4282989641104	18.83282760008438	73.91281702789952	126.1465827125601	59.62357195000222	233.3219822959808	69.21510722776733	122.5231934893514	57.64228201876413	208.9395953416351	366.1355211920255	432.8439613320757	45.30160452022331	179.196806921843	342.4361903582574	315.3515395731781	367.2009490669425	249.4980663837295	149.5041106451949	18.13504074828351	83.65780138471257	333.0641229957154	150.7184612972251	433.0209376167606	239.0619452521053	128.248003905169	72.6416729554703	329.8809170782869	94.06962490996365	25.70335495362028	122.8693489324171	118.03307995945	292.3966217632589	418.5873292454997	203.6053590409436	353.8925404836436	330.023627463182	25.86721500352808	148.3584641699565	3.155172518029481	491.0153473476494	430.3526156343183	476.1283808526932	445.5811011890175	168.6216579082148	471.1493533204759	75.16081356339645	366.0834710156863	186.8787387338586	23.19584209729435	211.5293379904693	260.1783198073051	77.77514385906819	493.4151005733443	313.8661465965946	337.2160654029826	326.6284650386455	327.8605465464644	367.0633270535395	316.4570679482876	229.8047535573994	238.4929668031054	361.5817089092014	52.68654609990223	177.0460383535462	355.3981716508251	240.5437562789074	63.37581997582327	426.4411076981388	129.2794172631123	129.5829051038797	393.1590205310839	281.4327561497268	277.373502146256	435.4483994927784	6.059519319496709	273.0171944248147	74.91522748628327	7.875283641292325	92.68990755952497	434.2017087832496	103.9526787212176	396.1840152463211	43.65064537547696	0.8438486982171604	277.3956456146772	424.8193413803966	39.07725174462491	129.5983575682946	201.3158297466511	297.6190752626384	219.5095552850368	432.9872714475719	108.7628225859044	350.9825364195146	193.5131611463474	314.4762427146326	296.7707478348825	278.1862928795752	411.4441962535258	403.9606505059737	387.4010335488891	141.6468085421882	272.9996753765486	239.7399877839358	272.7384184084187	118.5426610006963	171.7899257332229	69.37647228113771	156.8912265245021	128.1821150765061	149.5666859074323	370.5172961018403	152.6200755841612	173.4901856206927	155.7610992793809	430.8715475234537	386.6938961276339	465.8005199251405	273.4899878281408	451.0309713764479	149.7899445801256	78.96685300108567	494.4596330258429	381.1745148906116	427.3068627852393	15.82861546212737	32.86455604617452	293.4450859022518	428.2715247848967	83.54898332281198	159.9701676796147	124.909257105626	165.4506412748563	173.91204130985	113.9657170709792	204.2407323760567	137.1724559352241	81.16008329780027	459.4418292661569	180.3533449471956	168.1004010654189	392.4553624944484	9.508813869769929	263.3439663860924	187.2218851099787	317.662296470538	486.3555437826292	106.2813263045218	65.1014307756956	425.7545527394326	434.720726116052	320.4856875298672	316.346882580584	195.6583769293134	166.5642133308849	131.194898884076	52.21292547872471	315.9814755598789	79.5520053301079	77.6591519599978	239.9365233563165	248.1909075450935	269.4261767856312	332.4906339262043	265.1423827032598	200.3494443325136	97.24434647343382	432.8751766467704	310.7361537165069	163.548795293239	233.9648131616299	436.330202547313	137.4980139670054	450.2969154956788	76.29666096274033	31.5061958148072	154.5909040720662	353.6827252942061	189.8734680823701	105.5130819640053	199.3360465333389	402.2810217649736	52.77567120053092	273.1426329338236	480.5727087024602	249.5383987727263	179.4888111813553	492.015411204887	399.617707929806	103.5466831674261	188.1360236770018	20.64358025631756	350.3664155082312	401.5842544537988	417.898551340597	138.7444450483724	442.1109047153514	205.5300598971704	301.1695208215611	241.8345592289864	213.4345169916676	309.1634546868355	209.7104527384426	47.44565100401751	436.9362850784218	124.86967758348	87.29877550000779	157.878514049972	134.1373517980657	138.0502601633991	373.9536876646043	227.359789910937	274.4833004328283	431.3582637801273	221.1508036251134	211.5625457917515	141.4898229867222	484.0571442268683	6.059066115941924	482.2067755853594	185.0397536086813	259.4080880445416	261.8583507015315	-4.372524629397384	135.0870987601179	69.63723366709748	385.5877690901559	87.40972213168662	412.2235849811046	457.8615821206106	179.4419773468491	14.26297658610668	329.7666899129984	41.58343795908025	238.3604599030402	198.4730120778788	39.61681408315886	323.0760009580626	290.0689505057985	231.0544938403396	301.618515341265	441.5472759305174	190.7862517673621	288.4839532341701	51.54424241416565	322.1369458166648	469.1507612390619	28.76717650605382	352.8936104383477	348.6439239994302	158.909559250125	299.6184219937838	30.7440987453593	484.8431809222162	272.5065688660179	143.7978178468676	349.4390985716774	16.47552754214815	298.3436467243492	85.554396965536	463.0933957143406	144.7003524477917	330.7549104223286	18.48724185590599	263.9770088133898
item3	498.0396156241112	275.5641851819687	151.5051974770715	404.6814129435974	254.6493299488386	291.8020646641895	96.27653306372343	268.078714986564	342.2105294199889	447.8824634017305	17.24991238172975	66.30328670202672	494.7091053136856	35.22484309906293	465.6021877480395	379.8043670449651	34.80210613940093	273.3162098699937	384.8924464948815	8.635235076379875	186.9738827229276	88.38948225694723	495.242904154857	491.784398432289	357.7962179002454	490.7203951554649	262.9438561606049	143.0718472877658	205.6497716323141	4.505128426643438	349.2696245626485	244.1600696590312	46.55635097159679	440.9454202823413	256.215482952565	324.1819368177245	65.99049270806992	73.91883479262705	189.9159791818656	298.4355485590438	3.526496111939267	490.5267765209339	360.9727233626121	30.39139768468796	278.4879552919116	264.8419464067747	409.2401432950484	420.6081069210254	340.5325333297413	472.492292460055	228.1475097220687	233.1286637739734	60.25583600739556	317.3292770878983	261.4546586449287	108.5584553686266	63.7397096709477	321.1736068570935	73.19611753955172	380.3948043409468	60.85793823007683	467.6020011910102	12.3150329946864	277.1229955039153	124.0897220329533	238.3292604384496	196.5180941563917	479.1373145391194	216.5932373460145	372.9101081759111	418.9140748196401	193.7254921325421	40.63551613663402	341.772263896085	376.643615295951	266.064748622907	366.2839708935304	367.0446823880528	321.7592129415465	41.78120259011624	48.34213690690716	309.5587460924552	476.8382819374864	208.9770268962616	468.8807264033452	225.1288211812071	464.5060611495114	386.781327914973	355.9695132509277	257.6992947837395	64.98573382361765	403.5770355647699	95.01443291956419	438.8569470605777	80.25306028092086	425.0703578073732	12.58393794549615	158.0470962832604	159.899885058026	396.8870893984635	365.0317007927671	302.7071919471946	82.46499893848768	62.47958162160955	259.0088307509624	141.1491651782151	39.13828161424294	500.8260617384132	3.167203855692884	203.1632947365598	101.1329078153408	211.6493321709996	389.3853250600733	33.84544497073048	10.93459744694751	246.702583563078	361.4454973126707	159.4237256467887	398.564610182081	158.1152640029083	388.1799020047376	303.9917659484767	243.9889709088259	438.0209884334513	466.1796949014764	347.0595324733541	414.8043625050629	167.1119129369272	13.9459239012141	461.8670089963512	410.9813548648688	94.82874952561203	125.2310566327525	41.85325896559542	351.3035271966638	302.6030965671638	488.5380957535235	405.1349057443323	95.88736701304029	370.1508986589495	416.7427269924266	440.5483817507179	267.8020940782878	451.9241582224223	24.73601899796628	323.3278697783545	194.8964132856608	302.2620712508314	213.5550890883731	421.40172592049	210.0182440789443	216.3532332599654	214.4981316579327	14.51160658341244	361.1390156389253	141.4517162192334	148.8342085226573	484.247555171481	272.607530525931	28.07128088553148	161.9510502935808	35.831354138545	228.0915654167649	72.01638686962542	71.27705627754352	178.8926449220509	173.9980742954341	360.1175593328733	106.8606740905803	157.3090487079162	46.82614598702663	91.122703787321	450.2769784932606	61.53642404052201	443.5831517507542	54.91786316537151	416.6977815010012	284.5068260262963	117.1973107078002	63.8872134138861	391.1465176524669	58.5285885942099	37.33421902842512	38.59671609647758	306.480282307771	322.484781589985	176.7433236340228	423.3635655026011	352.9414113158509	170.9604717597959	94.54581782297946	118.4803532181597	218.138379806548	256.6388986932301	337.006448955598	195.1870253073463	117.8908164538212	83.21631796433091	111.0119938476921	352.1893410764563	70.26900629866118	137.250992120828	237.8551383873923	31.0902382116634	392.9554735556715	42.93234860494815	177.4236917678468	272.4705359706633	450.7715478120094	285.0909296733021	327.4795106782712	188.8274706892671	188.5927160884031	107.3635689298977	436.7427296975449	368.5578771333617	396.6776187272382	219.5213574859708	4.585355990938703	20.3231303145302	272.2337612311152	249.3312180293825	429.6011334263013	32.27594305355873	74.41763876545009	396.3250551667456	149.1413725430077	40.29127382007522	215.49433960076	468.7126578458621	441.4570334161638	40.75393822852354	418.7917781998559	222.1563979971081	323.544433485495	23.57713056689902	73.81331118325875	126.4653139645478	57.6179838301907	235.1820680529603	70.78177659766278	126.9741678459345	56.78627916845549	206.8500407715576	364.0583634568077	438.7113045367518	42.67468505984274	179.6503219707372	342.6854197451466	315.532465994195	360.5532672185141	250.0902228938763	143.4796538231357	22.39715691858817	84.80348771285537	332.7614179417859	159.3877219127584	440.3290934126293	236.6692368254978	122.8757096661193	74.68101833131621	333.1249971490744	94.52973964158532	30.67885188518024	121.8843572460404	118.0054874676122	295.7983214414044	420.7652692499656	204.7829532053121	353.629936793443	330.1811450606821	23.41991124193214	146.6799288340166	2.691382354917826	489.6327280851849	427.2799026174624	475.5309694149879	443.4002080448834	174.487954555116	472.814076920083	75.60418822542215	369.2235661804975	195.3375798366273	18.74668043380225	211.1068949051865	258.9427167986229	79.37841558327814	495.1408477219738	326.3072411749989	336.6583211329788	324.2545411663198	322.7763519522182	367.7180647561744	317.0081967716261	223.4006068454742	239.7943653045793	360.2568429216171	49.93219409302117	184.1981148842345	359.2231418687655	235.0527642455969	60.64539444093138	425.5207720780825	131.5674113010008	132.060662470586	393.7228401129343	292.4076426173073	281.6893532117115	433.1566048918535	8.519084847904344	278.3800059693317	74.08418580315579	10.76936023127108	94.67241261888202	437.1222766022437	103.0073735320624	394.1681661278138	38.509940136012	-0.03091979409754697	278.2630663350405	426.884862938159	39.20358720073314	130.6353740963773	200.6045410299363	288.5231080698501	215.6202591431015	431.6264120663041	104.4449979663883	350.5754246853813	201.2524273138384	311.1868287845535	302.137978715235	275.9694596138352	409.1593957212007	408.2386445647304	387.3350269493787	144.6519751076322	271.5457305937014	242.6529273475721	278.9662265719516	120.8914106498247	174.880198885237	69.7294708526652	157.2445756018495	127.159576504636	149.9315822698717	371.8720088798638	153.5524057068167	178.9825228040758	159.8212053653862	429.7846451749988	397.0300004835739	466.7379783926594	266.9498730115934	451.1358061003988	148.1546487659253	77.09207450492173	493.8959340297636	380.3259900312718	426.8187629478584	18.7616728094624	31.44355585638091	293.3347195241147	428.446110884469	85.34608192715713	164.4244288017065	125.0042264552216	163.7565773010662	174.4603995390838	115.4429342306949	211.4555408915282	137.5683461284087	80.35269463976594	469.0767293696969	183.9532299596163	167.5837147005441	393.5484332330324	14.41375425652008	259.3681002156831	183.9017326681878	312.4624858091259	491.1168220289642	111.9150768408612	71.96370826589543	430.144067017203	432.8418861894942	312.0397970184181	315.5849763802029	194.1954682346082	162.8398157353935	128.2155066853899	55.38388548610617	314.2474996629255	87.14534996590352	80.65187140090357	237.7855122231141	258.069955064383	274.703448318181	327.3654928583532	266.3710946532512	203.8266729923507	99.99494321948873	434.5870563358413	309.7193586117729	165.6756343648566	227.539863377902	440.8060822095618	137.14040245258	451.9186109346864	80.71456108543178	28.68515098533387	146.7650815213048	352.75379263505	182.1736889614746	104.8506929261881	193.9413397621738	400.542744336595	51.79177165240914	269.0750753397608	482.8582820421766	251.5251482078024	178.6472894685684	491.2999278235758	396.174549674933	104.1177159499158	188.5877111389923	25.07323729647866	349.9776740430304	404.8400897358024	412.0819073749485	143.9632276945955	450.2239012218024	204.5487274994694	300.2190764231444	237.1372777771596	216.2667247341456	304.2914014706093	212.6343736243232	45.80148849431905	435.9555647869636	131.896940596051	87.72472028139697	158.2449141507608	134.7854682565765	141.8265246474637	370.6053273206002	227.8005613564524	271.8230187923673	428.7610259166206	219.8883027643918	216.7256025114592	143.8915947098772	490.3556322561259	4.800801544070819	481.191138859541	184.4193525342756	255.0789433282637	263.0802946287185	2.241526818502268	141.4211770968602	71.22755868675617	388.8276835242362	86.79907252333675	396.4933220869557	453.155235492238	184.7133142280427	16.57666242594414	328.0051747369509	42.10966749928822	239.8059989101121	198.6657983903389	37.02815344573894	319.5713208991821	290.834731657523	238.9600020047046	304.5670839965637	442.7722734496337	190.4293742697801	283.9559772814182	49.47574624664016	322.6191232223468	466.8028371215876	26.9126674645519	348.7017577394262	348.7000531137785	163.6843513795285	291.9230620069562	30.49285559167353	484.6039625803044	272.7395503625409	143.1631284483647	348.9611158297469	20.81657579891476	301.3929055682751	86.6063093096033	459.8846958406677	144.7081714515726	331.8489599974044	19.85433957126543	266.1730937601309
item4	496.9681180090739	273.9638394477089	153.0660771477105	400.9094242397279	254.5412391270205	288.7365436898087	95.56360500762139	271.4035561537845	345.3273090184868	444.3095090849005	9.268329261993694	63.18708431491667	487.1137096558096	40.80101374849386	465.366072997944	385.6296988874815	37.9771487077939	270.273376108556	382.6121272204236	6.991598845608484	187.0698514477332	92.7416632154425	502.6278777927407	492.2828304615971	359.739398480223	492.691123978313	265.3037940821415	136.0785178092223	204.4358657118196	3.61802947996489	348.2317026757909	243.679074707521	46.59172701029712	440.6550880829222	261.0604900277486	324.4458034167095	65.4112561394227	72.32478592265127	179.4735220849108	297.0850841499762	-0.3208382322260368	491.9659594265294	356.9162697598841	28.47942795701581	280.347501085237	274.0844374780048	406.1781368368439	416.6034514256153	341.2263452260526	473.3777374242133	227.404397261095	234.9868018487791	60.50581454722563	325.2334965422831	261.5376370235756	107.0704707516304	63.83345200324779	321.6475749216941	73.42652225495414	380.7620264098253	62.77348996082758	460.8976599436933	14.35324601121754	275.3756272577505	121.3778204651995	240.046071257492	195.4538072599993	481.0980220661422	210.0627587151017	371.6887447616661	419.2346423061834	192.6136577472651	40.48615066302107	342.1826692353264	377.9836150624924	266.3739704407389	367.5829233609115	364.2050510462485	322.4645398725661	45.38625670232582	49.3421968251413	304.9233739666266	476.851907265639	210.3076379388363	462.8109742229256	217.197345430656	462.3869036375627	387.4214784323644	356.9745394964229	254.7622363787106	59.54715330258901	406.0350155932704	101.0285795943477	441.2104588486416	82.4150177718913	426.6668184323947	0.2196074030306878	158.604939458673	161.7192398026889	399.3920132755882	367.965325737199	313.6695524079752	76.5730862047497	58.63284429170655	251.6652519852914	135.586908171708	40.2620856010201	499.974232408831	4.28227114330868	200.9125552388141	105.962530039557	214.8524312525699	387.6217133893723	35.61943467963147	10.32002122756849	242.9097564243524	361.9209400063808	161.9451637765067	401.4257627166898	158.7591411661541	389.2931853751473	302.8994066365288	244.1385904108223	435.3395580443274	467.614663706397	343.7882302795979	413.4712354293648	161.9880853054777	16.15497734421649	456.3086614440768	415.7925114310568	96.30705278389817	123.7562166152442	43.48030732835755	342.0288190062897	303.3553123837814	489.8142334187081	397.6101657077191	98.6642179880166	368.8522657249673	420.8434298307566	442.4439418464386	268.412476263865	458.4912231144355	20.78962297310042	319.7813493644014	201.7406347364055	305.051547738086	215.6179456529599	424.0239185401434	211.898439399335	217.9473309251565	213.0194003100716	11.18823218661472	362.7241183238893	140.8050436028975	159.241601847733	490.4553862423216	274.480654313748	25.83794425014515	173.5504773665845	44.51989208936703	229.026890833659	74.68107106811381	72.17489423317032	177.0728156837246	178.3894268848354	358.5494505542572	100.4250851357235	158.3489371824272	45.73483328277383	82.880349480649	450.9147087799153	58.82009678731139	441.3039851795749	48.64809104458933	415.6805509899282	285.1586941783586	115.9510040180899	66.17824074624549	398.1526163216134	61.84260471974191	37.3447740840641	38.36876801827852	307.0611514180229	323.1029756459157	176.8117363141529	428.471189221792	350.0102494434592	174.8220958272659	92.07967751947996	127.9269205994864	215.6892954586361	258.8226405253507	333.0878578543706	191.378715829323	127.4329316761323	87.72763495326053	112.000613361597	357.2190222965891	62.1399884669041	139.2514606163488	238.5022536704757	35.1778200563635	391.3565621124615	45.37762114267103	179.4490281234795	270.8513057157156	447.7116291230822	295.1292575217904	329.9227548853607	188.0446598361249	188.0759878705816	106.648993762179	445.3453968819346	369.7880316707899	397.0491487794542	223.4421855451654	5.562048971043382	26.97438758082581	271.7944429182752	248.9620224537093	426.6926337267068	34.85571163927443	74.70777695916004	392.8173287058915	144.0819557589138	39.60641952150711	213.8818649274651	463.8016918552121	444.033151105178	47.03702303367407	417.7035890291522	222.6251165018341	326.3304666293081	20.92511983295368	78.78550204217125	128.2640909241038	56.87343725271275	231.74693197944	71.78968195871029	130.567681747211	59.4759685980519	203.331011808039	367.5624720003235	435.1821373654225	42.06715286699677	178.3795451844958	339.3265309687503	312.8187588660978	362.4384807285142	264.8898352450704	150.5232547774512	30.96107726796188	81.87321744228731	334.880381435055	156.7247579146142	434.8993007526043	241.2529005691609	124.189108956072	66.83846043014731	333.8468110342093	90.93908762231457	33.25551311287886	125.5868532415773	115.3716866293998	291.6537414617313	417.9997487719688	209.442399923325	353.5014008975411	332.8401360488873	24.83582099175832	150.3262641445101	4.153024875165289	492.8806040439767	427.1936995109627	476.193742846323	444.1414278713274	173.4157041885317	476.6966481807719	71.36866641348337	369.6864375855902	190.0369582791246	20.49438476723464	212.0293186127824	260.0572898311522	73.39438146902103	493.9964605791906	321.151623619643	333.9070344610935	326.1728729635598	325.4738162899745	367.6851327386377	322.4016770967822	224.8008439448186	241.0285184041282	358.4538200206508	55.83226351990425	180.9940723185916	359.113745660592	238.0375254563855	62.89748961136996	427.939099835885	135.8864494745922	126.5736422261537	395.0648910902189	290.041010010833	280.464935876414	436.8385909446379	12.52755322164897	274.1514016900049	66.86496941236176	9.721142055090263	92.44247693004009	433.7705100873457	101.9593082437625	397.3094085493649	40.84117091035361	8.127282124224498	282.3623829035574	427.0261907658343	39.23379770204154	126.1886769019307	199.038242554909	295.7822978322648	211.2202136175814	432.6887554794174	109.7006407765689	351.2686761006149	200.6960244094986	311.0729101901388	302.2152076546856	274.8117905223708	411.6133993146822	407.2270401793929	387.4737933973325	146.2909789263166	269.3502770925681	240.6424812760706	279.4321705619886	114.3184784193715	175.3598337087132	70.84582914647945	157.3102308012492	122.921061117856	149.8379347637725	371.7437970172526	156.7576834157854	175.0707968730249	157.9671805642332	430.5718066797286	392.8485240328559	475.6053305543053	270.7740317485465	453.5707174584562	147.1776517210302	79.76559900117111	493.8735702823591	380.1751546922793	426.8010363144189	14.68749056362307	23.34681657181968	296.5627444531187	429.6634099638083	82.99431154070399	165.4615938106119	123.6615833084965	166.6561790908237	171.0470847613724	114.6035254934786	210.8310560035589	140.6041791919072	82.75494269012948	465.3449891500742	182.5035886756079	170.9777884560396	392.8284289344431	5.281169361874284	265.125415768684	184.1233808403852	310.7119843047428	484.7624161458252	108.7448552471547	69.62200403979664	429.5471483180035	425.7153495234906	319.3667192420585	315.8761627162927	195.3856089176596	163.1397241486709	129.9565553248604	59.05472719963525	310.8687891739577	80.77046980114535	77.02108742259244	238.4882325035991	250.6832016756746	275.8003414052154	330.8754378261671	263.7638963400838	202.6201272232205	98.45631403304679	434.287358706439	311.2922556960328	163.2679171280703	232.2149063611333	431.4866411041987	141.7260969117902	456.9726350413242	83.20922228131992	31.05611414950036	155.75648671934	353.0514584028033	185.0786914302296	109.6444775347748	195.7544976594673	406.0200795946544	51.74262310034436	270.6144000493496	484.7084531320559	254.3580832371993	178.6686954818045	491.2803223351609	398.085862997967	101.4994317793841	188.6682500876859	21.18104589662088	354.9587207898718	404.442551839994	414.4072020858959	143.1794989843238	445.0097849415799	202.6336986058448	301.3785359012031	242.6872928371654	218.6086701516679	309.7573146285098	207.8859391532457	49.97184393522716	433.424245069071	131.3164448932288	88.03079696482379	157.6844092348076	131.2566894598856	139.9269773728766	372.4739347257799	226.7712210052828	270.6296159716011	429.5601065869899	216.5081564244474	213.5027347007191	145.903402270124	485.7522695692394	3.150027788289492	483.2306082002825	186.3251466047168	257.6815665778518	265.5184270198559	2.365786406687851	141.1936914283284	68.78810487462123	389.1607599347431	91.66168241452878	410.5369208541204	454.4959406218969	177.1908343904925	15.98213635175909	330.7046013808665	43.52052778212708	236.0747283974789	197.8985241914872	39.29587561410266	321.7859469116309	289.6678092218975	231.8633888686436	301.5415430148481	445.3419029520273	184.6675628681212	282.408469773926	45.01683573177726	321.3669484988396	466.7814653554979	28.82518223184774	350.928440785159	357.870389945751	160.1477927085734	293.6386880597231	31.98334555126143	484.3158893286367	272.996218674439	142.8760928941986	350.9043249802572	17.13126235210031	300.7509372025442	90.25746254184178	465.0972272420333	144.3582850138785	326.9842683483047	19.1266560984869	263.9581846478931
item6	496.5095094004471	270.9682025384192	152.0514398245024	399.3285318577451	254.2937006239722	287.6739484538779	96.41802827872036	271.8325270395631	345.4877073017139	454.5575299638235	13.48392616890597	63.10758750162581	489.5711697073306	44.89059221355152	464.2405107959174	378.7396702221028	36.43541713589106	271.206646173415	386.2035494077822	17.7681011995171	186.8829063334926	89.55022070737809	499.3504446327258	492.0768796971054	359.2330102079582	493.4755363466697	269.7184879481522	142.9544207361452	205.4323209774539	6.525015672396832	345.8418860384142	245.7039512849951	43.74262403455724	437.1816037175298	258.0222165438392	326.132157934787	64.41493157965262	72.28559314364212	187.2440217958423	300.2263930282237	2.35161107466245	490.1449876052127	360.5357911092294	30.88444937260267	275.7788740323583	266.6301649621807	407.1784235769505	419.1851277291168	335.7566274045453	473.4958510822207	227.4598488303809	235.851657024611	61.17191297050382	312.567260372694	257.9909453428845	107.9467590314617	63.79124960424782	321.8129753151393	78.08654427962031	378.333308709598	59.38654529081923	463.4937988817998	12.63082879402911	280.7527098265613	123.742103790408	238.3895308158887	195.1218521615037	480.4623226515974	208.5986932108562	373.5825754403325	419.005626974674	191.0297730845593	41.08403379343608	341.2543573149759	378.5968075826812	267.1761680925263	362.2292961131896	365.5067615046718	326.077828165248	42.52772074027146	46.16855060542854	308.1549405458517	478.3581528638064	209.6037792579139	465.5410010020337	226.8453876957017	467.5751419232583	380.4593567877863	355.4831907178428	251.4857156836647	63.65247030805396	408.3008837273126	96.86018052337853	438.4046769009774	81.92634164235876	421.6236523077967	7.348522257315494	161.8386483797465	160.5298737017625	399.4900477755649	366.4522161846854	311.0565879000807	82.73619487805189	58.85521014642059	257.9276596282631	136.633799020376	36.90472074478473	499.9490879722319	5.612960623379633	196.950317700586	98.64204776448221	208.1830632211577	388.4464318279811	34.45503503132127	15.72812704517559	252.0257885133516	359.4306803626521	160.1719105693213	399.517183788304	160.0751840439325	389.4647238582739	304.9065063754766	243.8346375318579	439.1812649631117	465.5206899875701	344.6908831201986	411.8087315852851	172.5114120431072	14.78354665696264	460.8191238745156	409.4190382810758	99.68342762270423	123.8093115847006	42.40975571738508	352.9425275422645	305.4029029702512	490.0110959834911	408.6616935740731	92.50263727466557	367.4945248107386	413.8550169023537	444.9418139904954	274.8335204205782	454.2154376078053	21.87936194551868	319.7140271648842	206.4455748127822	309.7849949429091	216.7719130500888	427.713567747053	216.1158431690978	214.3264023654471	213.3033374398056	14.60162493777604	364.9721112372612	140.9727724495214	156.1693692087801	482.6789511943367	273.4067000376792	26.99290137415185	168.8339290420878	36.05336798063714	229.6393134928255	78.39118155370031	70.07697822844264	179.6498818050122	173.3393292951737	362.3995673472164	109.3161798509134	160.4453409902512	47.60794833081883	82.90211831199059	452.098269125763	60.19302953523884	444.2863987757761	55.50168024000215	416.4869778923471	282.9953106944437	109.3290167035246	61.59557168168947	400.4920039369595	61.83670276894291	37.74495850529085	37.94962510166908	305.6780704484415	321.2417974384288	176.4603484866625	425.5371034821125	348.2724052143466	173.8647844421595	96.25650304933529	120.1600113441027	221.2966390946129	252.3720773936119	332.2033023997809	186.8292634855232	113.1004445362874	85.87775220278593	109.7105141204831	349.8535692768119	69.4732001186637	136.561864992787	237.3911965108284	31.88049582658673	401.4910993141889	46.33285018612792	175.9545484809176	272.6418905813221	448.34624042924	288.2234185478139	328.9953834636017	191.2866971506704	190.3694787324478	103.9488193488368	440.5893446798149	369.0857315434769	398.12180103764	222.1282522753054	2.572413097647782	25.14822245335206	273.5276108687235	243.2815864899171	429.0914242458299	32.61739060493365	73.01716066410766	396.0457127759157	143.5491816272302	38.79437922567437	216.7131665126037	469.926932167558	443.796424306476	46.82523219124332	417.6554860513505	221.0808068578823	326.2863926029246	22.36097891976492	76.88597388729563	124.4536491427526	58.01963812153058	233.1719835686115	72.89462536202002	124.0863293384069	59.19019684489039	206.1507968061512	361.448686968089	439.0828009126457	46.45576927983813	179.2195357753218	340.1779946890027	313.2548165752079	360.97292882247	252.3098311396862	144.0680530053901	22.37287404386336	84.87288731249997	339.2567143405601	155.0434183484828	435.8457140981202	244.6466363029308	124.450723767477	75.16699589460026	334.9023802659669	88.9168668875618	35.85950444125648	123.2008573534298	117.3171794332386	290.9507695812981	420.7530510033305	209.3752419783812	357.0317670758838	333.6796290107815	24.35439540573107	149.1104719818796	4.297367331083331	489.5402624747699	426.3871491215128	476.9400752594792	440.1064521429377	171.8947861716474	479.7019499923444	73.29292450416541	363.2401536210688	184.0238065312433	18.85161791856801	208.9012019463792	260.6082081722407	87.2764818786857	492.4551696510654	329.8086000886663	328.9687475793792	324.1399380933033	330.3253267262567	365.43442779849	319.8733469451881	225.2281572753238	249.372446343222	359.5183415301674	48.57304599449929	185.5475260578957	361.8250929963937	240.6857285168691	61.97863145428953	422.1796509374161	132.6370095824834	127.9005143039268	400.0536509797773	283.8728953674323	275.9519575333912	434.8286039248194	2.843890282594169	275.7508366754638	66.34093895393943	14.71326945877777	94.95252948410985	433.2703607114375	102.9923656405437	391.5962253080833	43.30727490947924	0.2538974637724786	281.532247227534	425.203514872907	40.89061604333904	126.093591159085	203.6823920228792	298.0149300277072	213.677791017681	435.9920979584553	106.5905307991702	349.9155582407535	200.1035160234096	311.3524623992898	298.5514910394029	279.4503294307221	414.9594601727951	404.4403364064218	390.80544588495	141.7111403646059	268.9040306664538	241.3278430193341	274.523412149776	113.34944148148	179.2274707028071	70.37185806928586	156.9608485595434	125.8532613081092	149.1416933578909	371.3030917282322	149.8830619427783	174.564837183163	158.3836957392056	429.9561387192453	386.0748306163876	472.9277247811805	267.5330276342473	447.3777948435896	144.4698875991387	81.10973618494347	494.2243037931149	381.0757383760801	430.3055960015862	13.04986967480499	28.80062081084741	296.8951473912953	429.2819822571869	82.50468192195217	165.8440199487191	125.74801926723	169.0403281801203	172.6277900830113	114.9690290682336	212.0693830577579	137.3363751979944	81.16487895552494	467.3248313111639	182.3707375540489	163.4038391551474	392.6451632188843	7.859428745504898	262.7178924747095	181.2169659953217	311.3829103183366	480.9904793233682	112.0543322823834	62.92557512435975	429.1326758131502	433.6528843131808	315.6734123695385	316.7575080642865	194.5473545806754	166.8793070818299	129.7784644311424	54.49664705360867	316.863397775796	79.58535673160738	79.8621363288981	242.7326643332951	255.7125234914332	274.2014889544383	331.2812682025085	263.8510016347946	201.9582591679327	99.97530136729948	435.3748802535585	312.911690519717	163.1711264875021	226.1435700385691	430.4146968317727	136.6641068983969	453.8037003064454	79.27822935118043	35.21570397682548	153.008996768411	353.2235258015449	184.6973604349384	108.8935140488774	185.6479302606827	405.2359685762872	51.57570813900168	269.2448458218477	483.5924790167537	254.8542295937206	178.2111532170901	491.1968526116846	395.833162820374	102.1167076963868	184.765687329294	29.65287144081463	344.8057646100276	405.3494065594747	416.337882651939	139.4395737213935	449.4467097838603	207.757524106521	303.963898481455	243.8244469897034	215.2248639779337	308.0834323114104	209.1585032896727	50.15687067820463	434.9310908781634	129.092672287507	84.95746877797026	155.3874225309513	136.2408028624768	138.6288084168263	377.443912642358	230.0138543489974	274.0398609083357	431.4730249553768	221.3964617544711	214.0621149861732	145.1208582634933	488.5210053225308	2.023219881482855	482.931299378253	185.9924270442826	261.2917122141752	263.1997525503244	4.169886426584539	141.8292308375585	69.84654601073684	389.0590849868474	91.21056964171588	412.1137681174014	458.7998490387482	182.0606478562254	11.54551219408825	325.5535576338038	43.80206981742442	239.0900582898667	198.4479506170482	40.23303896239537	321.9200104681713	289.788818324845	235.2425541742315	301.5123589170084	441.8901161277118	190.8499710946922	281.8346984947161	49.73938734280505	328.4724400305442	471.7271890498179	33.87731695427453	352.1126969659886	355.163967397051	160.2689065530099	298.4427546013873	35.62109565510708	485.7402843981947	273.3400880436265	138.6735703248244	347.5693391739673	17.00700891019564	293.5986516257006	87.04608815222444	465.1693106380924	144.280500371563	334.4032380176304	20.1447509662716	264.026752040633
item7	498.8704706956887	276.8510945959313	157.4584241546655	403.9486644531916	256.5477091917983	284.5287555107152	96.61355171940852	272.6204481655828	343.524700243769	455.2630967212192	20.98718161581921	68.10169437666497	493.5019613576518	41.07122274664775	466.6367898844925	384.1627815029292	33.08090183982962	269.959939465643	384.4638204550699	12.20811102321541	182.610363280404	93.57845191490819	498.0411975640636	492.2531543564911	352.6636376477009	499.9576983138213	269.2606835434609	143.758166928182	204.5138542747051	5.667169225226582	339.735880524853	242.8990394722681	44.74709795588861	440.7659706273114	258.4292766769956	322.3236247292081	68.24492378009366	75.22018898604578	188.4354428395787	303.3264405484483	6.19384483595071	492.9168862269261	364.0678167788164	33.99933186565875	276.0631423484865	270.7228092207265	407.0403517961282	421.6098069994999	341.4651158212898	471.3414195463942	221.4983076437942	234.4823742944258	59.93380269366721	314.7170306249025	267.2143033186692	106.2937828215756	64.13872687980829	320.8841831913871	74.30834741520792	381.2932517170319	55.08447924347029	468.1862668285635	9.056014116146853	279.742906500013	124.9415696971569	237.9328205590212	196.3071648555089	478.0628975816772	215.7942176975725	373.280420792346	418.9253075015161	192.6979948010409	34.69965237002746	342.8602617892424	378.7164782779064	267.3979782841217	368.5588253612116	366.2574190159815	320.1995646876275	38.99456445261759	51.56038617564936	308.6206648299943	477.1780556617112	208.14455625607	469.5568079066414	222.0469264171152	464.0772941498851	390.6297835744223	355.5061097925641	252.7257212371545	61.96887805609554	405.0499476745155	102.0489607355112	443.0384875498775	82.44275822134907	424.1073875004553	7.059852684504136	157.2993292339161	160.6542969440081	395.3846494962827	363.9023537670697	306.1989768109237	84.02958120344682	62.51376321445376	256.1501175411244	136.4924284199985	39.75430178666129	501.7821835907577	6.487996912408899	200.331779842431	98.95748716716363	213.8285473688024	388.6765663828886	35.9262296808529	14.28308510336484	245.1710962327608	360.1981760962221	162.4864078286832	400.5134127535716	157.497877282545	385.3529198597727	299.8665765652255	245.1905397793506	438.3094720866288	465.3647690000233	348.2726681920146	410.9846955518514	167.496630186626	12.20796573127117	460.4680273391063	412.6799687447665	98.13282544687904	126.0613221688508	42.71975579949536	351.3029150910971	305.2777836580793	487.8394532334519	403.7521204437275	90.94346858208466	368.4192573899684	417.6636858172245	441.2350449519286	275.4124992752983	447.4994624861927	23.2136345991442	320.0225389501834	194.7596537424161	307.8868410460063	211.5711618704292	423.798329735564	208.6012875055522	216.5844796613557	210.0159948950073	9.073017245245779	358.384270704055	136.6763397679458	162.3929153034697	491.1253101638038	274.0762388758416	29.53811051708164	166.351162267165	36.96836403685025	225.8969012293173	73.27334886255112	69.16197024045499	178.4780073329601	166.2791759451969	357.3835894505091	102.0235283288477	156.2819458164373	47.17236818835379	86.59833108479728	456.5891523015738	60.97209097854304	441.6476358019482	52.03987257846922	415.6405487230153	282.737800038484	108.0893565996876	67.48183782102156	402.7685602761943	63.07054191094172	35.9496553145615	38.73568592279688	306.7329017561846	324.6227497772089	176.6311940443373	428.2019591677689	357.0928720744649	177.9422753587483	88.9925829880234	119.7728890029839	220.9128452910049	250.9234865736055	332.1940044005614	193.1679360746295	119.8622951761268	84.58059840450275	109.8604201886592	354.8922801034846	69.42480661326047	140.7810781616953	239.203614378283	29.33670124165634	389.9821067269355	46.04009280168152	174.9023632017009	273.5923477370607	446.3671021947477	290.0970500367586	331.052267624734	188.4159789331058	193.0509638401955	99.75864914629335	443.7739845056315	367.3961827127105	394.4816451718395	225.2160128367589	4.296937626959766	18.86497655557864	272.1481644843853	250.7966873741047	424.2793179398944	34.58107989982213	75.19899883610582	401.1563924974337	148.3653708689123	37.72422893304149	214.2144730826064	472.2630262081328	441.6761525321622	51.35256588382838	416.041334071355	220.7903403356506	326.0956925278036	21.10916076129401	69.7430599081348	128.0271066677089	58.34902984952048	234.3240020092377	70.36428304676166	122.2040224590501	59.6032062119531	208.8184493930044	363.4572219628455	438.8912192201144	33.12986566435949	180.159426929827	340.1103297369523	313.9748409970618	362.6516697681932	254.5572711536173	140.5422879860346	25.05432743693282	83.69019179653229	336.2642384637076	157.5284117108979	433.6866134673915	243.4253506982571	123.91951181215	76.12450974552307	327.0252548646239	89.6363174339704	29.47434763555162	125.003249820441	117.6240226814857	295.1014477659992	419.2344710429746	205.4997158055368	354.1373332766573	332.5223939426218	25.70565072163025	149.5102010681026	0.542843715740851	490.8486403604102	426.7925484339677	478.4200353275528	438.5386279627354	173.1179521901605	477.4522031284789	68.36193213104087	366.2976739134278	189.0736924852523	22.38410079863796	208.5525878370453	259.2698780634778	77.85846100115589	494.6656643238324	323.9683148029189	335.7863456983806	326.6440070856068	327.111749399919	368.9755186559095	321.6345869455766	229.2279981922016	244.3661975836018	358.0564857574899	50.3337141991523	183.6087825335792	359.3317879253705	237.0836312959034	57.90043891867669	424.977127323382	134.385354909298	131.2918682426238	393.6918132981816	286.6340260332036	279.2425692898072	431.7263207987726	13.48913850707554	270.470559963897	78.70504828279955	11.01544850220406	95.4562094493748	431.9332875256262	102.2902844220091	389.0356605453277	39.63396024564556	5.469416939070917	278.4130597101236	425.1166909203536	38.30630042496292	125.9446614779733	209.2240740647846	294.1186153468884	214.9896300334519	428.2100158744382	102.932874019875	352.2896159128809	206.9987720370414	312.9976945768821	303.5709971863464	278.703173877657	413.991720775935	408.2215131431615	382.8919327840039	139.4660815584736	266.1826802993455	238.8441069718803	276.9357013293843	117.5245501411725	174.7874089546706	71.58633710942591	157.1463484565784	124.0060518844234	150.1600889039441	372.0707066672579	152.0267462242555	162.1907775938056	153.7415280766249	433.186246088641	395.0978334366836	473.5367530239745	272.6482975865927	450.3796507217891	150.8325984207104	78.32021973094213	493.411861419357	381.9399675841395	423.8082038069838	19.63891310310773	28.70682316847819	293.3309415788293	429.020422621611	81.4733832578958	166.0252164877474	123.0318504374629	164.4984698103465	172.7063476409269	115.1784004252288	206.4741692495354	138.1759949378796	82.0600735026039	467.1177062913036	187.1526337891362	169.1134084423501	393.6324498614063	11.7410247127218	263.1156532084898	178.1881840004649	311.3730650547602	485.9383266631987	102.9515135936406	69.28280885622608	431.8840600082129	432.2162649940537	319.3404053980664	316.4475674217677	194.6526129558288	164.9785871743022	129.8391474263162	52.35280866365556	317.138262355492	82.44939652478128	83.94950703917387	233.925512906239	257.6778798326561	273.7635369818215	335.2894062142237	266.7019441974711	203.4648807312503	98.24572030808413	433.8434306991052	311.1274490467906	161.8250780612317	236.9161289485082	434.6609681636555	141.1197682935181	460.5363128415529	76.12589035209334	32.0226966919011	151.8220357097659	353.2165913125292	186.1442283857165	108.5975708318587	199.8759378078342	403.3762353054575	51.76366698633444	270.4167343275724	482.0119695294903	248.6638808634358	178.4722319349789	485.3583270433228	397.2552774590857	105.4990149851195	184.3786183123109	19.76607566988024	352.1511008986975	402.9813025484967	416.1127173682472	138.7433989034629	452.3442250154353	204.9856895224767	302.5231135159657	236.4970845374375	210.4024477166973	311.3872362759213	208.6184948183797	47.68117757797616	436.5388235281655	132.2495862596883	88.88165275988392	155.6817620399306	128.828059160238	139.7790915540779	375.7248342889277	222.7543553334949	268.642828724393	433.7730839016825	222.1610490950657	215.6450388404008	146.932208692326	485.8282810650733	4.501790366671292	482.4125932736153	184.7431915883514	257.0781434098689	262.1687394593283	2.486122079283235	141.2562173385621	70.39865993742214	388.3504497698345	86.58823894042901	408.2769093528858	448.5764248599955	183.6196100588315	8.272897721366448	334.3366056636925	45.41295283660364	239.3147395843755	198.1763662694309	38.32527992930232	323.0759935827535	289.0322279510928	233.3591079095572	305.1267311530174	441.5693670843323	186.1194297812005	285.4771024485609	49.31652956245998	322.8226296167416	473.063738477181	29.63141578517502	349.6458366859591	349.6199627483422	166.4372594449891	295.8572429789181	27.54014633116956	485.5019002044244	272.7877994635159	149.1061714731242	350.5338193538738	14.57202124122547	295.8923906822519	84.42658183399644	467.6824864235779	146.6792345075666	333.5773564896527	20.49015742496525	261.5172974340629
item8	495.5950572110954	274.4279365885508	148.8196158853965	406.940615821182	258.145455114658	283.960609303373	98.67332844267739	266.8613072187721	344.4031195292964	445.9530307907752	17.6429703351713	63.15554707075259	495.3406126370629	43.17007121900633	464.7145575141752	380.0170806575438	39.60654405702899	271.3912808822856	387.0130109610388	12.61008496507406	184.4455991714146	89.01579492645477	499.6250472521992	490.360909665808	353.0569567433163	499.1229517243775	267.7509873646059	138.9029512070812	205.7193313401614	8.174602894620783	346.2384148486849	242.9275797211101	48.02153916766992	443.7072981459577	261.442466634194	323.5214260200674	66.33202695892071	76.73295895080348	181.0112680597196	303.3796079607726	1.346042574455701	490.592893798206	360.7387868876731	31.80116811917474	278.0632500223146	266.6625052025093	411.1697928693285	417.904943011608	340.6863163975819	473.9841099410923	227.5025437395341	237.8959428828902	59.75923631783744	321.5073300486885	264.013047936305	108.9480008995874	63.73917017170514	321.8182366815497	78.8883750263842	375.595128872057	58.24347679445881	464.1776836179429	15.01822064627478	280.305260460207	125.2767042472561	238.5349988372707	195.3127486354115	480.7376204448365	214.4583743633993	372.4273966486297	418.9437165638728	191.9685083063819	35.84999836365134	341.5359757209313	379.5746976661485	264.6984206434931	362.1781300716726	372.9520147442437	326.6978236212452	50.14018413442537	53.05585266999402	307.9388130681899	477.8999092533538	212.3301774304888	472.7358472716714	221.9809497110528	467.2479826077127	389.0987177485611	355.5503868101381	247.6117256239398	66.5836755647949	404.1951576235679	102.4669954113954	441.910478625854	81.21484673629401	424.9087176029319	5.10265926142123	158.3867400796627	161.9357116214072	397.8884445036858	359.7043604653492	309.7161835576888	81.3749735854491	59.70438991659207	255.0094906197576	140.7171489632438	38.40659908023714	498.2820514915288	7.29593427738754	198.9932375849456	106.0377019002557	212.8492256522667	388.6675912459644	35.34537884326625	11.17090925490898	240.2577268934385	361.8029991275086	158.6314464397051	399.6747001587999	158.5353408540862	387.88453008624	305.102626046945	245.7382337804522	439.9668775854299	464.4353263699195	345.6313247628598	412.0509449666278	169.2472051401697	12.77857865052452	462.2211658112805	417.4316506555937	97.15041009677238	127.8546904405475	41.53835261540917	351.0906380305991	303.2253258023763	487.6553491671052	401.1339352010679	93.86275060918194	366.715029208108	415.5491475192785	442.845352616918	276.017203903664	453.22113239137	22.03532747499451	322.7813664300127	200.3715006727212	305.7845813812869	213.0276135605621	420.366366925283	210.5598469394295	217.2959946609684	213.1590025173084	14.6018069713567	357.5786632170735	140.7686582952927	158.087165146115	484.2693032204274	272.6566002143576	28.99148375152395	165.9667712663107	31.03010638532488	226.9742406746291	76.48765031282771	74.4487255805716	175.9581233743401	166.2729137285344	355.3082208426471	101.696769166993	159.2658760399176	42.15512813015928	92.84235329173869	448.3303487408579	60.32295859291386	442.0521311272821	52.7894270848717	416.2727089139259	283.35322663444	109.4113255660814	67.67140103681983	397.7294445592842	62.01561883196757	37.49069160202229	38.52727268392626	306.3452400126516	323.9793405961699	175.850866740519	424.030943165587	350.5455600503567	171.1270195751725	91.62910862961944	117.881941767704	215.1648362333676	249.4017226134644	335.2294841091808	189.1438758992649	119.6110823336874	84.09402545171071	109.0825700988481	351.6850971043487	70.603869512721	138.5761586689526	237.6295976912267	31.5617908940575	393.9505863362452	46.64725234024405	176.7326135636482	273.7979674486717	443.4695623443278	286.5572762893423	325.1696027975245	190.3426734094263	187.9132141381961	96.3414047121577	439.5908453986636	374.3959147999092	399.1412234303352	223.2532496075325	3.585528074731267	20.4170462298664	271.0260619846143	247.9668785424564	426.642228141279	33.69743759465695	71.4654558285547	392.0229768462916	146.7372928293141	38.41914496739336	213.2738145801848	468.6803960782309	440.5148939724865	51.55407243240621	416.5013214837309	219.7049099406663	325.1260291169761	23.36760196361246	76.46130265357608	126.8321268627984	58.12925266547956	234.1374968211403	69.86038270739476	126.757707949731	59.95375876280016	205.5842349911021	362.6144717915902	434.4801949440405	40.00142986167329	179.0951454115061	342.2510613373352	307.4174353266326	358.3653522152521	255.8046358782902	140.7622186417677	27.87851914371546	84.31170907878595	342.1828247998078	157.1692397792338	436.4773979570945	238.5306668831334	127.0480209538612	74.5942861957851	331.9264458434266	90.85051814789711	35.25692302088638	124.2378634934557	120.701646504548	294.1514901357332	419.7111202253079	203.5097237921147	355.698338226442	330.9847507389546	22.33106269501941	145.9259468685675	7.648845686759042	487.9948194749475	426.7813012477483	474.3431670775715	440.9276602208914	172.7972481785176	480.7422156205617	74.84263037146395	365.4491765127053	189.2716363259821	27.62331097822148	205.5155285312566	261.1049172855392	73.32979785421706	492.315665940968	319.7740702971816	344.5904097971871	325.2726420176038	327.2800283016178	364.5498216578874	319.8227535021722	230.5847265157748	237.2281969921649	357.5557566683451	52.63742656170385	175.1097754540276	360.6187646649354	236.1128042767135	61.93179942047924	426.2912585604311	130.8179222176383	135.5276192883339	394.6525074750824	292.2457632761329	274.5380975476243	434.9775662773382	20.42330591341146	274.7040376613315	70.60791519141874	5.366473248902673	94.60976290920848	433.4850008663844	97.93509187645381	393.892961586342	40.53692843621647	-3.637476282106672	276.4322129574044	424.1174209906613	36.92153379042784	127.7340705518267	196.6647834884262	291.6162724191266	213.0340597617197	428.9029244128971	104.3196403365507	350.5779490724054	193.6985841107582	312.3608232367184	298.668740318148	273.7504612264942	416.0151487646039	406.5308428520536	384.2701444454488	145.874699126179	266.7934348969442	238.5082247923701	279.5003927607181	113.0636728813623	178.5433627966881	69.47829586394427	157.1212363823617	125.1695889368497	149.5850473203619	371.9276201679765	154.7475764050625	171.4936277652537	155.7543360674051	435.4979639979565	391.2790207759667	470.4294829447089	261.3119608911853	451.5175813988997	149.7303424795448	78.09632963634824	494.6682503879733	382.4704952085955	426.4499731870412	14.63930519412685	34.57789236280603	294.365174644205	428.3940106118205	83.7452180748233	171.0640504931562	123.5495262608187	164.7191092778548	171.9249262296927	114.7360880604793	210.1019947235332	138.3061586041263	79.45868522689057	464.9067688147401	181.3161223527269	168.0586172443028	392.6827180855819	6.595442866426899	262.2834993858524	186.8986706506379	313.7230237721004	484.9934296919711	105.5897228535574	64.88277685975555	424.4497321013706	432.9715853155441	315.5747114797277	316.7113476386106	193.24493337499	163.6484983179579	128.8322584346707	57.08340999549574	309.3986201543225	80.59140548266494	79.16349383805438	237.2908654594937	252.1342980718967	272.6086124894928	333.5130701246653	266.9842960563726	204.1639361315113	98.88539549702561	436.568576386038	311.5003830330543	160.8670692225914	230.6372417317858	441.7560957666976	140.0522522444716	454.8892023448277	73.32913716310262	33.07618774202186	154.0999036949234	352.946009942701	186.059174553211	106.8308623217617	196.0122873110664	399.1777578050545	51.66433801317199	272.8121413596759	481.3327492495	246.215978745358	178.1317940950922	488.3490482161046	400.8547925472974	104.0050226109374	193.6195270865299	20.9090338005602	352.2784027956257	401.2423878535629	417.06064816838	138.7042319452955	450.1481745338451	205.7521183299124	300.6712278794076	236.0088618814628	210.9424058054267	307.8533443826221	209.3540465289803	52.1800494579434	429.2812286162506	127.2002450338271	88.80575702395578	157.7482552488558	127.0439208965641	137.0967847362728	374.3706873702091	227.7470269732322	271.0070900067557	430.1025668429363	215.6932393695243	215.5921904608964	144.4958942191479	481.5369806319282	4.623358831098273	483.566803633176	187.1549390189198	259.8194234111415	266.020055256571	2.533263152688401	140.1451674915569	71.05039402571417	387.0045063886845	87.92049270897915	403.862672893699	461.3848237570656	171.4967922955989	15.03674064366929	331.0749093061302	42.52527769590268	237.026555916398	197.4744475343431	44.60837649154035	323.45567635085	290.1336195723576	230.1283622203471	304.7608983692894	445.5075919088499	189.1898446081898	281.9082005443558	49.27449069679798	324.8256506586775	469.6385831704912	40.49064686416572	349.9868344286122	350.4265372943548	164.0425121209933	294.1567678220265	37.91702979076928	485.0143231646553	273.206028854163	138.2532285313522	350.444936975029	14.49008393354932	296.300593358096	86.99378191837764	463.7108583733112	142.5287295300497	327.8328007646355	19.11217957387451	264.8225070633014
item9	497.5576906038467	273.1684891729833	147.555110974334	400.5818473082716	254.9846684614535	288.9292489606077	96.26064751861573	272.9023493923974	345.1134498083817	453.4054569613654	20.95475563989547	67.01743909085542	493.533042060962	41.82641083838913	464.6523337483562	387.2950182505465	42.91342017480694	270.8509348502777	376.4540391398797	12.74400117876943	186.4967212569003	89.04912638386932	504.3484037515252	491.1454823843483	353.430080668402	496.7845789613366	267.7121109876985	143.4852670646818	205.1114481133077	2.35138851088469	353.4918465051588	240.6229840726915	45.98422293208035	436.7999727030237	261.4341690720912	324.1107809778924	68.04203762716435	69.57518174772595	184.8391508115746	298.3122283412554	-4.62711012534077	489.1199587471741	365.3284079636201	31.58058912519854	273.7506166438922	274.1441209174112	411.1390649734563	418.1737872261503	339.9966168140371	472.3563564632286	226.4949601454935	226.2668782061189	59.8590741794622	317.5807904926151	262.0688250837367	106.7676207727675	63.78548033264259	320.5246767158683	71.73070227742838	380.3391915734778	59.24502933286852	462.226933609844	9.723286676983603	280.127909500645	125.0702286061048	242.8412504533456	196.2396813245318	477.6041317336074	214.0057565260051	380.0849088289459	419.1730276152413	190.210219102624	34.88247129707525	342.0373373228117	375.7371634799987	261.4973208694865	372.110641392078	364.5049363494118	325.9292125254937	45.09462929858196	49.8362631852805	308.6297948085322	475.9724468492481	214.3235185207797	468.5918218435918	220.2343635124411	464.1190129724691	383.6483565006921	356.8096795250713	259.6774666984981	64.29868673532796	402.9803932878561	97.14797362621201	434.2898798478394	80.6897353474708	424.0053634546679	5.322345878017249	159.9047611069867	159.568682133144	397.6104575219542	365.4584255384884	305.2965249922756	85.04778146340661	61.69453672048405	251.6142914206694	138.6576812319993	39.77679879982241	500.0537073402174	8.990342471793159	199.7389000586037	102.7318980730971	216.0591805853021	388.9905511557605	35.20462480529261	11.03500463821342	245.1450810631303	361.3635312544016	161.913665439186	402.5662179217302	156.8433126072219	386.6197013209787	299.3069295594734	244.899069349328	440.4831634514561	468.6352004037399	351.0418307309614	412.1259476285812	165.0029576287983	16.61978262944552	461.970745264263	405.8708612434268	96.59115504851871	134.1305302492897	42.60021907694773	348.7658139643754	305.662610977353	489.7427018018805	400.0628341533835	93.30273457847694	368.112560480333	415.4545664563179	440.1303152123205	270.4938823098683	453.8968204652181	23.5443046099534	320.1160942072914	195.6438939702145	312.1112448165615	211.0287565399743	425.0390810663888	204.360338767487	214.7718447516309	211.7660265467231	14.89406693020136	360.2112192788463	139.5370176914488	155.4091573103114	486.5060677581299	272.9936301394257	29.73032476336725	171.5913717924506	27.71427019976303	227.2076097984961	75.85888325848606	70.84380804546392	177.0566139043367	171.641956386133	355.1639327809346	103.5725926703101	160.7130841339706	48.97746512746419	87.67542971529979	446.9246337092144	56.81347214077819	442.0836463988695	49.09479006751643	415.824012604791	284.5914243945484	111.3110341117694	60.99751298510624	391.9267640741763	60.06112453990885	36.07246380966989	38.85033341687745	307.8162298961788	321.88695020723	176.4935186563528	427.2238948061318	358.4714800789691	173.6333799995276	91.1244752396387	122.77429019914	218.6775669555745	256.4451106670788	329.8190950291608	187.9042543381939	117.4856199449008	83.41623085721338	107.352821971391	349.5649635378638	71.56105820730632	137.2489917583094	237.5295119767625	26.17623594634614	400.5530095684414	44.29487861693237	175.0655602132193	273.8053529862531	449.4041890107857	289.0433682476217	330.9640535824415	188.2326761824579	188.1017597784517	101.7328055611283	437.7096135808716	369.9918199006535	394.3019595404009	222.6879908727905	4.097693719105786	18.92466362363686	273.1812215301053	245.7918094106981	429.2450852603098	34.32748234479866	72.78547776240451	397.8989312621427	145.7863492310717	38.74115805022563	211.8034224712303	470.0037497651521	443.5299490482923	44.7291430712071	418.0554925446661	221.3242314352177	323.0346469243126	24.69743543146814	72.4238394108532	126.6720931430164	54.42489270815349	229.3390626828113	69.17011313735738	131.1754315506998	56.00511267016606	202.8221158530881	363.4810452690579	433.2673775483954	42.52512665214093	180.2452798319685	342.2663008517332	317.4022874299397	355.825132221936	252.4224746536326	141.8526297002528	22.34981435837936	85.22024914525892	338.5447991887229	158.0806891941577	436.9750793620199	235.0308394144024	130.0619391171021	72.30766213315762	337.59879301079	94.3949270773888	29.38409149938465	127.0880081065913	117.9403160488668	295.6878538582687	418.6204827188991	207.3050211369731	355.8216991877214	332.4544432311458	24.73786494302503	153.7634206768382	6.931219967401971	492.080420264611	428.7027060450006	478.1100678287305	444.1299104290792	173.331492525456	483.6424530234138	67.87221004064324	367.7656141575028	192.7460516637151	23.29624571575056	209.5740967340301	259.255423133458	75.14052095423611	494.247375486128	323.4776091926392	336.1766226394203	326.3938124242657	330.8573602994563	367.4302487931126	316.4941454175705	224.4059622346902	247.4783036080816	362.0234974392572	55.03079534134907	187.4450925410901	359.4833463427377	233.4910803464215	64.54576083135866	427.4413491601342	131.1060903224181	135.3070673002527	392.6022007682628	291.3663705350837	278.3783068143583	435.7841195587411	12.16151573613855	269.1782279905566	75.850184068971	9.233370933799858	94.69771290714398	433.4616309800066	103.5592707033762	387.638514376033	41.4580802796541	-0.07260542498553368	274.4075647255154	425.7665726918165	39.75752001001021	128.7695192622255	202.4229443604696	292.5826668710651	217.2261504022553	433.9516353647659	104.5366363398243	355.1590068130787	201.1164072779349	316.2924631605399	295.7332908535971	275.6702848080122	415.5881851887187	405.9582760897599	391.9001195473838	150.0696995313322	268.9340121217196	240.9484444238598	278.7101302644157	115.4254545928247	176.8930779655742	71.516156091661	157.1777631334897	125.7589349746622	149.4738628806955	370.4830833990528	157.6850722331835	169.9279903632263	155.9669195823225	430.2232069621645	386.1874516603834	469.280169068328	265.9856715004827	451.3315960448878	145.7065386610115	78.67907652922997	492.0097013081762	383.9510228108736	429.3300454213302	11.87032109254063	24.93520813282404	296.0496937667317	429.0167527452251	82.33145811533485	168.5421285489504	128.0729748759164	167.7459989890666	169.6328578289046	115.5074153155492	207.2894374022682	139.9013632287161	80.90548562981743	467.5737853518877	181.3990195670234	170.4524109974293	393.6473014954229	8.790645318422598	260.5054627615364	187.4819757671618	314.7486429668534	482.2088797575592	111.5255005307257	67.73437106743481	421.0692979068525	430.56795235515	318.3292694370701	315.3690298378299	195.6317108426571	163.384544225933	126.5924143728109	56.8748991955005	313.5209859224311	83.52851445475632	78.94071830226198	235.4746864676245	257.2640146838964	269.5660603608654	335.7071198149177	263.9114008684961	202.7421265548714	99.23154779610063	436.9135621408016	311.7941161121477	164.8720165331252	231.5283930188401	436.4821276852427	138.6946062911907	450.0691710458989	80.53418438078818	32.2009601213593	156.9098376926677	354.3471367026712	185.8522384588067	107.2727957785644	192.6464571505589	403.1577292310013	52.56423066742876	270.7256948549676	481.4631744558914	247.10238171592	175.9707682434906	492.2337384706402	400.8659521337187	101.1256674518206	187.4749479285537	31.95205107464793	350.7446333798804	402.6212832103433	414.0993508469832	139.0480951773838	444.4973950555647	206.5162021758598	302.0229782654814	238.8883157814344	212.3922407176311	309.4293520716701	202.8558851568191	49.78488791020012	433.319278263447	131.3860970310027	90.19090550322187	156.6352276984442	134.1652173100539	136.6769041175615	372.5614232669117	227.9892220068783	269.1235357946686	429.5280570222839	222.2163585594382	214.807422190691	145.4989487273836	484.1898896926478	6.104331213187304	480.8167566367732	185.3011173751691	258.8376163041848	262.4163767952838	4.974135784483022	140.5097948643608	68.98350129092792	389.3893548635009	81.08460038707565	410.4952520699013	461.4925444663727	181.7596378061168	15.30940494555679	326.2092864400584	42.18553882788834	239.3332927351796	199.2807100183578	42.78759372976447	325.1223054713053	288.3387236979195	237.3546319339785	304.2107120350138	440.8537731161632	188.9491670088672	281.9469288131813	48.56503454223773	322.3217948654921	473.2408026281455	32.94764966826713	352.409112141226	350.4077235309773	155.5745114948839	293.0076083406609	32.98669185361044	486.4295771805047	272.9935044311636	149.5584394879761	348.8365589064185	14.86894538169472	301.4839314088307	90.59781859984957	461.0131204615801	145.3179347287916	332.7547042599468	18.55050487719059	266.1799557774318
item10	495.9211417615545	276.5466888856267	149.304094343188	397.1000957477262	257.0618002102581	290.7767425885157	95.48350315343343	277.5996467133632	345.4598786779894	450.420837450048	15.31400170425018	65.80406063588356	496.9992424116761	40.21170447346208	466.2405369724323	375.8921027530257	41.98888905249953	270.3848621201153	382.7264240665007	14.35881422238611	185.41357798435	90.87652508443223	492.4496381204451	489.7923700330472	363.1485815320203	496.6732497868106	272.1784644324364	146.687794524008	205.9664653511198	-0.2028098287133622	346.0647780005491	244.2167811452219	46.77805454098041	436.4040549647099	262.9672029175609	322.0038199729096	67.02532428191586	72.52239316729727	181.9000199002255	299.0029278980019	0.5447887462482908	491.2526055974929	357.0045319991044	33.25222242977924	271.6544752621654	272.261199718333	407.4474668913628	420.0171374476525	334.6426369090217	473.5616998713276	227.3388947536294	240.7565742856526	60.62583045710277	318.3000240710238	261.8295905225781	108.2365406068237	63.57504105277187	321.1113519965977	72.14262909485841	376.2210478649156	63.92502008383315	462.9235878156479	12.01035664381284	278.2482826792785	124.3381391251961	238.7887522348719	196.4033939637825	478.8699080846822	211.2153490583151	372.7248470277888	418.7776371091626	193.6180343190055	36.951719383417	342.3223033049087	374.9294021361432	266.609757820527	365.8340840865279	367.2743478449705	322.4569087771634	38.59974104018799	51.51027517897671	296.820122311187	478.08979794406	203.5315474510781	473.3108134201804	216.7887066789074	464.91027151779	389.0076814907915	358.8565595272926	256.0029640619493	66.92269952762214	405.8473523011564	101.4171922342597	440.2074430179304	78.57037382017121	424.0765114956349	7.182064815949321	155.5963040015982	160.4809877237153	397.9652632589335	358.1534720980684	305.505279025662	86.41621237334239	65.21192842687982	261.8705327253311	135.3092860669422	39.67824404934189	498.6440008219878	4.59821344862714	197.7147576034284	108.9111612953174	212.4911495145217	389.3960995834952	33.59224629325054	14.95436964739338	250.928202938718	360.9687528189128	159.8023592607222	401.427558605296	158.357566329108	387.2899963205464	302.0147771714071	244.4310602829387	441.3498868308875	464.9396872404802	348.6059786275423	411.0501955154346	168.9098617575027	15.14118799675208	457.2190998250979	411.132806487363	100.5625060088237	119.8861108666623	39.51440138433887	348.9970640086051	306.0790052928398	489.5125597477694	406.4557610451935	97.36792500824011	367.8977126561724	405.8992132238854	441.4878633836863	272.918050429443	449.3707346148186	24.17220235689359	319.9108848085361	199.8047367256543	306.935216212544	218.2987881544974	424.7072834318828	210.6751136959231	218.56635647784	208.2197326325217	17.76986614748951	370.86456791653	143.1656050421757	161.0630594084819	491.7611558190256	276.1374220388707	27.55254244585368	167.7097543934757	31.85123272613102	229.426088445409	79.79815072818239	74.49810738181324	179.6740875883309	172.1690956768331	360.6351128572189	105.4288350429283	153.8823442626571	45.87738086574006	96.75654668336598	447.107928695901	63.76708619925943	440.9882682631643	52.88687404953735	417.1082311552564	285.459657582303	112.2469704471533	62.50900680684452	395.241600400558	61.19474280679032	39.10311528928658	38.84158903814441	307.1068626339828	322.5647515568462	176.3471576079159	430.3902564699047	350.533154445712	170.9268293239572	88.46370380426191	122.0130117509168	220.4661334497412	248.8009302532085	330.446016128472	190.2808350861273	119.818929251139	84.33226478497801	106.5914691233391	351.7162717305127	74.92234711436895	140.9137768569544	239.3027547816272	29.37694248675488	397.2390373836772	47.26176650586722	177.8789790291005	275.5085037422731	446.94709056778	289.694812817371	325.8966013975311	189.6211586996978	192.9462074662361	101.1363643872071	435.7069709599795	369.2055344241855	398.7256183107324	223.6889264350342	2.637024546926981	22.87777049516287	271.3238772575744	244.0283421949513	428.0357799450039	29.31993333930457	76.15943651692253	395.8177624862778	154.0560921551819	37.94089254547308	216.7914709309881	469.8458265818752	443.4352310883913	45.3459763834799	415.8233910185164	223.2082186044841	327.9650845235647	20.74097296030457	76.37287831126442	127.4712018508284	58.28864466900784	234.7130630894097	71.86001295423642	126.5216972056218	58.73151067127392	206.988918934999	364.9221904586778	433.4605659231071	38.61757961774611	176.6685605206878	339.0984329686526	313.6591562879593	366.073852269441	262.175251135437	143.6999841843912	23.15938121077425	82.74109059598287	340.2465293208945	155.9660998375023	438.2079219098209	242.6551702236638	120.6259738735716	71.4655689706434	333.3280444355272	95.94987327582962	26.56237123942939	126.4967676240874	117.3757184951378	294.2511765677383	420.9246538925902	206.9703490850225	356.5334153284882	333.2503040573961	23.80825253044093	148.2079848610835	11.08909134883255	491.8745248746417	429.1674256036492	476.1837648067528	438.2380715342866	170.7818313762455	474.0923943529415	75.46274799189517	365.1320609258796	188.8210016866774	18.21211740739071	213.5186815115421	260.6104792742823	72.57099014512158	494.4812227224672	326.3846520844551	332.7159079202721	324.6128322575719	323.6217405201866	366.1686589593023	320.2665569695162	229.8590479185308	244.0274222600027	360.4666370581475	45.23544199836945	180.9729978957221	358.2663777983128	236.5239857896047	62.46947060526403	422.067458267314	131.614891229215	133.470274765226	396.8029628424076	285.4919579517817	274.7202591473892	429.0551460253582	11.91388630697364	272.3719267469396	72.03139399197271	12.08913274962625	93.63767122000307	432.1907353246753	101.1157807247184	394.1742057841935	44.85128753551693	-0.8058656850708052	280.6601135989631	423.1190875605453	35.50731711187228	128.7279583420213	198.6098685029395	294.185308795053	212.8509355962902	433.9620375379878	101.1389064926057	353.8850602145852	201.4888239325522	313.3480489956095	299.6352920736531	273.6494544399572	411.7584759164322	407.524373413394	387.6354711402954	148.3770249179163	266.6912594527162	239.0050294523489	277.1325828221847	114.0221668059576	180.7473336207996	71.3372028242259	157.1628176884439	128.6835246344756	149.8837091961793	371.4603511144288	150.539895821542	172.4929764935263	155.3942148785152	433.1977391582568	394.0101544481202	469.0059428479848	271.0356528557265	446.1609863709011	148.6565634193979	79.26065375759842	491.0055057144678	380.3022140811832	425.6801532023512	20.91166732499366	28.06778823764883	294.8589969522463	425.9200372186808	86.43344806379129	163.0855400946287	124.6993261305936	167.8019402950428	173.4865304766177	115.6519063602453	208.5033084140429	137.9791973337496	82.08306671330926	464.8976408519268	183.2377761096868	168.4189322201626	392.838631767709	9.88357028738897	261.7883753365358	183.0901628892078	309.3010177710206	486.1143465710753	104.3619296974139	68.04116409210651	429.4669096246583	435.4349351348643	317.7005081758113	316.9666078211083	194.2455062248314	163.5477917476482	125.8905272445934	57.75256021512777	315.1974740237074	81.17777079836854	83.10201201051355	243.0440723979498	262.0362592722856	276.3272136591693	332.7717679221476	265.1974544589967	203.2148171726335	98.38248708890781	431.7896689197249	310.7973432731102	160.0211369277522	228.6991456145953	436.0496870177006	138.1741760413525	456.075316119898	77.00059700296563	31.31533625210053	158.1446171020534	352.9136909299831	184.4668014543924	106.3483122476	195.3782778029472	399.8392694051007	50.34418149215992	268.9026033478777	480.7514815269182	251.0092159687032	177.3170980901805	489.5360179184434	400.0193754686298	101.6989966715013	183.1610851202947	21.49127201440744	356.1370105449682	406.2182374291058	414.9350672824323	148.9953731831736	448.7030805854901	205.2628762203268	308.4359967402714	248.1267629278664	212.1945265699856	309.1717718807237	205.1653171460551	45.59319262473624	432.7746146716916	130.4765188894843	89.21543053404554	156.8658608119936	131.5284235316795	138.8700870248573	373.0470922490616	229.8608298615657	264.5497392491319	426.6774432632964	218.0651561458771	214.5186410101275	147.8044993823153	486.90168753668	1.153786924622709	482.5280861113484	187.6997390730214	255.7151299023677	263.8718239625412	0.817026013617176	139.0077781193808	67.47950373811767	387.9124021045763	88.74115646452245	406.4046802527919	458.3452850262707	179.6094125822061	18.02344471083921	329.0752605347419	51.9033853227565	237.1458151869206	198.937086867749	43.15688234599094	321.1622992756368	290.1221349306695	232.5009915918328	305.0688179348222	439.7624052311099	190.9432119986694	278.7084852952375	47.23341959775546	320.4503133242255	471.4807495972003	22.7704831662713	349.8240416908253	348.0334394281393	162.7808731023783	302.0906581567681	30.67170737437425	484.8708445765511	273.1021780694948	146.1709716570531	351.0368447907472	20.1294368464607	300.6572657200114	86.19571988637908	466.6625962315056	143.6999321108133	329.7051398992263	19.5617406659216	266.5720659829953
item11	496.9666717740297	271.5055229844222	154.3556543197615	410.0061296749208	251.2400247910828	291.9212439012873	95.93430458510664	271.0931940351861	347.4556297753451	453.1078181808845	15.06097561654255	61.97681209605776	490.6676217382806	48.48107330430224	465.3043826363898	382.8118913248916	36.97581478473062	271.6184313064569	382.1815174343403	14.17450902453596	188.1312992916166	89.47104667699178	499.1937799341418	491.9678731010691	352.4552013771828	495.8611020208569	263.2575798902172	141.4447045172423	203.2204655829414	3.182215581406865	349.9258858503565	243.1834581669406	46.6000033723987	436.8086217663528	258.8762055222472	326.8052558732792	64.94628337995383	72.73497602098176	180.0023555289817	301.4294087745871	4.194048816834631	490.5111661370073	365.0734392303161	31.15332646301131	273.9499174832414	268.4646112887899	403.9559589822525	417.2867086389888	341.5164086529376	472.7827993004501	227.1568545335746	240.328447780012	60.52346430333142	314.3946831219999	259.3599853359521	108.022370209629	63.84885798285147	322.0069955527087	70.84085232674576	375.9884200119249	56.26299401544193	456.3941554144393	11.04398025100363	280.4200268216783	127.5598379876189	240.8597834352398	195.0304853168644	479.0306496090247	207.2066003976584	375.5406803361665	419.6085076721446	194.0719245921708	35.94325801679253	342.1028387825917	376.4695266090112	257.6411402169806	360.3370921449029	368.8081912504839	321.5447627182123	36.36028317621536	51.5334883262655	306.9082919792125	475.9575150912561	210.8825759670993	465.9587827739112	226.8425613185739	465.0090827113992	386.4495824520578	356.5546670175196	253.1804139736398	66.07025758683439	407.713873700426	98.50113753720201	438.6060591751221	83.134725467545	425.6647728738468	6.957331063430463	162.3165665593075	162.8661615725065	395.5420325859726	364.5003580248194	311.132123531366	79.81172550995322	57.85414287549337	258.0799394016934	135.3458002949353	39.91916433192453	498.2185165998211	6.349496681624519	198.1803648688999	105.861241712479	203.8809192784947	388.9791942554609	36.41452340980027	11.74375393646341	249.5342805138579	360.6166390992117	158.7123619720774	401.3177474774996	158.3043268119332	386.1206161058483	308.3330998767635	242.8684495059231	440.8529723999744	468.4372295741239	351.2818301576431	408.7269392656934	167.7039711296132	11.29489177748561	459.8427880801901	410.7815928505095	96.19048243509258	124.0623827955102	39.81552758643696	352.0784647216769	300.0273016661426	488.1886376670182	407.7513859617329	92.61967645859775	369.8691827323941	408.537961179648	440.5036967502581	268.4127550786086	449.8286562157839	22.26388544994695	318.9673752061852	197.6755220840672	308.3927151121903	212.955604020707	421.7827708108169	211.7396010824467	214.1183251004222	209.1362456695726	12.422036176963	359.3024930489872	145.2593918199494	159.3018045580944	494.1805161366762	275.7547291170893	24.82135985739576	169.8638250382646	32.68851602556364	225.9264607890337	79.16131484368687	70.92013747651208	183.9772787524795	175.8396331484907	359.4279019188685	96.59221414885212	157.9437479309448	41.74349523170167	88.52191634287068	444.5655532704486	59.4031309490984	440.491757280929	48.47159720961624	416.0441545666597	285.4206754265426	114.6333726386143	62.04728266878728	389.9968920283637	61.88257038724712	37.32676442205545	38.07299721320269	307.3546458528639	323.3655274928366	176.4654683505271	430.1586196012876	353.6104604712929	174.8719181272266	91.88993335493943	116.6412055787683	220.7525364363244	250.1740488866137	335.1101226604354	190.9201698101532	117.7486168059072	85.7777895508071	107.4489288531766	354.3130786228962	69.48111214810665	137.8044990147322	236.2559396481973	34.76696196323199	391.4998501441788	46.07122290739533	172.7435570764306	273.210672646598	448.5270955798986	289.4640847905561	328.2370141588827	188.634207032201	187.8051099042225	96.67710173637145	444.8515457184937	370.1333924850663	399.4754496397623	226.7289241489048	2.88834962715676	22.71681640344066	273.1048302601606	244.241903271546	430.4015789680107	30.80973386562918	73.99257329128309	393.3599860575924	153.2491535659881	39.37339387495251	216.9543903852839	466.4315601267896	442.6700516053198	48.98270843313882	417.3949076043838	221.5952029993497	323.3114537481739	25.10381952961155	77.76717495315152	127.1037903606623	60.17166370456317	234.486574137499	69.60366520445348	126.0962943363776	59.23817783092608	207.40881112733	361.6487749141115	435.0047680025114	50.22612056836815	179.7069181882732	339.8647929687368	311.7738761162954	358.2439593448806	256.7111263468062	145.7065682091093	21.65923579077003	84.41015574618326	339.9042984267611	160.4264445103688	438.6177384574911	241.8388177581148	125.6069583296271	71.09006327881518	334.3760498183264	95.32075584813509	32.55728340770495	125.188824486599	118.2609526420856	291.1589066953571	419.207700032594	212.4551991531518	355.0771548575519	331.0925960802286	26.34210958563924	148.3412702067072	5.052413681078799	489.2293961331657	430.0515709436679	475.7924420564186	444.9049399715907	170.6611624086645	481.0105893456093	72.59852721426067	370.7569383713648	197.4255364955748	24.86849118496967	209.7220504650697	259.8110750975898	86.76984111360095	493.6386362791695	322.5005072190571	339.612434732094	327.1278222084925	329.427456398833	368.5671929466855	318.875484922399	225.190918012635	242.6495367766927	357.8322531730667	47.40265817002889	179.3308677757557	361.0111520356324	231.6367978558459	60.57552856484487	426.7022978801762	131.8364604208138	133.1162401811425	394.7586813137576	286.7997931516908	281.387387840747	435.5736599034762	8.478044622177695	271.6378546808946	68.126507188999	11.60683315027402	93.99257818571742	435.0004024986088	99.55624609325996	391.3547208931681	39.9127648067664	-7.312846969744935	278.3188623096531	426.9960635363378	38.95648229395066	126.665436209012	203.2045090168461	295.9210507885952	213.4890545369121	429.9751806020319	101.5455138271762	351.7541790013074	198.213865154615	314.2574034532656	300.0846752736128	272.652671822533	414.5033729454339	406.7371189175004	382.7760777130573	140.5921754837102	273.9885380426147	240.2778527284366	279.0101990189349	117.7977353388589	177.7375764236989	70.05055164934653	157.3363039065046	127.4957444307192	150.1482347171445	371.8052726500136	152.0251450257458	166.6002678013836	155.1363883959276	433.6585440002448	391.1814021911975	459.8572366843313	267.3093970007255	452.4182307711644	157.5836159919263	79.17621797491903	493.0830894476243	381.2810812356362	426.681143848139	16.8368732782983	32.64129312595838	296.8229986983895	428.640090467984	84.44260173798692	167.7337824566832	122.7631624240685	166.5440451914988	173.5533745642551	115.6685939630995	212.0548267368615	140.7111825898653	80.21754221448775	466.3472615916599	184.0516369898728	167.3632397904329	392.1794667071189	12.39923063328954	260.7036498319827	181.4410446868839	310.0030647852975	482.8678002929046	106.143439947774	66.41381076842278	428.603377930171	430.8049054517952	322.456571538668	315.4390607588252	195.6876401112943	166.7257782635959	128.4652609701152	55.84906581267742	311.1530428527311	78.92954213410047	79.90194677323869	235.5830524059949	255.1740712273628	266.4008519230605	333.3528999280286	265.8451138036388	204.1972892466187	98.28846353173211	438.9753210832839	310.7392011211707	162.5419480231845	228.1909241933399	440.9593742629218	139.7712869081462	447.5725147919081	73.7203981657987	30.80507663312245	147.0430030261432	352.6057053299441	182.3092829803561	108.497104760207	198.1328417479598	400.6468242374117	52.1740494100105	270.252363921401	480.9324873939735	250.5305719859275	180.8293669720233	486.1304850507203	400.4599756321732	102.7276595840022	185.7504485195626	24.72638862873766	352.1126108782052	402.6668303429279	414.4408963072212	136.0413326186659	449.3927810778418	205.9412143250622	297.5906139675232	246.4438421618095	215.8872137411781	317.1068368066916	205.7707674642111	45.58136810644834	435.0616328238813	135.4225291640054	82.05646043733753	157.29990726352	137.199302782377	140.3614803827461	377.0233519676675	225.4757262918007	269.1770523863116	431.9134958929806	218.7253794724892	211.9125802592372	146.6363777825337	481.3481682562683	5.43669559641368	483.0916576474868	186.7276470304004	256.1713313899532	259.1773261587355	-1.52864213952969	137.1533888783452	69.61845480061524	384.4982431291568	87.80689157210492	408.0041345271435	457.0605836129292	184.8036614903765	10.43561881818087	328.7261900447571	46.53071927836662	239.0805048307598	197.0476869335238	41.26855637147779	324.601110839363	290.5504033886928	239.1918017689655	305.3853774695482	445.11915832463	188.3712580253182	281.1381754912463	49.70791497286102	320.7133144445073	469.7789923776057	33.79564473788844	352.4983291690427	352.3376363286512	158.1952086888841	283.1414154717072	32.28310389267644	485.4712434988334	272.4714914011294	145.9601547650201	352.4836590237231	17.9462473778493	298.7049600028341	84.1038203814547	461.7311720487607	143.9400356268909	327.7006763968948	19.82917388452185	268.5099170162268
item12	496.2232308354358	274.6049835199555	154.0127753930932	404.4029277529387	258.6126561228065	287.4077932304127	94.98997114296725	267.4318239852328	345.1560408592286	455.9051697153083	10.6995108593069	65.22096727888962	494.5740800910005	42.47087055441813	464.2189019128326	382.4072170243512	39.57384263606497	272.1587774004311	378.3539448544764	13.53459906657298	188.073088569246	92.42261174675311	500.7251576031036	492.4268035384731	352.2725093874066	493.9146464043583	264.4753533442678	144.4143237984415	203.040281737232	4.793078876700254	346.6725032368992	242.2222809750417	45.93784610755921	439.6153414940685	257.3823901055399	329.5391525875229	65.23832157956654	76.13505738556083	185.8593975914053	298.5456586158188	8.16375291767034	492.3497086200717	365.7842172746565	29.63699985556803	277.5861186445453	271.2272410868012	406.8265792290582	422.5761300439135	339.5800879683069	473.8237469727131	228.8142662981354	236.7302278875812	59.36630477576723	315.7905675213145	261.4665308506084	109.0955746853068	63.33575861335547	321.3488687151495	71.47945994576254	377.51574230878	59.70220588973446	467.191723353888	16.98672636601719	278.5498911068707	120.0125104174173	239.4054844796439	197.6882852696995	480.5509392224594	203.4083066385229	371.7372063994891	419.0855465431919	191.2321880852997	33.46121945936766	340.8611770490037	378.5081017556394	262.6317621684883	366.2717325915543	363.9027758039658	323.806896868348	47.93916324278085	49.7906620512703	305.0917005151856	478.8661031416298	209.6878706120153	462.8907677462056	220.4319214892226	464.765735091428	386.3096793184827	356.8220204580775	256.059221390825	73.47921913210808	408.0448905520456	102.2282845849005	437.30117459091	80.44078202273825	423.0149954409459	5.400307930486378	157.1839114287647	162.5134486959784	397.1407654870189	361.4994149523848	305.0798650140503	81.14366593525396	50.48169515996209	258.5784870141314	136.1004510305784	38.50800476933683	498.568740444125	4.189961548530932	202.0157665479828	106.1764719483545	210.3896169214355	391.3757049442743	36.80058961907253	11.22224010523761	250.5790956325196	360.3309807722354	159.2457727706766	404.8981914167607	160.5416569101484	385.9650939090177	305.8096943468798	244.7159521685672	440.2961995117782	464.3635037034464	343.3216065436284	412.4255531826854	168.8960864576179	18.44814449836536	460.4554833037609	411.6615563241829	97.20329032876906	126.1578257830751	39.91877335751595	349.6166919789189	304.266894839453	489.4946650259521	407.7259904224496	92.60976231878342	369.6167687266691	412.1162046805538	446.1060161504092	278.1142555866771	450.7737643015704	23.25193961416894	321.9815619301499	200.4737081692862	304.2670094506057	203.6526262277048	424.1168639193024	206.4904630792467	214.6786863056073	211.4962732611497	15.54938813965617	362.8310872041134	141.8040098197086	158.4269491544814	494.2202863347714	271.2282005132223	27.73442125049841	163.9452518005391	34.26066097025252	227.5769571659219	82.85116629502804	70.52566568115144	176.9735213447563	178.4214387563289	357.2141191476987	100.6934042104484	160.8624178627834	48.34625255475243	87.01506013133368	451.9594057008325	60.42764184852026	440.7399668586088	52.49487298094763	417.0926756999417	285.2401870847915	112.9920147915464	62.02872941580948	403.8501154315488	64.466664976926	36.26117139174844	38.34915671673203	304.1149130581908	322.5471455896472	176.9078704798519	429.1434519794047	355.3210657051137	170.7033536328711	91.04504107813094	116.9864097078932	219.4200021630236	254.4355584518557	335.2074330550802	190.590264410032	122.0184233389655	86.59541099929204	108.8531856276592	355.6237678946684	73.63678233511301	139.7183619261537	238.0823492676422	30.86685580026333	390.4642565100376	44.77516447693301	173.890761873138	273.979399543392	446.5681012140825	286.5518511039166	329.1988966027067	188.5722678277916	190.4051141485064	99.99224821335433	444.8353887155476	367.138415856755	396.9739930518522	222.4212924599966	2.19553490510153	28.01329526328735	273.9766800981479	243.2133453195324	428.9589903011396	32.36867078941781	72.89014371891165	395.0995063624279	150.3973067286331	38.72369473457303	213.3356944194569	467.5875065674055	449.4682771985031	46.03376244308632	415.5738144577162	221.1147256542824	324.0382149675388	22.4288959135314	69.41029228815189	129.0274609492791	57.20152095213538	228.2542269148838	69.42101434982111	120.4540833564964	60.48617653319481	205.6341494201073	364.714940399193	433.080447330789	40.03474340515563	175.1063432544204	344.7586224366836	308.7503048930146	357.9863101663889	255.1916800691992	141.5389571490529	27.14720010141188	83.8106603193372	336.3409477832597	154.1281673239569	433.8108928090482	232.1623250566428	132.194114609429	68.9310954080655	335.2416748586934	98.10208515970191	33.14206104242339	126.2307670889845	116.1646280406715	292.3878234701796	418.0776595203549	206.3559761394376	356.2581111025492	331.6321646846238	21.37327502018253	147.3495477966353	0.8755989529845638	488.8081474707343	427.2281729016323	478.0172528330607	438.6267069403149	173.1087412723351	480.9834594237633	74.76717496792281	368.7466639808999	197.1634013287834	24.79592757335084	214.8351657835232	259.4277139438215	80.83484307960067	493.5942774268667	325.1547920739593	335.7585410721179	326.2828715726976	326.9393582478236	367.150721963879	317.8961574125838	225.9060545904779	242.2817933847949	362.9136523000828	44.83830672929189	174.8977599890779	362.1407530196183	233.8249670493902	65.97183516496729	422.8553648150465	131.0272690170452	134.7674977327924	395.8574317556049	291.0292440559422	275.3009248088993	430.9603549696355	13.50560582844823	273.5465510008979	71.18707537314521	6.174784134730382	91.3388320640277	435.1782599501143	104.5912039289268	393.5615291194073	41.58647845053877	2.674959892885324	275.5453785992888	423.875364239331	37.86100194444369	129.4544269021123	199.2023448022016	293.5436852271221	216.5849054789092	432.9860138875031	104.1770469779868	348.3747312235865	200.7778264030139	315.0511756885684	296.1663188899194	273.069374544039	415.0606100968749	407.9838254586803	384.9286999649161	140.7848860952563	267.9661211522262	241.2622403311567	278.5858263914419	113.9978861560314	175.9444611785977	70.63027139993073	157.621574360443	128.254505012152	149.5884059791545	372.1408265459254	152.2270288463867	173.5394000154451	156.5499191033123	430.5892345734021	387.6291515834832	470.3879386240853	263.2072589449477	450.7599252590915	149.8393763960049	76.8948771064432	494.8926105172752	380.7551994978724	417.8082211740253	16.13927801277208	28.96643096876127	294.3232760810077	427.6463813684003	84.51202765974395	161.4510885850208	118.6193852006673	173.7841276724545	173.1062415465358	115.3696877734876	211.2519492996257	140.4260454615753	80.8522491779446	462.7808457548698	178.5258606650299	168.3415222238398	393.264572780837	15.29682481965154	261.685147155534	181.4120633365516	310.6868565351211	486.9873863707499	102.5711000079277	66.37016414600477	436.4252961171758	429.278359528648	318.2489062761041	316.0346876670923	195.9243880158494	166.3424991800028	126.3524885897593	56.15726533589889	314.8236515577298	85.75503150032023	82.20556361633489	241.3193090691738	255.2243222049139	278.3225727157116	332.975148065791	266.4474731494156	201.9379392868033	97.08970004136027	437.2277635223372	310.8743478785504	165.6190506742428	224.3818137837927	437.1273748685693	140.5050478011641	456.0610375674814	75.50440356827333	35.28634794854017	153.5923898551334	353.7399252140159	182.8353240340016	107.1214737096283	194.1801490397119	403.9697665455521	53.09562099292071	268.4957121721755	479.2741140355279	252.0013331878037	177.5910890977108	484.5198334921499	401.5002299915454	101.5934053755261	187.9073405155152	20.37503543736879	357.9682053545449	405.3932422855057	415.2586514166464	145.0229578398324	447.0686381410918	206.2122540137992	302.5638905675193	240.9541466575485	211.6518137532207	309.5089664514761	212.5898151056965	48.60383163702115	433.5833279468037	124.3283141365989	81.90184118466317	160.3446258066702	133.309013389921	140.6203587669374	373.9148165776621	224.9352902999898	275.7009340031263	432.6413929714156	217.6403759195713	212.2173516249357	144.2957599979597	480.7001969207	1.144148412888652	483.2177729610047	188.0588770654037	257.4589065676163	261.5862064617565	5.802588445093339	137.8321775791225	68.99253242998996	387.0496860463111	87.81527634685337	403.7983170246492	453.6267553565206	182.7749713176833	11.78907670210078	329.4500929481857	45.98027156411159	239.9467372024571	199.4512353105397	37.90502846913718	318.6582065608292	289.0464822096671	237.412127277674	303.4784838544581	440.0637166402701	192.3124920973609	281.8509964507869	48.34170967898345	320.3582903350501	466.8495063319929	28.24500169650091	355.436166109186	351.5322239339502	157.7824452877499	293.0655200042191	34.66673919068829	485.7517086782748	273.0494834004498	139.9517344745664	353.2480955977451	21.2819179615957	299.6855597957198	86.63057151361454	466.5679662546875	143.6151175539856	336.46287809933	19.44180411302455	269.4588439743288
