vectors
item1	46.92590770650399	52.16002814578087	38.883000568878	43.26828335084501	84.47551138178468	59.82926040794322	1.106769815965472	85.6909929178988	63.04764304428877	6.144729746817047	99.72024189028232	52.36185173309885	88.1025191730742	48.02453933548206	18.37317631309358	40.77508069609328	40.34769692823274	15.11592516807088	10.49781236135763	35.66067300378299	2.202777975029166	29.22229534791966	84.60770274864957	37.93131865005651	22.04895930993602	25.95308903599198	58.52246587755476	43.81730989120437	11.75958900344674	13.07325735044711	50.35881372450637	47.20468427140157	77.19244152492442	29.75667442402801	75.08529003651432	56.57720895760914	52.05401510946931	86.35849271535331	88.36561272299357	5.901602169476489	41.4816907569842	25.07328193590605	25.40946523290905	17.23033018579845	96.78148335282238	22.15956379813245	38.24499635151083	59.09676941609404	54.50864765964512	46.52422772474043	65.81504502891191	85.552657710909	93.14051822052856	60.06517494818051	19.53323948383275	27.95548669637274	48.87601452954077	86.26106830361623	70.93023557438606	62.86559952631999	41.96957495690015	89.20625135804244	50.689850538179	79.06924613640004	67.1206293023359	42.04013192000558	69.72735075881215	38.78831074832599	85.51782666022373	27.72997396381379	81.53322997527144	77.00635009679368	72.34225091307036	4.88165223285875	1.79774583099112	91.80121887870041	21.91157017195412	3.840841263709451	93.50547650944536	39.06961699028217	23.41925277268504	44.80974674653314	11.45804635817577	99.22363340925079	53.39413036815041	15.82404999092761	67.41400940567202	36.42758165915144	96.16316989671436	24.36685179274293	87.87136721288879	66.03255637828244	49.87208264860293	46.44584574790665	37.66769468666465	23.24766463756608	3.597410883292741	63.59727540274156	90.2586498730018	53.16434619589828
item2	47.79325098239198	50.16090129364238	40.2581187593274	44.81069397229923	89.8196776528313	57.9833590928191	3.198452895022074	80.45909058834941	63.87423678156674	12.73851045601351	93.50091864579811	47.62451928588334	89.50468003424291	52.56102094195221	16.67144727959169	38.12547054321342	40.63090182179814	13.60516327658046	9.432154070014787	39.24035538648542	3.004462583314994	32.96376569680619	86.35269751920812	38.34110980446947	25.7298179662665	24.16048770666098	54.75191541695042	44.66000991230813	14.03789354353734	17.68782517866437	49.64066852403108	43.03376566572643	75.36497351462958	28.41653871889473	85.75090822671785	54.05320368700234	50.45825786110407	91.60222135810235	88.12775018918012	2.682621265443871	43.77021916042071	25.74204878181239	20.08710401165615	22.25682783405274	94.74241673794405	21.43553095204302	34.08807579656429	55.20335631076547	50.7079511283455	40.05385069877839	68.00130915417121	80.37801536764296	92.29524113382887	61.04409645713301	17.86097046990179	27.89927757364451	53.00177598332905	81.41113098002334	68.03457819731582	63.72905380082314	42.42625979663935	88.81610996292223	47.23248538874449	79.89161867674063	68.98869847651605	48.36571709155439	65.57506662363002	38.26012240546995	88.00543086082675	26.55071661556282	82.99124740622801	83.3688337817034	74.58516957010143	7.881458801679099	-2.046097389323248	99.73042506623543	17.18897844935017	-2.312974852137069	97.51056153178381	42.79442473252183	29.67372120867838	43.062830385726	11.43191389199706	99.18746667459772	58.03563033788214	19.52769117233061	66.82966641268261	35.60587763630804	98.5712381535387	25.63912422217603	88.98575080366012	61.97380911423424	48.2916840693731	47.14222152554568	37.9748891062451	28.91215460166161	3.102857297413563	62.29096335644412	88.62697747243037	55.75826950108993
item3	42.63832186877141	45.5160639624012	37.99409835072325	46.05081540741163	89.13721888231028	57.74277097417457	-0.9074161703863293	80.12492262703643	65.75840862595922	12.09597738666188	102.458529110457	54.10612979967713	88.6295402128488	47.25989328185811	7.316107814264663	40.20385506314352	39.16991150320743	21.98175244625186	9.39921361944371	36.12584308901086	0.08915867807855538	37.15446917616386	89.25770887755137	38.05783055748964	33.91063908768306	26.25460745265037	58.95323433178926	44.00503952625139	18.59542739224897	15.12650882677201	54.06983115558405	47.15981921674962	76.35023460286365	32.71846290743307	81.81225209997747	54.17012891288989	53.88350109335459	95.54639822886897	88.2336468409254	3.978091869188909	43.11732969684815	23.61539650013133	20.97678663392646	18.06768890636838	94.94858536472834	20.51545657706204	37.85238865757572	59.93796164222273	55.83523014500587	40.21459461904803	60.16676071539052	81.15768103076678	90.23911173885294	56.62758048655621	25.64194043439375	25.38175667344071	52.90053423634946	81.40398138978577	66.76852528247412	63.46016598019264	43.73082632456966	89.19632262578212	46.79916263715351	74.93502624210808	69.29682644779366	47.03211523218432	62.50078082779002	39.93507073692573	91.52729535964575	17.21892249043286	82.93999226131862	81.1037654864264	73.58441254365506	6.440917483481228	2.876695728245311	95.15338846524412	22.59614859193697	0.1965374886182343	98.7120148259239	40.41632374304266	27.60202215915595	39.15439047403802	6.924569984115444	99.03307606695262	52.68747445816207	20.17522913156029	59.68341317739078	34.82452643814213	96.85926069995168	25.89939937752108	88.81549089155604	62.90839883816077	50.35466130124217	46.26275582081684	36.63025472622279	24.44346270564622	3.75431733514052	67.55364833954057	91.33920338026437	53.28752855256535
item4	48.4690309267098	55.2969363650044	45.06638501777638	42.8672404587227	84.87472386301724	59.36820120425172	5.765411883641139	76.60982311911118	63.82607389783085	9.502234470909894	97.61536862283889	52.06886261695207	90.43844441743209	48.3883018359576	21.71802349913632	41.67571151375272	40.26108658225308	15.9923365174339	11.89399374774385	37.6584571842039	1.664658985587875	33.56672159986638	88.36382768152873	38.41090467084678	27.06901100937261	25.31033688396946	62.90347960622489	43.10402580363193	11.82161805247195	7.40688461507134	52.12353647212664	45.99118531383714	79.97224746970134	32.24659608731633	81.51815279310544	51.2788666054595	41.0211503563436	89.83665208863178	88.16615099716482	7.426195095716569	42.30179322884781	30.65164437454017	17.41728030544212	20.61652797830442	98.57369966296193	16.48003722943784	34.49864339624769	57.14221092927639	61.60707173141508	42.6514674663723	61.81237000633435	80.43567198625382	91.51544647255156	59.04095474779538	23.72285984607532	31.99518145523709	55.75865624735629	81.45602313324395	76.03908848333548	63.39643164520902	41.34950467634359	88.22781547379438	46.18527823419353	78.52690329715847	67.58221241924649	41.72501227166002	63.29687166179509	33.5046596148758	85.852228761533	26.35006762258353	81.77632848591048	86.02166501779604	74.18710170462255	7.233181724208012	3.20431275803766	98.36354179096196	23.23152167524152	2.606856583755128	95.61428953572209	41.67758770339999	18.92178458609582	44.78852468263923	14.40777533765698	100.0910189474352	54.2080680122395	16.72867832924986	66.37149745593935	35.87088186688126	95.38528588961702	25.7949959076972	93.18446151111579	66.59968635455989	50.0921557623824	45.96712881430519	41.41056459709665	20.67361798714783	11.09534979829454	70.68773835915648	85.78448555620913	48.51780546235355
item5	52.13073706132229	50.91831735770371	49.39576273120777	48.25079025237465	90.56806822287382	59.84899501762861	0.4296194773999197	80.36687982997216	64.54196658313769	10.70904232074518	90.50031572907447	53.71787768534205	89.0952629932694	47.81366448132958	19.13903780824288	38.32100863970086	39.27665884051647	19.80035554741626	10.11719310802397	39.68569214227755	-0.6323353665245786	32.0481595587901	82.32769915519293	37.62631260402884	20.45546901204926	27.930739477036	63.7466419510624	42.51580864179465	18.10960548370869	12.81673283857946	47.9301282132748	41.17013361023162	78.84668778432781	25.21875369451933	84.17425120029358	54.49598094892018	48.62005513789061	85.05817173214086	88.38996190860784	2.234627223512938	41.17962222353487	25.14486712723945	22.51870674325845	16.77775130059402	92.73271578635487	24.90702865048048	37.38821038767297	57.0773630434842	54.73838311893287	45.70169561482246	69.39802531815936	81.3763811869409	91.07186509574568	54.55166287114953	20.62998374072728	29.76115284342367	58.91600618610602	85.7918721864437	70.26624062662927	62.73688877375965	41.87618367984931	88.09869962856557	52.06453440047054	79.78847361348838	66.68200167699568	43.26052489901749	65.69105496653152	38.00475485746706	84.15432828935779	24.38220365318875	82.43218327817249	79.62596918113002	74.10883227871146	7.439565724955937	4.16048946331891	93.67117910285864	20.74647879321953	1.929192361470787	93.3570792757894	44.16882941624581	24.52752900700967	50.85319071967948	13.19770028495236	100.7429491309771	55.16881625340125	19.37200884034105	62.90000103812324	36.62432347215015	94.39814462373666	25.83752376677159	89.28961305637536	57.69844890318879	51.69548289171219	44.97502885533597	38.13382429505634	24.33401425146992	9.8849049480832	59.898025212544	87.05591209593443	47.08206662037835
item6	46.39817097060033	53.83665453967787	42.99878094452534	47.49273604008527	86.15970706947257	61.59826476225933	1.767156262691322	83.23773313238792	65.68342045656624	8.847745236638351	99.9302053013559	51.90635316356087	92.34341035496601	49.28662194596523	17.95087930318016	42.37317290921514	41.63255324428602	13.24231382817643	10.99308278110059	37.65375162162316	4.780280226001696	34.64607587979508	87.04709830378167	39.14514307342376	22.02901393050839	21.52300214861959	58.6485245201663	45.1815962772797	18.61361304083893	14.58753301145621	47.25900318148041	47.40079786703525	72.33753706284492	28.71779840457954	81.09625111574567	54.63316227718492	45.99831522434326	85.69598663557389	88.13136258106212	3.215908926027474	41.5345983583254	28.93641651284747	30.01999628112166	27.51494947533895	95.68169183428174	22.00048829162928	37.23728321641926	56.05884416074456	59.1047192577744	39.27632625501656	68.44488089921848	82.81266983235614	92.25381877087293	56.00396054028198	21.15038739353739	27.66591443964525	52.03444075927553	85.07089530624745	70.1594386131251	63.71353742968475	42.04503286882318	89.41645081546318	45.26401822390919	78.34118391902386	66.46743564414126	49.30483885990795	70.80466525088443	34.85438015667943	85.94963732863759	26.20977255165878	82.1143535080533	84.55989967297954	75.19006967244206	7.312085767535057	6.323363127697514	95.8486294404136	19.91290725167024	1.919352506977942	96.69976991677746	43.39325534519443	23.94997514219133	41.53851441879979	14.01860420968118	97.97485327736037	60.83642546145298	26.66895202095445	60.81474415567516	32.44019090382141	94.08599121084934	25.41851990553692	88.4197259390189	65.23660355258696	48.80888012805612	48.32409586647969	37.67935726566062	24.66212220310085	4.983733628398552	68.18911419882922	86.16931438174805	54.66297891831043
item7	47.16715104030344	51.67625497357531	38.52309895416227	45.89654559362792	84.29159719302483	58.58012534016693	1.11024347923064	77.27097388169372	64.75625190437877	8.009652625823874	98.62464275131559	49.32732147817176	92.51564529923441	47.6757547082685	21.02372190100463	36.89193404763684	42.17879171236486	11.272084789994	14.83453660961446	37.73975061071432	3.342713150995368	33.12134635453107	90.96210093804582	39.48950209164845	22.88057988346635	25.03771239602954	62.63546307090943	44.04573135842883	18.80313421485375	12.80313119914113	52.02180638350188	46.54146010543787	84.4722446398266	31.35700401467553	84.15864467059004	54.99204841292891	46.82681485585753	90.63399535134407	87.91295386848773	2.906404181492099	42.16460910095791	22.02299294827806	22.66320327052132	18.60272686792853	93.45707548296346	18.89497260081411	35.70713630893587	55.9713094729208	56.51213205216301	35.27225989029397	69.18961278451943	84.97065677244233	89.74215836187879	52.80469484806253	22.07276617333294	28.80010631045726	54.15092940010113	84.3155104889627	70.03865466570223	61.6241767098419	39.87497665627286	88.73904033729593	50.19014792410779	79.29848588955072	66.62393237019434	47.37057991249582	69.62515903303357	35.69713137717599	88.82121401776648	27.38357973931544	82.70828454088206	81.36298692214434	72.57464491103585	6.898262527180416	5.22360920767056	98.73382760602892	26.57864371678724	-1.043106359553888	95.71002797160389	46.69527154986361	32.17784605826724	51.61661572980536	16.30069546341581	99.78895502646616	58.76785753269673	21.25237573204723	61.45280598966741	35.60444413461587	96.01440865194571	23.89529146946326	89.94685695747231	57.79923429405346	48.54323775389869	42.88129960283662	37.33199459606607	17.00911202395666	9.487383776538387	59.80927120088806	90.52454356647999	52.36010122631638
item9	49.33059512936988	49.88519517289625	39.30415810676854	46.75787359696289	84.66478796148867	54.13400892756092	4.395265021585139	77.16457082466479	64.99630163169012	14.73922503006542	98.19287561500194	51.97315461982021	86.10775006773638	52.1848569530226	18.67696461700512	45.29364777183888	45.52425250417969	14.27862076692341	12.1662046546843	37.57758856902635	-3.277216755104769	39.55508767225128	83.57012795145509	39.62427401488451	26.88013529399666	26.84634709134851	57.92096777770713	42.52635096149917	12.345929048881	12.01957881822958	54.82726643331161	42.27591987993841	82.4473587681358	26.23708659731754	86.02609039600583	54.72021722808676	49.18852388874848	91.10623568458313	88.52789334919102	4.299067913605546	43.27473305554614	22.79260209532629	25.83466087416343	19.47300749478045	95.68194108374912	22.4019837376943	34.26030329483685	61.06470865061648	55.98937317334031	34.22062869352499	66.13136311415761	84.27837502802514	93.3436419782232	52.63714397923479	22.15361504946928	23.0885764304492	45.64130844530623	81.08615017434569	73.8330331682415	60.80861376212181	41.63265080856408	88.5227766056361	49.85938026502973	78.87544047811438	71.35481277330902	40.34337449260011	61.91567985356087	38.05306654930669	86.20321319364726	24.25558992421191	82.09672268770493	84.89620996582867	73.04201369385159	9.471172328120538	3.555550145667099	92.4503755045474	21.78247330914357	2.916669851491642	94.99137764477859	44.72398377381621	27.39361246281972	43.94881133531781	11.03718353537808	98.6259054296096	53.33428556534246	21.18673977209495	59.85112425311799	37.39345746617776	96.6425918947116	25.85997017037653	91.6949833497053	64.43832384215949	51.72594879963962	47.39620530649872	36.99366073927639	21.45266107126616	7.490409003543797	64.70959948677914	93.2369643547391	49.58163783024857
item10	49.51606943736697	55.81071612271494	39.34013767561199	47.22807892733546	90.3963795552071	57.56493670037447	1.806674324639671	83.87351211448731	64.67323278073984	7.651612883374224	99.26306064904796	45.05158253942145	87.38904090241556	47.38399639970132	20.82443231991132	40.96959677613484	43.55354818372593	7.934190094386841	9.93354314718548	39.30190105481704	1.363586106092942	36.90374754928495	86.60713826991609	38.20820961240435	19.28799162433768	27.12490340278659	57.44705642091233	43.92781040030765	8.166813573387532	10.05009323386033	55.47022562543037	45.90805884200348	69.37639977549115	28.2785877816777	81.98250849858763	53.60617731376377	45.2798119120049	91.50354358818237	87.88212666272985	5.108526280642518	41.83781986730397	28.56148503351694	29.35964661045271	22.18487263340636	94.45211783603852	18.59631021414937	38.25226711572193	55.06176733945397	52.87220176002491	37.01275963266333	67.91481390654249	83.5825481949441	93.76919662263796	53.94731675123311	19.54622436964353	28.56189014938578	49.79164697527361	84.02320616449268	68.89301489912533	62.73045694298045	42.10243352760573	88.28878175598093	49.97912815229115	76.9524401013739	65.06467987304664	40.67435557300772	64.8674690013773	37.05013066359938	93.06802651867925	24.2756427905495	82.25441934662028	85.55235385584126	73.00337567585451	5.51609578933162	-0.3570665578393988	92.29544534854918	22.6155633783189	0.9574814079416432	94.41472486343412	39.94910275881234	26.89940470271764	41.91875667902071	11.84136318104225	98.7172829276289	57.60066291266346	16.36893770345393	62.39004381478495	37.59183953483749	96.24521180368531	26.41068849805313	90.59401713020014	69.94718923710059	46.83339775559472	45.43634734096221	38.09801778916447	20.70912565251606	5.012564549741032	70.81443201740107	87.76004813311133	50.21192122084485
item11	40.540272255192	52.136505008874	46.18387631852269	45.39037803718222	86.94327154740076	59.44187358640601	3.029221739960336	78.13422193182656	64.40268238709892	9.521593435984116	97.36827285045004	51.38932242386546	82.83282831701429	48.67401248673424	17.66795130114329	37.68567200635845	40.30679694466477	15.56160004193262	9.259235559445777	36.56147407574579	-0.5001161523423436	28.87840341344206	87.43847747747583	38.0704266824544	27.25291599913279	18.90936457376187	60.52721779578719	43.92388187883606	11.13441111874274	14.00495787638507	54.09995404357934	43.43491769079836	84.71261968757432	30.85166900392075	86.54128903792385	54.02601711211278	48.45853583376427	98.50248663975124	88.19395849784078	2.373547036132531	44.07728885538233	23.22369826340404	21.27341720546324	25.45726214291521	93.29127024539957	21.10779630122537	37.22430839124544	58.43895805206378	52.49802469367388	41.86974774530893	72.97212044443297	81.55393484359719	94.54943430556033	51.30521819376199	19.08853689183868	25.07746346941734	52.98169854548716	82.25314398712635	64.32973817362247	62.93056707817097	41.72432895332352	89.09194315061774	46.57905433745254	81.98524679250224	70.4246496231512	47.18428759692695	62.20658714041691	35.86493266571837	89.297351924975	31.71834143000068	82.21420195552376	77.57716940667252	75.81566986390017	7.761544513330104	14.65359842057261	91.99344223959805	24.61348363465531	4.615360135192113	94.39437863685248	40.41206910424152	27.24152521119125	49.77576412236583	13.04424810807687	99.07984007094068	62.36364282972702	19.59812538741494	64.99849007136781	36.12875675778671	95.25629454346583	25.99874345808917	93.67840259222022	60.14762479737957	43.96703539100026	48.33493206472584	35.84549872921293	23.44705266542643	8.102744321897411	65.19917140347694	87.8778576508567	58.67756766511529
item12	49.65450054160471	54.15149900051797	39.07651208769504	40.14266321791644	87.15156165644899	60.04698382954991	0.8588753230615755	80.22687250926127	64.03003401459355	10.34200307264576	91.90137594519977	51.74520293151927	96.2230959430912	50.03881832486132	14.83274319160664	42.91723914330963	42.55348994537317	13.92921676493486	13.72570488980899	37.99744659033917	-2.05470451858326	41.19389240960716	87.93252891424976	39.07889809691888	21.46337464201324	27.89395545506638	60.44734427737644	44.252761814312	16.0450546059647	13.12662090530638	57.22102030507456	44.14545416120126	84.88229065759116	26.45240746217095	80.5221568616071	53.04925664575244	51.90575306193938	90.85702625279647	88.16549108261603	5.682200113568573	41.59451975632646	30.25575993237885	24.67005316045979	16.63494491838738	91.91543827860245	19.9998898254512	35.263863110122	56.95165173104428	57.33308450536938	39.94773243070199	72.65739891078994	80.94315453747346	92.51041781807658	64.10613287557517	20.00762130063974	27.63601439654511	51.6080860890398	83.05864641788156	69.611167501873	62.30359493582603	42.50348314207079	88.29567555602584	56.10753052103391	79.83814490384691	68.59386353847358	40.28087556077401	65.02818808221446	32.42756829376778	89.48490883877362	22.87609209380436	81.8967082192699	78.50257115154115	76.82584730059747	5.212877187191832	-2.043066615657288	100.5719788781919	24.04595939486381	0.6806605779230481	92.043472237293	41.38082442204193	34.99273495142412	36.22037999086854	9.609266562592746	99.94854401324605	62.50597890507603	20.70843660493248	61.2071274346419	35.92094407027366	98.4881334987201	23.1244436297979	89.72461471328984	62.04323995571886	49.53537555598889	43.80120402993848	40.293780325142	22.26079361589713	6.828618996934752	71.3912930282558	92.39668445827652	52.24435318468672
item13	48.88923098324793	53.43910357445656	43.08147545060732	39.8055304895982	85.15505556032507	57.46159415555314	-2.935158850392473	80.57213268291326	61.78171065941866	5.536016096693162	94.59513453013257	52.26411201218934	94.02105030421535	47.69882601286491	18.00572627045248	35.03713821805457	41.16394863801689	16.20536479275137	12.97821661770548	38.9070669772746	2.228785366587869	30.71044830604176	88.76475973843533	39.76777966864382	26.1901492879852	28.426669628768	54.1741535741326	47.39523875222232	11.86940524419094	11.29786056307772	55.36002099562347	49.7579200889824	78.38360800121856	31.44778425969309	87.70744207676391	52.49786666879373	44.53527720498615	91.69339099851058	88.17147699938597	3.913211189456574	42.82181841049825	24.70516715628127	30.71851201317827	19.62836184697066	93.75772214620493	17.17905536185359	34.06619196292839	58.56385273566845	53.92929264469113	36.68828745787801	72.78063916408691	85.6245172125129	93.62071742930576	61.23552074937341	21.6548996672304	27.32614031687327	52.52511295934735	85.71483731496558	73.38986515010588	63.21088524018685	42.51474240205156	88.96014304592454	51.37048724250704	79.9713055611286	66.99644156192322	45.53612466046852	69.26966716197998	36.74032129752722	88.44030978613051	27.06559613161967	84.03600374216653	77.80364645684699	75.24709163876615	10.83644552519709	6.317108078793927	95.7683027909036	20.89017415586722	1.244472779638945	91.52381355110566	41.00412287255742	31.06992197543343	43.00008558813825	12.40543750341287	97.88599744911102	62.53243619497672	19.5626751168996	64.85855865207523	35.72290531710186	94.99015829695809	25.3068532880295	91.16719301008283	63.26450825914461	51.04429505545178	45.68834610473974	38.41311249727422	19.55942003150122	7.73709838010959	64.61257625252287	83.62905508141345	52.74844403015926
item14	44.84062253136847	44.43217376160141	41.92854385669562	43.71965370476479	81.93959460090365	58.65513459617566	5.514272257297836	78.82899770978922	65.36997189173347	8.179378317989867	93.23070741276334	48.99856210311842	99.08004017542798	50.9019307563686	17.63254327723451	38.32701785158978	43.17184051277123	19.5283610511942	12.41455351636967	38.71250549705624	1.813676660765301	34.29465255782461	88.17650912855068	39.31103034550171	25.75514181615074	28.03590230583028	58.78893833173736	44.37162089522099	14.5659677767518	11.69488666785273	52.01739143142608	45.52691878264049	80.39757303697098	28.93758522221513	85.38355175736341	56.69047768588806	48.01162448292352	88.56263721762105	87.80946241472112	2.69227353117116	42.14351198791026	26.91614327095629	23.6717837388996	22.34757702050833	96.6853802412713	20.85628339305035	36.31714516032019	58.43110411351891	55.69598395514755	47.3309040239173	68.89480042004496	83.60957724621849	91.32273273707857	48.79010653997862	20.01556727120471	23.1992130389137	52.19859872394626	83.8468068719244	73.50788430509078	60.24246197911241	41.67512488339446	88.5635520110157	46.29027613834209	76.16819974012192	64.09669692728563	46.57386120297624	66.9925989331478	34.79872329809376	87.53984339304822	31.87180234410051	84.06371404386225	82.8930442318279	74.14934291534199	7.779449190388768	4.323533233294963	95.22851825400183	23.48098859954522	0.726627523497906	93.05410199757959	41.69481082167974	29.37243824716507	48.50655247212195	9.187133053157098	98.06559417964922	56.93522037904592	18.62798239460964	68.11753606431971	35.1466402325653	97.53508824560488	24.83845941030644	91.51861676491957	61.18775834130136	52.45428494721875	49.90867416315238	38.88699159323426	24.10254145065626	7.202735371384907	65.3210947650539	90.81915600632351	51.80206003812765
item15	52.73611288801482	51.66882165989404	40.94051352255159	45.20207460260576	90.12671518616547	62.84080975186632	1.200797895029653	79.61752354394385	63.13356791278007	11.6230173682344	99.02531603313516	57.4726177511194	92.99895783214913	45.13650725715918	13.92882668887206	38.27479087879345	39.78038603467389	15.21704057589017	9.344184401071679	40.48708953460234	1.716413854404594	36.90804585791756	88.77527924087923	37.77750654313406	29.77422074248464	26.81312734940156	56.88109382253194	45.25416163686088	19.23060636688333	12.18750328296201	52.66054572772023	50.71538443771865	79.11637490843653	29.48226532759097	86.66396115033669	54.42713797088925	51.82342741286826	85.56366706411609	88.3327519765803	5.207504429372094	43.17783944299174	20.34162092352648	25.16906363083396	10.71715809037585	95.00996666587683	21.55364853505245	36.79629326883899	57.32170203851273	53.3928701094206	44.5555981935023	66.27574769910443	83.44280118729058	91.48646511181997	56.82843536231717	18.4317336105913	30.81181540893939	54.67284023336706	80.56009116858959	73.8082208814304	64.65584687310685	41.73139940076444	88.64439472271292	45.23319637326185	80.17850042941683	67.76577210632354	42.31265620738144	68.05270069011006	34.67583633234077	85.84899668525874	29.82545442961132	82.90341128480685	84.18911494494516	75.19634751422124	9.816685489707723	0.1432046966907019	93.23519411161031	18.1223298715525	1.856521886393816	99.68643024607552	44.45554186702581	26.41067834297801	45.93554653335016	7.515978110088385	98.08519339441862	62.57720092476786	16.74348518248437	60.96974530055229	38.37403913332763	95.3508663754595	25.60169908053629	94.49239576962653	62.04878129570603	51.95558160734208	48.69792929492638	35.18094882147521	26.80059478675789	6.041706899021775	70.42343203044636	88.83958395822079	50.11606103867618
item16	52.5269810968821	57.05982684860528	42.56262941167478	48.16701617457419	93.58317943008895	57.40798031308511	0.9661344686586337	74.82521368487919	65.11773635336108	6.767379299938957	92.57557553269966	53.53408257052646	91.12732850000558	49.48463833713524	16.43934489047144	41.63013972542798	39.93767975593472	17.68284433653777	10.92304778636938	39.78261012160707	0.9861419868568452	31.17299512729912	84.54335498241944	38.85205387867886	20.66819741713216	23.41050232844863	55.47804719254163	44.90878041945117	17.47252528956974	10.61743494687718	52.3442285475603	45.66438581672038	82.93543209757387	29.17759679414746	80.25073835004578	53.22262125095418	55.23954530936447	85.15511677710938	88.27253773655546	-1.633915607611513	43.05914131914397	23.10394250877482	24.79909904386934	22.29352175219437	96.88970558696589	20.55044072214421	37.422875874996	58.62097111322117	62.36065224588538	44.58955208652694	71.18552411717529	86.00661058926612	89.77744300500069	53.95628405206418	20.69469315585549	26.91190945543352	52.66936346494481	81.96744091609071	70.40386154842896	62.22110095332144	41.84747978383934	89.00455594077293	48.09534162178761	75.76315026331545	66.55936374290035	48.12969278395657	65.2908148424507	35.79846172488592	84.41709708794383	21.49695562807511	81.44812189716025	78.74610035262981	71.52971290629296	5.544664612351345	4.183509274950071	92.30771788181306	23.8097434611214	4.024938870528365	97.17693699636806	41.11775937313945	26.28638137182843	47.5454171212032	3.105949436811709	99.36561536249707	66.04666655488755	15.54747341554483	63.7292926024867	36.71308043879299	95.88779560286464	25.63305124000636	87.69465336154506	56.37845070549498	53.63804238427964	47.87613551685778	35.64882004673102	24.37010218549802	3.014496233309428	62.51738297415218	93.15930766512177	51.76476981166879
item17	46.10299461698825	59.61713250017678	45.92923240639308	44.60545877688224	77.54817169716907	61.5083839371753	-10.09050625352257	77.51817103669283	63.89472927231152	10.03530712871513	98.09664995622424	48.62768449277429	92.0554058151276	51.69184995068682	18.07449267296123	36.12282554096564	42.9824505694684	15.75465452461647	11.14778929827297	37.19007516230667	3.927261955038732	33.53390559609573	90.96552179194204	38.03053959237288	33.18657489287107	25.93025552995525	52.36325375270799	42.99463773527817	14.48661799194115	13.26258482874259	57.83991831268229	42.39059008729446	77.64150140140467	25.77361623217045	79.91044937118482	53.39737625466974	41.88160762212337	85.88776834864306	87.93823610856487	-2.131586582794069	42.69202983054423	20.80047405344259	17.48014205007664	20.68333936476703	93.72333233089773	16.73269159650572	36.35910301841743	54.65011810529447	53.58901143398784	44.44220454247856	61.79420048482649	86.6060018555323	90.58079347341277	59.15564891852618	19.70433357336012	30.72181739409394	52.07491481549759	79.3405866473679	68.12504143212942	61.53703312771887	42.72511072043057	88.62348119890609	46.07701929851316	77.92131141978119	65.33698161398382	44.45629584915775	67.63029937108675	33.0269073111502	83.97708474431694	22.85762813928336	83.17119868297608	85.01258310838212	74.61145038673419	9.632551903484154	0.09437536680082292	93.54750715789248	23.69954618532136	1.133482165029596	94.27845056112521	45.10964327383006	28.14425262210305	40.09925088542388	8.6408923579828	98.83636769018842	57.91117909608764	16.2013119111484	64.96639781415237	35.71217187385477	95.77948955765237	25.55792772836481	90.55593637702107	63.65469886381427	47.29321104001567	46.1102917686209	34.94732532466963	33.12570085876297	6.327078738977905	68.60849681551035	87.05581702064676	57.78150836237149
item18	44.55454340350986	54.03399837611865	40.63722692410538	42.27606068651074	82.81955511377849	62.41455825856193	-0.8287563486101817	74.87555172983068	63.74456559885859	8.492111697184665	93.22343833944167	54.58191805165097	92.68392173811452	48.86183925091785	16.87951710448005	36.90182355921385	38.49369201067297	17.13680982586511	13.83064745211855	38.95151822661403	-0.4327514816577087	34.67281500199451	84.21754085113683	37.26765505660699	28.13438621412634	25.00763968588001	54.09375278835321	46.34432511704054	11.17693385377894	14.18878671761564	54.23829697246526	45.57834225494012	82.4132179120562	35.34811309897389	81.8223376177117	53.61290536711717	48.62460920455032	84.04162654637776	88.33922119611296	5.533375712669409	42.30217611252784	19.45733746400175	28.64247874504201	17.6892604312034	95.57772239503097	20.68415498259325	35.66655289804027	61.69006480814243	57.45366258231621	39.17842944485665	70.5016275835608	89.07106437742372	93.77777207239262	57.55226071760912	21.03206973169484	26.41540844538277	52.85839131282848	85.9949297423959	73.81286917266326	60.9094787466401	42.09762881444698	89.07211151528382	43.83857239832988	78.67682512275587	68.35218659655108	52.35100331971525	66.1921089126389	29.12614203693497	85.44113147360846	30.18774758946558	81.27824455849239	76.13148606622896	74.16031646610556	11.62251156093453	4.92805353284776	95.05677118081367	18.65377850140927	1.58747554374843	94.61237185296007	40.50649378718081	27.81082610477228	47.45650788684809	9.882337049448289	99.33862103273401	62.93874174139997	18.67017515921972	62.86546085684702	34.84097269682241	99.89738113706409	26.23360098183089	93.78924092833975	60.42838427313228	49.75586736184211	47.63652577210632	38.42088543237185	21.67213832118826	6.549332958178706	68.71649951426978	86.36186361716305	50.5969620936615
item19	46.67749969077784	48.77194777409029	42.48217749348362	41.90684173751777	85.86673075202656	55.80261322989683	-0.2890377613690092	80.47044785112448	64.56062623020792	8.302754575225764	98.50499719402653	52.53050307760032	91.39655178699402	49.12030726894622	20.47742920124756	34.85079644022863	42.2688925606406	14.38877257966177	13.38311634338426	36.09439406948005	2.249924661636896	35.36302304409655	82.9025844593785	37.7249596909429	30.60314820061987	27.27403059518446	54.55170105322652	42.7646308009895	12.8855194077177	8.479701161920241	48.92102584553298	46.34284019839801	74.06860405457871	31.46073496354063	87.78364946236206	56.42240717413877	49.11376229776029	91.19346803115911	88.28940831955813	5.491707246896098	41.78677900380082	25.2915769262949	22.74019680498044	15.84942951540219	95.96727040633017	17.76953349974787	34.12249425778918	58.44741475324211	54.21311686894892	42.09468018209502	64.65627003426047	88.19714743201774	93.30157229391087	57.71256235748348	22.47558720124019	31.5035807560279	53.63694658746854	85.41109636744621	71.51728912401488	63.48748356789351	42.03733601602993	87.70192193739187	48.93179573569977	79.60414957772143	67.51887019233537	44.61071046098922	68.37709316041723	37.05134923215558	86.64095657106621	30.45977082673622	83.89512501786787	75.61625334804501	75.75875548535362	6.344978577504706	4.012888168049386	94.65508575022101	26.01728525570856	1.100421296796181	95.86004739368857	42.73048456146898	25.50481942817288	48.25157015896502	14.27062804427168	100.0219953174005	57.44362518878256	14.78127942861535	62.20037396124177	37.92669794687601	97.54613491398297	26.7267972698389	90.48541088325537	64.98696720607361	47.38968905719553	46.83073480173266	35.29408456559712	22.41809330787887	11.72274618019346	66.09068918857034	86.95136109685686	51.32742798128
item20	45.2153346916957	51.71027090300316	43.21487926141074	42.99970457720641	95.56785738486707	63.42675191646198	2.768190382660173	82.13471605713393	62.77979295149143	12.4256237192361	94.62211987159795	54.16996081037522	94.48758297986534	46.12418018804188	18.58919193820303	36.31396437729683	44.37403097337983	20.17153841616399	10.71588100300018	37.96836590429616	1.517107828905674	32.82302480309437	86.26162002188178	39.69317209838796	24.82667174949135	22.93489280160163	55.69134835383983	43.30223050005218	11.4141032001157	11.16608869448634	52.72196042413213	47.28682679347319	76.54685665098535	30.68500286709332	80.44932458052145	52.95521116913924	45.27022278461691	93.75535118382172	88.43092828516005	5.866648642003884	42.03903115414015	25.24966546347052	23.56004112347761	22.47997557127753	92.74692083214973	21.57828908843818	36.77213984330151	55.75412913730656	55.63032798473954	38.75101703997868	72.99700904589363	82.61140048897488	90.31132825015227	64.0358524791734	21.86465330217669	26.24995855702043	50.39459677820975	84.2727738542313	71.47088528624523	62.013024624746	41.0282700079581	87.81130958765199	46.22476583852504	77.9473209902166	68.41340550890561	43.30131048057214	66.51348099326425	34.52931213248259	86.23531522746327	23.84163638302732	83.16624452584486	82.81013521576462	75.44403858897981	13.50849856013463	1.027335436695026	91.1879527697898	23.41331316289442	0.1956005816178579	99.71408574251315	43.40741016989396	26.34515279874627	48.53529654913478	10.95190926047587	98.22044990610657	58.87072475610537	16.23208087558598	60.78900081817662	36.79995528447126	98.06749552362596	25.82834093173539	94.39822458973808	63.56768836828508	51.96490875460898	44.86488467245027	35.31294860406444	21.61959401247711	9.742642298023888	69.776424487204	88.88947025620378	55.27566439332331
item21	47.51294286745435	50.98140541818985	35.96282119949205	48.77048386453537	91.16927718327224	61.3771099079793	5.023619576697595	76.3626488990017	63.09722898980616	11.83201672715755	101.5231091658066	52.90781886208385	88.60247621165283	50.69524325871175	18.58521417102075	40.29857797064288	40.74913938159214	14.22648294916562	9.785318901951154	38.57618931866851	4.606222981129336	34.16345902860966	91.31188297117939	37.45708395599249	23.35617825508585	25.72862868604601	56.08899170449304	44.34058233190844	15.57735882113657	14.99643844873861	51.60707821986865	49.8744253228067	70.61803778017799	27.57023352018748	84.51454884771779	53.56951533875088	46.49409792684801	95.35893534407279	88.21641489055423	7.753748203137062	43.74805233810287	26.42532051705468	25.43807693960905	20.72139299723282	92.85493098471059	21.11120575837559	39.39206347032184	57.37846661614791	57.73500428550921	40.05556362122643	68.05400231494428	84.32765591914777	92.16256563354791	60.77971273215382	19.56125112957677	24.87699688261653	49.71368575580354	85.3259617963834	75.89886851452313	62.96365644302858	41.57787129662672	88.36824148661533	44.73934754608751	79.77623067678006	66.72218120411257	48.01299111544022	71.35803841192261	36.13656427271157	88.64015476930912	23.40758149056087	82.11955247969412	82.94086996829496	74.85650850733599	13.02887403109915	-3.719751783765739	99.12794067046177	23.3841112960387	0.9324850632956059	98.35968224054621	48.10181232293417	21.75822685047061	44.04233788549549	11.79043166378677	100.5516631699798	62.11891522065154	19.71783192485711	65.62728471598747	35.21790584809409	94.08855128124384	25.56368725787846	91.24683866682457	52.32697852162364	52.40248406156852	47.94937506457833	35.66134954206698	22.45751346563828	10.39034883779661	67.8660877373953	89.15995402079362	53.96343438281356
item22	47.69463995140899	50.6781280041272	37.71856674921421	43.04443780996429	83.90562496540855	55.59337041509283	-1.636914220962011	84.29094011348126	64.03999938919505	16.59768855685198	96.96066929466264	54.25751844836178	91.81767557424998	53.57546262262912	15.98600073967186	36.33692348962596	40.9594956777654	17.96400890857132	10.79820362926536	37.27400933662432	1.28594978435199	38.79101995855711	82.30472765323189	38.09933543505073	23.2530747631779	23.815702305555	53.43469935830894	41.85942893283319	12.64743566920034	8.138245531986801	53.11301852414253	46.52298401048971	87.15413797611207	26.65916340074063	83.17328249556421	52.32629398214362	49.62457674579088	90.60130794163065	88.04651583425914	-0.9340774524451581	43.07130528958496	23.52328989475351	24.70803779838854	25.79631688834531	93.70040763274709	20.01112053202187	36.12851182709798	55.79208029767488	57.65884777470686	43.19658630164734	67.60632580413031	83.51628581556389	92.85911992863467	59.36332850615723	21.56696561930346	28.84912673015534	45.87161842437605	85.05504898955814	71.53234908783939	62.97627222298605	41.32207662356572	89.56118591466129	44.87382535855125	78.62665220075782	66.33183619037604	42.65482025127919	65.9899678105334	38.25367991718042	85.18760910418341	28.07323645769576	83.33125394967678	78.59808771261159	73.22689463035702	5.596409950749278	-0.2807888483822172	95.01019805848739	21.3656656237919	4.555947656330166	94.39118120001675	46.43771339631453	26.38984674338794	46.06301695853429	7.620548989248888	100.0656497830775	58.86727692977345	19.836114159421	64.88865939067011	37.57059122250571	98.63543753282165	26.32165811924032	92.39108276701351	61.19526355877058	49.64490514327303	46.5633525715472	39.03100105258447	25.3435761139115	4.735392521886938	65.60952275723214	83.56409263525168	57.45879153114325
item23	52.18946805815857	53.80136597002141	41.24184670842016	44.70182743370783	83.47721101906085	57.88086392537109	0.08811318224268605	81.11258888248688	65.6498285537691	11.71118925540497	100.4687548272259	58.47958245103027	87.01872479083829	46.98434838516447	17.25577375749446	41.89674417329953	43.33209650728854	16.30895347226247	14.41280833867601	37.33047577840907	0.4606254166697417	32.9781227098517	86.0017244515365	38.65851990271425	35.48582130559198	28.83615396308686	66.42675289906981	41.69229362722567	14.08137240210363	9.544623722974277	57.0074801926803	42.62314343197891	75.62127301830834	27.88304408023223	82.64542711200278	55.29821012041062	45.42446118968113	84.6924434399229	88.09518622785113	2.901594385306804	42.03924284466958	25.12926768185957	28.4781294139608	23.36947961214356	95.60642499498996	17.64200706850897	39.66137278959264	56.75752167945366	53.86841406423016	42.17746621417951	73.98517165514841	87.87327989016821	92.76126830561168	56.66274366954259	21.61042917224015	30.38679413572897	48.60191651477338	83.0221048592505	68.08103122579438	61.99628038024704	42.97824095434706	89.03969631601588	49.12996720181184	81.38237129272426	67.28338539872495	42.99588664239418	64.7410816758602	36.8639518613903	92.68012046013766	25.7878822679283	82.39148871992467	82.3922891288218	75.78296468373931	10.9463068991438	0.887615643281584	95.72342345593538	21.94671699504085	2.19426895412128	91.22278062198411	43.00610372428396	19.33224139244196	48.55933405877684	12.74124177197549	98.67245343229756	63.04082157134508	15.3567721073879	63.8563516687451	36.72352951167834	96.24426396415068	25.70277146577626	87.28382414779125	64.81229564826737	53.7331246417236	46.23483857339507	36.05217192745701	22.07844443200717	2.81261937148544	69.62018604128448	89.73860088222422	55.94711918314148
item24	42.79081722455356	52.49043502580807	44.32654112217731	40.93222271641596	86.22914884317196	54.60510244673993	0.5309160821123483	80.38087237321895	62.9585224934509	10.90970693006294	92.90148186640803	48.83082957423774	97.11648536979726	49.68118724668081	15.01759095179382	37.3293153283412	42.66215958374457	16.35350915219105	13.08894017404372	37.72760336470869	5.744493778603558	40.94189005905761	81.49214261447261	38.29735962719123	28.02670729878533	25.04400580803889	67.58747879148022	44.10055323604363	15.93490227203234	15.32162405499063	60.88461879103988	43.88591807779468	80.43287351109679	28.70862768775121	86.89634049462188	54.97228997361615	36.7183869604556	97.31902950728406	89.01949971094727	0.7223919604081996	43.11922302760817	26.93327715767957	25.29882751150963	21.73020717669577	93.05080033377254	22.6878580724973	37.13404358927308	54.73136702888007	54.61621099041113	43.9784713263837	65.86317874869415	84.0097526957702	95.25983349757067	61.82688402573853	20.83182926911227	28.99078797331538	48.14990289253054	82.09156097784246	69.27270585509942	61.00656820201116	40.39976058765976	88.31247613850718	45.04604887335832	76.9371316764485	67.37069983427105	46.02435356452359	63.78105179083593	34.84001945415987	84.96427216330993	21.37061264680248	82.09308296178338	80.45231545125195	73.19170380384001	10.41080735974111	-3.014959275208458	91.5875495125139	22.41248992432931	3.66987274913852	95.21057410581658	40.14389576887174	26.64013510918878	38.45177779259989	11.58104365037451	100.3741331698232	61.01415432122795	19.32478009358891	63.38620164857322	37.84875814319157	98.06394144644321	25.81898487793865	89.63525001198703	55.98814585031329	52.43462405178063	47.91365377768801	38.02955701899937	24.13737281197628	16.66594237006552	65.09374624763454	92.09192062899839	56.14598894844403
item25	48.36852989143707	55.16473700808083	37.61350129097679	46.55411780369275	88.34264176134839	60.17195730542736	5.994089800716655	83.64286906173028	64.62858270935673	8.594663987604893	94.78345986585784	47.84299464509375	89.62061525347092	48.76494665193165	16.4970393823773	39.33300040146029	41.15131314187627	12.6656223465343	11.50649725723045	38.53067452069493	-1.205385928800754	37.08071675930785	85.0369403092085	39.18615270813285	26.48969082801276	27.53570885644487	53.97736598713929	44.31209675957871	17.41987037865	10.65468516077923	46.61157036993953	44.17537646782963	79.57897133959021	33.65464016671883	84.03589607704514	53.74608218778766	45.54493822217297	89.19829049364608	88.36187920258349	1.912450901253927	41.90480400033105	23.00255896093755	25.32187806165287	13.3515240912808	95.69404732378774	19.66412865428679	37.10409325016697	57.01238718759821	54.14039641471651	39.26094682654222	72.12445868831	80.76739593799751	95.14243408239768	62.60829781971548	18.85476166723121	28.43622142628671	53.56223658931256	85.33104986622111	71.56685530667083	59.22878616490991	41.43490136399314	86.71038295234536	49.40481409193641	76.13858969857142	69.37045927348817	46.88756506025938	65.71753535336842	33.30564406969518	86.19084104303758	31.50749054448247	83.22111588257874	79.48917245736011	73.21144774486558	9.699459445460013	11.24010951246205	96.3022716260481	25.44182193804501	-0.4796715291145084	93.94360634801984	42.08206361228502	25.53848345921059	41.61279351534915	7.676005752591076	99.49633545477829	61.33218204446642	21.15526261788272	65.88861217627557	36.54194342972185	97.42822551448823	25.2525500646985	90.39619744772268	64.19231649230298	50.45058596558224	44.72429002975144	36.67320619433664	21.70299895268617	1.495957779199016	65.25779911870322	94.1578201882848	58.25314631263514
item26	48.27246762819123	47.34840232851944	39.43876677113868	44.0731461563627	85.75209087731744	60.10556732377351	2.617214995876214	79.74099767644744	64.68282219421836	11.97338526020932	96.20015054863379	51.49662126901391	95.08549773042907	48.23397511300725	16.83016088449054	31.45375447098068	39.9388045541824	16.48285682548142	14.40916228416033	39.56748576874862	1.555804617540392	38.54994943128114	86.30045670051439	39.96349168378745	21.64929736546796	24.15283502711892	58.82579013582372	45.64172588101316	10.58527269351466	12.60134537121574	54.16004807958377	46.24097916832206	79.53464855917154	28.6829423774666	75.88854346640285	54.4063792662288	43.05647316290235	94.56784939657392	88.05649192094748	3.584382287453914	42.68795627819404	20.18564735109551	22.13020992042727	20.95957860276308	96.39025374705089	21.36504138357255	35.66472115711411	59.34830849338753	51.62005981915399	37.00012908684271	67.76919035419877	79.38202398837231	95.18916121737615	54.88585332935007	22.16350898397257	26.94150728059641	49.71789077079605	82.81418614083766	70.57735467468817	60.84443694026334	41.05317645241156	88.92924733929895	50.73558885174305	78.99945721287503	67.36070932622791	52.59664326671577	68.30496740583901	32.78096547076511	89.64793076218048	26.16753853694966	82.93592102378459	86.66301387436559	70.24529541161648	7.693375089496691	2.892603662751341	91.74938423455659	21.44496547221423	1.005631695186428	91.38152499209306	42.89201203758164	26.08723738995105	42.54163051400272	14.96291925627468	98.85572683772445	61.69446511457366	13.22565106066093	63.02560878632219	38.06904301039119	95.1594197547481	26.95455287640086	90.0237599637226	64.38816668966173	46.11019294820274	40.72932945188237	38.35378374413157	21.99787005415699	6.921065828898763	67.91623364481192	87.25965959363738	58.15651919385701
item27	50.16084826795804	56.88552837779387	45.39966284530865	39.75395014050481	91.40039042770687	57.22512133307546	2.778190191219571	84.11649895639378	63.25239579966493	7.637039152039645	86.99086360253268	51.80671902980169	91.24919274675054	49.45702761906389	17.23546516183384	39.39576745553079	43.39281306679705	16.44507409767415	7.55163750253308	38.69430855666401	1.398606701355337	38.44347483199344	86.79955910349631	38.03162733976556	21.63265389027561	27.18591228619049	56.48456811154252	43.22449402577707	6.717605413636558	10.15526738107655	56.83043915470396	44.5858487846053	76.25083121929278	34.79931547160354	80.05240508039776	53.54107323602377	48.58629149304534	87.47188206720256	88.47829266197579	4.677521137803811	45.75350143769021	30.99160787569795	23.44731130014233	24.27117873170886	94.16181278804538	22.09727562883533	36.59943926377379	56.46770026059001	53.41608596169236	40.66349336691115	66.15710412728582	82.10570137357747	93.70678246779892	59.58597513592552	23.70378490888594	27.47305635825998	52.88517203869487	82.86575435088004	76.43126456503505	64.81834314429057	42.41425161401543	89.72051096492739	52.94485267092841	76.73278760656996	68.65152408093192	43.98115716415523	66.35947162052167	44.13380216288945	81.8960441710696	22.3769170543137	81.41054077273506	82.00289052258223	74.05929429394816	3.723775768256367	-2.333242601089641	93.35040659429814	23.55009746666649	0.4179520567288717	98.97313045606751	36.15112929738065	27.23339501284481	40.88839548174368	15.57958166644084	99.99689245910039	61.95673354702047	14.74320405168868	59.38072601293965	36.27318960434054	98.77170415936524	25.0870454654954	91.43176649938681	65.21779402092518	48.29334338336771	46.1813582754918	34.3035016843879	21.99757505294012	11.49300202388942	68.96376543511685	85.84495689798365	53.12032854637523
item28	47.5470748901793	51.85106203000304	40.18227608106211	49.39183941918469	88.41354542640244	54.95147653681422	-5.356590544844824	75.43420825361703	65.69060820976829	9.757535484684302	99.95161588511029	51.6942847817035	93.42271480776883	48.24410506512344	16.12370223573084	37.40326035986376	37.76259850442354	18.30445300672846	10.53373940172114	37.45803952307567	4.423257179124679	34.96053137157175	84.57908998676487	39.21549583626377	30.9941648032923	28.73530963840128	60.09134958027565	42.29178525216071	16.71894950010699	15.13864113174647	61.00390503903343	44.140987941357	78.26731777884028	25.71296007062936	84.85917428771509	53.28039909459537	43.66469995524754	80.97109515768253	88.77409102394805	2.367720015390735	42.58757771382145	26.55361078616339	24.59916395767054	15.0990501800714	96.90830657147225	22.29305465149933	39.01797162872615	60.43464242755599	58.96307751116306	44.01095366783903	72.95564558963176	86.83885951000205	90.33642046996678	56.61207458664053	19.7639462470939	29.98914987969257	52.99960934944999	82.14157459357926	76.18856600731336	61.96095324005135	41.85392059446087	87.75811365854909	48.89194903366793	78.15595213590264	64.56018482392562	43.23940033573993	64.3341948761292	33.79931308342111	85.54814414520872	27.47652264351858	82.22854685745268	76.12322624834377	76.3726782131217	6.471702482312875	0.5624094065522813	96.52010385735174	22.0371347277496	3.148758196295749	95.79182111791988	40.26138890055277	24.02540790886797	49.46252087201471	10.80713415550686	99.8835918354284	59.81922205643766	15.84073043092179	66.34534934726568	35.59404687164079	95.50957387390427	25.41618076418957	89.13758630063936	61.28092640112948	46.27603063454578	50.80321273666556	38.19519491045109	20.53964126544322	12.55888049840837	68.43824582782304	93.41342591523394	53.90814154512049
item29	50.13583737787454	56.4422230810132	47.30100257257168	54.75793765732364	92.00668356782029	60.65892708519439	4.414274041287933	80.23873888523856	63.77583054647477	10.88701210819274	108.6636678055898	49.95954453523087	92.18977602190238	48.62548573237971	16.8727899329557	48.06757153617806	38.9680720107932	14.9316118888848	9.776601890892977	38.37691534372404	2.492158999382928	36.67096687947219	85.83699535725827	38.52435579109702	30.04910580704231	24.17697356476236	55.47941358790536	44.28488440839052	18.1411759480725	8.851220491635367	56.62111148839642	43.1655755856945	81.42896673274009	32.10561867985052	79.63005655144681	53.17470383155789	49.53017512843477	92.0369062512855	88.55387959099635	5.484197396172371	42.11964882336741	30.19588528661627	29.9691945072132	23.41166656044928	92.02553486224723	20.64971410367237	35.85302751087555	56.31806089969903	51.19169455629964	43.66963132752539	66.6281046774434	83.46386014550878	91.37975570712315	56.04234536879596	20.23440294628156	25.97449281054759	51.36845220461041	83.85759084777828	70.77311130506939	63.93324810683738	40.83591374412077	88.7972116773627	40.78838179006992	78.06001405529986	67.7382743745095	47.96851320454445	62.87590144539158	31.0052207393345	85.7415669475633	29.79494576235872	81.86551398134618	84.68566922884439	74.51366407799296	5.656149099261121	1.133521937237526	92.178317149002	24.15527857516414	1.897614519728956	94.12658883916109	43.09704151412145	24.60576651835918	42.75132920485623	6.937805508470061	97.04553751888825	58.00871499271165	15.40101171537207	59.8916768126571	34.16183565193452	93.9410915097754	25.09035790154869	95.88604780767568	69.81602523934951	49.12815144834132	48.67667666795341	38.56850235658179	20.52302066684883	3.158729222477691	66.59713254366945	81.63464225747809	56.35286551519477
item30	48.26310727624521	43.4472426581227	47.46824805570331	40.93448913951742	92.61302475452096	55.22458816302553	-1.393868420524212	77.82989209604338	64.02564026297973	7.112933999866437	97.29134506037796	51.40222559576149	91.30854078166624	52.19513755253725	18.91423200195844	35.73776469803244	39.02734416035698	14.20304106955209	10.08404614263762	37.9801398703281	-1.210033567390336	36.01713046594985	88.18958445816058	39.07338968519398	27.76504651541914	27.97229268332806	58.52544239782395	44.5455433739511	16.19499345015719	15.20149784187275	55.12965676308289	44.94995951128821	79.4384249476125	25.58177694782429	84.23801820554327	53.75510712115596	46.48095225176027	92.02039722169127	88.04145514465418	-0.4195315628538649	43.04750275317058	20.34729020300527	25.40569133807025	14.7809027344125	92.13692794320133	26.52953287721824	37.13627564745317	55.1318437306934	56.15774605390533	45.67174400682554	72.4365588881539	86.53429769448788	94.17263695170415	57.77920383517284	19.89892746028887	25.96024897605539	54.91297383692724	80.20160655718961	73.0690084017523	63.54459587569009	41.74339642811421	89.56556619801626	52.91956043443749	79.00783709170501	67.529443869091	43.69334369478833	67.99285963456049	35.50164396179505	88.22160765609034	18.39573804256259	83.01964774012734	81.42862112690104	77.23711874429137	9.501875317569878	4.221041987575999	94.18966942501606	20.04123330170384	0.07247215647116434	93.25646763297618	44.85298035315412	29.50792569056365	43.69680377997478	17.26550250761463	97.5241954511887	58.49573375915217	22.3129027648127	62.96745809737954	36.03798818281491	99.89018918741634	24.68064067257666	88.1710513134439	64.84525435499913	51.96491575875316	46.45675922231336	39.20679020730893	20.53758663017182	4.86960771843964	69.44208682645872	92.54753783822271	52.83241658154431
item31	49.78357819308645	48.24414943601077	42.64796564428398	39.81097829510188	89.61575698620442	57.14605135798473	1.156393054685259	80.91096453676428	65.30001072047267	9.575599118873866	99.33407964863636	53.12148492669865	90.13969084281968	51.07499456666552	22.74033979480987	34.32930521838215	44.91888742345184	15.16144129971495	13.37985262547183	38.78515348000197	0.8972275730681251	34.40477490392816	82.93649561772196	39.65457298662184	23.07295014826052	24.37152175852476	61.07431584449801	42.13107747150527	17.7100583517459	9.072911187325271	49.41425983029082	44.32345694878131	72.59023385310124	30.50637315038182	82.25113146652963	52.85598238774262	45.69010264951984	95.85010442514971	88.11485258599917	1.704996593005414	41.62530161209363	28.3760551897561	20.54622324609281	18.41575932378401	95.29920227444056	17.79470341361158	38.99107606757153	60.32622784159594	54.68301650904423	46.50890580343541	67.13831983464596	83.1929700728693	94.05388824603376	62.37877259364234	22.00334783134761	28.52484135690215	51.848877059881	83.0939034379038	73.71167736333761	62.56562735157925	41.70546388214412	89.75921681943679	49.71491166476257	77.21435982745089	66.96055027843734	45.28528754302609	67.82231567714669	30.54827051849155	86.90868168781687	27.49852774009164	81.71105133231495	81.09742326214406	73.30492007720268	8.971960930833994	4.929823745348612	91.76976007844152	21.25345993398306	3.570827301887798	93.74235918301586	41.8695834364779	31.22342967039838	45.05275188746687	14.96394377728451	98.50167928684129	56.90126529851004	18.89119651556508	61.97343456669329	34.85687822265117	96.45473921699636	26.27311187806405	89.81088071603129	63.46285817785408	52.03493130826804	45.18623255736266	35.27290980916762	21.77423795165034	5.310693067660508	64.81006591692584	87.21572508452198	55.08059011000931
item33	55.91433162948174	52.36006273382213	36.52833421418216	45.96096190036216	89.13273751361302	59.21433873004458	4.075939711392717	79.2983336285444	64.75113054205929	7.429185835855032	100.890198959313	61.00832281296332	88.82227836421541	50.44101252344989	15.91969670047236	33.74905226106266	36.62521780601077	18.03324825326989	7.54072516841242	36.10673518105606	3.466466713068574	36.59939076230942	87.90227705819423	38.93238253712477	24.94011505001036	25.59214781475479	60.8949564511259	43.32475207901012	12.67598095999344	11.42754230071056	62.86173589760227	45.55052880243061	77.05867003415662	28.97484416114131	81.44652743963468	52.02535990085287	48.20043677559454	86.37233935404541	88.49844255772898	4.058009590315612	42.25600125802644	23.95832023701236	31.94111492882801	20.59815628259805	97.01473585304745	20.92640538583874	32.96245752041217	54.95280217184786	58.38352466491961	43.92274220433202	71.38620324110488	84.01941139097104	93.96069199327034	54.49971194454658	22.81556596447031	28.45727101845952	58.79112646468597	84.68489772665221	65.52932351262554	60.8769127873969	42.1189125346664	86.95036314915372	46.81358148261177	77.7892271949008	65.97027572897555	42.59087767572316	69.36590331670436	34.18576674870581	83.25796526691082	28.34572326125014	81.57479306011959	75.39526995165822	74.06945873938277	7.7174008631211	4.087551405892615	92.18646580539701	22.1684600342983	1.804417278765016	93.33212087503503	42.06220994969118	25.80396841810485	41.47435512311004	14.68694962199342	97.87242992687135	56.92764857430132	26.0268383603492	61.15384336354297	35.69709886201714	96.38342492316369	25.26515776806027	87.67491689406566	61.17514692831055	51.17083269185144	43.52520267922215	39.39452083860311	23.045430197766	7.818736111373401	68.98717941074757	85.45557163318642	50.54196578889345
item35	53.86948639405388	97.62187277614932	47.56588953193685	3.604710681507399	61.68432980112606	64.07880307862537	76.83257643009421	20.9452730665169	98.83484491415597	32.55272234861528	84.28135623875423	17.36220602706222	38.54227717017768	46.06141659105931	27.49685249698395	24.34920928237226	46.46088277060024	15.66969656876504	45.24083579707511	9.525063261866164	56.78780908825615	7.231062454245857	92.88717232742208	50.92717066176386	9.136528148944258	-2.456159959977209	58.60983725353938	98.50270085701078	92.68732547987385	19.23335687088919	96.75173163814966	3.587913734437875	92.74197026083847	102.7898530775864	38.23680838264923	-0.1047292837889042	15.44439459785533	94.5566738895634	10.57982811156474	39.49041724384622	77.24377123008102	81.2157867732742	46.40320808131872	19.82337110871613	46.8887404582984	10.21276289665629	52.178793713153	80.16778632550225	1.718136067439962	51.21628901895333	84.70884519750477	48.92027861829949	97.53138221978985	85.58955274476234	76.81255969048222	15.95175667493666	10.37546645674786	29.96165454697949	48.30592151114513	40.71354287457064	31.17949521283133	56.08004524629126	81.55960882505417	96.26890193131868	0.9669565854512288	37.62412681064354	24.41719225342199	91.25003370179157	90.21805749820727	63.90815665404494	84.10321576941072	18.9024546700394	11.97266732632014	14.08946557425309	93.7708747154266	44.67849578138117	82.31184033360024	47.35819383882834	18.16552364715313	89.92604714391786	66.00413648780821	58.7606163523405	40.84649355082245	64.40870113806977	17.36355202321007	101.8447771053462	89.78978965611086	46.36198138346609	86.8381578621586	18.08764876947517	44.50672242128572	42.85093444963445	93.14995684419384	9.09750947486561	41.22618036419697	39.5184639423281	31.20766818131986	62.54322124738745	60.48516148116791	59.91122504736118
item36	51.82042883565605	90.34454862383046	41.18919355465802	5.418219825604226	61.77673783684889	65.30921246910859	71.76161866615624	19.2802272555093	98.1418546030181	30.03353296518357	84.17711805066961	8.213430209497732	39.49762152151389	50.47867731739477	25.71431050248018	22.72863474491406	51.65203768904389	17.65394528628527	46.48065140794944	8.838900380350092	60.30498539092962	5.339869239450965	94.76054873024005	58.83574838745994	3.323999639917801	-7.481238879625779	56.14752555368884	98.60466658485758	80.71972535965416	17.46962656406802	97.77880461948298	7.27576457051494	94.70920979559772	100.6291416116841	36.3227044259693	4.384891705494732	18.47887224329315	102.413693052663	13.01054985987562	47.05124969194503	70.77945738921123	81.20125154523225	45.7191619025231	15.59336006440484	40.88528953383074	6.931493279755419	53.02604536403011	75.43884237628382	9.590183544020478	62.22526465871491	84.99686158611507	47.98517839696005	99.09453961494677	82.48832716332632	74.50982881286096	10.86260493828981	14.85275020273522	34.30737211945711	47.63969204732155	38.85271081280746	29.58284125220123	55.78764135165736	81.22624992783444	90.97452389945661	0.910368137201454	38.7221688437168	24.99365197238597	90.75261291989889	88.58248748364633	62.93583618049061	87.34851221738563	18.43193808949065	8.475238917751289	13.54463135902085	91.24289964866645	43.34529741551476	81.43716462762248	52.95267943782384	15.51701393569541	90.632155141162	68.201863362555	59.44272918878744	36.071064666535	59.91683582771732	19.89661876551828	98.64391869002741	85.9347107288346	44.80662053601259	86.60097973678572	18.36734732234111	43.24478482739768	40.11304167280986	94.68099888624073	10.93459195426151	41.83131469114485	40.77131746183593	30.15711793898796	60.56295080100166	62.1607365891686	60.10069824571003
item37	48.14453982526927	93.77472941831435	44.96514801317433	2.804713465096652	62.46068556366068	65.58849506237442	76.28602659713614	24.55945227318932	99.28680061937465	32.05573737229231	86.12342819869517	10.70518567759224	44.8957124133349	49.57403872541375	29.24661504974611	26.45697823129897	38.73449120664045	17.36861245061161	46.47613921449869	11.12417232506601	55.98330758304788	3.13260153698044	94.11826573872071	56.13505716246668	5.699851094995863	-0.6496669935223035	58.64453322974234	96.56906668618792	90.75259858697211	23.65090701511298	97.8755072892431	4.65929711999383	89.92318672053162	90.97065748735865	37.65621414660608	0.1048194094182606	17.43374038289643	95.97114131040381	6.874535727501057	42.73070862454234	72.9024650817138	80.85822919035022	44.03775506373731	16.85196300629331	39.70367253603147	4.968349345871468	52.96581902064698	79.30902468183676	1.847402034656228	61.25320203882206	89.31062439096556	48.75522125091322	96.2197734494188	87.2322861972989	76.03443525376333	13.87352046919287	13.84712308899126	24.76599683210694	53.08777313873964	43.80718248994102	26.28517209058367	49.08946665686324	84.18963565102855	98.85845040683253	8.540526112649342	46.87528959753628	26.00412057053045	92.96506352732257	87.65050534552888	61.9670399140399	88.2696052207865	15.36791520149683	5.968768810132	13.69862688569998	89.13502517657123	50.34555996587787	82.84192462951506	52.47940522151336	16.29722124020852	87.87686711829163	59.98763566919359	57.42991568456382	40.36295812741739	59.47253126600523	22.10916965582431	104.9669429302188	84.14001764954304	45.46371705464258	90.24102231742918	16.04722329948817	47.27267196168845	35.73920537738422	96.51795761196406	1.29367736428611	41.58547303453599	42.14033256151382	32.5219332379109	61.95083693649995	65.11484929956811	66.39163698632295
item38	56.58257654977683	92.98105020132603	48.4115355505015	4.093248380441068	61.29459598014996	64.37794729644794	77.45160860162218	17.83892676221201	97.0828985455957	35.90767555469445	86.2320248892925	5.362174710768895	40.73338705512499	51.44244455834155	28.63425930642563	23.35690918999076	47.78890869027261	17.13364214385696	45.98868209307252	11.31922990100212	54.74822835363715	9.032314669512331	94.59034072693599	48.53347547544207	-1.980662818266894	-0.4305987696326182	58.06441368162996	95.45838046855991	92.65601371293253	21.25439666149511	97.68274623795492	5.322054395345378	96.20808747555469	102.8477760402361	35.40298296771164	3.796064028671925	17.42436875782144	95.49407304528208	7.802822671248791	39.47182996388725	74.61033789240655	81.77627439438967	46.13593837565793	16.05842658684869	49.07265538825126	10.09732466080929	48.94568185879171	79.5102616874651	8.70943270272158	54.29255227969712	83.09767886137259	45.53258612910798	95.9100371676562	83.87116044731397	74.6037008845678	9.603093932431344	9.19629115726976	34.20746073278157	50.28640660506996	40.07715836403595	30.97930686212481	54.07107986656077	86.90323965315297	96.70254202168417	-5.951557387710326	39.18096964654855	22.48063207840424	91.73694378632744	88.93502527189735	64.01952551325695	90.4451696751958	18.49218544535675	14.67039035746805	13.86809430068044	90.63662760033422	43.40657790347231	82.07125532140347	54.18883915142478	26.7476364978843	90.46372735949824	63.75477937904501	56.2313666897133	42.50237065005859	59.08491282006417	15.14828741632057	96.60430796042655	83.80694641481453	44.5041720459479	89.24754944222408	14.7638439553943	43.09596309480089	31.15316858216878	97.11037934822521	10.45136301511151	41.53914706615553	40.48991897619074	32.65704694263074	65.66583987913103	59.25551567616795	63.01870974392475
item39	58.27128535779531	91.3920414516532	42.22911811844917	4.26013284182243	62.01098677367683	66.93366397790864	70.99400636438969	22.26883413890207	97.36057351344505	32.86903100210894	85.11189315753322	9.320513863968824	41.85447857154529	50.25198013009444	28.79350759796849	26.31707856941033	43.06020193161358	14.59758128099417	48.7859222179185	8.283462543265511	57.14951409861941	4.104585838759462	91.5953264612495	49.92518493423176	-4.575109877963273	0.316116849178215	59.80559977126983	93.82602560249858	87.59751222597052	23.39990066840741	97.5653044193198	3.54115752899536	92.60579680840092	97.12260155756175	34.54629084977442	4.391639300133814	16.81965626321325	98.56055464471092	9.50555450676169	39.51755331494573	71.07229966969615	81.39275125989383	43.03362226747782	17.03767740251709	45.28664771919254	8.26780543193386	48.31279499900426	76.35683372167499	10.77399975459048	55.76663667837283	84.92607177206344	48.64868763560037	104.7781807352754	91.73418000644662	75.41475692171771	18.28941943617227	13.62027242899601	37.61636590496975	49.75443421448487	42.08572203108674	28.03494911044955	53.65889976517764	87.54615123454946	96.11919762124509	4.894968430056004	42.47979418945815	24.32932972092618	90.34357718219974	91.60469933943779	64.04840153202774	92.98177111787075	20.36331820581919	6.735900929861977	13.92363921180419	94.81801939223604	43.26957085591623	83.35171843689677	56.54156110038291	21.35993343747234	89.4279377871126	67.85786523966875	58.36763831018384	34.14896642704743	54.54203024055024	19.61892298394221	95.16548423676953	85.78050627773088	44.31006940634537	91.19308681665814	17.32349434254548	48.69995213209545	29.83704840393831	97.36737819208339	8.584105285705377	41.74417480481921	44.82344469323904	30.57886103749226	66.52115212925284	63.04248154492338	59.56356054262753
item41	54.73286307581562	94.58738403990608	48.6865586144211	5.29553860989602	61.60125862961718	64.26727441483908	70.12987824205514	19.63071941374415	95.25954232534394	33.46597761380114	84.83382719046043	11.13336016566023	42.35882475330267	56.53692252802693	23.53855942508635	25.45072464950664	41.70145514715879	20.23438910174929	48.66534031089438	7.575287730294624	54.00138210591157	4.404792929396614	92.63900815499142	51.91375836009126	5.296936317170693	4.309102680952178	61.70495074015785	95.75064378252956	89.40787255585747	19.02275407358083	97.74955744850658	6.080790455845812	93.21895627423194	91.92856486808452	39.98872599860049	3.466854995867021	16.92446314524495	99.34893124379715	9.187655072178625	48.53692835176908	73.05732012027221	80.82758371185292	41.69692057464562	18.70826574683078	43.48548415156511	6.354736276728218	49.85081168442865	77.85607774592818	8.852932616641723	58.1797840068193	84.28284471943608	44.35445280498017	94.67834148237661	90.80270693766181	73.56592470145154	15.79759242912932	12.61631582387254	30.84781575109045	55.32718760602938	41.52769164421137	30.92884638893888	51.99698171457804	84.36022258073838	86.47080862829877	-2.894279353009568	43.46240590739679	23.68142213912595	90.27990048140818	88.58400998009724	60.46332635712542	87.47948964056134	22.26816612969983	12.98029213583083	13.10890608738692	89.7694737646535	42.19189914428535	83.84946649295553	49.7352012975163	18.05383325866613	89.54872921046854	62.233577438358	61.67637539372527	37.59419742077198	62.89619007457517	16.91210500408318	96.39604050953265	87.05949148268918	42.42897174874201	81.69692265084481	15.94923748086465	46.63952293489046	37.48036644357396	96.88425213598516	7.379683245919461	40.89697536936511	42.86159036245225	32.3493780440001	62.80298705360632	58.89946801151773	62.01775329019584
item42	52.14901300960552	93.12967676750812	46.96884196609938	4.01341599345938	62.02818384306457	65.03715137263552	73.18226296942071	22.23050636762778	96.92402763185925	35.83685573162968	85.01602046353634	8.111042401227328	41.86364381914992	48.8717307916443	28.9162856311395	27.2874801904483	44.16249986855633	13.46996649224917	45.89598863425869	10.39879803716777	56.01622549108968	5.429059593946144	90.86205377454021	55.48401680674959	9.053261909309523	1.219201977058274	55.28580019873094	94.59713699413861	78.3462582811767	20.80737131561492	97.33141182316193	7.507150323515764	94.3064144338535	96.48735492138118	31.68007427866928	0.7740916258201818	13.99651903525728	97.04688539058193	8.855961422335785	43.76733759939491	68.0285669768316	81.73861370565547	44.8660320817427	20.17699061316383	41.21348172623954	6.515146847492415	48.11805747764208	74.58349594769571	9.39531130056165	57.65029116186851	88.95713208351351	45.84852566298659	97.94539676985595	95.52125958877203	74.08858305927065	21.35036523631566	11.85334754127147	28.5630535550433	51.06294313681848	41.98284401819057	32.44124053296918	52.05177428098897	86.36504763055675	96.41871176142847	-0.417069308954976	43.02517074937781	25.92675053584873	91.84402789751171	91.38331466108262	65.18051939501879	82.00630311904493	18.77963934362405	8.765016717093051	13.39943838276904	93.47206464439812	43.43113978076202	83.9779640505344	48.36535785143705	23.80305135714896	91.19333942993204	64.83393094386498	61.4848620974284	40.99235454397962	64.92601309822562	14.15060769879379	97.92413296139024	84.77277674178352	44.27415536563128	80.56826721854517	14.41019764488496	46.9274753617093	39.35313226577624	95.79500059235204	10.92617664046553	41.37757151094894	37.56530306820504	30.45047906822443	63.86617120830572	66.10554438284692	62.48410035928983
item43	58.58359222264186	93.26212429637711	45.37250957750827	6.2024580042384	62.25104181889892	64.61617687840781	69.61938047917823	21.36219415445528	96.64632055550982	33.22092575296645	84.73659050576994	12.18253311109971	41.47908536124214	52.49531723525497	28.66609748218712	23.47391967551597	40.4225678354978	19.98941750326015	46.00768904026636	11.9084402636462	59.38690554014509	4.557545433904004	91.15829849222345	56.58169208665826	10.98095463857821	-0.2376044104586875	58.32314787612118	93.03727164415338	90.00754056887274	18.48451062927263	98.11317221670701	4.273159867190348	90.37590869683257	94.05868698734106	37.66212006001345	2.658395820998857	15.25845231542529	97.26175446179359	8.430017621742694	43.21487078530969	78.32121685057542	82.26875019928397	46.09219302661468	14.85931629722527	36.99726836401522	10.73197723584145	46.17335379251769	79.07824105944138	5.918621668081814	59.91850545872326	85.52227394040186	49.40024520448415	97.61099515349437	93.8192841790904	75.46604162267992	16.54080443525083	15.76242388991964	32.92143858212977	40.3686903271929	41.36683016045433	32.92127431601085	51.75714541739728	85.63497471469483	95.17524959080825	3.009691749465588	44.98246484600362	23.64632291363488	91.51702801311686	91.85059215674275	65.413698572269	84.77354308546285	20.9931341462973	8.720602803454138	13.92768689345673	89.49058877991889	37.51711176551226	82.16485596053192	54.09148255371968	22.45487248725124	88.55818689053984	61.19903098047642	57.39250916040618	35.60491932991759	65.42486567401912	18.63817856602888	101.9466897127765	81.93471493546753	45.30345913681893	93.40178253288397	11.64206646108448	42.72993626727213	37.34732868321829	95.38067687111989	8.297022884481937	41.59745266767026	41.87472219045277	23.94806581944004	63.9207308763647	61.74099100067706	57.81483674650067
item44	60.31205234426695	91.71586486066766	48.21851990664411	5.365892171757856	61.83878285217358	62.74051110952693	71.4813669699387	20.47986954418587	94.74354769671643	34.67568181831581	85.7633402963119	3.374242654239259	34.30585933500201	50.84577639724477	32.41366389528818	22.95749581697218	44.66401396164842	17.61126272703036	43.94724335395339	10.36679988213719	56.9168160528865	9.05243073691652	91.82480839654795	47.63297264579894	2.078220029728913	1.85464978352982	57.64070027269719	95.84513206075592	87.14226428108269	18.85805948394909	96.33411951957923	3.734279278312422	95.48171115074962	95.62281650396861	35.38016333954749	1.67204554819603	16.28628614139491	96.21809904957074	14.48772371537741	47.82277170886545	73.63244377756951	82.13882183843829	44.68710513787247	17.76879539572897	36.78336035149245	10.44051813275561	51.22094473912004	84.23099655861159	3.430963075971399	54.29103394719413	81.44384717305661	48.36302687470365	95.26477367038505	85.4878972831836	76.02187341736773	16.45421438587329	11.12428844660256	31.30262361456949	44.53027803204797	42.72781055668558	32.40325000759549	60.39741595142514	84.73960887538502	95.71919170026862	0.2064333276341777	45.79799261307861	25.10248872582242	90.35191379186246	89.26643501872361	62.89181758215224	83.74224855092368	17.63431055951963	8.240892217598709	13.81935180387706	93.67989695015918	43.08227588039829	81.7061494481958	54.22904883102851	14.71128905278238	88.02148465045849	65.57164418762093	62.31845769415839	42.02556514457254	57.20181314850264	19.45477025702062	94.47597951164013	82.19802109357751	43.93184699193197	87.40421938061064	13.67181077805003	41.30167429113168	35.95383131743502	100.1572138519238	8.601457227257514	41.53707070961775	40.60835666449533	26.14721261411406	69.48330598456295	61.84402849802787	60.34613634051935
item45	58.21124212057724	96.47013307656619	45.18548068211955	6.966886067484402	61.301609883937	65.65884677343746	70.63145991383048	18.97689574402577	95.33715129756679	35.25714510135356	83.16297109916869	13.18018454876862	45.57055829463575	54.9679903696745	25.30596799442261	23.9823668413779	45.66685401315463	15.70549872331154	45.58202423907361	12.12379413409968	55.63382993855631	4.590151457225164	91.07063444748132	49.41701069143205	14.45521579449965	7.443441690902738	57.04114311636933	95.46179218277938	91.84858772833691	17.88012277777088	97.64063045696956	4.63345876364335	92.66481907115498	99.75903351459503	33.99569790326851	7.462443261243166	15.8575584814379	96.10024129407839	10.3790106766077	44.16917574492474	76.9630625505941	82.76265256759866	43.37982596623485	16.86198542897079	42.19786801499527	7.631707754080762	51.73604105253089	77.9256612577214	5.536868815850773	55.17630813494975	84.01489065178815	49.21103166121458	94.00756981152659	89.83492448255767	74.0755650692484	16.44369527971442	13.0212860955737	26.48404720979907	50.20462657927049	39.66838603003997	25.62058199810116	56.17285280247926	85.45990662345262	93.50518543706958	1.004855657226254	48.44339373760763	23.96915623693317	91.61041157397818	92.86105968927986	62.87150159146419	84.39720727342532	17.24266638833416	9.514237222046955	13.78563771166568	95.67218806287084	42.84361963058886	82.45418340495611	55.21607765164534	19.70066588617284	88.41041759597819	62.32168918215282	60.04778349873534	43.09207145708005	62.66183159850848	13.77320642914494	98.72053324257872	88.67838874866389	44.50188067402891	88.08934597177702	12.72240632149314	48.14622114272993	42.16856169889883	95.34851888926703	4.657464994367138	41.65604147954947	40.30081922573203	29.00523478468425	63.45424896628005	56.88026039771724	59.75500562530783
item46	51.52815839825105	96.15075995746848	45.1780029513921	5.886266224957341	61.86410737908031	67.24730676800083	71.49266541058211	19.00665803692943	96.31986647952282	33.28141007867802	86.44856750288746	11.46819996855283	38.307342199504	51.71275987925592	28.85076063114612	26.6476757392206	45.78286554627783	18.53147771236679	44.87552945706752	8.233804527361086	54.13133612402568	3.528876894851412	93.76379597390161	50.43329973862011	2.668085712366025	6.953100612703588	56.28831768987963	95.90048718824175	84.93721366910306	17.98409793944537	96.31356571829512	5.420060281895765	91.85770174759983	96.51579527363067	39.241450955252	1.765630966810621	19.29680479751635	98.96390319527032	11.77951525869717	37.83358080500041	76.62284201434828	81.61694535023092	45.12130118654336	18.04798709700296	36.58191412204081	5.520310883075801	52.71464350612882	80.72812389230238	8.763293020520246	57.27467903543663	85.65985052265077	48.70494389784525	101.739838736818	90.78295046266724	72.88461348896702	14.88978483602812	16.21208389693936	34.3442060364127	49.20407336108271	38.43290698197458	27.384630385749	50.10580961326813	83.9446435671162	97.84371911360752	-1.054619052379536	44.09193913376116	22.8871501190485	91.68104643926465	88.06724407825671	67.83176524537059	86.57171652092353	20.59010548242447	9.39909778564218	14.12472817206698	93.93624297133518	38.34909390599493	83.14187429691317	51.54601397172092	23.40086827501392	89.69845024311222	62.87942035972188	60.08424923159501	36.71240108562101	58.74190497460411	17.84534228837203	98.81177929003165	85.69642388502493	45.53660018731713	91.33302127721899	21.82346592998676	47.83055163919524	40.63537331231798	99.34014368108245	10.87016177216004	41.61014535513422	38.0161317647394	29.93805534085043	66.12247047027161	69.58483182418308	62.60888803690207
item47	60.82153192519172	95.48735525277377	51.2016393142971	4.448880407372036	61.30136700129827	67.67032244711267	75.07742982135676	20.26510651572012	95.87275845160008	33.85453160968444	86.89483229253555	15.11684595204038	43.5777610266172	46.37857673510118	32.08071990178875	23.59250930585452	43.10289935531652	13.8235451501792	43.56119280065827	8.680704932296175	64.06677755995335	5.551121666566478	92.82462320126119	49.60264663455773	1.296337916657964	4.159517889646928	60.82956284554187	98.61016595591484	84.64693934179665	17.06244936007305	98.3248864587805	4.192336879087172	90.5927158854758	94.28759835664127	35.75423414253865	1.598693253259347	18.12702249826248	95.95901656722849	13.21645522634857	45.03638906562484	73.84562320770512	81.79491334248165	43.56952101149084	22.51900176330533	39.45751212233458	8.81497758048519	58.80066119716409	76.73997893547049	7.539887847201447	56.85906925310692	86.01923470372996	48.3615530843444	96.36826949434723	90.40258074035961	76.2660870159196	19.64698253442058	16.54062958311205	27.79356321959929	54.04846880620892	38.79228613246715	24.42233992873812	55.98042318445982	85.54520731460765	99.21423541489438	-0.9602810288939532	34.94677181481514	24.82988111137321	90.24463512545049	90.1942534329893	63.77957428333975	84.98023448393369	20.42330329363127	12.15505648420819	13.56649314923198	92.45471830125703	40.31915515080641	82.73022999314746	55.78570276760892	15.29793202135497	89.25140892780016	68.21728223886612	61.07682166134681	47.01012576398581	57.22611788967762	20.43954205076977	98.57023269896087	85.98641808136158	46.67462131989729	89.00369348161139	6.061955057306888	44.3503445028752	36.75716321813638	95.16420759500348	6.443117906805298	41.56592295651911	38.62308269112211	28.57919829508157	66.76749411017965	65.10407166942582	64.99952212390295
item48	49.9416596939049	92.25663024179333	49.13171082460399	3.629770385308941	61.90280583339632	64.94835798761149	72.42099921019778	22.3572612609957	94.84579363594274	35.43126919575198	84.56839664353787	5.688277512511702	41.14136165276003	52.0910729097921	35.48113825467241	25.15706624823968	43.16994140921874	16.89948393117836	45.66023894075214	12.02856271629306	57.81887013865176	5.169678192460005	92.48268591952525	54.30628419671658	6.303224883557357	4.293385641263058	59.77108569943412	92.60768262892407	88.07961783478481	21.95768627181715	96.78151178544073	2.674597086660042	88.75092811383121	93.78413684216983	42.33606757838026	2.081610526370778	19.71620386548929	99.20371850115306	10.62110555187245	41.74800923162423	70.42286603215901	82.33795259053147	42.98931911225525	17.33341128661141	36.88532885940173	7.644124266900501	50.53615196235921	75.09080976722693	5.537019946075925	54.81591401236253	83.66653091167778	49.07044241092694	94.54000388115865	90.07436632674637	74.44406159636101	16.56630119877224	8.960803161581019	34.50830481913322	55.83670514691904	40.79268952092617	31.7786745691331	55.8896568420088	83.80580984719799	95.13207189582927	0.8166057526056747	35.78681948799426	25.35499948341472	89.7524727500484	89.39117104576405	64.46837034009602	97.53231969414878	22.93344197400243	2.272764744486008	14.14489918147483	92.68437660313739	44.66814540358242	81.75988819443131	49.80866435475106	17.760581883337	91.22104589063493	69.13625691686563	58.54832709957012	45.32202959467263	60.03548458666609	20.92928452983655	96.67866941356667	87.33782885168611	45.20519369362037	87.84030564927548	16.75560053412852	44.54382141827269	40.94260024091216	93.73404380120927	9.263454988409814	41.37806923891272	42.27382328065156	32.2581719104727	67.18050333639906	55.04868875327094	61.30032437833815
item49	59.19341293302409	92.59189132988779	43.23228499416415	2.659491356421769	62.13676043262515	62.44223676574715	73.12680633439685	16.63096751310099	98.18415837712068	34.08276718860715	84.79351467599136	6.849768721226372	35.43160345610886	52.13954905056795	30.45751534729668	26.8552585894644	44.34816041680376	15.7250587795078	45.82397191357762	7.813191824197722	52.57887252206913	5.519946717952391	95.45261707968378	54.77328338924825	0.8326560184006411	0.8366100337528386	55.13531323915664	95.62588506101287	95.25102097187228	22.3400314760822	95.84760485292583	5.805712166521295	87.03302923147839	101.3203291673577	34.74251231178372	5.25939268089874	16.87567257308615	96.08667837345122	10.10329614550037	45.52758554582515	70.00149096748771	81.36069615624319	46.29533525822377	15.22028300616849	39.68600738515478	5.111805855084434	51.22052049539435	76.13996409960382	8.47347929693991	54.68167528861315	90.57234052223335	48.78053900116206	100.6370774930707	95.52932793162614	75.97927558073509	14.63347975651302	12.09986832581559	32.45592850372079	54.49509232859948	42.63722142889637	36.14029202991505	52.1196249602644	86.04584628179251	95.84585841950539	5.950710973627693	49.38257988760695	24.20883451804373	91.97193129728785	91.95378575559006	65.94572306220903	86.29151493765781	21.9573358154946	3.173092943168645	13.51317325766183	93.21562488126898	43.87783752474898	82.23777811588823	49.28652240316327	19.01987788281441	88.89991746578387	61.02827684538219	57.28848260741768	42.27512174538376	62.30306862990296	20.67253553101374	99.37401749555337	84.21513658338625	44.42992125628061	89.63885795978622	12.86742562551069	38.12393025612831	39.52171821784481	95.86767891978255	11.02443004348155	41.50384757978777	42.58187664774612	34.42106919110483	68.22172983196901	56.58523563799304	64.34347765941233
item50	51.80944220773006	91.46230229877811	51.44043012241712	5.763076718751941	61.44101704147291	65.34090766012261	73.21592268703772	21.94973672827666	94.64815498753568	34.11620857757578	84.98365159355517	14.55904889194015	39.70260866516931	47.69074706966632	33.60449036838507	22.10810399653398	55.12592886378446	13.80876697081444	42.4170032607422	8.504329144119504	55.65192730383903	3.843746047372734	91.23240068078481	51.94227889024915	1.838762990038295	-1.92148866865108	58.29658800266939	96.877616456905	83.61096475067774	18.96905342626854	99.68626495204352	1.342306089751706	88.47319454932617	97.73367522546083	39.32102277133053	2.479608382368457	21.42610871364885	91.56292235026513	13.38212891475742	46.45648515108832	69.64518301910769	82.41657471241808	45.1955941724776	16.70935449633521	38.74518985058146	12.45581603130683	52.6576778452493	79.49205762095623	8.847981232611414	60.97985010665333	80.54381026421147	47.38378819500301	103.9441924742865	92.09874495242002	73.81847529186716	23.05814889924549	12.21341031678592	32.03828430130754	53.61824818213946	40.70434674136137	29.08149129291365	53.63826141667001	82.93917527067443	98.25542160021604	6.718591128422976	39.11561491987034	22.9325799879713	90.1407934035521	93.91461017073998	63.8130831424686	91.2075504318024	20.91692856337925	6.502369622297081	13.37756819751363	91.01785970181912	41.25731247238991	83.01391631425497	52.17757381517845	20.81748289818814	87.810297591279	65.71166173653778	59.80248381964688	40.12027312337665	60.32497472385933	16.23151695989259	98.89114006715661	83.96190398830626	45.90740221003824	96.74843176214345	11.90862335371608	38.08588273190909	37.12936514858253	94.55770478735091	5.168260324030284	41.57302745746472	40.42441203071657	22.8143990056501	61.528596883591	61.35672209961336	54.69529807032104
item51	52.05724306415167	92.05368987913918	48.05319872051155	3.044017897161591	61.73958752722864	63.99350037631253	75.52735171580403	22.49762253240674	97.58211406901326	35.89248286692803	88.87277345712482	8.609115339026602	42.03215743439988	53.52743164254218	29.41550438539588	22.14210985066417	53.06826076900267	14.17063773701288	46.58703242066984	9.14982439775549	58.43758794144784	6.912419659156399	92.91739174786542	48.34606051625275	5.729621598445091	-2.299913178983817	58.81476221032148	99.95201534726436	91.26090892837412	18.55182169076994	97.37419585465722	1.861919536545956	90.42062872342265	94.91548329615956	35.29009252248215	0.4452633570394129	19.6411038255955	96.01967582605336	13.79529129139897	43.27987506435947	72.57453787637854	81.66831830067795	45.27970842064006	16.96430377422952	47.30923523811324	8.109369264441014	51.05315728654865	75.42278277202895	7.106506110078412	54.76862148637194	88.884528963642	47.4813911309941	97.76280718497158	90.30553854224377	74.83536821395926	17.11089706972585	17.09758703276622	25.88066669213278	48.89481460431977	44.01178320278365	31.61861580584527	54.73661243507122	84.88482887809047	91.9911737655862	4.316713969993778	33.75922645589909	21.87739226232513	92.95089535899137	92.93920558667099	61.59798579308299	89.28104154123631	19.13277744401789	7.59715904329996	13.81898872365836	91.96635186542468	41.80861436002828	82.79461171375799	52.71179673872563	16.86183729073235	92.12721309446334	66.05718790348237	60.42337725901785	39.9934451098757	60.56872009799928	17.407835430667	98.29002116190948	88.28146969123466	47.87974811529946	85.3302162077815	11.80475134694808	46.6425216193277	42.675819970719	97.09207768077732	6.399605319396855	41.49826915285826	45.54427690142013	28.51839799935997	62.097984080332	64.13437107678584	59.12246707423854
item52	55.75702038076791	85.35684031327344	46.10886912691007	4.683596544306396	61.68646720861197	66.12507923688011	68.21852804295818	18.08682803601808	96.93329636287741	35.13950097000654	86.87745755423397	15.54496541259159	38.40002943554769	49.55714146424954	29.65985872299393	24.18283161579382	46.01878604265185	15.32542250192204	45.16881106711921	9.442530747256844	57.74497275996579	3.90227092352824	92.80518327726635	50.82202557622092	2.510815818366907	-0.8304701107979303	58.40140956065579	94.43061166946512	86.03802076921308	17.95023123076757	98.42196009142758	5.973425323260892	92.2466671034323	104.4382167061273	36.46174322311885	3.932816630497162	18.46019309096632	95.11104303294341	11.793504652424	44.30443354370109	78.33269301835168	81.20176543252065	45.35121957301156	15.97386482322864	41.17042766030438	8.837489255544076	51.53082836632758	76.86772075988161	13.77514048709866	55.78776022407493	88.02563237247536	50.62173495286999	101.2374782164544	87.31119840482933	76.7869133847629	16.99473449499683	8.65119206686447	25.50419598228996	41.17813284576597	43.90181351316349	32.39400259611489	53.58695863091386	86.03640363527761	92.4377540084223	-1.844469711910447	46.57965784213668	24.46441176059308	92.27190524377006	92.63640634748084	63.19580453316821	91.71068445082959	16.56993599919115	18.05733740408936	13.61154751781169	90.40897029546184	43.18778008232979	83.17090424682736	50.34782353262305	17.64202120564542	92.94047806300061	64.64374976673002	61.47367096470137	42.79051403839559	60.63152843124966	19.26741349201293	100.0215639834172	85.49654330659318	45.30078667490336	89.86516431709448	21.47493725466963	53.32547002557196	37.67490697600201	93.69401444844527	10.9125686905065	41.46996876914065	42.70981333586671	27.109198861892	68.60488232318276	64.57106950388473	61.20599960190574
item53	54.81329447120218	96.11514845392819	48.8060085902348	7.844390230341117	61.14668323555552	66.40453039347929	71.25761641867716	21.76377973801322	97.56346930453796	33.9039903927989	85.28464799113409	14.5775520288024	44.03777072822347	48.99977348885262	30.05613140885588	22.79202908679408	47.51471920139911	18.62087959867	47.62356301928258	11.47263679630387	53.49118965972038	5.398160606179643	93.97158708673494	54.61581418046174	2.685199543848199	-5.062296339361435	56.3052808426082	96.45227588467746	83.79811552398829	15.55130136034123	96.99830138749876	4.768368301378579	93.08363609078459	93.57569099738465	37.06427224348378	6.661963304341572	19.51913655231088	100.6798208168236	10.64675789149253	42.20106161118152	69.57615893247021	80.78073387967342	45.95756011335749	20.12366757926414	42.49748883197916	2.764339808839902	49.48661222700347	72.44804592275305	8.053482954614976	56.74841340532787	89.24006248565432	50.68836939401167	95.55404786565261	85.51351155988807	76.09003484375405	20.36995183915406	14.17898636738729	25.9683562203306	46.54931847808513	41.99702793311008	30.67411152942094	54.69467586336791	86.10772995771366	94.67085238936598	0.605789844474943	45.29416064219449	24.94871268841538	91.81874617564327	92.52923674294476	59.70112133154697	89.352666076749	22.10475349381769	6.075256392321291	13.51753801309999	89.77111193039366	41.92115365471474	82.83615154310785	50.52880440834603	17.69919416649111	90.37462089483743	64.59274352725191	61.62077681054065	39.0205202663513	61.10755402080476	16.16875878222357	94.13991143426342	85.03762049601293	45.38854963930846	85.91672046895707	12.29630907055513	53.26925249826056	38.35045409474785	95.14939685149317	8.046234292661811	41.60216641980682	43.5599417047234	31.88655211634634	60.40594998891912	62.69395194584477	60.20617997791465
item55	56.59499029853383	93.88433386999699	48.46021526105906	4.362858796621968	60.81229582955888	65.18857906008675	76.79775497701688	20.03697222879917	97.06335710012401	33.92419218612168	85.88266895914327	3.346807733182984	37.23817266655661	47.01462119743115	26.42732487999584	25.00478168769826	40.28979139042623	20.56301312954565	45.29546738387162	11.28944771561829	58.29582747993481	5.814258359808933	93.9574633530667	56.22787566759243	1.195132739870358	7.585945601097086	57.41157021164559	92.89865869283368	85.46686510843506	17.09861135068442	98.46601361308191	7.663830837841297	91.05132503696848	99.664549112212	35.374769197706	1.978647579574964	14.36458770628655	96.04651817144803	11.12155315122214	39.63562640424809	70.68480584001001	81.71201573681039	43.10133566993607	20.72511823400734	41.79901667302676	11.58809869617917	49.80473079643348	75.55119827228692	7.144442098827657	58.94341006149191	86.01969580536141	50.69014034298583	96.26075093600767	90.71626357420162	75.94854491964291	15.51355473183555	11.42011640373198	29.56083145509718	50.40584005443257	44.24617101865749	25.51363657463825	54.99062302227317	84.11846340487556	91.64376930824204	2.424651000889788	46.9394272150134	25.36040137014536	91.61699191658728	92.56026707251132	66.13211221036809	92.08626075295638	18.03243760907529	7.057263731461004	13.88654214182518	96.33848471684097	40.19502145064573	80.36050789503309	51.59458502920828	19.91007891890489	88.32554782188969	69.29202249213589	59.74957854237534	43.77884950532815	62.75262962652276	22.76757534865922	102.6000012477608	85.77910989941269	44.75487110599551	89.38978353440962	14.19205512421741	42.61039600575071	40.54005585056731	91.31420284626688	8.243900256712699	41.59540278605783	41.47169997099931	31.52952115705212	65.76726974099046	63.61437256339944	61.65954844980064
item56	56.0952250076801	96.02299204277361	49.09973478654531	3.129312274294519	61.69870855475872	64.29729194245579	70.60951365393018	23.09608480624757	98.09957796543759	34.0422409847983	86.18324968789233	3.607412010302844	43.77701548454762	48.35444063371457	27.87104737548307	23.35502060201055	49.3429214277146	18.65249165718213	45.14299939168698	10.49294118236127	55.96298418213718	5.877619469907859	92.74168991990898	50.41015218898352	3.623253226765831	6.148967857743862	60.85070795211042	97.04290760062014	80.32481681444622	21.11561873752307	97.77766421458921	1.977418227265741	93.92124675721406	96.70024491277718	35.82610120239382	6.519612354101325	16.35860530643876	100.2412363821783	13.03084981345058	44.45186117189001	68.11295291222478	83.17832106597892	44.41835530900381	15.14605237567175	39.20438217169945	11.47709979373109	48.18835468186519	76.8923678299098	3.888498365585257	57.2489692558142	87.04449412107653	51.72776916381793	91.70687785793208	94.13240151322465	74.89755409152514	23.14871049605643	13.71634284858324	26.68811467021475	46.17837919806848	44.00274961069537	34.36599194520662	52.03528769533565	87.89838390810368	95.9898295734199	3.4165861249499	42.71435345462268	24.65216011720506	91.60181987302984	92.29257307683403	63.473393013577	86.16784305299242	15.52500466427619	14.39832957112825	13.38861305794028	89.50700492240526	45.15262537792558	81.27296278470631	51.06828256063634	23.69665682231945	90.21803109916999	66.30507727269909	59.5563444113762	37.38887364865568	64.57507435769291	18.15988064115224	96.4315613778645	89.93532917727421	44.69093830305551	83.07600318315217	21.14175827320353	45.22649239971197	43.98006405771385	96.03986723828177	9.025634046377965	41.62455315449525	43.01159511260445	30.13567152251926	66.70833014142114	61.26745260349383	65.27900909826302
item57	55.10117591349164	91.32206005451376	48.96927338899634	2.964105879174022	61.3674328416453	64.13505561633049	71.99493395008759	22.26104992751132	99.26385008869245	32.77349722526244	84.09944725939162	10.31615429434482	41.30600041284152	50.37846842444524	27.22751969911599	27.07054146283855	45.00844658854599	13.49575419963172	44.35173772256307	8.104632055819843	56.44238163134376	7.708115652819512	93.69927726651885	52.58282578692853	5.595135307346209	-1.792464169395752	57.82610008585842	95.6032361898888	92.65171182466503	20.54812709037904	95.72356953430503	4.516925768240739	95.87704880914508	96.91601402080171	35.37223008569798	4.182107336932105	18.77810352109496	98.98568996515068	12.04055429998975	44.09563504965996	76.81026068279412	81.96445286426041	44.20487901998612	16.52229938215969	43.074771241713	4.943234813872733	53.05248311679865	73.71525559364783	7.048166942385405	58.49713250730462	82.89094419683512	48.37855571203408	97.02266568490674	91.87674191015157	75.24765069602401	8.955541062285604	11.07731149908752	24.74082341844447	47.33671972502579	39.53790433932804	28.2632419480102	52.2045837143767	87.16329761556425	90.6906906617842	7.084068357034206	40.14792389906111	21.26984007208493	91.76314089749094	90.01472835781259	57.82362275270329	84.26743666184581	19.11720312432939	4.998994473051013	13.70785587331823	92.6102454968036	42.36251965266197	81.70465027706759	51.29102839903519	21.2565075163605	90.73457400316752	66.09655962364636	61.24594129311637	39.85140825111767	63.66157606105791	16.66802662464725	98.45705187337659	78.74344253755923	44.91005303223685	88.6157594630486	9.428019741263086	45.35533386208375	40.10329935751375	94.18240566319434	10.17583525670103	41.66777354585886	39.3741935164173	26.54053893197631	66.48473155876628	60.26077633036769	63.08481211407845
item58	59.24805849970321	97.41929766347718	49.53013467261206	6.483538690556444	62.14568482496814	65.1081564650347	71.93549806579547	19.2871665396077	96.43343258504839	35.36216293886368	85.33006989534114	11.79664325064891	42.94374009743067	46.5538398149087	27.80616737230509	23.37726986405108	46.7883103291776	19.14050022408325	44.45877287384135	7.413353246552314	58.17846022552424	5.910215432341572	90.2600153965723	52.59771349208266	5.407141369986059	0.679538621939934	55.99913765494982	95.16505337144885	82.00538799392589	21.49108463140784	97.51562975302646	5.009262314846453	94.10305738053255	94.73458447688708	37.54946773106685	0.5749673948474339	17.93442914889499	100.2165883364171	10.99965717060638	40.75376288457882	69.42262590720398	82.27558464647962	45.24297404709717	11.46563047182423	39.69390288720155	11.03651706704562	51.70266082391883	72.97315172520972	6.775296796939467	55.90625973139542	83.13124561841715	46.55496939716338	92.56683695786086	85.60322598687853	74.34272222236031	11.1637662272054	10.33179290869221	33.44634105841335	45.40898887290131	43.3134069362676	32.19492737558318	56.08402996830293	85.89589981069265	99.2816553488603	-2.792765157076103	40.39164588084947	26.40205344290899	92.95754972156129	92.35468529593466	63.58841168227865	85.26332327821022	18.58553503928998	5.436048113487699	13.65975166112132	86.41933953960741	40.15859282438306	81.87160418713601	46.8932961424276	21.43634870827365	91.82072278969291	64.23864746973827	57.59414678345317	39.10612210971622	57.60383047442721	15.35458492922751	96.16132997214008	84.78629433963215	43.765632406142	91.57938472358488	14.15076855128537	41.33640052543455	39.58737572945086	95.8077873480062	7.123950365655503	41.71488831078661	37.13278122762514	27.71728186175783	62.16298682799811	63.49476388550843	60.68254564068858
item59	53.06614635257844	91.22016291706393	44.06868670209671	3.806143569219227	62.28922639550361	62.81313943355409	71.15756370433824	22.25139268116255	96.6392974746179	35.44153289348414	85.26963991026395	17.38628455309998	42.60597667687416	54.09057852296011	26.16669027458249	24.93961899148022	50.66317842226751	16.53600780089464	45.91627969555301	11.2634134885919	59.15376336673601	5.635617210565219	93.59106105915413	48.12728818090672	1.406430612451471	0.121046934225109	57.22723631523336	100.067255940864	90.7608139062591	19.0461311460346	96.27131038791258	7.290037159346992	93.88107116146357	90.87816085859745	37.61334715899328	2.053601642592028	17.35300906555658	95.6121217437876	12.57780913490364	42.46649919518378	69.11287586218623	81.86479386133428	45.65182491577555	16.11304764774437	47.72176737725245	10.32128169670739	53.55667220716049	79.85167341435817	6.55797940318762	55.30614878807372	91.266782016026	49.24195688607988	98.0618372413991	83.28096042355774	77.46595649539988	17.0254944730556	13.22698551161932	23.01700081661988	44.86771380085506	43.86167661069956	23.30844819675089	56.71665760401527	85.35704702765584	100.2970242734501	1.061824952522363	44.50995145146175	25.34216208613326	90.36381390281031	91.17775348168766	62.1531738110473	86.47611969295421	19.44506306909996	14.20878107719904	13.51214148706396	92.80351605885551	39.8389795794465	82.58859736354391	52.52554914067606	15.99076102811786	88.31929453979039	72.74781455719533	60.26082382636636	39.82868821239577	65.05595953930086	18.99882547894942	93.95916377841256	86.99575949622306	46.10041828925461	91.13057970538935	8.138359326217923	43.96918258598291	44.60186541096389	96.64638366075285	3.52449425321387	41.33881927055096	44.11047975236095	31.50268864382281	66.98957423684374	56.23676776848279	59.83834555957941
item60	53.15576661186871	93.02393330308685	49.55800191899263	5.093074005931463	61.46795471053552	63.30751798721072	73.30490431625054	19.97610162318474	98.85013253721681	33.39961995836595	85.58687281253859	1.481165480190379	40.07491944460924	51.16831532861097	32.35254276667395	24.44538049391814	41.29408238879957	15.33255076259812	46.56100646290241	5.979542805268203	57.37402130787179	4.994887997161968	90.93011716053864	51.79107154671271	10.46277924732655	4.586763054812425	58.4713281524201	94.7503132910318	92.46283683624701	16.45302772553998	98.15760732086247	4.646302030335822	93.99709867522678	95.68655079339104	33.07302861157903	1.164527878427834	18.04171105877546	100.7281728269958	12.85677075324312	40.71075966905391	68.17391424258776	82.15558335884684	43.64979716541427	20.77387819958824	47.715517024908	8.546166051325851	50.82540872602857	72.30106799753327	5.063488134794933	55.8015728127861	80.87289793447641	46.18197965521029	93.95588579099106	90.70412655924851	76.0960865359487	16.24604591104851	13.04411671886606	32.08683994215058	46.37282488060783	44.25432584001676	26.04651788907143	53.23398176792838	83.4084437670646	94.9208815792075	-2.165487489088707	41.39301165718192	29.11224487466308	91.32830618346576	89.92475626773295	64.99497545644988	82.16958973220967	17.60983401504568	3.395313636375653	13.34069899201342	93.588671410572	44.59320279884876	80.55360806976471	47.083288322937	14.54084010365205	93.86216560128099	60.60176209664881	59.37518176082816	46.64752376257696	63.3009586188941	13.51140243966394	98.80622319061257	83.9574981417887	45.99053803187129	93.72132419106606	9.808858083462212	51.88961791391986	35.95308873652814	95.10436045762167	2.420533746194383	41.62148638353597	39.3759248867179	33.67514288726743	60.90307455082763	55.02922651836337	62.46264917594071
