vectors
item1	48.56276772275274	31.68053959639174	70.70862594081088	85.43267440879738	51.99916446458674	14.35070905715773	96.58600509793906	36.50307034023579	13.19462350478582	69.22100592152103	4.454020940279403	58.90717593334136	90.73012664251742	42.79730078258202	16.09919990429973	88.23780279667842	72.69653499156161	20.22775453986419	51.12246087946803	73.85458199821304	82.11917772717872	51.22148076760979	6.34242271102621	67.55759904763872	34.00719615516376	94.95931540031171	54.58435055283928	34.56511139762502	68.49457348107025	11.94043028070326	47.08815624412624	22.52341984969452	58.53576142609666	4.583201089069354	2.172980601357925	66.84738661045424	20.64215704862428	41.02580948062977	2.473158630784845	27.29433263111625	54.19259595938554	74.76565332539739	65.12923524023837	4.621833481248613	11.39391471851585	80.93810291765882	89.6354412980013	88.02660825520853	6.865823452540435	17.92583876017087	39.85897522784472	80.04363269029074	68.2673688466878	44.98393450449775	85.33746242889046	30.22554481771145	6.36843425750421	1.184609671826691	16.48428190414717	5.570453656427796	13.88236980927495	5.903461960250216	84.35653142628354	40.36801654601472	93.78617758054946	96.27017514203119	61.60486730679896	28.94516647473413	11.3074145575383	40.89412208740218	88.63685327396882	61.82781133390888	27.61103428217703	60.15444889435265	82.90942875329615	79.92630620748454	53.49235514665295	68.58155715185744	68.25065596873661	80.46216268214694	90.3103539646534	48.9819456491224	19.84199837761787	89.41868497071746	5.667511511536254	74.63926590662831	65.04206785783697	23.73674460009364	80.26794824935855	15.40673663671389	81.31470958790702	83.55667291827498	44.04218825728268	31.9742454586609	61.38317180966718	36.87207338412138	40.66963397617051	44.78910363794592	52.49972486128087	46.34525826131321
item2	49.91123854296424	29.82845818890268	72.60720563031576	85.6664635885611	53.03896881634821	14.46209088540792	97.53820059680329	32.61658815202797	13.13062753764813	68.47920704940125	6.716099675615608	66.78500810400168	92.56933667234814	44.54331585852592	14.39494297609439	84.70116271699442	73.44005221086547	20.95266814335039	50.93215071762359	75.94904979838134	87.93909999624171	54.67398296340959	-1.75897180620137	63.12009588207531	32.43420154484925	90.48408403703995	55.88371367181323	39.21353655712846	74.41898637864867	8.931253699142701	45.19423790980918	22.1222538069156	60.46757822206161	2.519171612829636	0.7416938800399586	66.96128311069316	23.41987134254002	40.08865458483608	4.442095860940588	26.74117605936187	56.21856808841643	79.06121564356407	55.05628794065711	14.53407100101363	14.28784389613473	77.75280592049627	88.98063187030753	91.81631633203502	6.777831276340026	14.45608283777991	43.98183995711257	82.98736386176982	69.96467677914178	53.92862154557972	87.73472118303596	28.77563916288084	6.531708586126951	-0.3825888008274334	27.45885651644817	3.076641498437141	16.18581300517329	11.38660693729328	80.84470384377654	43.148528934326	90.40844508206509	97.59099974310912	64.56066020857151	30.05715855993869	6.884598175368104	39.61986722885329	79.12953294774108	62.12962959238742	29.15582223619521	65.36689969747992	85.44542724574173	72.09317894325143	55.15688296100704	72.35767743141321	72.6822707631278	89.14610123258979	85.28571688241547	44.97649305689176	21.69528374888816	91.99144265746949	0.07940589761800054	72.49252525281702	53.31240410033939	23.27732393380419	79.90728473050807	7.519588068926788	78.62156574918673	83.55030814434069	42.22427333617417	32.58661874762027	60.15019561998572	38.8353085845233	40.15934564763631	40.57897909569963	57.54709331847431	46.85407528532699
item3	49.54715602899472	30.08215497359503	68.00068454756683	84.70297537962107	52.99116598638043	15.17592136708832	99.55765933302459	33.93822643150224	16.30477594982347	72.54049719351431	9.235006235450097	61.85357982023545	92.70016785579698	42.36310313478366	14.53351910475214	80.31899600042416	74.36183974810122	19.99426685192437	56.71468604814153	75.04946273570349	88.76608913287446	47.48521217138843	8.224886706501179	65.95594956929381	30.2872184303122	94.56783765857855	56.7561798245386	39.9909607138145	59.49027582665995	9.799152666929279	46.38465210206828	21.8097926419956	60.30226930186728	3.59970780016111	4.938176094730572	62.30719575691595	24.99052743100518	42.46335345969899	3.167940510095008	27.03426749755355	52.68256001103261	77.23369174163427	58.59660051704613	4.459558554787144	15.03024892769635	72.62926895389759	93.04069315012559	90.29494878807888	9.501435842232071	16.54800580761549	45.75137306164626	84.38792876537238	67.27453560752814	56.3796730462887	91.02731932757477	38.64090277688721	6.757949771215525	2.478633837146582	27.84284271769943	1.910514235859956	17.72089326393409	5.419736509876456	78.30605838762457	42.84023497033503	92.35443813299892	96.2046520792974	72.79869213866353	31.59010852677259	9.729225720762436	41.85882287433431	85.06250674268486	60.03027434144914	28.0716187993805	63.28573311362365	88.44562227433043	76.50375621642419	53.62584801860231	70.87947976937016	71.67383527219498	88.77528500693866	89.48831328983002	51.57113487825511	24.16759284731511	85.07436794770244	-3.922260504195789	75.29875756203415	60.74500109752086	22.85619924244383	80.61507998889941	5.587952757636261	77.06767084897794	77.98817291615046	38.91668810032799	36.44917305813313	63.22536991384855	39.25302720762194	44.58292431677478	43.16785649122411	51.04142633012211	48.70198965174429
item4	49.23295847131302	29.6938119691293	69.78759024467878	87.52800031228868	54.2243525362858	14.13018128603259	99.12182814518883	32.27472408931291	12.51103735205022	73.10181681182105	8.270302131348446	58.69928778340142	92.25597521370941	42.53040710934025	17.53216292274524	84.31074501660382	73.94403446144538	19.76680446574624	55.88854834306518	73.26486466275064	84.83159736760111	48.99535795780731	1.095932264257579	67.76836957586265	25.9562215535373	92.61088067517821	55.06126427926537	38.81722712166852	72.84178021460539	10.16177935834741	47.10396372657291	24.05080264700359	59.62651862002414	2.798565842669347	4.985161712363896	65.46067207526347	24.40004830952781	36.48599365391973	2.815076140979449	26.90594929566184	53.17636551973391	69.62798677535261	55.83667311172491	1.665322627153527	12.23575413311553	86.79196652384219	90.77105155254395	87.62488258682741	2.980919689789468	19.78625612148647	45.59944256355104	86.3261639484441	69.26118662167775	55.90583634793015	97.03822236273562	36.83544318422118	7.137818392904883	-1.714702591734294	23.227305294098	3.533361201199539	20.34418851666648	11.66312421771632	83.09155275583838	43.26228708052456	89.59314842907065	99.67771445959795	69.83196510543048	30.00753013535042	9.522368333324478	42.47831425121379	81.64963665440622	65.17035882798366	33.6306515294523	68.76975040025354	86.33607832431238	75.93405902791783	54.96675826499639	71.00526505262459	68.85624547450305	86.10000980613933	85.82827588981185	48.72415654444823	19.69045586928063	88.93581964140226	-0.8742069338292788	72.89807107943382	60.03785062709976	27.20972951606707	79.89798954745196	19.19190694048987	74.24723218617451	83.18465959920091	48.03010447148709	35.85792684255119	56.9072493878219	41.93313483737021	41.01157402977756	41.2479558079992	52.9801907082723	46.38997418602154
item5	45.15867821466117	27.62176305605158	68.87785453537208	84.96803219667898	52.57223109702027	14.80975842965028	97.11393622320638	35.46572988085737	11.4218615678068	76.4021392670186	3.80435897799333	60.00116738420257	92.49272228805492	39.65848869056394	17.42708466926636	87.93080808532301	73.33488395846828	19.92202648339794	56.61136724030587	74.64015532996791	82.55498760318319	49.18142445383688	-3.798766476973051	70.0228818617697	28.77736238186413	91.25756202413488	55.44723919342601	38.97282300279291	60.4336518159676	6.646028459437207	44.71680242798843	23.39810048567289	59.6606119965618	2.643612504665854	7.679213878461403	64.62692033822597	20.93581309993365	44.43557021052067	2.665048145183021	27.1448954833539	55.1683380360954	76.31312146908422	59.02556483829861	10.12786769342184	13.64672968525384	82.19796589334216	89.80751573582057	91.91960703772388	7.414633193134055	12.24357780111065	47.0564124675491	86.1312657765685	69.95135288735176	52.87137753268905	90.33349194154518	37.93340922927677	5.653026722024411	3.905353617284735	31.06092629336971	4.857588525578963	18.62784564612081	0.8477474633286706	82.02151601864456	44.33582126555284	91.67322844341258	97.6542471800244	70.03095502772005	27.71200130106326	10.19146933151858	40.92140048571882	80.10728634508894	57.65783619737638	29.82575810348733	66.39772653379983	81.20778537330317	77.1217210484271	56.73998890551498	71.33177952589038	68.60268970079736	88.28180572057624	89.46208026327415	51.61112769312609	26.71006357172219	88.26621318583346	4.354588397779565	70.61085366652839	60.12750693250739	24.88761120386038	80.7162014226964	16.00328734571463	80.74213296502622	78.09749642779789	46.23531920289529	35.89255722178329	69.18493792595251	39.35000478234496	41.71742929566876	42.91087601457837	56.35432217850019	41.0663288237044
item6	48.81860821499286	34.20690790525488	69.74385102825885	86.20739960267917	53.60512201778733	14.71566872016248	100.1904859600239	26.14139748870958	14.7463301508388	72.26882263868085	6.381371308626294	54.06366978516342	91.70152567049043	38.58825954466892	17.51344082380941	85.17544363826278	75.06660201726281	20.09041047042648	52.70297219015495	74.79310041768962	85.62326513942058	47.29072399486116	0.8929740429594639	61.31844918382217	25.41532427328221	93.67053205938642	55.19347291173245	39.28464165877287	61.42721540641968	11.57170109659309	48.92557261851248	23.89600431665523	59.30483803255592	3.880891682473504	2.069404675920909	65.64810655953463	22.55020506795981	41.36878290811137	4.008275990853716	27.52719923281617	53.16893747332849	73.32530073420294	62.79537497907901	3.316756401444501	17.98508343470921	77.08524067353228	89.44604981653309	87.99293571001269	7.602981217783651	10.4584247550579	44.61684272768345	79.72928597444238	70.11873233707794	50.7405425487631	89.02737064271251	34.50015001582935	7.114523838188173	0.7110003347517798	26.74094242437198	3.17322522535902	12.49107660959102	4.218826747544052	76.34136401715567	45.01922352412286	91.33940314554587	101.1486519675419	67.54448825027529	31.13582535523592	6.92302568792765	38.86177282911032	82.40260204098759	63.30921328414697	32.85811224432761	59.35803606233436	86.00041476013369	80.08761115539326	54.5132472901922	70.56097324556001	69.0493093187916	87.62420829830801	88.86462611310436	49.99804826648042	26.42496517863251	92.31126366304569	6.508755081604301	72.85414584157213	62.37450730941351	25.72792598022124	81.26412454304129	14.59794521105994	77.25136156482549	75.8686824759903	41.28328096785248	38.6674712139737	64.79181510839139	36.62672307938679	43.90100802043965	41.93253861563483	54.3921512518538	42.6554911179802
item7	49.99545348166622	28.83224236199937	70.23527897844224	88.17257060081295	54.80060733305045	13.9123514117114	99.11694041248228	30.41373005085223	14.61560784510279	72.91226341817985	6.060202665260021	57.12960445077332	91.54709823688719	45.64052847819831	20.21736952745641	84.20990376252362	73.1259657016675	20.01870053353242	53.61028821637058	74.64134245019632	85.35214683753023	50.76163571936149	5.073030135911788	68.47287409052683	34.08738546044108	91.50011608250705	54.65446873198439	39.76272233861003	69.69568430519364	13.75512022660662	47.03699858523018	22.15479795761782	59.48965319866758	4.151600713599911	0.5468604841585218	63.27246428029471	26.42604025488301	40.03570030631798	3.282787931037554	26.5220369521043	53.74445029757911	74.6985252160367	59.35400175437779	8.186890653080734	18.19531514555292	84.07549192101507	89.98441174789775	89.19616962627514	8.313643875453467	13.03969289736626	42.4812797572655	85.55504959980895	71.50101108877749	50.58900502055072	87.55429874829808	29.01947982964489	3.896372745550142	-0.859085145104886	24.80396212702244	2.67912323564155	15.76868093358899	4.057650714596684	80.99021767513167	43.07236943535968	86.7970850339878	99.61567018301203	67.59982938110615	33.25665293328093	9.158082964461702	38.19843707976153	77.21054962656711	61.41887956220814	29.80048398991757	62.16609915584834	86.10249926018183	78.36559341626784	48.98394298717794	69.91970394521472	71.45709077369524	83.76418531937452	91.9415856889557	48.51131139946416	18.70502317698959	90.22420286857064	6.280918470717578	73.79390546938816	58.10598444969868	19.98552147396545	80.82451455501791	8.916914377987695	74.21356980097259	73.70570774836764	37.56189361789101	33.0062657587081	64.00010610842214	41.35725254274379	43.79498844733273	43.63321721609253	57.42088793716673	45.82359707682627
item8	47.96641727450976	29.67212308704999	70.89921284565992	88.66974107094639	52.27946489527449	14.09620843961183	98.78129665448621	36.94080662190186	13.64664181179877	76.6723776611086	4.089449019304158	61.46000596674648	91.21094565449613	44.85070388630587	15.46911848946407	84.11391857052259	73.94673833917967	19.8023146404695	50.90064310510304	75.54735286747665	85.42790294116452	54.94837010445443	-0.7782145451745071	60.83014411379786	30.93963455612996	95.20305718382103	54.9328424619222	36.58029619635066	74.24352126268003	10.22719704070676	47.04362551310378	21.78772161867224	58.11280709016847	2.017666201158391	2.96150309350244	62.31335094040165	23.60064290613602	35.41008592658798	3.581665138610602	26.32272571397514	53.86882021632128	78.46013588373329	62.30470109762418	5.12252166824948	21.36825047500515	86.6976418065247	88.52839178273749	91.59628640578623	3.432145108135341	16.00718618780722	45.40692399147195	86.11351499407469	68.95356159189843	50.40650425270034	92.72019735584679	39.09362684625973	4.1860005876875	-2.720223832545099	23.48248395942612	2.929941055289964	17.3346498483825	6.655886816529282	83.29006705435917	43.89906550485669	87.41661388049332	100.2454845546153	70.09406317867375	29.55184351755987	9.004543699638498	38.49674469156253	81.89891697535846	62.41421822978722	30.07744878344461	69.80158237780712	85.93886881058171	77.64193639892568	52.52579175324639	69.68871212759403	70.30948456353079	82.85561156823188	86.51178746246224	49.82755249821566	20.1916925442975	91.95116417779633	1.372763003319786	74.03652095758441	61.02755528470929	24.00364048231564	80.26907486198783	5.706490688284338	79.52189582152647	86.62958196052845	44.40633549004287	35.88692164997311	65.01885944019364	38.20016826169859	39.10498273573321	40.26679528684627	56.74995247890202	40.40215575349146
item9	49.18235196302893	31.52841268458453	67.41432139639291	87.60727667338335	52.66081643867388	15.04967305665675	98.56869618208295	31.42637436914764	14.99521722358394	68.67967165392932	5.281203569280463	61.573179112248	92.27019795562819	36.30021085833899	17.23457373548331	87.26318965296791	72.96456789541755	19.75107425413767	54.545931634116	75.36622285717327	87.04752250172922	50.81713873693495	5.507103769392373	65.3102051882785	27.9819909701252	96.14994822856879	54.91860384328051	37.10545496882406	64.90165054459355	8.655833388527276	39.78879365681792	24.5037486123231	58.8331973349117	2.300759493201326	3.091551153773874	67.41888629432916	24.11169871277861	36.15459964416449	3.623297433215587	26.76618971833379	53.76942901653504	76.28257848908147	62.97164679154989	-2.725422585156785	18.56952542625354	82.23365876715663	91.99625068795127	88.35566613966149	5.739406854082994	16.44853276971979	42.86015548037394	79.70067435864618	69.41446380221328	54.80660255295882	93.88955203845789	33.19967084717153	6.345927005403555	-3.397800458670823	31.23777225821716	3.331994482718474	20.92091500630476	7.125725223078353	80.09127147798182	46.24873424302059	87.80638884786261	99.72494318441055	67.68743716373768	29.63761974895022	12.86310103713716	38.73259086292153	77.97143813664013	61.0454746105567	30.22874533632076	71.12178302930958	85.15036916841427	80.62914561691427	49.86344854374786	71.57463689576512	71.39658864368113	89.40749187803178	82.1130979686865	45.98691824351801	20.3053179431889	90.24326560457163	5.799267162019818	73.72056416861292	53.39204749554271	25.84062178165629	80.35578465870482	21.25131773735128	85.29078957953077	85.19310483189629	38.87794201593513	35.29247010178451	58.70963984760292	41.67969808213041	42.96431334396507	43.71484029004091	55.238112528587	40.20020506466379
item10	47.73391965123295	30.5812443122155	68.42455058607258	85.84471146828051	52.07617147806414	15.12889352974705	98.23710376675743	26.95404430682328	15.9569045853916	75.54197150444907	-2.05639135694525	67.02762869423677	92.74066289740254	44.44190125955733	16.20061369876089	82.59222268631601	71.70850505466679	19.6154716459812	52.96699379839063	75.27240317513925	85.94888307523979	48.31158546383851	3.643477318664208	63.54281759960921	25.95978271413953	91.58539765479782	54.33044113075672	35.21419654353928	66.16703625573524	10.29653594954685	49.45094286935512	24.26959466188132	60.37775502679855	4.439710999441315	2.012142375331319	64.67074320690607	24.15444914324277	49.05374308444448	4.183867510443027	26.36502666326071	52.30287823778057	76.7926010375102	56.93195417952067	2.323060023024408	19.39427896521372	83.91817122421048	94.30223223173225	92.09117309817853	7.340768787567419	14.02026829634019	44.99130395455169	82.30858270949044	68.34408110892893	51.75835920937164	89.8314869367223	33.41270686730967	3.968389587706786	-1.841982416599048	25.49328821850102	3.310759192083441	12.9192685132704	6.459007904515255	81.84901294786739	42.55491894216174	90.77885664914018	98.6543073920178	69.87039621400002	31.39711688053512	4.552695134023661	42.93359915968868	80.7475783873858	59.5235434077609	29.86773464987486	57.74851258767239	82.21896740794793	79.10685198243722	50.44608104092967	71.76275110848113	74.78683943495216	86.46377329127564	87.64588890988087	49.13607666686772	15.81224602877652	85.80041244425655	3.838611413985725	70.15162096309108	58.58561463329855	25.26456929865188	80.36263146146963	21.93307355386495	71.46942101185643	80.78940958029177	50.90821440349347	31.79056534274254	61.26111547210405	38.46740482176791	43.72994282104967	39.38779465973661	53.52665832658987	48.63692832592855
item11	50.82084765268134	29.95473930237227	71.38324390288804	87.93396726256545	53.46331117478936	14.52864472885501	97.83338208097955	24.03998571877028	15.25864243098612	75.61319741648944	8.346106364731455	67.7658001791377	90.14970673479291	44.07755702500065	14.80617589724876	86.91176883544451	74.52111120213789	19.99226569511717	58.01113228079078	76.36245739012932	86.01759243733686	58.0894341345882	4.570541924984186	70.13310100105257	27.7071372222305	92.75353187935477	55.11944131214408	37.80861482703926	65.34169195233763	7.572723390398084	45.47106563464266	20.19503137385677	59.81474440788954	4.011408013639347	3.265770313199026	69.04558578888022	24.00622794024321	45.71620990143053	3.889687848672065	26.87503141752491	55.55462842224329	80.03130499885651	58.96117440714978	1.902413399176146	13.95488563355843	81.70340269919014	93.27988537154684	89.40886827641931	2.627371080661977	12.86975997900801	43.52546229315269	86.82271498698637	66.05874126125445	48.59982778621536	89.33107694208401	30.72678216206362	7.510800160286681	0.5994473630714823	30.71788607431071	2.758718881853905	12.08466341950311	8.63304121184718	81.37103532740478	42.83997889619317	87.76443899818106	102.6555792020589	67.99191319144639	30.44271807474852	12.68947884727058	38.1213077865883	85.10280103445692	62.97831824406115	32.88874571785569	65.65049145287678	81.31607056332638	79.01340683765152	51.26683408838918	73.28528629109644	79.84436998937073	88.45616866094905	89.13737277692901	51.82061941533426	20.33464447724965	92.66321672481595	4.409886660350976	75.34052490540739	66.13663325746904	26.60666262333631	79.78035472546875	19.3949350906233	76.70872165548354	80.57331002757491	47.90605306445899	30.28899894604596	66.79222005661423	38.238721294544	35.51993058560633	42.53593698379004	49.94223574044227	46.34681629602262
item12	47.24999159070776	27.50538410553822	70.54586620550936	84.89338016984379	55.17302153329067	13.5676029033037	97.99907716124567	36.8830899215605	15.4520865195278	77.38281820092618	4.225521447707775	59.87347284485787	92.87013054698996	47.46124850491164	14.1422156161074	89.70293308724607	72.85952168361807	19.7758878817167	52.05681996077326	75.55205073617623	87.35865879899465	46.33637115831908	2.51616152560957	65.41939395600234	27.36214841211126	94.29644252289896	56.42389028867635	32.45722767132586	70.36308273872986	8.609351523494874	40.82171944387674	21.48098220966476	58.97495520123469	4.086859431227438	4.88287698651686	64.14426927821573	23.39394034365691	38.89513904802742	3.302061857226716	28.07234546049536	56.3718653149515	74.72900483954324	60.12255528260193	6.206961648679849	20.52948584223731	81.68193974706671	89.65676222754396	89.99365947530539	4.645766164153633	14.87441486359985	41.25600872286621	82.0360990523596	70.17204678589739	57.3402911720063	94.53219573677164	35.25492362933002	4.515846964648863	0.3076538136254832	23.67617076662687	3.901789792387595	19.6318498903083	6.91794024634552	79.16862893836725	42.61219812225413	93.42179122822263	100.9726344649914	73.75737477710071	28.52927912429186	8.938676535871352	41.36593309567591	84.07436029223976	60.70748908768746	30.63796692782283	63.10091250801945	80.24038005860122	76.08518718628856	50.67918999508673	72.63530657327112	75.46912629883175	92.78779352192282	90.41522322737258	50.04527116013845	21.72731329814763	90.54972308870921	7.377540831168576	73.18347244258432	54.72008843439571	25.10865290844531	80.386608563531	13.05918478693642	82.7648274974225	86.01969763888266	45.81424610293968	32.20171553816052	61.27971735527836	38.66444635161923	45.62738218849099	44.55726160033817	47.71768418595116	44.32068572541043
item13	48.59998469008607	30.83970699702113	70.46576877316613	86.64188790859029	54.37262537100103	14.49147593556756	99.10190338321826	42.10383504797974	12.38752529045172	74.99567347658981	5.926764651145081	59.81429372104355	93.02570031713336	42.60474369877312	22.44965506166299	87.94263872313128	73.35219100354631	20.51722928332228	51.48995514870448	75.20415684866595	86.40904121163491	54.86623811996735	-2.402461493472501	66.11389731510494	32.65110317764712	95.04951205089611	54.25958597151386	36.06588953775453	73.46761128425406	10.73867017827042	42.25643715291197	20.12100425822881	59.64068015987407	4.040491412831033	2.334230953947649	71.20571749077645	22.09940294234814	39.01969815398262	-0.01988952416511536	26.76373262785167	52.58847335064785	76.32809105958307	64.24646275832342	4.19610860721753	10.56876104770064	79.33931209047599	91.03156941781269	88.77900766262231	8.764179291832967	9.559205922075915	44.78455084957637	85.40213677782054	68.45252105511116	60.62636296327323	92.73858067949263	27.86906608227677	6.191619943402833	1.920637317683698	21.28630472482588	2.577309052703888	13.64038041550431	9.084833424155802	82.15112210289931	38.67342720474082	88.45433176367077	98.40480315307397	64.66363336281708	31.17712849607969	11.45193407510277	40.1629546860784	80.28326840838575	63.54083584389755	32.56796428490718	65.67947101526386	86.85393242071548	79.69191143262672	53.74335440767626	71.97563983574815	67.26347257894557	81.32768758340001	81.47113172830664	48.76355909774011	18.98705317189037	90.31108697063561	0.5732101458164737	69.32656265557665	52.79496843333503	24.3546587376576	80.45269496505583	19.4821604113345	71.60108719483682	80.46321878741492	46.01150128585699	31.50786366818681	56.67496988553478	38.03738564970234	38.01283141268708	43.12448960845676	55.17115858108403	41.22133893555721
item15	49.18093892841318	30.57346956473489	68.6672172188449	86.68808096778527	53.59003352909457	14.23131977671765	98.40695401209879	36.1831087513294	11.21640235813642	73.32063429235467	4.833449460570662	58.42508688254009	91.7096678783342	41.14116360512502	16.99074152000897	83.73441354457206	73.09580541830024	19.88089857010901	55.45734546634155	74.96832250286839	88.09322606385217	53.22608259384772	4.332106656190783	67.09321221621765	29.66451218843925	90.54982146630618	54.42398565521476	40.15859240026039	62.98451256459292	8.945810750248079	47.87473250070778	24.44101179821802	58.50585152402186	1.974798989126885	-0.7469125853988259	64.01520396181692	19.33922268434262	35.65104777635841	2.027298320349797	27.3245551500538	56.02417250111032	74.53589723165565	63.68272853102702	1.005165641616686	16.19242030040775	84.29280868421822	91.65175457669611	89.07464123584164	10.41090761672361	17.28006895071459	44.34904813255245	85.12903706670784	69.6799896554014	53.6878721394239	94.73496568483134	34.93669577914782	6.814721950214683	0.05672920936107528	25.39240131518556	3.141285913178144	13.50047371536304	8.835276097771372	87.1808762609253	45.1586641248294	90.71483258989285	101.4981222949336	73.87139823315489	30.20160226455812	6.007068038174681	40.02260970562221	78.14828840360867	61.0756980806568	29.10490788939692	63.55203141240516	83.03408039611665	77.51999459100398	53.02586480588659	68.9412131752587	76.79409829817901	88.4573526264641	86.74743515112101	52.27941370926304	17.45416414265285	87.74422842038911	-1.04863666396724	72.14634443740039	61.16625266109497	23.6206894649339	80.68960611669699	13.50145350164157	72.61189384230626	82.22727815202231	48.22026161939397	36.30846701087022	63.18626291709095	38.75385892077524	45.37590371247452	41.80496196410352	53.83875119801796	46.38985272959651
item16	49.05973117118105	29.01788007328362	70.24654228838538	85.3677879900158	53.76675527002955	14.28812705451307	98.12271658762751	30.56183747911824	16.64403797376098	73.68530323079169	6.659066021662785	65.40507141777583	92.56430129724825	45.89227074417588	21.99670981125091	85.75506398503171	75.35046517808726	21.25420637350926	55.3821624331411	75.36505685652926	89.09904665117942	52.99333913958242	-0.5743310549168266	62.39291032798859	30.74489408355987	93.05543278239512	53.22037021588768	37.8447743010012	71.37054766237181	11.11978615892896	40.22424915439217	21.32200444990458	58.85837486251882	3.764131115034023	-0.7288791862339803	65.89520958570357	25.39273954372443	40.10612280888817	2.028804239486838	26.79522528731271	52.89724322670746	78.33453697497438	58.57640476694418	3.023698948989817	15.26498889933198	83.22466137192099	92.45330084706976	90.40949241324368	4.390608686413724	12.01290379863842	41.42278908055248	83.96661265078482	70.3589389578776	60.56745892127913	88.98052897755605	32.79261851405334	6.81337388766624	3.436479944489207	23.48862626502981	3.54988829328987	15.13247286224813	-1.476396674043579	84.72652308696773	40.79488552437095	92.31595831180994	95.16717471836205	66.83354389359936	29.84430571686655	4.196172919289642	39.48138633150996	80.35245041549864	60.68171622336048	30.5831571555314	65.82046890695217	83.23646997193576	74.71969554855464	51.46354389030602	71.29975749878906	73.57924843403039	85.52968703019384	88.2576674186147	47.79624041494824	13.58829230923153	82.26939293555763	0.104566172414762	72.14492592698967	55.53829403329495	24.73621941161023	81.24856170225024	20.44085923172363	81.74640215151902	76.57474285308449	41.18364754844733	32.69701531589308	61.70933532295075	40.74713045466047	38.08196088276133	41.34112983269873	52.53833618167979	44.30082622301396
item17	47.16896537206787	27.64862701322926	69.80211159156175	87.5367053618854	54.44531047828224	15.1830967660152	94.5663765022138	37.94826988234952	13.35536289425013	74.67986481969974	6.49645907672523	66.3267952519336	92.7075009165614	46.81088203879479	20.02321647705591	90.2245288013617	73.33457991861063	19.49630355361515	49.03399004248883	75.19215030239798	88.31322920675881	55.34888211298173	6.667005125069426	64.37833644633857	30.05396162255671	94.76026856269847	56.20079483086182	37.31396224514131	75.86321127496448	10.01476503340083	44.63174705024697	20.90210932373598	59.61651991656169	2.494645065191863	1.454874517454313	64.46175999669521	22.51446063561181	40.53768048008231	2.459423895801996	26.91340249110736	54.28580504248727	78.40874790708197	55.75611978756496	-0.6132990665961744	13.33681531092651	76.22088071436043	92.24567888532412	91.10082233661218	5.00121878108274	13.56814704241468	41.40762872281656	85.69365834043201	69.81312565492341	52.14116554498442	91.05106064320488	35.34079865449627	7.040841685888414	1.502495827337849	27.58969510398656	1.846224001817482	15.24767421070797	7.309922249648797	86.29048298415049	39.53029193416499	89.47105124251205	96.70324306831411	70.22177222953528	29.8927545027517	6.77810300882551	41.72671766505931	79.25676293874791	64.94733852229663	29.64907200311946	69.59519039504605	88.23812128597861	79.41720445246942	52.29849269789906	70.9961584307031	71.77645401408714	85.19810951812335	97.05343876444411	50.86529301270927	24.17672458101287	93.67941826223698	1.029730357896107	75.74103384488288	52.78828936425651	24.72129528277059	80.11658910684018	15.40476908347339	75.48898438973524	87.37301959401499	44.24493168028555	32.97449763966317	58.61097819721507	38.79248136658722	39.28138408914762	40.41698782199435	53.90379234889329	39.83291902623792
item18	47.4375237551097	26.49437984410759	73.39178780230149	88.37632947627908	52.4048921035194	13.49319302287473	98.54088331423273	31.78241200802169	14.41486413208052	65.48003688340938	6.402840288896742	60.11090368204201	92.16445793237192	43.89557776756291	16.21818659116409	83.8682155491037	73.93506447867684	19.96881568123495	51.4396047272976	72.71333469930855	85.77337125897328	53.92075840609338	4.899621512371503	63.90727930430675	32.29526343683776	93.10951851601588	54.80692281777994	39.59960105055263	67.36645838694102	12.08040666276407	41.33003067581102	20.99648207497621	58.96760374486439	1.77931660008739	2.281451820695888	71.31427052677512	21.70119151371827	37.43789649522179	0.5670759121838365	27.34638339004289	52.23914045719597	76.80932356505413	60.5326893817851	5.65009470885142	17.47852606905555	78.02116033348504	87.60943021830239	93.24720982549391	7.791808986773097	15.54429459623153	45.56935047867525	83.47481214923791	67.43907382016808	49.41667424154436	90.09932655259378	35.67070330202407	5.714375841885425	5.194672487116421	25.98683277797153	2.993429114142358	18.11154136278557	4.520548842753383	86.39934026525293	48.14031612884673	90.82135351528059	95.5612922255042	73.02065266900986	29.17789516136247	8.300277656128875	39.78367883308621	82.91666026835203	61.15997263183461	31.58958640973768	72.80646049786834	81.3415977269446	80.62897403995467	52.70058758342142	71.69909322020041	72.56008007524535	85.7971227831943	93.19569537000339	48.46612119709867	21.8262039660855	88.99036412664492	2.999713943273343	71.36895438303652	62.80181583636421	24.47397653196071	79.97175050807287	9.379562003759769	75.0222272367081	86.08819398884938	40.49580074318365	34.85576000739664	57.35730895185752	37.35547130668226	42.2712065876794	44.2589123526098	54.05635020688976	46.28874717971939
item20	48.93235021600532	28.93249803861101	70.16346001668491	87.58040361095388	50.10990381958795	14.66178822968394	100.8014400810733	38.28629228406876	12.41923650735856	71.33798894044571	8.174056488053084	68.05156887941311	93.17709402634151	46.40191727534276	20.83098380512163	75.74709403395292	76.01137874489008	19.53873251580488	54.72682543311897	74.94847378542607	89.00171458070669	52.77021152690285	-3.523228893086626	60.23286243540635	33.30439004814563	91.1823443467041	53.15564495490128	34.82902426192113	67.43863819329337	11.2667982253772	47.63327586839701	24.977881119357	59.91030486706107	3.312364027285391	1.075369544138441	62.4846438117029	25.47136981702237	38.7962262151169	2.93930755306968	26.9174809848848	54.19471721623095	80.85262550114604	59.67263478405734	6.035658197911556	8.981803801730301	88.63083406218787	88.5386894624161	91.7662585453497	8.61661383431681	18.29469416902193	42.82494229606917	85.46251604967745	72.55211281495956	58.58433304145782	87.86172428731902	36.40233390007874	6.489963407834559	0.7381692354304639	26.05926621977124	4.767948519780514	14.36691653600053	4.520857461281421	83.39272575754345	43.4235238999562	90.00436761382227	100.5481098178671	62.60670825147179	30.20721896844264	5.034699514899321	38.3028146908082	84.38909400205966	65.66211783089668	31.66771558568197	66.21671503985229	84.82527070596548	75.75797344265467	55.3778631107043	70.8942023653839	71.96505632130339	84.64507757690068	93.41559364836721	49.54364693090788	20.17479410491431	87.12993608395016	2.106193936904493	72.03669343227969	55.67503480335099	23.28874573817222	80.58670793435002	11.45787369000301	76.78365737732537	81.93053775973844	43.69061409498158	29.75116176182105	59.81750369978533	37.70507513222362	45.00729926896233	42.07268811221634	53.92249790823963	46.78996685922197
item21	50.06551663509992	30.17226229023317	69.64074699061273	87.07911619067022	53.99142525421737	14.8756030473558	96.43169138973994	31.5264898166633	14.92030292931443	71.7791864927576	6.139196132481126	66.72241627461631	92.92998721261566	44.55058686271953	14.02233852870655	83.15411863968232	74.91129678036056	19.62516199408516	54.66277235477789	74.35810816419844	87.77179139642051	48.13268136896475	1.32119259697665	60.88965621882983	30.86750735114944	92.91579526047349	53.43822035419532	37.81615276878578	65.86965945653714	10.0656879391495	43.87446482253596	25.31105486872352	60.3563244562913	3.828015016385609	2.88670128770145	68.50641927138329	23.29990569419261	42.92756681243912	3.147172964186752	27.10935315222655	53.86917291439352	73.75709805414347	61.64555732305343	5.595877089944432	16.80572111668152	79.42840232740031	90.60086214747817	91.24439137217755	10.06151628826401	14.7710953307471	43.86952849464964	78.92860373664988	68.766798652075	47.34301786961819	93.790574709716	31.36961135669199	5.171577910588909	-4.431578861644613	30.28381513019097	3.674685372762838	18.5915236610318	8.916910664595587	84.95615953563481	43.79994561697635	92.22337858234818	98.20486720966396	68.01583193382049	31.15898899520668	8.834429018919128	39.34684633990464	79.74998228071955	63.45421093853681	31.28907810727774	68.71693488304817	79.54016028386189	80.94633674944903	52.16562012717868	73.28176372163877	61.24682410374523	88.99006884925225	90.24457097553069	49.23454060057031	16.55457452644296	90.90304305427733	0.6720629823201293	74.2760444552096	54.85047870779106	26.37086017364796	79.67204439684673	19.10489683608973	71.20064754879958	84.14061385852592	40.25135646250643	33.04321705063027	64.88224425680683	38.53458403223556	38.10725951254221	42.14386425438315	52.71181582343255	47.31421684587865
item23	47.21175393389785	26.65962917251406	68.9919503550052	84.59085112693747	51.931208995506	13.92464525334521	98.95845930096181	36.63766201319186	15.34647270881729	76.48631885993271	5.510312508648327	63.44954675118734	91.83355134796903	38.33739043161584	17.33019468426631	88.45838891537525	75.74446462457907	19.53054387909624	49.97077860278864	74.82547914596672	87.72385507884609	51.15717237223323	4.389088512462481	62.7302363012621	31.5339537869975	93.92902087257204	54.78110349952788	38.845089348348	61.74599632867699	10.99542895961181	44.95815544616714	27.3073889398388	60.68095642753552	5.239738607732246	5.670257112286285	65.42106031678173	23.16083875780757	47.65369498409121	2.137053512842038	26.54698968716991	54.38161462003049	82.06109524923711	54.1921730268648	3.72678981878712	15.5650998822087	80.29759352937369	90.42551071615748	91.76255266871536	5.198600003510383	13.73779254027824	41.12187476541077	83.83974258106296	68.91938105506476	57.49173764743573	93.81520810420115	38.04461271519736	6.762734329859464	3.702718077636789	28.33113951220412	3.004328956157763	11.05477775792605	7.095323943044367	78.1372621383853	43.96577236346214	90.5095522397185	97.38668871172723	69.85862953667215	32.0114463435465	16.91296746164931	40.98272553902662	78.3360122287914	61.80440682704569	27.15960485373326	68.76048683629671	84.16054597607028	75.38676559225759	50.1016661705468	70.20040967256404	70.24338803093627	85.21056299609994	85.99514449094782	46.97303719668997	12.33166609859005	93.74171394101701	-0.009609663093727905	75.95334377702299	54.04773755660503	26.38667311961958	80.09713101038267	10.9760670655748	78.59756678604037	84.79940022523574	48.31690185456016	34.08985864863415	61.06298545475875	37.37780696777478	39.52313610222961	44.3396440266867	46.57672460014408	47.87605049580905
item24	49.14829191511102	29.67371935914926	70.09361753921279	85.97960128517967	53.9894515008051	14.80250777930534	100.1637509458445	37.65132255075014	12.68259547994124	70.34911614386914	5.112620543086745	62.81652553595777	91.89452238730708	49.39642892529038	20.87338637690208	85.63098714955973	73.10685350206516	20.75030985147145	54.03980032432197	74.28649232208595	83.90339772608675	50.09805917354965	5.079178992772446	61.13977480855746	32.8632954161952	97.20364782456795	55.74654628576614	39.97879553614183	67.94649570692648	8.10617857141149	39.92971713510224	25.69859750249839	60.87814849890857	3.458656906346009	1.461370248101847	59.31887478236295	22.84551686687903	39.89437098932238	3.529528972477766	26.67975474983347	56.36913920148485	73.19298411828676	61.241038940319	9.731070688921202	10.58760183128177	78.89457062430526	94.32432111604908	91.56930397082202	9.456840722031734	17.14402454098182	43.41910971738135	81.8591729416035	68.03026040795984	54.04591796465044	94.4669455784788	35.70706585560056	6.51741880907529	2.657437406059858	25.80079055640797	4.365698186012497	19.13198504294269	4.180843395186139	79.11337376402034	46.42169890322934	89.44442171930419	97.63177452291087	67.4887027087353	28.82028833275177	6.452557866598804	41.15286244254528	78.23521671324026	63.2681972716896	29.21835194552546	66.90567460232882	81.87447034011194	85.37062985784195	53.05362642033856	70.74271609115662	70.40077103523232	88.4689944292372	89.86037525407428	47.28670526772206	22.64228145028653	84.87344592181131	-0.7041649959079024	70.12666154707897	58.62971963371891	25.5948513943557	80.95808684998259	13.35212063449796	71.93985947738476	89.92817039344503	42.71263058191039	30.86762637240617	66.85238216354477	39.38832295733147	44.1609533974091	42.19952084047046	55.59930846515138	44.38835637386773
item25	46.44712169779795	31.25545003706349	72.5173231357488	88.81922205605788	54.96003793462909	14.83097308830003	101.258929683263	34.81796680870617	14.08614660841087	76.77666475664941	3.964897606839796	60.35566941786343	91.18050036869259	41.99345125449157	16.02171357785376	88.28669846567763	72.31808728919079	19.25493878268119	52.95988643642322	74.86696471449213	89.42007909805913	56.71023734384219	-0.3819230928930497	68.00300508375611	31.29061453087313	91.61080055289153	56.69805563919105	35.66039674444509	68.36816662672975	12.05197907497228	42.49635195003688	24.3154605761076	59.07810761546519	2.576653691456563	4.439389333738491	67.12892341504688	24.40943425295502	41.18012524995834	0.9887095220333579	26.36958426078063	52.58578939098376	76.48782611980705	63.80230956703284	7.922258396795516	13.04065591684291	82.77360879298159	89.56818745507525	91.34455638808038	3.562033164247846	14.63137418964848	44.62274283426326	82.64842136537179	66.78774351663338	54.77398487691045	87.6799967553211	34.55284617724614	5.104898042518593	-1.450301612391176	28.23098982368965	2.308271313884105	19.85067717877963	6.200864155344284	81.9821585034467	44.40845679143555	90.98728489873196	96.6513381967266	69.0291999940125	29.04172704662092	1.956772588489403	41.11792085572969	79.93397096708934	59.95460533872166	30.93870202801888	59.81447085527169	79.06163474547742	77.90085006464047	55.18362524445639	72.38982804576332	74.5973922086441	87.39087900946525	88.38248048382363	46.60027707271636	19.29571621102672	86.22549624800682	4.953197530359954	73.5408834429328	54.2525622480061	25.91559728966589	80.18357394639378	18.11457486338221	72.90213426954791	79.68508419023337	46.56369534290472	33.18828520480415	65.81648287837579	39.004110462154	44.11416628942381	44.23908171484445	61.31578357120829	42.91076021203915
item26	48.52076839326272	28.44964903522653	71.4299448960551	85.57128858370726	53.98369740327815	13.21680938826831	100.3884686045028	32.53553002370626	12.43616360653246	71.42890660511742	-0.8968872484502022	66.05529353369106	92.31754726003827	45.57277248518245	18.76928733076713	87.13807163360948	70.89348808557007	20.55748082515487	51.81704430461979	76.18099625253221	88.68816724284726	53.01079937033136	-0.6238165982837849	65.10718566440606	28.32181458773703	96.40797711078866	54.57407918610311	37.75538659575288	69.8255620559289	6.6391674253108	45.71690097229254	20.70003948564221	59.04678987190768	2.886863883927119	2.334532413232141	62.12903445665527	22.4413796257534	36.90292272595278	2.737274538571574	27.09113029432173	54.56485312486762	71.32264263550805	63.47414134219079	6.25878179174686	16.56056620534131	77.18662789164898	89.73011025283155	88.6360667666812	3.490092344701281	19.04984489480776	45.03704049359129	80.96730985688137	66.92256495743221	58.13312658503234	88.5550350158705	33.87314742222362	5.970067777712894	-0.498131122778573	24.14470126559565	5.944669025649537	13.5235555459587	1.38529955248105	86.38591149627744	46.14132081069017	88.24758208344777	100.735816738756	70.22174273555436	32.04940026461955	5.07667064416342	41.53138990306095	75.22344737095045	64.1638829751877	26.95047387703727	64.5523025097915	81.20530236881038	77.98106368842961	55.12800555792725	71.68395110700882	71.04378504801129	92.64573998089298	94.97477809808721	54.33807672816793	25.70800242281389	91.71315396978713	0.3217389898901539	73.60874934283622	54.61390657067022	27.76056995261865	80.67466489254882	17.22979852140075	81.58092809736358	78.4202025724851	42.02937176108007	40.94514598194503	62.79494463296289	39.53399989359816	40.70137580035126	41.84561020542093	56.35972752544402	44.53536076983242
item27	48.84173672692878	31.24320180522767	70.46733489406671	87.82134539681643	53.99527249730667	14.46673414829644	96.01543331259286	34.52172578534017	12.26095964859268	66.35082922303071	3.697693888460409	61.60696801445803	91.41786898274768	42.11195479262077	15.04110875805126	77.37821088266605	75.1716815705863	20.45385370184541	53.01539073767939	75.19986293199342	84.49225784957365	49.39593201342004	0.5942984397004392	61.0095453352768	31.26151914357897	87.96185420153465	57.29337884863164	39.54876670736051	72.2217006041634	11.50264957413952	49.97659330575239	21.85275901330404	59.38767686860816	0.07717968484590809	-0.1850243998689511	65.22191510612026	21.85471950679061	43.36365013496135	6.77393540444621	26.58845587742059	53.70063962917506	75.42096663069557	56.25982551285549	5.150376787534329	9.7952047423307	79.25847661660686	90.9777143568473	91.31187154404445	7.892357203755131	9.255202266899536	45.39526894150626	85.1957595429356	67.40239320400823	54.32506910000153	95.24616202829068	31.72616969408719	8.671942625219446	-0.6255696277728562	32.6130140925438	5.021280986071655	16.58874043518929	6.24081110315752	76.78173690372795	39.15093582595436	95.85642911385857	100.5816033416834	66.9115108140462	29.02414930796818	15.73054590367394	41.67365290654225	86.15395619798599	61.00784680787651	27.46710507062102	69.20473849110718	84.92003732595334	75.80732265964998	53.88921599370385	70.15286834467393	73.64534526576547	88.84307137053007	85.57401507738807	50.5828835098873	21.52962223989508	87.76044067688149	3.019737515096296	77.95811892026596	55.66041441103658	24.6256358105708	80.75932043305748	11.6597777955766	75.64921344402677	88.41035340954861	45.36992600789372	31.352888009834	60.16016233279223	39.02785175873906	43.83959803609687	42.91678684517025	51.77494166274322	49.423874154895
item28	47.50021116658599	28.0971279762376	71.08805886525168	86.07433417793708	53.71409988996199	13.2789062703186	98.74028764305453	35.75326886982939	16.01605445630817	69.75236681913692	6.73807426732718	56.58260815939835	92.09049826338926	41.04096257855262	17.00793253902196	80.97159920710548	72.80861959513643	20.50954797349287	54.90607518965954	74.07945293018125	90.4490356776368	48.01908079795512	1.514653254572842	68.96266049599565	26.94620251823781	94.40156310342988	55.45104063358939	35.47513925552738	62.86844160368682	7.349573460341734	44.86314304288619	22.1605272567286	58.41216467819606	3.475559237571727	3.243047907749654	64.99880265018727	22.96592357187281	41.58727757811337	3.928148324294583	26.91543333417701	55.08375116130369	71.09515476982557	55.86011416206901	3.809101768901063	16.09099465510227	79.92648439929791	92.69366037655165	87.970359790684	5.956418859727414	14.13589285928209	42.57275533150462	80.7570168500506	66.92786411173944	48.44073126190616	91.46271218749955	39.04033133535221	5.453347561005756	0.0197982610750923	26.41717655248065	3.586643857168971	18.21965279706273	1.698751780489783	86.5964762760356	47.8096487977275	88.89701693203796	97.38140305366782	74.73093118653709	33.56987020648857	7.865749122465783	39.90700821544779	80.11508143216199	61.0190611421355	30.28885334182216	66.71659984514717	85.76558516425048	79.32595940773386	50.52938708039986	70.08153229679404	81.63975747976805	84.86084522252862	87.10359394933273	50.58091640809408	19.81157332722042	91.45141812043684	4.053768727782543	74.11016935630863	53.40494230241612	25.15808676515161	80.16249773991154	15.84332607509392	75.01431748771996	85.85368731380463	31.20607131389114	31.16117838538621	62.06393739433032	40.08662991155445	35.95225412179004	41.33021740662451	54.05948284658671	45.58017976397722
item29	47.81572599969842	28.6060651924747	68.95489036332323	88.27749646027318	54.62190794830382	14.73734457385072	95.80439574179273	29.59055322859469	15.31510032982162	71.22851289511618	1.855226311606055	61.35854663581216	94.32628687136348	39.04541164137346	20.70968576621125	85.36975612014605	75.51136263076697	19.97336372670973	50.52887462990122	76.16396211658585	89.11730594112156	51.05860518336984	0.956189407225045	66.09399969204775	31.78436820851886	90.90400447875793	54.10858918562449	35.87932739746241	73.43953889583447	13.58416443235821	38.8298009090139	23.60520792940226	59.42366688033292	3.122153356917259	5.282013950203961	62.27340060304128	25.65632401785938	41.72995273841747	2.423446206857398	26.56746821689682	54.46587193635975	72.31837458541247	58.59413843301393	13.32948836268488	20.23482793511101	82.94183671345525	91.71252607015739	90.57377733597244	7.309890910256802	18.32281800204267	43.02321855716678	88.33998389769661	71.11496740105483	52.49268911285161	87.7054855418821	35.96138044220525	4.532656408216965	5.512945195563326	23.67612454027892	3.762852089292069	14.48286611851807	2.903138283798233	79.82468216124749	42.57204437927603	90.21663516768693	102.5726811470258	70.07558968713876	32.25028659082079	12.84524421205865	40.73809358709572	80.73306077351478	62.55051109683261	29.40833379569965	64.83813054649036	84.5920907601742	76.6758564475406	51.57993856566906	71.49623917973275	65.14870571858188	87.29962131983854	92.10156798514579	51.47364835173045	22.66872485478654	89.94391599047317	0.7005584421482548	73.42151004294932	52.60549539458604	25.60716961064658	79.57884104429451	15.57835355091911	76.01250775068637	79.63893882832777	39.95468555458176	35.79148279502746	59.47043183811103	41.31300810633687	44.68069473085787	42.20925957361568	48.5354221484401	39.92869274362801
item30	48.52619520521387	30.52028438041927	72.14403330855588	86.37250871077724	53.23420931537333	15.2561007767999	98.83135479245783	36.39722272710812	13.43012993323346	74.20072490939805	5.188250589044461	64.75090018210753	92.32619439255063	47.29246746844466	16.23241744390803	82.94995378916842	74.20999390869405	19.8053215530401	54.62621943098821	74.78497656571764	85.56094811209047	50.61791836674049	6.585556292830884	67.03033866162777	31.23524412863879	96.87606240171236	56.57792739906444	38.4389046892264	69.5171501582256	11.85933776645024	45.11282680467399	22.75001145325027	58.57091214341384	3.094266768749216	1.031456867967652	61.83753972203136	19.39930814293214	41.27401417335193	2.901726595929508	27.01809617757314	54.61350186923993	72.96501679406724	62.41877070151649	7.035096873110382	13.59855781238046	76.26654991762992	90.94505800472514	93.95116195248508	6.57918870919831	11.53823532423606	48.40128277848167	80.05197752085643	71.14588359759966	50.83522827689389	89.42168410277345	34.84545655470347	7.697336142487162	-3.016423099978717	25.8803077823146	3.049804692848105	13.15206377586421	1.365516233771575	83.35091894031049	42.70298642227639	90.59970286307448	98.53303235785948	68.93768284001925	29.58826736580601	5.069899773745246	42.01095324783318	83.29966263874111	63.40744575573251	28.8404485003682	64.15305017030954	86.58945365948078	77.83625755852727	53.07404287866449	70.71027720945354	75.27631114818548	91.5764447293891	88.76250990479336	52.21315168567551	22.25426533114005	91.09366065282515	3.215704139238344	73.9993821570021	54.91913504595116	26.19079629363395	81.03046845751214	18.00463766021074	72.69856131707323	84.38176310290253	41.00830842853983	31.715985559455	60.1116419609738	38.5196502427842	43.19217607132477	41.90304532300489	52.88829013610418	49.90878449742644
item31	49.69298590834369	31.88052746882749	69.66744757242007	88.64961140953166	54.101405085085	14.791976669768	97.56184255675886	36.66683653363781	15.55565390610373	68.06567615841445	2.43195856649061	59.70901595640524	91.70094070336214	42.0076713477789	13.07859490767049	86.95976672655461	74.1669511734254	20.18712250953964	56.20059199693261	74.25750118773165	83.58409749912985	46.18633702538862	-3.480733433239973	67.89293537580326	29.26143819070087	95.16202429494254	55.84976460430333	33.79716539847132	63.71316668816776	11.41254481303091	41.44199431102378	24.48851107982404	60.36796276361979	2.987813291719164	-1.316744779210685	62.98595130927045	23.97331240405573	41.26329673113159	3.11886933146236	26.7442371222666	50.99228391921571	78.89757336838377	61.84925216730768	5.238424133913557	15.59498466557513	81.75190707767504	91.09360763911174	91.40330879705687	4.357942839783579	20.40849985440674	47.02760377168811	84.1234132315474	67.98477177783205	57.91356928598427	87.94488443835785	35.36979043643991	4.775763637433908	-0.6901646322723725	25.29951264298821	3.647499379770223	13.37987748226178	3.447751937024203	88.09999417614226	41.93617390060975	88.50039383134168	100.745815141825	70.44850379614772	29.28170520284255	11.34258464769884	40.17789516114221	75.71063264265396	62.6362684838266	30.66904090282677	61.51376142552548	86.27537031829537	72.38179522448416	53.77650803630267	70.56511143731611	74.19881989603938	88.60977796116542	93.81655831964505	51.22040557214731	23.29931417679115	89.9209900123282	-0.9913126435153279	74.96155770458803	51.73862497284499	27.64313358168099	80.78226743558662	12.48636080793545	78.09091060515195	83.27759511093174	43.26876823900077	35.58504988086241	61.8012168453877	40.24059562641413	35.92104671602252	42.08457294857099	51.32567010322865	49.77835230101884
item32	48.48089724870673	27.64427077846139	71.5787035846447	84.39136164159365	52.12730693408	14.90933268403879	101.5171171986461	32.77030084071603	15.32127219988533	77.65985364420483	5.741408755728593	68.9180729203335	91.81510865663627	45.41027135100996	18.09752557850555	84.74868565410124	73.09784309955361	20.08100583672586	53.39948422981517	74.40070524303633	87.09826581403173	45.71779686182657	2.104338201244399	65.14278593679875	29.54833737017449	92.60451844482148	55.19187780271546	38.97584569659999	68.42820491355167	13.04773852711114	40.85277519849762	19.97388999472155	59.02628391515495	2.434383998558182	-0.03262023273266745	65.59312645394891	22.52018448338517	40.08514774232538	5.112328350189793	26.82443748099777	54.97319932013462	80.98204183079909	62.96082887608497	1.101629448014631	19.59403605462573	81.3646910457507	89.12417842539091	92.09310882313825	7.075590285358702	10.24708543035681	44.8356175593546	79.44028246017341	71.69156031823844	50.69360110213211	88.90616317777381	32.0204913064516	5.941187853696453	3.844663929440056	28.62105005379078	3.946247673534797	16.37330132047548	0.0819293918358639	84.8624401642919	44.32218706104334	89.75268127336801	98.65572945250548	73.60195624831634	30.72843827408543	-0.2838532373713321	42.03042072772683	82.67485337838302	65.54449266377489	27.45260719054849	63.46852404734339	87.77922426801902	78.08296944165247	53.28463346124665	71.67899777605635	67.1697050983055	88.49624389995286	88.85965610910158	46.64035691599943	19.90300479234862	90.56881440653147	-0.6069029301619522	68.91381356748603	58.39855198009316	24.52971086504532	80.25014317373383	12.28146978238382	81.03273369562264	82.19421053911367	38.30671881905503	34.54209326623928	63.5852211982343	40.09986874188988	41.56163410061952	43.14078599946361	54.42227178105677	42.58796065006528
item33	49.01602276242224	29.1379936788134	71.9924577418154	86.31843896272125	54.02514408611455	13.631834139578	98.38043543222916	28.14887552649066	12.05575134905652	78.82242860817121	6.112469108481203	65.65787014127076	91.85332067643189	41.97625548440895	24.75117868861095	81.82642976462415	72.86503634245163	20.11191608758885	52.9117457890938	72.53682171304867	86.93969725064284	48.92403047063015	3.29959389570847	68.42336784923617	30.24887631341509	93.25841734591697	56.03884046163244	34.98161087756547	62.44256685433665	12.06781797248644	41.6610357740781	25.48614019849708	59.16390019703576	3.823490808275982	3.711661187879566	65.97040545068421	23.35103237240823	36.4816685292863	4.064468271288697	26.2887319710555	54.30701356649659	76.20961372323031	58.7024523769724	-1.890969924921885	17.42738495630235	78.19428020904711	90.76453189559713	92.69292080760233	6.981721194253307	20.04542363233448	44.94167313807326	81.40230975380463	69.09608317788323	52.36502862191804	91.44177208523594	34.99426188302007	6.960359024292332	3.249746472846133	20.18785204464686	2.133058063034939	10.63387497353266	10.00944213092061	84.098200287228	42.27177390683334	90.80409433908272	98.45899893112653	72.440581282387	31.41275305856993	9.246603429491554	41.23880210382598	78.72365300924965	63.80943543507269	29.59227173795633	66.54814060460427	84.4388914624687	72.19343377691774	50.95388394064668	71.3454429458036	68.85052057220628	87.02213414825259	85.99906376739079	51.06524344664829	19.87320409982316	89.57031930465956	3.250142278063656	75.84276708063202	60.56321338468325	24.74893664553251	80.09363649658255	15.5927978602881	80.1048040380764	78.3973412091665	40.18114377124498	38.06307129336764	65.20987455275466	39.84782428145316	41.48908578959231	43.63158207696846	53.17819636642909	46.2233067455244
item34	47.87343534307602	27.85579265858333	68.64284481940356	86.47932578565414	53.36025873331421	15.36195379085506	97.27292973946967	33.3621284882348	16.63071275879323	70.22096507897623	9.749492219150794	60.71931979960256	92.30946175615217	42.27338815418036	13.39816506029902	85.1172644993961	73.57227051603562	20.03197632728453	50.865591123428	75.40956617487785	89.89869816085796	56.13558883757344	-4.118128257682701	65.5483790302258	32.12705581633983	93.56197473902787	55.75111504951947	37.00326183817273	62.47549627349581	10.21263960120856	41.78280498669547	21.52549417058608	58.22629838383578	4.642088639054898	-2.178002161629959	67.84909897387088	21.73401959371092	35.90682979707733	0.7351297299131714	26.3985445286575	56.84300632198002	74.35479783237231	63.19975864661232	8.283336018977272	14.1767114325654	72.82978675528068	93.09605859760005	90.0053980103061	1.859074304245183	16.97863720842869	44.61864093466622	85.5777736673607	70.48234657871495	54.73742811499091	97.5240474372149	31.64391751171365	6.426582937139783	4.260651387174735	31.54502003493429	2.705434371632865	17.22085234731128	5.013057758860102	85.43687822747245	45.24482343402308	93.00488215339564	91.88549292823834	66.72240772898914	27.79347825002648	2.206527851291125	40.98132252680024	78.75082040160235	63.54091338152359	30.44207575318347	62.47250364669067	82.01514714818481	83.75528781298291	54.55366187522678	73.45831976615189	74.72046656368923	88.67700434538116	86.84562017912391	47.69546348650914	16.91220956976978	89.34460726626197	4.920435284092795	75.37198105945778	53.10530801331039	26.73067352487077	80.28228411854987	18.63806613575992	83.59086239032403	87.78205615562881	39.97748082522882	34.0383469007667	68.53294159882084	41.28390679142403	43.23800237396425	42.4139852949905	53.91709577085533	44.53407521401314
item36	50.0676907531491	31.13870238822422	70.48673248739993	87.40843384764855	53.99111260757904	13.95455476591023	99.33507580912021	37.80015580758305	12.61302049796819	67.50194197849324	5.510863881564028	62.99961761629486	92.38923001304885	43.99537294593314	14.21407858612981	80.89097806224123	75.95064920360527	20.0119534022014	54.83185190005465	73.35862594267863	86.20915030309145	50.88059599282049	-4.104874355162602	64.70909703190354	32.31902298630695	96.01161061141364	55.5385976530832	37.34662325686688	70.53477176835148	8.775387654050618	44.60146495305602	21.78797345416137	59.41972232900581	2.930429124617924	1.715910142162911	64.22577010200236	27.90373295721629	33.79036144373813	2.1639728919077	27.01189432749052	52.86691258556763	77.78302962367239	56.82486334548718	7.074389155868776	21.65852211149581	84.87680891524316	93.62916378957645	90.77658882320156	4.535907591202166	19.30866643321462	46.74721603978885	78.75913949871307	68.56834257843657	54.50161997016723	93.08806212189408	33.85144132023873	5.709151258665515	3.95359983062435	21.69764587641999	3.956874382405535	21.6090312136486	8.293712601994926	85.524590883852	40.65534303348289	90.00133348844675	98.08589776259203	65.73248072794956	30.56167966628431	10.94572922386012	38.77458957267121	80.76256731704197	64.06317986971503	31.06671600961278	66.32934830349296	85.23887365757685	77.3310505716765	52.79962637326548	71.4956913428811	79.72465216522255	89.82290650568595	92.01226172275295	48.67060301952376	16.43055796061329	90.3429584279977	-2.904654400980413	73.7726254038422	56.6922873631276	21.25222269114447	80.17917472719647	16.66794226979647	77.40139932394202	82.04585057985611	40.01871782774887	30.42968666420486	56.35401462382179	37.89592065148639	43.10888100834656	39.83536379805498	53.51087916553576	53.3525914628794
item37	48.5005791533675	27.52406984084094	69.94009958232169	89.96832193482204	54.18502825211033	14.24533643690702	99.85812180090221	29.35568436964438	12.96418045543056	73.34832597315015	1.300566108296712	66.82727089534896	93.95683884004413	45.39022339791841	12.75879934916283	86.34318405408224	74.55055874169074	20.07025316497158	57.57630763725969	74.61461322606844	89.76403809156689	49.54083148057654	4.524962723411521	64.35413084608813	31.24108623098392	93.93220761008861	55.84636828643762	40.75115175689022	65.70234413082227	9.332657797550761	43.53577393076287	22.67185157207626	59.91353125852345	3.049524543357456	7.708190780262782	65.55315207558692	21.12856920226121	40.4957191208184	4.593493644744542	27.16118316053573	53.44573498022677	80.07199484283662	57.92696260570867	-2.872795840632852	13.81081198165712	81.74594852065199	87.91145520162411	90.68875439701874	4.7145207850522	18.33463307912808	43.15294473582399	83.29961933570176	67.33795529748254	52.71372561500661	93.83319266629026	34.43567235349095	4.804285388926031	3.212412917211212	22.54996247718196	1.981791059040453	14.81261174345091	4.339009006053607	87.68388253507123	45.37215073461132	92.01596231572188	97.09132659772169	64.7618659507727	31.47656525977996	11.46490801471822	40.42197930585777	79.04103224369572	60.63755288070201	31.0160629607783	67.66192828153768	84.21457198958737	80.15393179678277	53.400416554744	70.82055594805067	79.52474900971059	82.7207705044743	88.32684455851931	50.39978671287106	16.85671509363434	89.04677675482561	4.657963127484197	69.27571616069675	52.54014671332769	27.82874362179457	80.42923440926748	15.20523911619875	77.97640430159677	77.92447579484568	46.03265252743802	34.46634798959099	57.7702071768011	39.06920052101646	39.63338054783448	41.37724783689161	57.37184368397003	42.84288361924071
item38	48.45218432654903	30.97257247931155	69.7594482769056	86.78421717982593	53.96725704293469	14.37103371904644	99.88019762466244	31.86002156197425	13.72137483128651	73.97745916172657	4.504336419278301	61.47081726068117	91.75392163812829	43.40015200741234	15.97990006941929	91.36584405911108	74.5612796074616	19.52163438069967	49.15103271858409	75.84319238715398	84.19563195242139	50.10701630046238	7.488747590471116	64.67355714555214	26.73909648802989	91.06002118103169	55.60260929671603	40.01904793132994	71.35290319744558	8.619996824452869	43.22748433215175	25.40436641477489	59.08999355323294	1.710618057819984	6.068052755907239	66.76203070834407	21.16485811229753	43.29783419636269	3.949758790860605	27.10097220596338	53.61975637792543	75.42189401754406	63.3500634972301	7.905007267102437	16.10584689143499	81.46984943843749	93.99968896399618	88.51294415893398	4.766599379325317	15.7928057457802	45.95790172988421	82.3093792283363	70.82013847435405	48.73676494108732	90.58490602288225	36.85489670358665	9.389119404821624	-1.662849007297684	26.35888572402277	3.91517907548501	16.21519767124962	4.495174793729774	82.47800922868342	46.1052993343471	87.75180402712621	97.94711165844684	72.92336694290729	28.92899865956437	9.099113104739766	41.30011508231207	82.70747163878002	63.78102662867277	30.6125882779857	65.38875486384499	82.35464463780193	80.68034310544785	53.44728662392821	71.6401971605457	73.46605358206799	84.35981913802088	91.54159849453879	50.51492217344332	20.28653439448884	89.45369312493187	-2.469558567916818	69.79855629809218	56.03031306568022	27.5659713194885	80.70054159201054	16.1324408804499	77.2641461961249	82.79993608716732	45.76561521070743	31.59532148923306	63.10202068111972	39.3903528276947	40.26581482173629	42.24957607164929	53.45933430819007	44.30353704676816
item39	47.36614392103202	30.09214052746167	69.92963337467042	85.74346934096556	52.15187905358643	13.4025439792333	94.66716807133933	31.8799497473474	12.2787864674153	69.43586712496456	4.75668275123585	57.17919844188378	91.01384240997787	41.38347055883571	14.6490985358861	84.34866186115056	74.9534993776152	20.08688099764729	56.04002329241826	75.78439203583179	84.23164503243088	49.28794694640187	-1.513725366277359	64.26440726541806	33.572986613018	94.74236568332719	54.88152521433086	31.44331285218233	67.53677682896642	11.86046920818554	47.40027686847622	24.96619371242142	59.81118553365052	2.498122906099316	0.212323207339788	61.87397141272219	23.11973737257491	40.29148875984173	4.37404751060779	27.56174018995732	54.18696261462952	81.29658285794677	63.69781590758252	4.729466091952665	14.34368377730854	78.85494677502287	91.69339125927064	90.21523089911084	3.912077301734464	9.874899443426713	44.28859159009483	90.3829977941694	65.18225893921402	57.27008895634972	88.93500226768255	35.14405401154362	6.390504104997969	-0.3106843742395649	23.79339487408726	3.315337828252866	18.04459123117013	7.75833070728181	80.90102072277759	43.60648218709947	91.28987133730686	96.10630571986769	61.39080079738122	28.01049170131348	10.07939866955077	38.00570412651836	80.0538173101228	64.30819989143265	28.66677501317754	63.4714528003425	85.8130863894833	73.72043618931505	50.12496746759419	72.48137246638622	74.22058563529147	88.67246608594945	90.16084664750588	48.25095516915889	16.37492793734938	90.86096083356125	6.656526971194284	72.38752956344349	54.28649900931335	27.15537988411269	79.87217651165928	14.73939374425558	74.03622906172434	82.59584321123315	41.74618821444675	33.5136464507884	56.76299122254945	37.44826561569049	39.18539633248859	43.89270676730195	53.66568478036364	39.5666163892284
item40	49.0017414154327	25.37231463842999	72.36933315207699	85.89071482825007	52.90159927132212	14.63476773949996	101.4888680307524	30.59513402631421	13.08994163509502	77.70121438343061	6.253444969825183	61.23575822140071	90.82512783169211	44.25075408441234	21.56914539051838	81.8757007660875	75.72186833316756	20.40979070272773	54.86558077527162	74.66609061037349	89.98951544327021	50.11133309135162	4.230915288451775	61.99272636349163	30.07624766158452	90.94369404247189	54.68650825641834	38.89443543005393	65.32545421479824	7.874395858026577	44.62152660466701	24.05748830707669	58.9967775099047	2.952050591710509	3.458239661949653	66.01122347481513	22.64579012004381	37.17009781392755	4.244907160940858	26.68179198341073	54.54902767561808	76.09949929491805	60.80323722761308	1.045198550406961	13.17722265812838	86.00969668482358	91.39696459333871	90.5273320179578	5.509904479546833	15.2741463110829	44.10862650539841	78.3232015215508	72.14884948160255	58.68912223570449	92.07155598471842	32.00646772255432	5.254924249789021	0.7002719825996624	31.41246499069187	3.562768569585013	14.53490646427775	5.74498447009079	80.54530554624418	46.78794268052525	92.82943800774704	95.77067384883237	76.64207811854611	31.07215518712842	7.864824981235194	38.88990797451128	73.03118180899736	61.18930815411846	30.46378686375908	63.18794977257689	81.44605517617222	77.21938002858829	53.44742193537034	71.22458520780171	71.59761893767426	87.75740666587912	95.60445522809133	51.30291214348448	19.54123861220672	89.67465500221866	4.590142391875327	70.31974896247425	56.92858915142417	22.03027392931668	80.18925314342717	11.78525622087801	69.66443337925705	81.96908022291623	43.75698137338663	31.63403153510547	67.11698518911659	38.14660684148696	38.22627016582779	42.16536544458957	47.20923393041993	47.05700800911325
item41	47.20709511956491	29.86668421309435	71.25648448394965	86.93402717647383	53.36481244546172	14.92815356681978	99.97529523860854	33.20122293037489	10.96662134450293	73.09588821598103	2.941448105441858	64.73123131365931	92.50209151607663	42.91347514531255	19.52100997201776	85.50345697001495	71.66589629767944	20.70329298127555	58.8864177290164	72.81569973387887	84.89751064710427	45.08052617667533	1.092262620218561	65.75794709485243	27.34028680440931	93.64603891520778	54.49771365339667	39.44211677552868	61.94511373993597	8.820854097712665	47.59554786201882	26.28574057163105	59.30535635343234	2.493026581544551	-0.7806487169666494	63.62863190826271	29.38934622341801	43.73430498941731	2.524115004789437	26.50389537153308	55.27384908918723	78.7866322038038	60.02454070180612	0.5360373479456593	6.84919765943941	82.7920365874425	91.62022982547691	91.29374338446827	8.370178453153004	14.37519098052871	47.59186514071747	83.12098406703964	71.21819744413057	50.0800995262604	93.16466994435719	32.006374559403	6.251709933484531	-3.863336881578721	24.29366273674141	3.182885985209737	13.87952259683588	-1.259222590843311	87.0879851179061	44.4035492767059	90.33655756445118	97.43962994126001	73.76874235989501	31.64638720279112	6.260166006955774	38.16586283864015	85.6288851542317	62.19884979493806	29.96445528323994	71.30151907102498	80.07186183222299	79.20097328463459	50.58174254322373	72.18460194711153	75.86344351814375	96.12812295843578	89.56779853193795	46.57850783720162	18.55430689210242	88.49158861480058	-1.431316508435849	75.96418133059011	56.84102565848353	22.5064261049028	80.47410717690575	11.04238249222905	81.09875974631211	84.80910775538035	41.72413307111153	38.4697893427381	65.0693357777736	36.40195418970963	41.8274992118838	42.91487927343001	53.28728022932681	45.79350343266832
item43	50.25264757334707	28.81240510880067	70.80921741823788	84.96511539047403	54.47355763678758	13.73078270212326	102.3964397281149	35.28044247584835	14.34815496545745	73.61759131520822	7.975888191309471	66.51646799524535	93.55329875544523	42.24630048281463	17.53467303970868	85.34984661373797	74.18336553211728	21.19279658510215	54.28088440265449	75.69147026919146	84.48526457913019	55.61630388847293	-3.613046015379881	65.19909555729672	27.40525765136799	95.26388798589747	55.58610906232979	35.53047490631	61.84463838968318	9.978683489021734	42.09562266895527	25.1456020704448	58.8859335481318	2.743747363989216	1.858099394356669	65.68707500386097	22.72167413150651	40.0694790595024	2.958702202705855	27.23826682618926	54.58577667031729	78.98813671868398	61.26078579225715	5.050801577508317	16.73884878145349	80.97208914914043	90.25258087171703	91.15250424638694	4.152333709825559	16.35347971605264	41.11920519861048	86.31076444586839	67.81954555887633	50.39273840355655	86.57068217789968	33.37567768951023	5.851098784227984	0.9737119172554651	23.28271001209002	1.850463883296026	15.04653657514644	-1.395931373891652	86.44683142517776	39.55827094603034	92.47084226187042	94.95580438594629	67.54382824500556	30.82298066440052	9.265399852097435	41.68866795461501	84.05116520212941	64.21206543199841	30.83856964780151	64.00252301772545	83.55782631607873	81.59253587628284	54.18391776596629	70.41332255286483	68.12594493118738	85.42328605734276	92.20967384665769	50.23179436166649	19.04033523363784	93.18959786873019	1.727265474359142	69.48585626135579	59.72655402910314	25.80834682024706	80.54668948263696	12.4049177382648	83.737556705717	82.55288370606988	40.96289949068167	36.14299415110981	66.87890492994805	36.2373352748303	42.07072913589009	41.88122605226425	54.02757381787545	44.68129418026447
item44	47.83861801613923	28.2927610986459	72.15388387814119	84.34935767697336	53.69010683054601	14.98092944502093	96.62551350246365	31.48380810055671	13.80916218005475	75.30821114122203	5.608301884149316	62.19352420981689	93.11410824100648	44.81784017707104	21.64860408267221	81.69113809853519	74.73026921837757	19.70978862874139	49.78285209916456	74.22325536237535	90.71137495931723	49.27472709346947	3.949334524108064	63.05456630138382	25.57020107173811	93.74049993862282	54.71248679757505	38.38637230278626	58.25810597865377	10.09853111774225	41.69091085891242	22.32921270817212	59.44091481967061	4.465721705183954	-0.1049846981726712	64.39828954945446	26.44600242447282	43.97214766824943	2.087655203878224	26.51544528847908	54.01598059012622	78.35328519307473	57.47204442462316	8.342553134093025	12.76359706646474	82.88147322111175	90.64916293353629	91.55054784469858	6.799285544634969	12.77184049157517	44.53750197712461	83.30747361980622	70.44897166485532	53.37614935946522	84.64381925260899	33.63107477179506	3.877319917753385	4.262534170370278	28.39317206691242	6.522867656754668	16.0337398727328	12.97346777295261	83.34008878791226	44.23103513942139	93.64498945511693	100.1849000762813	72.91986706392878	31.33883548932893	11.12753330981699	37.7193459197349	81.66676074673558	61.10623371851203	29.40353834357578	67.77365886377636	84.41805969235635	76.65612745717456	51.54822324493809	70.82850505657736	67.17524097455734	87.37551762519774	90.86062721336049	50.26890735557279	21.71608657788243	93.89427879601119	-1.46954968770454	75.14070632348792	56.72249881982572	25.12403753890621	80.87348675538556	17.25161635402423	83.72602438413752	74.30513016406027	41.42513334312387	33.99495534248553	63.35451087778048	38.90904017988512	37.75677078220953	42.33382830878082	49.87816820939091	46.43906182919099
item45	48.8891596584912	26.58061777121716	68.94805699337849	85.38585655325555	53.619029782402	15.46042494003066	99.57236632578092	31.13183080380791	13.88578944466025	71.48431499657627	0.9915354704618347	64.67270454939764	91.74140004089152	44.84288737624433	17.45164259727452	80.82775331097494	73.83818257300688	20.14497177215407	55.70247573747551	74.90555288645295	85.19049806019061	48.59976264586045	7.101238236719357	67.05624323342039	32.66610361962096	91.99791710189912	53.83172442230043	38.25108963482355	65.56028860268312	9.938887259478475	46.18224653114089	26.51125905829572	59.15202419151331	3.450829276751871	1.760016868637201	63.41771294987839	23.21059821841003	39.97835149260013	1.196049864655461	26.84220074365832	54.84470591623712	72.438162243072	57.60415441353838	4.911824602771568	14.00712132211896	86.95536048531621	92.47062587585123	91.80675903202871	4.152661891496628	11.84840686824152	49.9506306100111	82.91298417806831	70.45255376834011	51.24080138444742	90.86442583525482	37.81429313726188	7.882411476371727	-2.160051830094273	23.22801908330987	2.072345670452722	9.40554144837564	5.011968438297712	84.9249429187432	44.19565616474971	91.70398668069876	92.44745193044041	63.09747125622464	31.25883262649751	11.30385471740617	40.82221904971065	83.58469273219528	64.98373968766464	29.92744521407773	68.95869493562385	86.39307586053008	75.04340750510626	51.66128809232968	72.59579648917595	70.23153132542205	85.35382816716947	87.1524078193688	48.2976808040077	20.24624323933017	84.87582245959027	1.399985794588664	76.74283226811076	55.40175796719422	26.42088561397809	80.41030747455817	10.78998526646323	77.89287112177502	87.9107130855314	42.10569160125457	32.25584934400774	67.861806396953	38.00431682251298	43.93544255287822	40.69300932004237	49.43449232838839	48.31947415134545
item46	48.73600838805869	29.50041904267677	68.11538430417652	88.76331411029588	55.17704345572665	13.35656876794235	97.94888706048586	40.44003817813184	11.32204081074604	75.67928467757439	4.741262863343332	63.62844402800211	92.52432770162676	43.07977283298449	19.94111499944351	87.4948750524734	74.10266653282243	20.25615049052495	52.80517753515527	75.09495530891678	88.1681175934557	57.23036164877971	-1.051440679583502	68.35752296298234	30.66570425165326	92.15363511661525	53.13289530930153	35.48502506298188	65.86193207942651	8.374962036709007	45.94805081086419	26.54108064150633	59.17766602883638	3.728548030465763	2.671608705925834	62.83946195958655	27.76993373747902	46.9881258616604	1.538488487140689	26.78380335940203	55.57112412368804	76.30804856789948	57.81841160566997	8.169049121718224	10.80516267057842	81.29643546852478	92.16308507961533	90.44669506653811	6.148643571112622	14.16792681123741	48.12171970615313	82.12146915898781	70.32415098903672	52.07933166646998	90.42003308106656	39.37457389655734	4.344057860596429	-1.081431072920152	29.1461727437001	4.394479380888119	14.08304193447941	4.652178758630419	77.32027112208748	38.3764403900325	87.84100279125033	101.6748623777634	74.08659551261017	31.05835566004521	8.544869710051087	41.97628006328394	79.02759929891714	63.93825703503803	28.99386293191954	66.69918977856213	81.43089742469863	76.68122271397331	51.54031990542757	68.61369197091007	73.96392649807929	91.13564016487641	93.81029399004386	49.94916888936935	19.12159285027395	92.9914166490759	-3.615745937577642	77.26795285877778	59.69765764394184	24.7266545356369	80.39594070621885	17.80498841583833	68.50219421697429	85.94307559161264	36.09437110843584	33.02576916362498	63.53906860079494	40.14418879275434	42.45183501129988	42.33052707311643	52.5554483723058	45.56887216342267
item47	47.31117397026657	27.13022307106542	70.09842879744868	88.19774931681579	54.65078203834594	13.54138251019018	96.78741331338425	24.22617293445994	10.69249233224307	71.2525657473239	1.167384157066424	64.52462247323322	91.56753516281768	46.13804730827437	17.29049310088306	85.54700702600302	74.2677031280073	20.02750196313833	50.00429273732455	74.04553142580365	88.83564143790517	52.37914403871473	-2.514601227158276	65.66755236461559	31.33674628023331	93.82981738439365	54.00844714318185	35.18888892339662	70.66854365190893	10.54387173252186	44.66548645217381	28.3575015546773	59.36800266182401	2.364270834488212	2.303974138368685	65.65246101749869	26.58299042750701	41.22086403224927	4.084651957148709	27.35303136577137	53.31366943393925	73.62002441628859	56.79285082018351	9.942510615286693	19.25817780322289	83.86913040253826	90.31721408801197	89.73316082819665	1.876144203170147	10.79258259274055	43.77640868635727	79.86849328904522	69.44577051943666	54.3018578244552	90.08041344333371	34.22490429354942	5.837381254700933	-1.012396417565495	25.93123003455192	3.546186436179565	14.68494476906005	6.934621349724174	80.46344528673389	39.41656905204122	90.10452434338534	104.1425694044981	64.15778952831771	30.18136788628699	4.759298280526344	41.38933825206802	81.39974828890692	62.61658628005512	31.41277795173708	68.18752079444165	84.15097603049209	78.41606408669105	45.34396016156968	69.87095838687642	73.97012560843233	80.31980118959724	87.14253877680216	50.53340548278647	12.78922920041338	89.38907679862545	0.6561275907043467	74.87660263394704	60.11763394174164	22.65410969352494	80.73645751082834	19.3064917974296	74.58776449133775	80.40053079038819	41.45273406263133	29.67931265943906	62.5315550865012	37.3726047489445	42.64036542531439	39.55061791664323	52.75766653157012	50.81368034997478
item48	47.24428806301368	30.82858459411721	70.39761322859108	88.1901808888164	52.23414663450462	13.94395212428985	102.1916772464656	34.81705413697683	15.01050004570948	65.53230124470646	2.150401753010854	59.70329260016182	92.07116699291359	45.28912972384298	18.35698140325603	91.68031959423597	73.02192741779402	20.38692888533322	54.40281902536249	74.79912755542782	88.53341181467371	56.5488519959366	3.426679892593037	66.37877993918579	28.80001351372082	89.98216128262048	53.59827965066822	41.22006385844459	64.77661250356788	10.28516439301931	46.85623528121057	21.49386975994239	57.74188155205005	4.237746073797039	2.616176520872779	67.14233106504058	22.74492690690577	48.50618580269934	2.526901931997949	26.74469613537965	52.92942969803567	73.47019302749671	58.83833054748617	9.033275569857462	14.71101793663867	85.33893401881767	89.24132415998587	90.07827490273819	7.772411286444997	17.81121445068771	42.12415882975399	85.6249876299849	71.9663866775843	57.72730551954131	90.06254612728388	29.38009329125768	6.749680469597173	1.730310659992053	30.91969891660941	4.970668656126052	20.54521262702436	6.612784883678857	84.96620396680306	47.90732731350538	94.12460403374665	98.83044988850506	67.73064640867689	30.90579641650641	6.579171065107486	41.31653844624692	79.48213010462936	62.67747339944488	30.84752679369846	70.04257363071898	80.11297908037172	82.96766751050187	52.46000082211447	71.15927862179973	70.35919656626454	86.95932123323939	90.66905303604045	47.11501713783647	12.97697860124302	87.90571511931405	-1.384743588908684	70.94923541038024	53.19272575064264	25.21624141801302	80.55070846953591	14.21038983898367	73.73831159388403	84.90345751398998	49.07338977318383	33.93140631142419	66.68977508552256	37.74018007387529	43.12834957566869	43.03636746801256	56.39279977081146	41.97928608128436
item49	50.13615716139646	26.84331183227464	73.48987784438174	85.61864907638522	53.88143977938944	13.45623412761845	99.88954161443731	33.44973365974652	15.53461273177969	70.30387525594629	6.255890618278276	71.74400685172017	90.46784118983176	45.04032301000242	13.89610962979043	82.89256377291515	73.62771115619609	21.17051694122528	55.95031097371835	75.01860519753278	85.03639491412534	53.1776284879805	5.1822341351464	68.91309853654442	33.37550577037761	90.13662526733359	53.67747516892431	35.07344738620778	69.48024816636708	8.032440387462255	40.87336892328329	25.35952866102674	59.19897394934986	3.191277951891203	4.313213159375108	65.6336582959311	26.73333766688678	45.76738945656776	3.073770253175075	27.30041880107753	56.87802334113621	77.68943057455405	62.19891607868859	11.05035290599324	21.07834424694772	81.81136182214115	95.05899788530084	90.44290663007013	7.59783315332021	12.16034176372353	43.94020298186508	87.2974859027331	68.26396062320772	54.99552581588645	87.52507085430591	33.57869985035831	6.465566150746255	-1.461382615881132	25.0093552341942	3.003934154548281	19.67208043576516	-1.251209526232131	80.77104281208027	42.78524232286386	89.5500518307196	94.3890921371525	63.96982991939985	31.86441550574651	17.109603159678	39.2943668626185	84.84604045231983	61.66189258304138	27.28714827682706	67.78352319764944	82.07549767866716	75.82546993626234	54.34679315360716	71.62158592615209	71.41560762457938	86.59041744620812	89.90041167235891	49.32568836710165	23.8231490476333	90.63183331308457	-3.459710539192686	70.60618679879283	51.00734958908195	23.4611115107544	80.44934990318644	19.29619944637439	68.43583026586154	77.54011041193969	41.3794160150244	30.0913436717809	60.36113423449244	38.95397214517168	39.99401167778692	43.29986167170648	51.75646674379268	41.01930992767034
item50	49.64470676455137	29.03809230300066	70.37262730039185	88.33547595488901	53.87262186498131	14.7964924737002	98.42277851556997	30.26820079374767	11.55867160095189	70.17504377629837	4.68666237974604	61.5061885044583	91.6811921761572	45.54756573555935	18.21618791303277	79.85412076356506	74.60800325567664	19.80766238729697	54.37673469831164	74.74772690416738	86.63670945571612	57.62657920446637	2.627697681831117	62.18220606393928	32.24917663616692	93.73445462814769	55.26999436641074	40.21914148504188	62.40877276685089	12.76308059129191	40.60010169373184	20.51546913183956	58.06696206114331	0.6532974061484218	0.6687347270974158	64.27235546062904	24.22156063968799	39.46471518663508	0.6483420530965116	27.41197244187749	55.57705381737662	77.65504523034615	63.91251004048181	11.15902162390429	14.3767584808865	78.47701646763429	89.84985576084016	94.06730476109587	6.880903960316148	17.67016021974137	48.69973503148374	83.30091593092274	71.19368213654077	59.37093660507613	92.80915477115342	32.37454627803149	6.673567682716357	2.350750736272597	28.67884446603214	5.33716486997889	17.7218026689109	8.526087196330842	85.53028919508526	40.45857984064116	91.35317283457991	98.854199196092	67.39305526713986	30.72588342555703	15.52406319075577	40.02352989251951	85.87652042685139	66.58810775608832	32.210496106974	63.9904415166232	84.70851808386216	80.74461921269065	56.47882963860624	71.81493219305841	68.86220097457917	89.95977760633197	95.11498066106873	51.01648538641177	19.33263029878165	89.58421864401831	-0.7874690231559436	73.52327138477553	53.6454106614993	25.15225157642644	80.67350260116396	14.95327570995385	77.73467946539333	82.28696112061553	43.40284808921341	34.15390598765092	67.93169498063115	39.87525663154359	39.78305469768585	44.88769304163979	44.49848053909624	44.55435616739436
item51	28.24657780837447	85.45064225061603	10.77276651016181	74.05681757969577	78.16960646735775	9.014420047452916	48.94873195044023	94.75148169196312	62.15180018285705	14.36549993416112	81.09609123766168	73.42389488088754	15.56038353731503	46.31127125486857	24.87848603523785	45.89581718592038	22.86013989599334	37.79982887988972	94.69913920503845	88.84676984366114	74.65252649410041	70.53000284390538	6.445249143815241	5.001078487425072	42.89602203104592	60.28212309323369	82.7213729260689	75.54694539352826	23.80836018969202	95.15254002100231	37.32686481524148	40.52713063737228	51.94214116033972	88.93440779008847	47.25461353800922	22.78893609161853	96.19215301576904	24.73412017326227	10.78929059492129	37.494114449644	70.4409146688854	70.00659232630665	91.30831917919157	52.069127939579	44.98637861224272	33.54749740372552	75.19975147695034	23.07689517697372	43.28647623647328	22.24192858132755	98.21502517057513	70.77605842269435	24.59667409567733	44.33545758193028	75.76757331141421	30.4562255138661	38.21187503269761	53.28766138116085	46.79571260519935	99.39527119664909	23.23468481327545	10.29593583625056	25.26382811050231	88.89272824096354	91.73704776059479	86.66637354634156	71.78038697032231	43.25230568935803	78.37215449823746	95.5116709065676	29.24165491663006	36.42837769161216	9.842573900904355	46.80873475315261	51.32750025007827	20.11830261335154	22.61085486821594	85.31918898543671	53.39956798872546	76.7333036706999	75.5417825011606	90.69755159733377	72.68082934480576	63.14103942734602	18.05434434909219	5.584236357947731	16.67441254255539	51.13923667657286	69.50184592537897	52.88810885606112	44.70822276931427	25.68992065332	5.612188939920906	68.06951408721376	30.63093461781227	58.09779717952675	76.44798676931885	37.22831586915425	46.72192174718162	94.07593370423835
item52	25.85236351983829	78.39384314515628	15.64666248201883	71.76042938778893	78.5843918793628	7.741785712686093	44.2255273296396	90.18497413606754	60.96165588422782	18.04891831997896	81.92533052917769	72.15131741810968	14.4141408439986	44.42119603687188	26.99891528813603	45.40368796588478	26.80762595305854	32.48174238721286	91.50370142340451	88.30423311013377	73.29936428798628	68.20930559412849	5.775600238866349	5.955085088330579	42.69943587233661	57.66115963905631	79.10453069020805	75.64930348606694	22.50822716364129	97.80275179964342	31.94419447608136	43.82867686716445	53.73185921533837	80.93098667611152	47.15451318503077	27.77353503807564	97.1894372622906	15.33227312197034	11.169116563258	34.79911590608746	70.91562065234659	68.2885056050152	83.59303614976784	53.85869963229919	47.66986477293649	31.58819625591748	73.61819796923507	22.97752551670497	49.663420919828	15.16637169223774	94.10915106619284	67.25953743506565	25.76154397711113	39.9123552198319	75.76459191854551	33.97197433505844	43.30231864865532	44.83388009820936	50.15502460030993	100.3897288140517	24.67896875906832	7.091278730343221	28.83450864700093	89.80228401427436	91.32853156125289	89.33466248156446	69.96983396632376	36.41401607439884	74.90922854114346	91.34054756205197	23.70687938546625	27.98384043781297	-4.089149027327254	50.91380208775431	51.48965041409723	26.97505323659784	23.9587613138544	82.81313122302412	52.48102508402938	74.35803665928024	73.78723339324181	85.56516571453619	73.03548590409861	63.04524948393977	18.95977142942685	9.992375846718391	19.51349831060373	50.94924361042317	64.84109277345543	52.29462471024681	44.33605362335167	25.18019220000311	8.463618778620329	70.45271319113354	28.73083432316135	58.52801862475676	74.4531419498027	36.44083434560319	41.56357961712763	83.16898863009135
item53	25.12882791941881	88.45521350112266	15.81169935567272	69.93991630287701	80.30957942188209	6.781267617090428	47.76521970070265	94.69735458855675	58.64909803231338	16.63097086264619	82.15519372664566	72.26448245370104	20.35012535807777	45.32096522690949	28.66918917669458	46.24290066512993	19.15321815427387	33.81804864463948	92.57084334934225	88.22514326296074	73.75637122915106	69.10544396101795	3.827328645267415	5.477361758307564	41.70801305550589	59.26422684352042	80.83143447798506	75.332395584463	23.20216028222546	95.01023053571609	38.47132930224769	48.66669584102996	52.29379124015436	89.88244075372114	52.52100188331346	25.21566329432614	98.407440309436	22.08896054890168	12.65168008914137	35.00241550711952	65.83304261528717	71.01517810054743	84.29047797898095	54.97138267214569	47.66625749886233	27.562046395577	81.93875390057283	20.60109766060527	43.43797891357056	27.21280177263878	96.58641145693251	63.85904499987076	27.00736914954794	35.44000327831095	75.87554679572483	28.95811432851066	38.2182689802776	45.90502526168364	49.18325300006394	95.60139431508944	20.61593439018258	7.465905925232072	27.75503664396972	91.9066404738273	91.34480367030673	91.34030654813661	71.85604069145865	42.04848427586926	78.9015214116863	89.83260567653163	26.97001682868591	30.22336277120034	-2.608174359162581	40.76784815669248	51.24933417117042	24.22597106765761	28.91111076574466	84.43476414078842	52.54115043267181	73.04721367425435	76.92258680209233	89.9566016266397	73.17616672328663	68.3912516252349	15.38278052136158	6.47504633525975	19.77814715463175	50.99853979501258	63.86302145012143	50.83395251968408	45.07153952051969	24.92531666853822	6.22459618991633	72.62373584891047	29.88938268292032	61.74903811170277	84.45840968064077	37.01532281432264	46.36647519133608	92.33880339882153
item54	25.85546667336208	85.0306861147922	13.21911171014339	67.62844578026358	77.33876596468478	6.635379829727204	45.63902165922881	89.55832207230794	61.88545206870749	12.55946377906169	82.01650150434716	71.20227001992147	19.7492714869685	41.55177575464305	22.09781352560685	44.92970347922233	21.6585388233603	34.64423555769682	92.04175660839154	88.49504272687693	75.42505206065867	72.64695275482092	6.298102432827152	6.82881339120057	42.93993425941981	60.10546692711926	81.02471364946263	81.90130283984985	23.58830935351825	100.0971768033458	39.08347723986575	43.04416309227086	54.84377421310394	85.58725226976652	48.10166788258604	25.03029983588433	96.19349874245574	29.80715081106425	13.41879017577611	36.49437578162735	63.73557568311751	70.7566865039185	87.11110198188132	49.13777999540438	46.78597095859665	29.59950914594202	75.11356951344646	19.45197369720897	45.56408696717877	15.57804510577824	100.2353331094247	68.58220885342116	23.64186881211062	41.82469302910273	73.70100012080356	24.08277677423138	41.19805183578787	55.88461127525721	44.9908621022395	94.94016381502163	27.23854986305753	5.294571710862396	23.06060337266875	89.32977056610223	91.28427342640759	90.46692974829304	72.070475264788	42.30187588891302	77.9625565433733	86.80071715091589	28.23561959136202	26.37212565126256	11.04831085290441	49.80757543567188	51.83022336174184	28.81700587545764	30.96253160943253	79.28665538285632	51.51039850848434	72.65454833842429	75.75030772398914	86.87482201383045	79.56305804029493	64.87449706247229	19.58934011940032	8.821720646801113	16.67115069095926	52.33253020256216	68.55987911441557	51.46948306422607	42.28108478561198	26.66810242028254	6.280579557337461	71.7250358995219	30.7743436711356	58.72511138487147	84.30959396958703	38.21526999414798	44.12274408094202	88.81669436093405
item55	22.78675437335072	88.27784819171517	10.83206010797799	66.02757060205725	75.97783083776764	7.336013933613381	41.79295669162995	95.82556750373567	63.07754416299771	18.93617910632229	82.99880754018547	71.47086818395569	24.36150573899862	49.02926429404262	23.04241449033379	44.9714689856308	24.17144097912376	33.87232429384352	92.74191679242334	88.47169527051089	73.84873212117216	71.19121718538243	6.337850506391075	7.707276251230288	41.94618328493009	66.4563321556039	79.90660468114685	81.30944004006049	13.99984249194855	96.3298841438849	41.07626268470397	44.45206712338616	57.28788266979631	95.86456974071098	47.23145256252857	28.08285077477872	93.01447837097227	19.20355988322106	13.75559502482692	35.90959202695878	66.85804342284152	66.66294410990331	86.01208479899897	54.37297811139893	47.08054965618811	32.79034374304504	75.79584373856851	20.63037584610996	47.96660204925275	23.34217062421848	96.05872055835205	67.29887075057442	24.066737783071	42.12199439368459	75.73147440453248	31.58197052586083	38.45826296614558	46.23852030507385	50.61559602401001	97.98551886470453	23.78678833346364	10.26013247474998	28.34201266278271	90.99753762253951	91.38434686045272	86.82324003979207	70.33030032998596	35.81062395664969	75.82848340690377	91.37947134908444	27.03994354121323	29.40262833765147	1.051882884678363	44.98745582968036	52.13636047848878	24.50078318715063	34.33025896425481	86.85781179400746	54.89147339797854	73.61010202074654	77.61944234159775	80.84633552367707	74.1873910496661	66.22757424700424	19.20760738722948	10.36044119363976	15.68582661250391	51.34250383402002	65.11886395626185	53.24703042652044	41.45847385456243	25.68475897548576	7.180319752937571	71.07533503834435	29.21150288163679	64.37052756384068	79.63388051960074	36.16229059648505	44.55447013857911	87.44912442149212
item56	21.07627427248439	93.94914308761157	13.09190550812562	69.10547658731322	77.68943897196114	8.578964759992981	44.63638012115523	90.86204773502585	59.78427367528381	17.80451526564139	85.88533241185102	71.81070657399533	23.24327890435359	46.03176373507431	27.20124983754629	46.75979579708333	20.94983870936217	32.5728077545289	96.75867448584403	88.112935852942	75.72740989946369	70.41165155327202	4.857417956635746	6.809165245698191	42.41146104226412	54.49435021447602	78.87127897192813	84.78415887108619	22.13208295712407	95.63877593982282	39.48313458385852	48.99367452998492	50.54076573825686	86.60854244538733	54.373246256123	25.67879681503318	97.62082616988684	22.34907057232969	9.512887732430634	35.48325126491741	66.79504242335817	67.85966247690001	86.14804586565279	52.42268504252754	45.91895499989468	31.34157436433301	71.27991484465731	22.68202540409095	51.27350772011486	20.17718668000074	99.73137180315317	66.19590283922972	24.61621147916648	41.30108003258017	85.71132466131951	32.48082455436544	39.8673377725872	50.97985746504175	47.61108283884364	92.75587102019927	27.43894189578199	12.78058941044368	25.56601692286785	91.82345498939486	93.65613076339663	98.15094946597588	71.23689026164114	38.87507346494942	74.08638853044114	86.91090092570828	23.35922673758901	31.4472054259493	3.137630920217791	42.17302105285765	51.91594090523932	24.32912405238743	25.59990130543216	83.56936640375984	51.25418290154276	77.71938966334113	79.06292559476665	88.02831227782062	71.71822067417156	63.29719844396494	18.22326975702045	5.024165207711742	20.93309004124543	55.7380687144304	66.64002830677821	52.39861010245912	42.99592533621382	27.54320914706991	4.010740801178209	73.55409642899809	29.40266865354005	62.25598903733193	81.68856407810863	37.56015012362479	52.1064575466635	92.78841373693345
item57	22.66275557112051	79.8051353524146	16.62777853389703	69.56604680493956	77.71428814256649	7.09369897580078	38.2060161507686	95.6650237839214	63.09363840922686	10.39373875481292	82.76178376283947	71.39960834617897	15.30373653917854	45.44671684951138	28.0037593329327	48.37106984827001	19.75408130588859	32.71891163587543	90.56449488238303	89.55041373317107	73.2957291300976	69.886350993793	5.705558853496814	5.641578205037702	42.11458900009603	56.94018289685665	80.08677451033657	78.01569544937827	16.31604827483682	96.81994043834379	32.84575379024594	42.62984580367907	52.13903844853308	87.35173643507109	42.7254180909769	28.99393294050429	90.55426195683309	24.08270365948677	7.951932271704533	37.31421730140623	73.32109171859453	70.45163743368879	87.9099030501915	55.51878181480061	47.29074685725745	35.44889102694892	71.55355082451311	18.76430189830826	46.77341608460591	20.78578902558287	97.76804327172231	66.67849243296237	24.47259857861804	38.91215906107356	80.72198402683659	26.47473276346646	40.70600613648985	50.37213259280881	46.88777956884576	92.52165906841734	29.71104824191035	10.62517927060369	27.06848127176398	91.53556165403945	89.02585998935425	86.16644485939429	72.61407594303223	36.11549316062891	77.72732283799267	88.87327139408646	27.89488170606178	28.94437256381484	5.888032970148229	41.72770738804651	52.10644049605556	20.69537144800423	27.89379990209443	79.38630754268429	56.26924908696767	72.39970571872946	76.49800961986095	85.31339213157489	77.42553594786125	63.05625116902903	18.92495928014976	6.263643863571142	14.60744545056963	53.39065006492908	66.65398067113021	52.58077447879246	43.7386761168413	26.01316163925433	5.966141480782908	69.95546108451305	29.31514516162835	62.36642166937178	84.17045539539008	37.21202424423282	47.83354655427043	84.94897278577076
item59	24.45059259059659	83.11024260128355	11.8642440864887	68.19557651609519	81.1180001428296	7.161286813374188	42.73707235726427	93.01649682727006	62.81427480991751	15.8518991198146	75.41845378291018	71.15838058441128	21.73469590569055	44.87828001803634	27.93559355050899	45.88256113637438	20.97181718111484	33.90698264610756	95.20320335036642	89.43579874462809	76.01546230416331	68.18687827183955	5.40291938515108	7.426955682480447	42.92695663127659	59.90062908875176	81.10751812162088	78.82630515278827	21.70802579974389	95.52827062524328	42.71869570255408	46.51240282181252	53.40110513078773	89.56121477082306	48.53270909238196	25.86292235848292	102.0064988809394	17.96280087700278	4.98210584237832	36.2791406443458	64.84992067523497	73.10457017379626	89.6618251243347	50.9187705331943	48.71228629797569	30.77881903856311	80.5584557915497	21.59630873251681	43.60970926879963	20.50824162415561	97.77120888374607	65.65833564001092	24.80348293831215	35.9367054450224	74.39411346615157	29.12776307005212	39.91307142628563	47.50609248440426	45.36151643123939	101.1231038364076	32.36136766701289	7.005627995631036	26.5440105261335	89.71654038627224	91.3219214483252	90.59451657843212	68.44443575146177	38.51513218722377	75.29943388204165	83.84666645587916	24.52207603525694	28.71508847717516	3.653736502782003	44.98729231371615	51.99862343046141	22.45261141601598	26.77285135724984	85.64487015225265	48.41477548481381	75.01566157703223	75.94469643693289	94.42477747321693	70.09507536055636	63.86134647251423	19.44676620255337	2.364801933544567	22.63546645181441	49.31619496697089	67.50709267662209	52.74396856027182	43.7901712244139	25.43692477883972	6.454351108900208	71.76826513281539	30.32491542276393	61.76202199555703	77.08147147248206	36.81930060156861	45.69698726644258	88.79498649410311
item62	22.84167530992709	85.69447577225974	16.99535853328947	76.72355432634953	78.95399868768602	8.64801727077587	43.3348726506014	94.07237874952116	64.96682793531517	8.180225523896475	84.60142507183765	73.98314285098952	19.96090778933608	45.51394115857773	29.35570344551133	46.12125615600944	25.57901869419711	39.81220033870792	97.71460626194474	88.6876399225221	77.64565912694675	68.62560471361411	6.345391431487239	8.507563350813808	42.29044219307612	55.7483911812332	80.79238232483232	77.45974246010817	18.56172937131206	96.28019386304746	41.63111867708935	46.01292994054992	53.50216060058772	84.60415685637309	51.16533709467229	26.14376006718192	97.1448660010477	19.93917851106776	5.715544646897631	34.77803831290342	64.70389054090934	74.68001130997834	88.64212587367888	54.39729676733479	52.24629418853785	35.37776538242959	72.45932481112131	29.31880396525159	46.7487801438825	19.13978467618791	98.68145090190409	70.39977418136357	26.4385437862755	38.20482444486868	74.94514838355859	21.79585616683125	39.79621200943213	47.61238194223677	48.32840429219125	97.87874520111639	29.50367043324779	11.88030556570431	28.46918463036412	93.18491752788191	93.36556256041568	86.19347942517756	69.63523601428633	39.25433211304163	75.66941367835081	91.99708445639351	26.8754682532384	29.15325617185148	8.816925944804067	44.58828085466367	52.32867941426242	23.69996267040987	30.56733582971764	82.35001356111327	52.42968187854914	72.16601458951118	79.48961678180852	92.17730208471716	74.25785834085129	67.71015045522917	18.26447830281176	8.790485279944138	18.73265049035712	47.38766540966326	65.03910194706104	51.38428653046194	43.6206520001387	24.99732962823676	5.979073104389364	72.70488598858626	30.02801135890799	62.23686099264121	84.85046052548149	38.67282265361002	46.73665294877539	88.72897455878089
item63	23.24917346003201	82.31523179385637	2.091656471897894	65.38272503636098	77.55343417770209	7.710031840325736	42.01937871385864	96.0094831758898	61.50928739407314	16.17840546415211	84.72794568118304	71.36337738264906	20.60298847116812	46.93927292756744	23.98111731157709	47.72521846434446	18.47149032642	37.34475882733761	101.2354397552094	88.15124520834726	72.94003530537839	69.86417109979321	5.47620989110614	7.343322802307873	42.47664464797713	51.67675966629054	81.11596257485058	75.67763224562681	12.37147143793535	97.62710653281469	35.60795047078405	39.5660708102138	56.61448907647847	91.31466878555349	51.06942244378563	21.6993779133171	100.3277764012642	18.63765108209935	10.89841726596827	36.54455861912038	70.07060788660738	71.76998850717273	91.66671732016579	56.29482590644658	47.47753421219108	32.2314607061605	70.02592271555496	22.93982681096172	45.80063963751444	15.66001035462144	98.6208147640757	66.33241003878349	25.53218124590239	35.27926865228539	81.88388797149551	22.32595515944287	43.04249410822443	45.73002418785504	47.20799263450344	93.03627484471512	24.20382371788396	9.498961536359786	23.95880143711771	92.14715923728278	88.90807521260061	89.99782162369732	69.0348881403791	38.80957649110675	75.86763290502164	92.16459925332582	26.84528650231806	28.16664144125814	5.674855357342718	48.22771816777283	51.78844240955063	26.97087398786202	27.38345250077516	79.53592471331655	58.51742249577225	76.59410715554345	76.93210499030462	83.85585733953069	71.46319236047788	66.40405047695972	16.34166801555591	8.456355205419744	16.62871468635938	47.77955804216628	67.74309851664344	53.46561540708064	45.13469764266519	19.48055311967137	-2.589339286997044	71.10307301164055	28.94652046222312	66.64731865620003	84.19009439311711	39.03335704378871	47.98050995679817	92.44784289224535
